20 1000
革命 0.000266552 0.00024407385 0.00032480183 -0.000295393 -0.0003107345 0.000481177 -0.00013033955 0.00044353693 -0.00019136145 -0.00022932838 3.0228599e-05 -0.00024637248 0.00019702915 0.00032776094 0.000456616 0.000120330085 9.211036e-05 -0.00036477004 0.00045530839 0.00025091198 -0.00018492548 -0.00013592193 0.00020736916 2.8504626e-05 0.00021361231 6.071537e-05 -3.4632125e-05 -0.00033855156 0.00049075816 -0.00045674667 -4.3364675e-05 -0.000496474 -0.00021046812 -0.00029316446 0.0002736007 0.00035653546 -5.971416e-05 0.0002658703 6.861661e-05 -0.00020522172 0.00026121916 0.0004951301 6.1005136e-05 -0.00045528507 0.0004632347 0.0004970114 0.0003546892 0.0002145225 0.00031517269 0.00046492455 -9.815554e-05 0.00040198414 -0.00038477263 -7.293513e-05 0.00045739594 0.00032328552 -8.535163e-05 0.00028862795 -0.0001532485 -0.00019766466 -0.00035617966 -0.00030480715 -0.00044769433 -0.00016706732 -5.287815e-05 -0.000117651776 5.606036e-05 0.00042244667 -0.00035777417 0.00015766977 0.00034376615 0.0002589311 -0.0003078908 -0.00045799188 -0.00016839724 0.00012585262 -3.7206235e-05 -0.0002650992 -6.7819885e-05 0.0001993138 -0.00039518852 -0.0004936744 0.0001844041 0.00043063023 -0.00045411507 -0.00045112253 0.00025878902 -0.00040055858 -0.00039814052 0.0003122605 -0.00021142345 0.00042767564 -0.00030049478 0.00024912963 -6.1269224e-05 -0.00046891783 -0.00023097942 -0.00014336382 0.0004788011 -0.0003917254 6.466043e-05 -6.15393e-05 0.00020645741 0.0003987864 -0.00013562955 -0.00030884697 0.0003595242 -9.7634846e-05 0.00014513006 0.00040824572 0.00043386105 0.00020472777 -0.00032784292 0.00017747174 0.00045068766 0.00021568315 5.37607e-06 -0.0004454792 0.00029623814 0.00043672312 -0.00036783487 0.00034461144 -9.060029e-06 -0.00017766807 -0.000259103 0.00032984215 -0.00021443413 0.00012035281 -0.00030771954 -0.0002667164 -0.00018898194 9.14259e-06 7.504668e-05 0.00036765353 -0.00039807672 4.315322e-05 5.6978242e-05 -0.00017490609 -7.689967e-06 0.0003541258 -0.0002101529 4.1381405e-05 -1.11855325e-05 0.00025977212 -5.370519e-05 -0.00011779312 0.00022546026 0.00047138848 0.00022403087 -0.00026633838 0.000383634 -0.00048067007 0.00037099156 -0.00037233197 -4.121778e-06 8.65816e-05 0.000100881734 0.0001971195 -0.00013127738 -0.0003476144 0.0003036426 0.0003553167 0.00010499162 0.00022730841 -0.0001820041 0.00026950284 0.0004086844 -0.00015074988 -0.00041603914 -0.0001295983 0.00025817193 5.6680445e-05 -0.00024758384 0.00014145815 -0.0002539504 0.00047777026 -0.00027174246 -0.000309004 -0.00015536623 -0.0004658734 0.0002342901 0.0002533472 2.7319122e-05 -0.00036210017 0.00017317614 -0.0004258472 0.00043872598 0.000162342 -0.00024643537 0.00020223182 -0.00026523406 0.00038976013 -0.00026253535 0.0002110547 0.00046982165 0.00022761468 -0.00032429097 -0.00039901517 0.00044326505 -0.00040974125 -0.00030922226 -0.00030827324 0.00021376803 -2.7067832e-05 -7.917043e-05 0.00046639884 -7.5778764e-05 -0.00026217126 -0.00017787582 -0.00028248449 -0.000101382044 -0.00048445974 0.0004942444 -0.00016987156 0.0002226768 0.00021644295 0.00023327615 8.2188264e-05 0.0002665007 0.00030686657 0.0004664519 0.00040658395 0.0004499141 0.00035178073 0.00025301916 -3.4537115e-05 0.00026761426 0.00028231292 -4.4433484e-05 -0.00013370099 0.0003502277 -0.00020002003 -0.000374108 -0.00039240238 -0.0001830758 0.00045152416 -1.8612607e-05 -6.6577966e-05 9.660465e-05 0.00041491748 0.00011151729 -0.00037458082 -0.0001468525 -0.00015757764 7.0788854e-05 0.0001435332 0.0003385188 -0.0002033549 0.00048095256 -0.00046211793 -0.00034956698 -0.00044231035 0.0004760836 -9.898678e-06 -0.00047672464 -0.00014119605 0.0004752958 -0.00037385768 -0.00022939095 6.163532e-05 0.00025859475 -0.00029466275 7.80645e-05 -6.7874294e-05 -0.00047614376 -0.00034215633 0.00026221378 0.00021548418 -0.0001035905 0.00019640228 -0.00013684054 0.00011335799 -0.00016165918 -4.025446e-05 0.0002516284 -0.0001027392 -0.00030089557 6.414078e-05 9.0150585e-05 0.00034170022 0.00019700166 -0.00013128306 -0.0002274758 -0.0001409882 0.00019810391 0.00010061418 -0.00025086582 0.00039581434 -0.00036767535 0.00042503563 0.00046181175 0.00019122376 0.00028232764 -0.00033790013 5.5196404e-05 -0.00020334378 9.321066e-05 -0.00049956597 0.00018323188 -0.00011700512 7.23086e-05 2.496788e-05 -0.00034547327 -0.0004424328 0.00031133962 -0.00021828155 -6.8581444e-06 0.0001286603 -2.8900726e-05 -7.7967874e-05 -0.00045848172 9.72732e-05 -1.4351728e-05 0.0004263055 8.828766e-05 -0.00040377176 0.00021304151 -0.00017688953 -0.00035827316 -0.0004433908 0.00038816835 -0.0003736112 0.0003359669 2.4605042e-05 0.00040244905 -0.00010183759 -5.7410234e-05 -0.00039332165 0.00024982446 0.00038102324 7.4433365e-07 -0.00045555757 -0.0002636773 -0.00016499058 0.00041002565 0.00046515904 -0.00034778818 -0.000463353 0.00038202637 3.0944866e-05 7.3734336e-05 -0.0003145915 -0.000114754315 0.00039603293 0.00012367495 0.00047686682 -0.00047091066 0.000211168 0.0004991505 -0.00021656044 -0.00019005049 0.00025889056 -0.0003118589 0.0003563926 0.00026993768 0.0004353441 0.00029485114 -0.0003281253 -0.00026969865 -0.0004586905 -0.00022919869 0.00018886643 -0.00046857513 0.00012862704 -4.8336595e-05 5.4654854e-05 -9.132897e-05 0.00033291307 -0.00041003668 -0.00048922445 0.0002162214 -0.00012471309 0.00031187662 -0.00013792046 0.0003651458 -0.0002224658 -4.7287853e-05 -0.00049783767 0.00030599604 -0.00036087853 0.000119410695 0.00036035528 -0.00024043245 6.423041e-05 -1.3431678e-07 -0.00017659277 0.0002928694 -0.0001675839 -0.00027804938 0.00042682522 0.00011317149 0.00015015311 0.00033493704 -0.00040361064 0.00026691135 0.00017318575 -3.0086005e-05 -0.00019852299 3.633189e-05 0.0003729874 -0.00036151748 0.0003296203 0.00033345973 -1.2634368e-06 0.00039681504 -1.45948225e-05 0.00048190975 -0.000497433 -0.0003270088 -0.00034264266 0.00039544093 -0.0002341459 0.00047164556 -0.00010720019 -7.322091e-05 -8.815424e-05 0.00042595112 7.1587776e-05 0.00031101186 -0.0003130189 -8.2988015e-05 -0.0004537172 -0.00047871153 0.00018231905 -0.00032460445 0.0004033721 7.3405376e-05 -0.00027135835 -0.00015846567 0.00029079197 0.00025154473 -0.00025993615 -0.00013221148 -0.00026638614 0.00042198558 0.00032862308 0.0001775627 -0.00012397047 -0.0004894038 -4.3201402e-05 0.0004721001 4.9188402e-05 5.868371e-05 -0.00015434921 -0.00014555888 7.8742785e-05 -0.00029425728 6.276871e-05 -0.00013536982 -0.00044063854 0.0004937683 0.00024752755 -0.00031714942 -0.00016050151 2.6220127e-05 -0.00032970298 3.438633e-05 -1.1373958e-05 0.000101719044 0.00021389866 6.127719e-05 -0.00038199738 -0.00018592288 0.00026807722 -0.00016292196 0.0003506697 -0.00030835933 -0.00039912507 -0.000106599146 -0.00016058389 0.00020220308 0.00022691068 0.00026585895 0.0003511117 7.390456e-05 0.0002918129 -4.8795402e-05 -0.00026959236 -0.00046309474 -6.3955384e-05 8.6450935e-05 2.0676514e-05 0.00047051185 -9.8970144e-05 -0.00045216028 0.00018599561 0.00031857757 -2.0691212e-05 -0.00039448118 0.0001986033 -0.0003726172 -0.00017520992 -0.00044086154 0.000121641686 0.0004428411 -0.00040670548 0.00034580345 0.00036560235 -0.00040532812 -0.0002008925 0.00039996594 -8.5858395e-05 -0.00033879487 -0.00047881558 -0.00046356203 -0.00048286028 -0.00019972847 -0.0003498993 0.00043217436 -0.0004212705 0.00036500482 -0.00041829885 -0.0003030279 0.0002911823 0.00037146985 0.00020964355 6.416126e-05 0.00031983457 0.00026283224 0.0003479843 0.00027771867 -0.0002965713 0.00023619948 -0.00041818552 0.00030173676 0.00037343483 0.0001728928 7.5271426e-05 0.0001818737 -0.00023166691 0.00046721878 -0.00042393786 -3.918515e-05 -0.0003202349 0.00042363498 -0.0004913829 -8.0958765e-05 0.0003255041 -0.00020680336 -0.00046841495 -0.0003656137 -0.00027933338 -0.00029217877 -0.00015663849 0.00032318293 0.00023669889 9.61236e-05 6.937954e-05 -0.0001704813 7.592002e-05 0.00015458131 -0.00015390219 0.00037519535 0.0002607019 0.00034832352 -0.00025385106 0.00012494692 -0.0004826817 -6.769398e-05 0.00043296762 0.00038151917 -0.00019703148 0.00034527623 -0.00036204932 -0.00041889455 -0.00040188988 -8.809721e-05 0.00028488907 -0.0003071053 -0.00013773024 -3.896741e-05 0.00028424573 -0.00036771194 -0.0004297295 -2.2440858e-05 -0.00045992757 0.00010202923 0.00044457687 -0.00038401707 3.6209196e-05 -0.00019047581 -2.358825e-05 -0.00022935121 8.690588e-05 9.838067e-05 0.0004433149 -5.2877273e-05 0.00021854187 0.00038830613 0.0002300097 0.00013558092 -0.00048950425 0.00015437986 0.00032273174 0.00014848712 -0.00045439447 -0.0004604237 -0.0004501492 3.0438978e-05 -0.00013806093 0.00024170819 -9.49078e-05 -0.00030103757 0.00025338514 0.00012915963 0.0002665172 1.4837449e-05 0.000364817 0.00037406042 0.00011944143 0.00026329458 5.8142894e-05 -0.00030269567 -6.5476546e-05 6.367099e-05 -0.00032676826 3.1595686e-05 0.0004129023 0.0004199512 -0.00038877333 0.00010087674 0.0004794667 4.6390327e-05 -0.0004888887 1.3752999e-05 0.00033530977 0.0003081107 0.00044401677 -0.00019428888 0.00038274046 0.00030505192 0.00038456038 -0.0004819691 0.00019930465 0.0003691012 0.00036997467 4.696511e-05 -4.0437815e-05 -0.0001662713 0.00021387817 -0.00044711243 -0.00012091168 0.00026457538 -0.00040828742 7.6545766e-05 -0.00023168181 0.0003818597 -0.00016395804 -0.00020174104 0.00018811539 -8.396278e-06 0.0003080001 0.00014463483 0.00015626084 5.78257e-05 0.00041298705 -0.00025465834 -2.2049167e-05 0.00044685826 -0.00019548231 -0.00042684833 -0.000452481 -0.00011456319 0.00031656938 0.00030082927 -8.089974e-05 0.00021765362 0.00020155638 -0.00021415448 0.00042258934 -0.0003929689 -0.00035624777 -0.00016175416 -0.000394988 -0.0002558796 0.00031496046 0.00020161275 -0.0003945502 0.00038249718 -0.00019973634 0.00026191334 0.00017091614 3.5180062e-06 -9.943468e-05 0.00043994118 9.171559e-05 0.0002850735 0.00014998975 1.2038544e-05 0.00025893826 -0.00027471845 0.00035082153 0.00010478137 0.0002924456 8.385071e-06 0.0001915337 -0.00045716664 -0.00045508388 -0.0004976565 -7.79186e-05 -0.00039363708 0.00033542168 -0.00014987124 -0.0003864355 0.00028853194 4.897992e-05 -0.00024995208 -0.0002500675 -0.0001000599 0.00015380957 -0.00049102004 -2.1291355e-06 -0.000489208 0.00043734882 0.00024717403 0.00021799504 0.00031313364 -0.00045412706 -4.4423996e-05 0.00025285184 -1.3916598e-05 -0.00022312115 -0.00012507937 0.00026405996 -0.00041808683 0.00028194967 0.00043329646 -0.00017179335 0.000401471 -0.00018974526 7.944759e-05 0.0003067836 -9.1149384e-05 -0.00015416421 -0.00030029932 0.00015813782 -0.00031069218 -1.4482529e-06 -0.0004323067 0.00043956723 -0.00044623867 -0.0004335194 -0.0003323665 0.00038668048 0.0002815152 0.00037773084 0.00041577965 0.00022261892 0.00025482898 -0.00024160332 0.00048587722 -0.00033341718 -0.0004967526 -0.00041803913 0.0001088319 -0.00010859748 0.00033238513 -2.5680905e-05 0.0004351335 9.928606e-05 0.0004897948 -9.0652524e-05 0.00030771963 0.00020976526 0.00045045873 -0.00019825275 -0.0003145806 -0.00024718905 -0.00018425607 -2.207593e-05 0.00021482902 -0.00041259173 -0.0001527524 -0.0002823698 -5.6521956e-05 0.00038504714 0.0003688661 0.00017169736 -0.00011945966 -0.00033065456 0.0001992588 0.00036919786 0.00039406316 0.00018553395 -0.00020718093 0.00022221808 0.00037678969 -0.00014697586 -0.000115332245 -0.00024536432 -0.00031471762 0.00021556854 -0.00040656238 0.00034456607 0.00044752163 0.00022790521 -0.00041573678 1.31608385e-05 -2.0997899e-05 -0.0004497645 -0.0003393871 0.0002906853 -0.00023291721 -0.00012179303 -0.00042126467 7.72042e-05 4.0776496e-05 -0.00024180778 0.00011707312 -0.0003276147 0.00014172595 0.00021613101 -0.00037099555 0.00032098655 0.0002760773 -0.0004913607 0.00039281964 0.0002981256 0.00016721779 0.0002644077 0.00033297075 0.00035069513 -0.00034482387 0.00049008767 -0.00032241817 -0.0001892577 -0.00031178995 0.0004391803 0.00023580222 -0.00042989198 0.0002323237 0.0001865608 0.00019798565 0.00047461328 -0.00044470458 -0.0004409569 0.00029079383 0.00024611762 0.00015501937 -0.00034308297 0.00014313556 0.0002918623 8.270213e-05 -0.00048298918 0.00028331825 6.6921864e-05 0.00035924037 0.00029281183 0.0003940235 -0.00037226712 0.00048100657 -0.0002596899 0.0003668159 -0.00039192438 0.0004904878 -6.78855e-05 -0.00042057293 -0.00019939855 7.39564e-05 -0.00043683656 -0.00032860684 2.943312e-06 -0.00029005372 0.00034222374 -0.00030340475 -0.00029579765 -0.00036425414 0.000357176 -0.0003192857 -0.000451964 -0.00033541754 -0.00037437672 -0.00036691682 -0.00039439695 -0.00038823325 -0.00043719332 0.00029697607 -0.00032959378 -0.00031411345 -0.00010798606 -0.00016351059 -5.7849234e-06 -0.00014228158 -0.00012472304 0.00033043197 -0.00030364393 0.00028529414 -0.0003884727 0.00024804482 -0.00045480026 -0.00027421582 0.00032087142 0.00042365797 0.00026299898 0.00031734665 -7.809763e-05 -0.00013677515 -0.0003284746 -0.00033201897 2.5598329e-05 2.1912667e-05 0.00015487774 0.00047157318 -0.00037152192 -2.0602844e-05 0.00034042142 0.00043436 -0.00027333025 0.00021883064 -0.00029644163 -0.00017796498 0.00016842259 -0.00035183926 5.379167e-05 0.0003086395 -6.202739e-05 0.00041576146 0.00011726727 -7.908257e-05 -0.00026095993 -9.155256e-05 1.8522107e-05 4.755338e-05 -0.00046683446 0.00035981348 0.00042706216 0.00048304902 0.00018259077 0.00025583446 0.00040285618 -0.0002703263 -0.00046091608 -0.0002594715 -0.00047700462 -0.0004616552 0.0003776902 0.00036377457 -0.000277454 0.0003170094 0.00026358213 -1.8235352e-05 0.00041251766 0.00035185827 -0.00018823735 0.00040791256 -0.00048906147 -0.00014288878 -0.00046258754 -0.0003162854 0.00035229232 0.00015114462 0.00030505264 -0.0001319345 -0.00048294413 0.00013584911 0.00045485204 -1.1122793e-05 0.00010203085 -0.0001471171 -1.04192e-05 -0.0004175491 -0.00010379004 0.000103296996 -0.00046363173 -0.00040720426 3.793961e-05 4.1586318e-05 -0.00021525458 3.238356e-05 -0.00026116546 0.00035134424 2.7289148e-05 -0.00045679454 0.00023862286 0.00029574035 0.0002870784 0.00012898685 0.00011489881 8.59777e-05 -0.00038085406 4.3864187e-05 -0.0003269572 -0.000102767954 0.00037881066 -0.00036696976 -0.0003193048 -0.00036758996 -0.00018403938 -0.00031470082 -0.0001619355 0.0002102755 0.00013117916 0.00014316541 -0.0003590294 -0.0004527356 -0.00045729795 -0.00013441156 0.00010744112 -0.0004380394 -0.00029491802
工作 -0.00012939116 3.4456018e-06 -0.0003322238 -0.00034686565 -0.00048610254 0.00045641756 -0.00010863419 0.000109447334 -8.1651255e-05 -0.0004118618 -0.0002739385 0.0001212 3.3706074e-05 -0.0003921794 0.0004268334 0.0001966922 0.00046774786 0.00044227345 1.5288651e-05 1.2223916e-05 -0.00014925071 0.00016247587 0.00011858469 0.00036870502 -1.1048152e-05 0.00014342334 0.00026369092 0.00017231583 -0.00017802179 -0.00020502166 0.00039468726 0.00013805869 -0.00045738724 -0.00043126792 -0.00019946594 0.00010041517 -1.2267652e-05 -0.00029549596 -0.0002759225 -7.224059e-05 0.00033695492 -0.00016279753 -0.00024573554 -0.00022668493 6.085091e-05 5.0216877e-05 -0.00025598757 0.00017794644 -0.00031801185 0.000100074445 -0.00012262775 0.0004370923 -0.0002015653 1.032525e-05 -0.0002400826 8.093825e-05 -0.00011543545 6.846599e-05 2.481625e-06 -0.00021923335 -0.00017695985 0.00039289767 0.00047918363 0.0003463401 -0.00015044434 0.00049215904 0.00025609412 -0.0004409091 0.000116418494 -0.00011595856 4.184698e-05 2.942483e-05 -0.0003422548 0.00014192583 0.00027911007 1.6160933e-05 -0.00029670162 -0.0004334345 -0.00043624177 0.00018822945 0.00020751552 -0.00043506676 -0.00037056825 0.00042192693 -4.1487972e-05 0.0002678397 -0.00018626684 7.141632e-05 0.00049437006 -0.00030913446 4.087155e-05 -0.00018299314 0.00010936135 -0.00035080346 -0.000107898675 -0.0004238336 -0.00031899335 0.0002391546 0.00048726588 -7.501329e-05 -9.769141e-05 0.0001026209 0.00027056484 -0.00049629924 -0.00040226587 -7.929616e-05 -0.0004551722 -0.0002468691 -0.00011077268 5.8247046e-05 -0.0002315328 0.00036224857 -0.00016023143 -0.000115777824 0.00023775423 0.00049626845 -0.00014089198 0.00022014791 -0.00047944984 5.2745658e-05 8.8164525e-05 -0.0003873201 0.0003868297 -0.00037439566 0.00041499815 -0.00034854302 0.00012475897 0.00043379562 4.6936286e-05 0.00013152565 -0.0002747665 0.00038423485 0.00038831506 0.00014063816 0.000104024475 0.00026636096 -5.977098e-05 0.00041105985 -8.88007e-05 0.00013905966 5.2896103e-06 1.7920313e-05 -6.190756e-05 -0.00016586704 0.00043517657 6.6039756e-05 0.00031095638 -0.0003459005 0.00047971195 6.5676846e-05 0.00045996098 -0.00037985365 0.0004417344 0.00019914843 -0.00045394013 -0.00041833014 0.00039010742 -0.00046374844 0.00011289898 0.0002494081 -7.283429e-05 9.580528e-05 0.00015492264 0.00037236244 0.00039240174 0.00024118583 0.00027614317 0.00024048463 0.00031116276 -0.00032620135 -0.00036647337 6.1833896e-05 -0.00036879553 5.282551e-05 7.6337965e-05 -0.00010320549 0.00047194297 -0.00024651308 -0.00032226613 -0.00010641769 -0.00026959577 0.00013360895 -0.00019762703 0.0002882071 -0.00015718547 2.3760547e-05 0.0001447782 3.3770026e-05 -0.00017750077 6.04371e-05 -7.148023e-05 -0.0002696737 -0.00039839285 -0.00046172208 -6.7358604e-05 4.3793557e-07 -0.00016952636 -0.00038819408 -0.00037495565 -0.00012263596 0.0002847965 0.00027179823 5.7399167e-05 -0.00026267814 -2.8030978e-05 0.00024318814 -0.00020723927 0.00045261334 0.00028444463 -0.00016903924 -0.00011500753 -0.00048754291 0.00022918275 9.410686e-05 -0.00021420702 -0.00041008618 0.00028934548 0.00045883955 -0.00028405254 -0.00023232118 -0.00029983153 -0.00017897833 0.00024902972 0.00039425152 -0.00019123679 3.0288653e-05 -0.00020679653 3.42751e-05 0.00037061734 0.0004974014 8.838593e-06 -0.00022580585 -2.7099637e-05 0.00021384125 0.00015831484 6.302114e-05 -0.0004548055 -0.0001828773 0.00046226862 -1.0691661e-05 -0.00041823156 -0.00039596044 -0.00036021142 -0.00016595321 0.00030469283 -0.00028997875 0.0001921404 -0.000109596585 -0.00015852174 -0.00046759046 0.00030472112 0.00030521268 0.0004776466 -0.00013548246 0.0003426079 0.00015892142 8.081797e-05 -0.00019549057 0.0004985902 -0.00021106796 -0.00014989136 0.00024611832 0.00022081201 -0.00029064307 -8.655321e-06 -0.00031737777 0.0001216334 0.00041754014 -3.6638234e-05 -0.0003095566 -0.00031908468 3.145854e-05 -0.0002885062 0.00041309244 0.00047403507 0.0003312768 -0.00022273946 0.0002379255 -0.0004330246 -0.0002910588 -0.000259548 -0.0003898059 0.0001009632 9.808247e-05 -0.0001522371 0.00011483507 -0.00023901832 -0.0004708133 -0.00039216437 -2.7110167e-05 0.0002866624 -0.00012847914 0.0001067265 -6.1969586e-05 0.00017365876 -0.000110489 0.00031133974 0.00019331985 0.00025506032 0.00025440156 8.867736e-05 -0.00016613989 -0.00026542094 0.00011563262 -0.0002045658 0.00034086555 0.00033684593 0.0001176353 0.0003213606 0.00047069226 0.0004884249 0.00034298925 6.584109e-05 0.000174388 1.4597314e-05 1.0056346e-05 6.959061e-05 -0.0002752178 -8.0573285e-05 0.0001142097 1.7500775e-05 -0.00046470767 0.00019296542 1.938155e-05 3.6339043e-05 -0.00021951123 0.00029452317 0.0003760743 0.00010397112 0.00010613402 0.00010524483 -0.00032394612 -0.00035605102 0.00046013112 -0.00022415814 5.9455084e-05 -4.212542e-05 0.00023206441 0.00048933015 0.000325204 9.4329225e-05 -0.00038646275 0.00040794795 -0.00046892912 0.00030658772 0.00048204002 0.0004764158 -0.00040939217 -0.00047218963 0.00017582327 0.0003004652 4.1210296e-05 6.3912696e-05 0.00039889765 -0.00045709187 0.00026073464 -0.00024341675 -0.00047500245 0.00049336214 -0.00041546178 0.00037631334 0.00017210885 0.00044481823 -0.00039888948 2.4580211e-05 0.00041221146 -0.00020366983 -0.00012274388 -0.00031190508 0.00044967385 -0.00023640551 -0.00012748627 -0.00013075474 0.00031745725 -0.0004071739 0.0004902731 0.00012636076 -0.00034562714 -8.155922e-05 0.00040734073 -0.0002671792 6.221394e-05 0.00023103172 -0.00040106557 -7.029015e-05 0.00035350388 0.0004809752 1.8727389e-05 -0.00036077434 0.0002946027 0.00036663323 -0.0004947734 -0.00042530822 0.0002134323 -0.00016367127 -0.00011028064 2.9364779e-05 0.00014046731 0.00019227157 -5.3183372e-05 -0.0001330185 -0.00048121222 0.00027763136 -0.00027758558 -0.0004981775 -0.00020995125 -0.00046720172 -0.00014582335 -0.00035264576 -8.9964415e-05 0.0004610792 0.0002669041 0.00031335623 0.00046723778 -5.9500642e-05 0.00022359088 -2.9900605e-06 0.00039346106 2.9139832e-05 -0.00015726134 -0.00019398614 -4.2727228e-05 0.00017518057 4.621409e-05 0.00012205397 0.00046414905 0.00020703166 -0.00011995524 0.00021850712 9.3162365e-05 0.00016954847 -0.00010018112 0.00013520288 0.00042974023 -0.00022606885 0.00014594835 -3.2915654e-05 0.00014839854 -0.00021449162 0.00038136367 0.00015149049 -0.00033269517 -8.229745e-05 -2.7892078e-05 -0.00035501152 -0.00020566634 4.8075013e-05 0.0004519082 4.2983927e-05 4.1829626e-05 2.944016e-06 -0.00047058336 -0.00019043656 0.00015306225 3.1797525e-05 5.3418853e-06 0.00014244133 -0.00018190176 0.0003880321 0.0004175026 0.00022011179 -0.00049143296 -0.00031141835 0.00019009046 0.00027607076 0.0002784859 0.0003364519 -0.00012175922 -0.00026629106 0.0003740127 -0.00018619448 0.00012886894 0.00022250185 -0.00019887614 0.00026802698 -0.00030637992 0.00021694457 -0.00016792839 -0.0004731745 0.00026171893 0.00049979053 -0.00017013946 0.00017634744 -0.00027311058 -8.888309e-05 -2.4658191e-05 -0.00049338734 -3.4921668e-05 0.00011869074 -9.0957015e-05 -0.0003725957 3.91058e-05 -0.00031827265 -6.537256e-05 -9.761319e-05 0.00036155598 -3.1086474e-05 -2.9432234e-05 -0.00035779225 -0.00022281996 -0.0003043627 0.00019084488 -0.00014203816 0.00038726407 0.00011826511 -9.403822e-05 -0.00034781874 0.00032934744 7.501762e-05 0.00017038191 0.00015984724 -0.00018263826 -0.00049872056 0.0004504533 0.00044752852 -0.00019667967 -0.00029373055 -0.0003888225 -9.4563744e-05 0.00042916962 -0.0002118856 2.485682e-05 2.9724957e-05 0.0003976725 0.00018598323 -0.0002263123 -1.1707208e-05 -0.00036035877 0.0001761949 0.00043232733 -0.00033401925 -0.0002983106 -0.0003097917 -0.0004752968 -0.00011578025 0.00046062874 6.3130883e-06 0.00028163072 -0.00026581855 -0.00021691299 -0.00042840326 -0.00045866944 -0.0004041436 -0.00033500255 -0.000490022 0.00015496423 -0.0004589327 -0.0004103458 -0.00026704083 -0.00012575742 -0.00041747707 -0.0002553329 0.00029368076 -0.00035474365 0.0004979909 -0.00032600597 6.52271e-05 4.3123157e-05 0.00046365222 -2.6733454e-05 -0.00043749483 0.00034827442 -0.0001676447 -0.00034500577 0.00012707102 0.00030360604 -0.00048792662 -0.00013890199 0.00040235528 -0.0003115837 -0.00038415505 0.00019969566 -0.00012956919 -0.00033772408 4.1585485e-05 -0.00018245539 -0.00047943954 2.3981484e-05 0.00040466065 -0.0002806049 -0.00044739665 -0.00046365205 0.0003850531 0.00018753567 9.599497e-05 -0.00033123235 -0.0003517001 0.00010486429 0.00048075037 0.00045926875 -9.0832065e-05 5.24321e-05 0.0004044066 0.00017940481 0.0003351254 0.00021537025 -9.473011e-05 0.00028986842 0.00034195808 -0.00040910445 2.293798e-05 0.00012853584 -0.00043524912 0.00025177794 -0.0002529002 6.628157e-06 4.865597e-05 0.00031311487 0.00049000833 0.00020456927 -1.2307689e-06 -7.033215e-05 0.0004237602 0.00036222738 0.00041453837 8.298544e-05 -0.00020492692 -0.00045972024 -0.0001902553 -0.00044387847 -6.5883264e-06 0.00013259024 0.00020538425 6.129005e-05 -0.00042348495 -0.000383917 -8.2028404e-05 0.00026276003 0.00027383145 0.00041932255 0.00036221975 -0.00020430262 0.00031115106 -0.0001945079 -0.00011435852 -2.5330082e-05 -5.8889536e-06 -0.000118888405 0.00017749115 -0.00017429359 0.00021115887 -0.00027023724 0.0003906519 -0.00014600769 -4.4884528e-05 0.00041162572 -0.00045097742 -1.4900173e-05 -1.8411685e-05 0.00014036115 0.0003746769 -0.0004158923 0.00013864627 8.98401e-05 -0.00026947132 0.00034130353 -0.0004657462 3.8736496e-05 -0.00040889907 0.0004960049 6.6534616e-05 0.00030615492 0.00044483872 0.00037986916 0.00037685886 -9.610964e-05 0.00041828488 -9.2872455e-05 -0.00042711062 -0.00021260131 -0.00014577576 0.00023481196 0.0002885175 -0.0003586463 0.00018638793 0.00033539408 -0.00029566573 -0.00049211143 -0.000373427 0.00015688353 0.0004562781 0.0004986621 0.00023792766 0.00027137247 0.00040920175 -0.00012847448 0.00029362575 -0.00044727215 0.000101891106 -0.00026371496 -0.00032146007 -0.00013922357 0.00028763036 -0.00028199385 -0.00012792728 0.00015368024 7.399091e-05 0.00027232754 -0.00037532972 -0.00041268437 -0.00020824478 0.00038270812 -0.0003046587 -6.008194e-05 6.4455e-05 3.0452074e-05 0.00014925915 0.00019513107 -2.5346346e-05 8.182068e-05 -0.00018391045 0.00010109823 0.00030338333 2.8133447e-05 -0.00013981145 -2.4743762e-05 0.00039930767 0.00026093773 0.00011183524 -0.00043533085 -0.00041397638 0.00020259758 0.00026429445 -0.00040910157 0.00016831314 0.0003080128 -0.00020148486 0.00047435373 -0.00012288951 0.00021466723 5.273277e-05 -3.651459e-05 -0.0004420345 0.00018270308 0.00025466303 -5.1777908e-05 0.00041813258 -0.00041111658 0.00013828915 -0.00013166119 -8.070398e-05 1.691581e-05 -0.00031072125 0.00026731237 0.00020380718 -0.0003638092 0.0002320091 -0.00038011765 -0.0004135307 -0.0002651037 -0.00020556372 8.362724e-06 6.997289e-05 -0.0002210438 -4.783842e-05 -1.0583972e-05 -0.00033258347 -0.0003568085 0.00020117233 0.00022985408 0.0002336583 0.00048325874 1.25699735e-05 0.00045209285 1.2885221e-05 0.00040321043 -0.000105917425 -5.9333248e-05 0.0004659644 -0.00032987338 0.00033194723 0.0002422351 4.5183577e-05 -0.00021587832 -0.00018017729 -4.6115038e-06 0.00024349408 9.335934e-05 0.00047030512 7.730293e-05 0.0002511459 7.4908115e-05 -0.00027984817 -0.00031494984 0.00043969956 0.00024542157 -8.9714245e-05 -0.00037225915 0.0004911511 -0.0003383147 -0.0001168036 8.950369e-05 0.00039290302 -0.00036262095 6.7460904e-05 0.00016902752 0.00028968233 0.00034975828 0.00013578197 8.295773e-05 -0.00025864673 -0.00025443596 0.00012788459 -0.00044265622 -0.0003789019 0.00014738973 -0.00018714332 -1.3816569e-05 -0.00030931705 7.0980415e-05 4.8329694e-05 0.00025407763 -0.00033313027 5.8483372e-05 -0.00029460966 -0.00031150974 -7.447489e-05 0.0001531708 0.00045532783 0.00013916875 6.387691e-05 0.00030537302 -0.00033983449 8.973505e-05 0.0003350066 3.943988e-05 -0.00044413103 -0.00031241518 0.00034325852 -4.0225335e-05 -0.0004271143 -0.0004927187 0.00013995146 -0.00036823752 0.00031300925 0.00017543841 -0.000257174 -0.00030635175 0.00047357118 -2.3519713e-05 0.00034777576 -0.00025320708 0.0004937247 -0.0003131227 9.079554e-05 0.00043811148 3.1036223e-05 -0.00026681536 0.00025368645 -0.00033493916 0.0002759276 -0.0001047002 0.00040675377 -0.00023994103 -2.5982717e-05 -6.0500774e-05 -0.00027676253 -0.0002412515 0.00025503384 -0.00047812602 -6.1800434e-05 -0.00026718163 0.00013597946 -8.021199e-05 -0.0004971449 0.00048207663 0.00046103043 -0.0003684135 0.00016993667 -1.7479748e-05 4.20039e-05 -0.000113666814 0.0004622111 0.000108936525 0.00036203247 0.00022691996 8.8023946e-05 4.9022812e-05 0.00025778552 -0.0003004885 -0.0001808706 -0.00014230667 6.779376e-05 -0.00025437181 -0.00043106847 -0.00012521372 0.00044465534 0.00020837164 0.00027300254 -8.7127366e-05 0.00019060398 -0.0001402466 -0.00035938402 0.000100147 0.0003229155 0.0003255362 -0.00024815102 -1.0780906e-05 -0.00027996162 -0.00020723967 7.940453e-05 -0.0004871765 -0.00049602025 -5.7353045e-05 -0.00035620775 0.00031262328 -0.0003122205 9.610078e-05 0.00014886785 0.00042930103 9.1176364e-05 0.00030130384 -0.00016118925 -0.00046482048 -0.0003237627 0.00020479232 -0.00011091211 -0.00030283054 0.00046079812 0.00012468807 -1.5421325e-05 -0.0002983542 0.00041654345 -3.0540257e-05 0.00019026763 0.0003485201 2.7818849e-05 -0.00047940004 0.00036348085 0.00012914906 -0.00039106453 0.0004316013 -0.00033189377 4.7809914e-05 -0.00042205193 0.00044913022 0.00049851317 -0.00038044277 -0.00045005156 -0.00041660678 5.1670842e-05 0.00010997942 0.00021091387 -0.00028516675 0.00024390986 -0.00045329615 -0.00011941166 4.0991195e-05 0.00045355092 0.00032678214 -0.0004708543 0.00014602237 -0.00011998872 0.00030381788 0.00031657566 -0.00040087572 -0.00041295463 -0.00019483636 -0.00048523027 -8.675979e-05 0.00036272165 0.00036511477 0.00018267355 0.0004838982 -0.00039615674 0.00037681428 0.0004578753 -3.5483215e-05 0.0003278426 -0.00011506626 4.2268326e-05 -0.00046588606 0.00013986827 -0.00023636984 0.00016448005 0.00036507205 0.0002487958 0.0004574022 -0.0003252973 0.00038682882 0.00026516346 -0.00036395 0.00038371125 -0.0003477891 5.959745e-05 0.00046928023 0.00020998283 -0.00014993138 0.0003241043 -0.00042842663 5.9535512e-05 0.00041408633 0.00047537524 0.00039811002 0.0004843288 0.00010768641 0.00043180355 -0.00037420483 0.0003400786 -0.0002930019
群众 0.00040796134 -0.00019611149 -0.00012560342 0.00023618633 0.00033411972 0.00015611554 -0.00049759477 0.0003584704 0.0003896087 -6.874328e-05 -0.0004212193 -0.00032451868 0.0003971046 -0.00041544094 -0.00015254281 -0.00043105474 -0.00030737775 0.0003965318 0.0003215096 0.00029997624 -0.000106249936 -0.0004948574 -0.00034006368 -0.00037159552 0.0003124036 0.00022515273 0.00014411334 0.00020055317 5.3274915e-05 -0.00022069157 0.00026504372 6.136738e-05 -5.0662846e-05 -0.00015239572 -1.8707524e-05 0.00017533812 -6.237368e-05 0.00013247962 3.3571087e-05 0.00041149926 -0.00043646005 -3.8362963e-05 -0.00044036447 0.00037678637 0.0004924705 -9.6859716e-05 0.0004695391 -0.00034945828 -0.00043167564 -0.0004952135 -0.00049392314 -7.8935904e-05 -4.1202416e-05 0.00010306557 -5.6054527e-05 5.6556244e-05 0.00013181638 2.6024103e-05 -0.00017978702 -0.00014170312 -0.00032070398 -0.00024001446 5.583808e-05 -5.397196e-05 -0.00023233 -0.000109593646 0.00042083464 0.000105007246 0.00046340935 0.0004063279 -0.0004891317 -0.00032178784 9.569903e-05 0.00040871993 0.00031671443 0.0004625566 0.0001389634 0.0004196019 -3.2336615e-05 0.0001961325 -0.00039123074 0.00035542913 0.00049918104 -0.0004354584 0.00037295718 -0.00035328086 0.00025203315 -0.00015185843 0.0001390491 -0.000116420226 0.00022203753 5.6575547e-05 0.00039505053 8.728644e-05 0.00029385943 -3.9478688e-05 -0.00035745956 0.0004965767 0.00023929661 0.00011172568 -0.00037503443 1.38047435e-05 -0.00016874049 -0.00014108772 9.3849485e-05 0.00033241953 0.00014137462 -0.00038961298 0.00047540912 -1.35537e-05 -0.0003489859 -3.2969292e-05 3.457355e-05 -8.8662964e-05 -0.00027281413 0.00044091907 -0.0001940722 0.00044106616 8.064581e-07 -0.00037364807 -0.00015878511 0.00024167154 -0.00042459567 0.00046997456 0.0004759943 -2.7188844e-05 -0.00023242115 0.0004011229 -0.00039460644 0.00039796776 -0.00021182309 0.00023175594 -0.00045007712 -0.00020137266 -2.8117145e-05 -0.0003107644 9.533595e-05 0.00020255656 -0.0001938109 -0.0004884778 -0.00014238457 -7.021893e-05 0.00015349213 -0.000204252 -0.0002810667 -0.00011722404 -6.8101144e-05 0.00039382512 -0.00027736442 -4.491796e-05 6.5755936e-05 -3.659293e-05 -0.00031152484 -0.00032993968 0.00048983144 0.00016990589 8.398221e-05 0.00043571656 0.00047716207 -0.00037113208 0.0003258309 -0.0003444148 -6.59222e-05 0.00019535124 0.0003188978 -0.00024079799 0.00031572295 0.0001762644 0.00012301044 0.00010081327 0.00014683558 0.00044641527 0.0004976097 -0.0003130585 0.00026742675 -0.00042666245 -2.5312174e-06 -0.0003079571 -0.00022249075 -8.086441e-05 -0.0003196487 -0.000161293 -0.00036640218 0.0004421099 0.00032924782 -0.00019239745 -0.00011608034 -0.00022492296 -0.00038475762 -0.00018116813 -0.0002295589 -0.00018412486 -4.183814e-05 -0.00047148552 -0.00043678604 -4.435514e-05 -0.00046630242 -0.00041052682 -0.0004590931 -1.5842948e-05 -0.00015776847 -0.0004980932 -0.00047612525 -0.00021956804 -1.8637247e-05 -0.00027612585 4.508191e-05 -0.0003410628 0.00019858935 0.00026578002 0.000274347 -0.0002966335 0.00037196503 -1.0159716e-05 0.00018440383 -6.264948e-05 0.00013973241 0.0002815316 -0.0004643876 3.3448687e-05 -2.3106753e-05 6.5229855e-05 -8.742904e-05 0.00041247765 9.6528376e-05 2.2401626e-05 -3.3590873e-05 0.000431831 0.0002596587 0.00029890143 -0.00024940562 -0.00015630884 -0.00017607484 0.00049755734 -0.00040128303 -0.00014589369 0.00015380447 0.00046256068 0.0003915746 -2.9535197e-05 -0.00017344911 0.00016801554 0.00031883063 -0.00017467057 -7.459746e-05 4.4936893e-05 0.00041166454 9.875435e-06 0.0004828449 0.0004671051 0.00019261002 -0.00017731743 0.0004443266 -0.0004900117 -0.00022820281 0.00018800136 -0.00018447624 0.00017566458 -0.0001230611 -0.00018337849 4.1125444e-05 -4.840899e-05 0.00044735003 -0.0004413961 -0.00019998988 -0.00044216504 -0.00026863813 0.00047856523 0.00039565426 -0.00020771775 0.00035412598 0.000112508125 2.5375678e-06 0.00036469245 0.000263836 0.0003206784 -0.00044706938 -8.614811e-05 0.00029049555 -0.00026996073 0.00022007308 0.00016884941 0.0003987605 4.857888e-05 4.67783e-05 -0.00026934908 0.00031756857 -3.8427857e-05 0.00024091889 0.00029255435 -3.466596e-05 -2.774742e-05 -0.0002821268 -0.00048024082 -4.257548e-05 1.5625428e-05 0.00042752712 -0.00037885946 -0.0003859245 0.00044327645 -9.517751e-05 0.00011081575 0.000108113454 -0.00011680889 -0.0002920048 0.00025855209 -0.00048974395 -0.00021125618 -0.0004936943 -0.00018936337 -0.00020548257 0.00048711526 -0.0002576567 -6.225275e-05 -0.00029991212 4.643676e-05 0.00012257825 0.00018203861 -0.00025236377 0.00027100646 -0.00010958445 3.1986794e-05 -0.0002821934 -7.002153e-05 -1.5731153e-05 -0.0002519049 -3.6365827e-06 -0.0003641391 -0.00044452312 0.00027939436 -0.00026889556 2.5912335e-05 0.0004670995 1.8821716e-05 0.00044167545 -0.00048280697 -0.00018807067 8.801758e-05 0.00032127672 -0.00037397005 -0.00016308074 0.0001457035 0.0004273899 0.0004393645 0.00017993736 -0.00039430847 0.00036774387 0.000123625 0.000494364 -8.734879e-05 0.00022125371 -0.00024210145 -0.0003987262 0.00047914364 -0.0003215455 0.00030361427 -0.0001676073 0.00012404213 -0.00017953744 -0.0002695391 -0.00038155456 -0.00022914006 0.00048401655 0.00040997937 -0.0003614185 -0.00033002914 -0.0002544905 0.00046828346 -7.972561e-05 0.00023413026 -0.00021961404 -0.00026407692 0.00013639014 -0.00043928917 0.00046511224 -0.00016382708 -0.00020808962 0.00020352764 0.0004107311 0.00016592666 -0.00027248662 0.00029658084 -2.2319742e-05 6.992736e-05 0.00036467134 0.0004952563 0.0003307016 -0.0004731792 -0.0004025241 0.00041967622 -0.00014946278 -0.00015550271 0.0004887718 -0.0002720498 0.0004938491 -0.00015113514 -0.00032155204 0.0001626766 -0.00044751485 4.2360494e-05 0.00027747123 9.2965645e-05 -0.0002624419 -0.00014953663 -0.00016833222 -0.00014583276 0.00029429275 9.153495e-05 0.00012384531 0.00029879683 0.0004603603 -0.00037646043 0.00012847043 0.0002182587 -0.0004418818 -0.000120014105 -0.00045960772 0.00030873917 -0.00015672961 -0.00038967456 -0.00019329473 -0.0002179779 0.00045246255 -0.0001429804 0.0002547226 0.00027017825 -0.00030110902 -0.00035252655 0.0004566768 0.00036842382 0.00037260432 -0.0004381213 0.00025175352 -1.14033555e-05 -0.00024444508 0.00010151281 -0.00035992125 -0.00041166393 0.0004871227 0.0002629153 0.00030762376 -0.00043675175 -0.00036511925 3.1705404e-05 -4.9073587e-05 -0.00040021096 0.00033795915 0.00047271603 -9.8189965e-05 -0.0004700646 -0.00034851313 0.00019903002 -0.00047805315 0.00029908805 -0.00033424053 -0.00021007095 0.00018703943 -6.637961e-05 -0.00017238701 3.8819082e-05 6.63201e-06 0.00012317768 -0.0002783619 0.0003274085 0.00044841578 0.00031953605 -9.299555e-05 -0.00030483227 0.00028369593 -0.00046322285 0.0003335898 0.0004553454 -0.0004330886 7.514277e-05 -8.534073e-05 0.00011299275 0.0004005297 3.8258306e-05 0.0004504933 -0.00016121713 9.1608046e-05 0.00046074847 0.00011813406 -0.000357684 -0.00046724506 -0.00038217107 0.00043715656 2.3130855e-05 0.0002020739 0.00012534723 0.00015275864 0.00019640742 4.796798e-06 0.00025099315 0.00018048118 -0.00044264016 -0.00016756025 0.00017981713 0.00049331965 0.00014547662 -0.00032238403 -0.00037674818 -0.00017908389 0.0001323391 0.0002378447 0.00017473998 -0.00015177349 0.00042917946 0.0004648821 -0.00016536149 -0.0004432773 -0.00044399232 0.00028240486 -0.00021638298 -0.0002229459 0.00021650018 0.00046718644 -6.470052e-05 2.724301e-06 0.00021505699 -7.3570634e-05 -0.00021481236 0.00036240846 0.00029965062 -0.0004952362 -0.00017787081 0.00015368295 0.00018266206 0.00043792417 0.0003444847 0.0001277959 -0.00042290823 -0.00010105238 -0.00038965282 0.00022282783 0.00047675037 -0.00013632841 -0.00040686765 0.00020849839 0.00030895494 -0.00016106658 -0.0002997332 0.00024909354 0.0003605305 9.923862e-05 6.1738036e-05 0.0003671002 0.00010204067 6.745026e-05 0.00013129976 0.00011257912 2.3483082e-05 0.0004981553 -0.0002621933 -0.00042576945 0.00034404412 -1.6662594e-05 0.0004470695 -0.0001368228 0.00011167257 -0.00015550155 -1.1042296e-05 0.00033234296 -5.6456407e-05 -6.135137e-05 -0.00025596004 -0.00022247751 0.00019507292 -0.00030736494 0.00030719122 -0.00046975314 -0.00024825166 -0.0001876746 6.0578688e-05 0.0003613932 -0.00035181796 -0.00040715563 -0.00016167456 -0.00015095077 0.0001158002 -0.00019422844 -0.00017193556 -0.0004480652 -0.00020373873 0.0003494747 -0.00017035926 0.00014220495 -0.00031886206 0.00031095644 -0.0003558559 0.0004251728 0.00046160506 0.0003309326 6.992623e-05 0.0001554078 -0.00018475717 0.00019650972 0.00022666478 -0.00018571757 0.00012921014 0.0002601241 -0.00025022385 -0.0004636085 0.00045956552 0.00023162481 0.00037456528 0.00047176814 3.5142126e-05 -0.0002719523 7.7028395e-05 0.00044936297 -0.00024852375 7.580015e-05 0.00025930713 0.00033647803 -0.00024538315 -0.00028760755 0.0003459826 0.0004345448 -9.766634e-05 -4.552669e-05 -3.5084362e-05 -8.536407e-05 0.0002873924 0.00019512833 0.00038948402 0.00012298989 5.2744384e-05 0.00014658172 -0.00012442264 0.00011928611 -0.0003261636 -0.0004067422 -5.7656733e-05 -0.00029355093 0.0004790964 0.00041445758 0.00028518957 0.00046209572 -0.00016325712 0.00024096924 0.00013324952 -2.749326e-05 0.00020466556 0.00044940875 -0.00039562557 -0.00024089172 0.00024842768 -0.00032506502 4.9682523e-05 -0.00038710135 -0.0002509768 -0.00011325187 4.5846562e-05 0.0002768931 -3.0062372e-05 0.00016445582 0.00030142756 0.00042373294 -0.00045717444 0.0004005551 -0.00037616215 0.00014127299 -0.00045925716 -0.0003468073 -9.093234e-05 -6.265118e-05 6.921389e-05 -0.00040584107 0.000141783 -0.00036250558 0.00016464599 9.444978e-05 0.0003174051 0.0003180588 -0.00030565617 -0.00011699532 -0.00014455896 -0.00010020263 -0.00022787575 0.00011214097 0.0001458291 0.00035404458 -0.00020016397 0.00044151166 0.00035094467 -0.00022079663 -0.0003399268 -0.0002311938 -0.0002041614 0.00030776754 -0.00025760173 -0.00038105133 -0.00017093941 -0.0001868014 0.00043074175 0.00019302258 0.00013560224 -0.0004149683 3.0768573e-05 -5.984083e-05 -0.00015847581 0.00035604386 -0.00025998062 0.00021822122 -0.0004241229 -4.2157048e-05 0.00030699436 -1.2244782e-05 0.00019663236 0.00042441767 -0.00020916233 -0.00038406524 0.0004670155 0.00014663447 0.0004741839 0.0003045729 0.00049794535 9.7309276e-05 0.00028375225 2.370265e-05 0.00032354105 0.0002918651 0.0004086155 0.00012531602 4.4082217e-06 0.00027230626 -0.0004309915 0.0004586314 -0.00048661992 -0.0002082694 -0.0004960592 -0.00029667906 -2.875985e-05 0.0001722077 -0.00023015351 0.00047893354 0.0002714697 -0.0001066641 -0.00037215074 -9.503323e-05 0.000119477765 1.8704279e-05 -0.00044775548 0.00028584432 0.00042651827 0.00044797175 0.0002508831 0.000112762595 -0.00018241965 7.187158e-05 0.00045103018 -0.00019740943 -0.00033677567 -0.00036305827 0.00021381133 0.00046450517 0.00019298242 -0.00035706317 -0.00035316925 5.6453995e-05 -0.0004088176 -0.00041607665 0.00041585145 -0.00033199412 -0.00036748228 0.0001864481 -7.4624695e-05 0.0003780954 0.00018732969 -0.00045999492 1.5458865e-05 0.0002564972 -0.00040434868 0.00017180662 0.00029395003 8.8426656e-05 0.00036357396 -0.0002532701 -0.0002049378 4.3515032e-05 -0.00033264435 0.00018193353 -0.00023726448 -0.00021786532 -1.2661854e-05 -0.00037621337 4.2455362e-05 0.00048343558 3.7949427e-05 -4.9333532e-05 -0.00010382919 -0.00011167623 -0.00023806794 -0.0004596559 5.076077e-05 0.00021601535 -0.0002308395 -0.0003955001 0.0004833748 0.00023266688 0.00048393814 -0.0001745101 -0.00029987804 9.2233734e-07 0.00015743401 -0.00031312378 -0.0003504523 0.00034517655 0.00046898302 0.00049911125 0.00046624342 -0.00027417936 -0.00012101793 8.030734e-05 0.00038321305 0.00048897904 -0.00030034644 0.00012366852 -0.00032173897 8.241498e-05 0.00041240227 -0.00025581388 -0.00042283247 -0.00047963834 0.00034207746 6.54417e-05 0.0001199942 -0.00042854183 -7.760541e-05 -0.00035164258 0.00011988584 -0.0004046099 0.00022627295 -0.00030788858 -0.00038188387 0.00032963444 0.00022400221 -0.00042583715 0.0003657292 -8.516439e-05 -5.8552927e-05 -0.000281391 0.000445236 0.00033995352 0.00032500716 0.0001025215 0.00012579464 0.00022128562 -0.00042620374 0.00034475324 -0.0003992936 0.00029065853 -0.00016378722 0.00026325707 -0.00024149583 -0.00042187466 8.332147e-05 -3.618772e-05 0.00046664284 0.00037227815 0.00016649038 4.288758e-05 -0.00016144993 -0.00031239635 0.000413689 -0.0003314933 -5.9409154e-05 8.7528155e-05 -0.00020104762 0.00017079918 0.00010492747 -3.420142e-05 -0.00018646079 -0.00015409633 9.194071e-05 -0.00026813333 -0.00030587168 0.00046645117 -0.0003070957 0.000294598 0.00040606127 0.00027866883 0.00037045544 -0.00023590529 -2.729228e-06 0.0004404221 -0.00031570293 -0.00020444642 0.0004268961 2.4352716e-05 -0.00020564871 -0.00029338375 -0.00037278276 -6.125692e-05 -0.00022978656 5.334459e-05 9.051605e-05 1.3519596e-05 -0.00012977979 0.00025986595 0.0002930637 -0.0003686828 -0.00044844561 -0.00032484852 -0.00045553787 0.00025065467 -0.00014602944 0.00027497535 -0.000316322 9.707635e-05 0.00010611445 -5.5990742e-05 0.00046952025 -0.00019614966 0.00024353717 0.00016892033 -7.7316814e-05 -0.00030108725 -0.00010722503 0.00030189587 -0.00024759927 -6.8796304e-05 -0.0003509748 -0.00043008878 0.00047944597 0.00035505614 -0.000234959 -0.00042763987 -0.00037222574 -0.00045962475 -8.299379e-05 -0.00045770803 -0.00041121917 8.256107e-05 0.00012222874 0.00039450623 -0.00012898333 0.00025604595 -4.5232864e-05 0.00025223792 -0.000351961 -0.00021510299 0.00026639245 0.00012264788 0.00044444727 0.00021156682 0.00031145752 -0.0004075693 0.0002059734 0.00029066598 0.00021179506 -0.00036075266 -0.00027953062 0.0001235163 4.5448218e-05 0.00017208901 -0.00034338233 0.00046534458 0.00022362855 0.00020682963 -0.00022980341 0.00020655632 0.00046697768 -0.00045680604 0.0003398272 0.00017463289 -0.0003619713 -6.901226e-05 0.00018595284 -0.00026487836 0.00022189961 -4.474504e-05 0.00034175112 0.0002548983 0.0003423812 -0.000315091 -0.00033537202 0.000191747 -0.00037449226 8.2338e-05 -1.1070265e-06 8.1026665e-05 -0.00013831753 0.00044256746 -0.0004047546 -0.0004784455 -0.00035110398 -0.00029142774 6.919486e-06 0.00024331728 0.0003058085 0.0001622826 0.000107934815 0.00012793909 0.00011096971 0.0004814754 -0.00035067226 -0.00012840502 0.00020533106
矛盾 9.4564035e-05 -0.00010857617 0.0002527663 0.00015986983 0.00038206077 0.00033623425 -2.567177e-05 0.0004796844 0.00027521036 -0.00029787282 0.00015493551 8.382156e-05 0.00016446623 0.00025143984 -3.0410136e-05 0.000245077 -0.00012108237 0.00013173465 0.00033400778 1.8532413e-05 0.00032971453 -0.00020312781 -3.1732394e-05 0.00022813508 0.000256215 -8.031222e-05 -0.0004016302 -0.0003525454 -1.3690837e-05 -0.0003065131 0.0003285667 -4.7472335e-05 0.0003203535 0.000476149 -0.00046496725 6.0010057e-05 -0.00022842514 0.00043498937 -8.2936436e-05 -0.00028281973 0.00035295557 -0.000263319 8.250266e-05 0.00031922976 -0.00046092845 2.536085e-05 0.0002275269 2.5920903e-05 0.00039940834 -0.00028316438 -0.00016812792 -0.00044427425 0.00021215499 -8.759186e-05 0.00038618295 0.00021396686 0.00047630587 0.00039451633 -0.00015421172 -0.000496178 -7.5416756e-05 0.00029868603 -0.00019812502 0.0001268059 -0.0003602478 9.4458796e-05 -0.00018929104 -0.00046495904 -0.00010617712 -0.00025903646 0.00022460805 0.00030601694 -0.00030340438 -0.00029243404 -8.149875e-05 -0.00019517541 -0.0004651434 -0.0002645217 -0.0001532385 -2.5365402e-05 7.7503355e-05 0.00041232834 -0.00034449215 -0.00019217603 -0.00026525426 0.00043626296 -0.00023801648 -9.094751e-05 -0.00021438686 0.0003754051 0.00031288233 0.00013576922 0.00029490248 0.00047430326 -0.00040949925 5.7642505e-06 1.27215435e-05 -0.0002447842 0.00027563554 0.00018628682 -0.0004898526 0.00011331991 -0.00035045278 -0.00012626476 0.00023842326 -0.00010059635 -0.0003768184 0.00022387953 -0.00038472805 0.00016490769 -9.5939715e-05 -0.00029863298 -0.00033003307 0.00044897827 -0.00020193342 -0.0004760346 0.00046475336 0.00024318032 0.0003863076 -0.0003053867 -0.00043509356 -0.00023499008 0.00031968098 -0.00035850267 -0.00026147324 -5.2151117e-05 0.00048050052 0.00027841778 0.00045705092 0.00031101675 0.00012121975 0.00040503748 0.000236307 0.00014618211 0.00034671175 0.00048739943 -7.817074e-06 1.44774285e-05 0.00027197518 -0.00042705622 -0.000423468 -0.00045282315 9.396463e-05 1.0820734e-05 0.0004238601 0.00035248965 0.00027305438 0.00025052184 0.000165313 -0.00023437246 -8.41902e-05 -5.6548382e-05 0.00040874744 -0.00022063708 0.00039229757 6.243157e-05 0.00035686593 0.0004996061 9.598648e-06 -0.00014726979 -0.00025495235 0.000410297 0.0001159269 0.00045528854 0.00047335227 5.97873e-05 -2.035939e-05 0.0004641708 0.00039475423 -0.00012145555 0.00038492825 -0.00031319328 0.00013894496 -8.073938e-06 -0.00015635081 0.00030346695 0.0004967294 -0.00020571738 0.00029675406 7.96445e-06 0.00041048965 -0.00030583318 0.0003149258 -5.541902e-05 -3.1426367e-05 -0.00023518383 0.00049071026 -8.5431566e-05 -0.00018729467 -0.00038774413 -0.00016215844 0.00022228505 -1.5377867e-05 0.00043677958 -0.00035206854 -0.00032883167 -8.339338e-05 -0.00039889832 -0.00031771205 -0.00048093824 -0.00027631826 0.0003834584 0.00029411414 -0.00041434745 0.00049278437 0.00043863995 0.000499938 -0.00011455768 -0.00032918938 7.191109e-06 -0.00022226281 0.00027826222 -0.00035428806 0.00028958428 9.106881e-05 -0.00035381207 -0.00010841214 0.0004388727 0.00031359453 -0.00033733126 2.7781205e-06 -0.00040870925 -9.250157e-05 0.00018926099 0.00045041103 0.0002551025 -9.49599e-05 -0.0004670779 -4.5818804e-05 0.00034681565 -0.00023580757 0.00040718773 0.0004867748 -9.473322e-05 -5.8551606e-05 -0.00015112701 0.00022296952 0.0001948272 -0.00036270206 0.00012426767 -9.821759e-06 0.00045518484 0.0003732128 0.00041688402 -0.00022945229 -0.00038298286 9.958876e-05 8.96813e-05 -0.00031489597 0.0004828297 0.00040125303 0.0003903182 0.0003090646 0.00018553546 -0.00046563425 0.0004974392 -7.066085e-05 1.7940287e-05 0.00045498513 -0.00043388663 0.00028609697 0.00038201315 0.00010614528 2.749932e-05 -0.00018243238 -0.00036597365 0.00020832743 -0.00032232548 0.0004516571 0.0003709117 -9.720188e-06 0.00011562452 0.00010806302 -0.0002220193 -0.0002453402 0.00019751646 -0.0002693519 -0.00011766301 -0.00027797697 0.00021339525 0.00049082853 -0.00036717288 0.00010070336 0.00046593545 4.4620472e-05 0.00028062175 -0.00039793595 0.0003646438 -0.00042156817 0.00017818683 -1.8754516e-05 -0.00034899655 0.00016073893 0.00034977152 0.00033124635 -0.00042340904 -0.00016286818 0.00015270819 0.00010377072 -0.00010988423 0.00031231527 -0.00011497845 -4.3066007e-05 -0.00017328281 -0.00013877111 0.00049764663 -4.6776924e-05 2.883559e-05 -0.00038048238 9.13142e-05 -2.0254304e-06 0.00015409567 -0.00017377347 0.00022311433 -0.00037383748 -0.00014595351 0.0003409035 0.0004685027 -0.00021600016 7.514867e-05 -0.00025970823 4.5227345e-05 -0.00018402017 -0.00027462956 -0.00035938076 0.00045897794 8.284297e-05 -0.00040717958 0.00013571758 -0.00042589742 -5.461327e-05 -0.0004186255 -0.00040628552 -6.577319e-05 0.00046591606 -0.0003332863 0.00019946617 0.0003147069 0.00037413457 -0.0004889917 -0.00046367096 -0.00023261773 0.0002793688 -9.8367724e-05 -1.1472046e-05 0.00020746807 0.00048326078 0.0003071264 0.00049763446 -0.00032725537 -0.00043682838 1.3661474e-05 0.00031920284 -0.0002522641 -0.00010714641 0.00039668335 -0.0004957803 0.00018508168 0.00034567676 0.00031137612 0.00027908097 -0.0004477214 0.00028997348 0.00031104864 -7.788054e-05 -0.00021014463 3.932983e-05 0.00016717258 -0.0003065857 -0.00036119673 -0.00030078742 0.00011387613 -0.0004213324 0.00023281052 0.00045928857 0.0001993037 0.0003580356 -0.0003651501 0.00040821225 0.00020398268 -0.00044080697 -0.00029798574 -0.00049905607 0.0003419502 0.0002755721 -0.0002209207 0.00046203812 -0.00018415703 -0.00043340249 0.00027238953 0.00041999476 0.00017154892 0.0003808745 9.763089e-08 0.00039354333 0.00026685206 0.00044793397 0.0001389819 -0.00015778646 -0.0002671381 -0.00047068464 -0.00042397014 -0.00030221805 0.00015814103 -0.00026809028 0.00016192034 -0.00015564996 -0.00010345142 0.00012893639 0.0004783235 5.26765e-05 0.00013621396 0.00014904504 -0.00015187841 -0.0003651144 -0.0001892344 0.0002739595 6.555234e-05 -7.131849e-05 -0.00036524257 -0.00013596324 0.00016218869 -0.0004796872 -0.00045564942 -0.00037211936 0.00040321265 -0.0004894219 -6.0853083e-05 8.542215e-05 0.00018134134 -0.00043353788 0.0002897996 0.000270554 -0.00015243795 0.00042469343 -0.00047235916 -0.00038199982 0.0001277431 0.0001578052 -3.203542e-05 -0.00015110701 0.00016880412 -0.00037865696 0.00042199317 -0.00043234395 0.00011232369 3.9499406e-05 -0.0004000971 -0.00048168175 0.00042692779 0.00047028184 0.00041496078 -0.00024945292 -0.0001295222 -1.1113532e-05 1.3908281e-05 -0.0004403128 -0.00049090903 -0.00048785124 -0.00030046518 -0.0003786538 0.00011022531 1.784865e-05 0.00012418353 0.00021176707 0.00011478297 -0.00018085017 0.00017424002 -0.00048715583 -0.00045924762 6.348702e-06 0.0002114738 -0.00046912127 -0.00016660379 -0.00023750452 -0.0002716681 0.0003075919 -0.00034017814 -2.9049437e-05 0.00024137384 0.00021889637 -0.0003822111 -0.00046726543 -0.00036049524 -5.9404334e-05 -0.00024444086 0.00033490226 -1.8648625e-05 -0.00011993486 -6.9165995e-05 0.00011395963 0.00046439507 -0.00042138985 2.2333319e-07 -0.0004253154 0.0004439871 -7.0915175e-06 -0.0003766747 -0.000388386 -0.00021366085 -0.00023392095 -0.0004718102 -0.00014014155 0.00041003214 0.00026845667 0.00016737731 -0.0002221105 -0.0001961266 9.191022e-06 -0.00028265448 -0.00040660996 -0.00010885899 -5.6098394e-05 0.00030337318 -0.0001506508 1.138199e-05 -0.00036112627 0.00048497444 0.0004514388 -0.00026806517 0.00019772841 0.00029703946 -0.0002997335 -0.00019585427 0.00032474837 0.0003993418 -0.00020847631 3.5739376e-05 0.00028496818 0.000294119 0.00025462414 -0.0001661248 -0.00048148198 -0.00023125569 0.00035673956 -0.00048241531 -0.00014288633 0.00032817296 -0.00010925674 0.00021705846 -7.684883e-06 -0.00023441411 7.696416e-05 -0.0004816639 -4.376319e-05 0.00032111362 0.00030051701 -2.5073678e-05 -0.0001930304 0.00017974958 0.00020759845 -0.00040642874 -0.00036874134 9.813168e-05 -0.00027602538 0.000154575 0.00020630204 0.000266049 -0.00029884826 -0.0004944498 0.00037518307 -0.00049995584 0.000188228 -0.0001388414 -0.0004653013 -0.00010569469 0.000265422 0.00030107368 0.00041927598 5.4085558e-05 -0.0003537395 -0.0003731886 4.277708e-05 -0.0004741552 -0.000116117124 -0.00029194553 0.000110554996 -2.6610369e-05 0.0003811462 0.0004273534 0.00048774914 0.0003611049 0.00035529566 -0.00030558463 0.00045521336 -0.00032524767 0.0004895772 0.00011465148 0.00021915072 -0.00035555908 0.00026625703 0.00036615346 0.00020617498 0.00015252428 0.00012824203 -0.0001340751 0.00015535178 0.00040448396 2.2877715e-05 0.00031597132 0.00025753988 -4.530542e-05 7.5709446e-05 -0.0004325557 9.091486e-05 0.00018064777 0.0001949806 0.00047632857 -0.00021442198 -7.860891e-05 -7.0545604e-05 0.00039419933 -4.9810573e-05 0.00015607302 0.00029590089 3.524977e-05 0.0003064091 0.00015840509 0.0002037182 -0.00038360668 -0.00030833113 5.2719326e-05 -0.0003999781 9.959213e-05 -7.5329655e-05 0.00039966463 -0.00024819814 0.00029214716 0.000206399 0.00037313474 0.00024229832 -8.714822e-05 0.00011782405 -9.294169e-05 0.0004773077 6.86147e-05 0.00047685998 -0.00036336388 -0.00022698577 -0.00028010443 -0.00021074076 -0.00016838875 0.00036052862 0.00046591045 -0.00032669696 0.00049130555 0.00040001835 -0.00025595436 -9.0478105e-05 -1.0027242e-05 0.0002141354 0.00042553796 -0.00044208116 0.00045883047 -0.00028918826 0.0004991842 0.0002062008 0.0002204801 7.589947e-05 -0.00039113988 0.00039978986 -1.2010008e-05 0.0002474606 0.00021298497 -0.00015809012 -0.0003845308 0.00034949076 -0.00049548084 -0.000116557436 -0.00048104327 0.00034975883 0.0002530551 -0.00021359384 6.4138316e-05 0.00025936562 4.7203135e-05 -0.00020710521 -8.220769e-05 0.0004255314 -0.00022078147 -5.5242133e-05 -0.0002801385 0.00040207573 -0.00035864738 -0.00013127152 1.949127e-05 -0.00042262755 -0.00024483673 -0.00047161814 -0.00026685768 -0.00036775428 0.00021557111 8.498314e-08 -0.00048470325 0.000285517 0.00038806457 0.000397698 -0.00014738306 0.000179638 -0.00015495441 4.00021e-05 0.00028629007 -0.0004140771 -0.00031420184 0.00039163884 0.00015604786 -7.858432e-05 -0.00023756087 -0.00025404574 0.00029742275 1.2757313e-05 1.8785802e-05 -6.275623e-05 -9.2535865e-06 0.00043626118 -0.0003695359 0.00044790094 -0.00029890754 -0.00040752656 0.00022916523 0.000414506 -8.067066e-06 0.00019019935 -0.0002029368 -0.000188521 0.0001845809 -0.0002448304 0.0003005708 8.470339e-05 -1.4669619e-05 -0.0003497217 0.00026009115 5.138262e-05 -0.00013068298 -0.00016451965 -0.00023274845 -0.00011969801 0.00041147307 -0.0004955145 0.00035221776 -0.00023379299 -0.00030551545 -0.00049707753 0.0002942677 -0.00015503279 0.0004840356 -0.0004585721 -0.00034600124 0.00036015053 0.00020204241 0.0004798896 -0.00036826305 0.00015217876 0.00040782505 0.00035873495 -0.00031861218 0.0001576721 0.00017234155 0.00039124652 0.0004425787 0.00048563315 -0.00020417114 0.00025056623 -0.00020298883 -0.00029001335 -5.5121993e-05 0.00012674657 -0.0003529494 -1.2547264e-06 0.0001991969 -0.00012271563 0.00042692028 -0.00012172 -9.287823e-05 -0.00032760145 -0.0003117267 6.920402e-05 -0.0004402696 0.0004986167 0.00044562103 0.00018970406 -0.0002129266 0.00030091885 -3.6589354e-05 0.00043157357 -0.00015213157 0.0002858606 -0.00047727622 -0.00021392983 -0.00043518862 5.7857196e-05 0.00034418283 -0.00013676196 -0.00014662692 -0.000470304 -6.2200306e-05 0.00017874112 -0.00023263007 -0.0001700073 -0.00044328344 0.00035896187 0.00029720803 0.00015351166 -0.00010888612 -0.0003773321 -0.0002819469 1.7591014e-05 -7.788752e-05 0.00032242885 -0.000106455474 -0.0001010786 0.00015699115 -0.00028605724 0.00038587232 -0.00039354624 -0.00028971935 0.00021966678 7.348748e-05 -0.00016957583 0.00019872349 -0.000483668 0.00038385697 -0.00012424838 0.00028772684 8.6349944e-05 0.00037120577 0.00010195872 -0.00023694891 0.00039500959 -0.00038613216 0.000119280034 -4.054579e-05 -0.00022298668 0.00047395445 0.00035037927 4.4084103e-05 -6.0637612e-05 -4.0891013e-05 -0.00025081664 -0.00040057342 -0.0002735718 -0.00021863572 0.0003655405 0.00040771152 0.00018330826 0.00035791195 -1.9990996e-06 -0.00039613072 -0.00044833092 0.00033437155 -0.00046341974 -0.0001616367 -0.0001777689 -0.00015406735 0.00046160855 -0.00016333192 0.00013832348 -2.6915863e-05 0.00012495328 0.00039458592 0.00012164055 -2.0930696e-05 -0.00017334675 -1.6989896e-05 -1.0884818e-05 -0.0001595855 0.0003834246 -0.000364832 -0.00030884458 0.0003686938 1.1401242e-05 0.0002373887 7.537866e-05 7.455283e-05 0.00019117395 1.8584216e-05 0.00024300227 -8.561146e-06 8.8157845e-05 0.00013134212 -0.00023543584 -0.0003805505 0.0002883069 5.707487e-05 -0.00036003906 -1.5222977e-05 -0.00027847907 3.272944e-05 -0.00018302909 -0.000109607405 -0.0004976185 -0.0003237173 0.00020979329 -0.00040744853 -0.00040945312 0.00033219415 0.00038808247 0.00038711936 0.00034178406 7.080016e-05 -0.0003746947 9.868121e-05 -9.372061e-05 -9.914313e-05 0.00041620934 -0.00013126458 -8.2227554e-05 -9.7772165e-05 2.5842384e-05 0.00030943714 -0.00028979554 -0.00020734545 0.00042571797 2.7224922e-05 -0.00043057022 -0.0004573919 -0.00021386627 -6.910449e-05 2.263849e-05 -4.3451128e-05 -0.00035417773 0.00039904803 -0.00040346707 -0.00017284203 0.00031933672 -0.0003078189 0.00021115378 -0.00034282784 -0.00049446034 0.00042623817 -0.00022500212 0.00029125978 7.155341e-05 6.197079e-05 -7.661291e-05 -5.7393576e-05 -0.0004533033 -0.00022950004 -0.00039515417 -0.00040784874 -0.00047597312 0.0004912687 0.00022209341 -0.00023788541 0.00015471886 0.00040300642 0.00030400438 -8.284228e-05 0.0002943237 -0.00036254837 -7.364508e-05 5.3751715e-05 0.00045744932 -0.0003089005 0.0002744451 -0.00040208054 3.7307116e-05 -0.0002948542 0.00040287632 -0.00014232099 -0.00043360706 4.5370165e-05 0.00010782486 0.00036819285 0.0004895297 0.00023435116 -0.00018486401 0.0002403192 -0.00033815674 -0.00033171204 -0.0004706315 -3.8453716e-05 -0.00029086662 -7.96185e-05 -0.00038481678 0.00043695833 -4.774772e-05 -0.00023509323 0.00035976325 0.00029158796 -0.00021099525 0.00049243943 -0.0001616639 0.00027692516 -0.0003657091 -0.00043537904 -0.00025548067 -0.00012532665 -0.00014014279 0.00042415434 6.939624e-05 0.0003806838 0.0003186423 -0.00033319558 -0.00026525508 6.386621e-05 -0.00011468971 0.00017670811 0.00021584755 -0.0004732633
政治 9.2493225e-05 0.0003042238 0.0002023494 0.0004448289 -0.00011315646 -4.3311633e-07 -0.0003817448 0.00027774926 -0.00011463467 0.00028086628 -0.0004892044 -0.0003585681 0.0004785335 0.0003802199 -5.7922312e-05 -0.00041344887 1.6937365e-05 9.018951e-05 -0.0001490762 9.7216e-05 -0.0002827067 0.00047099058 0.00046383447 -0.00012351086 0.00041716333 -0.00017559236 -0.00017412333 0.0002781786 -4.1718147e-05 -0.00010087429 -0.00022184306 0.00043387825 0.0003392017 -3.32124e-05 -0.000495306 0.00014577915 0.0002940034 0.0001671815 -0.00036034497 -0.00020848765 -0.00017828715 0.00020768093 0.00026250674 -0.00020700808 0.00038845095 -0.00015599412 -5.3936266e-05 0.00023949145 -5.12259e-05 9.320024e-06 -9.209152e-05 0.00010590484 -2.88002e-05 -7.398518e-05 0.00034029462 0.0003784816 -6.113376e-05 0.00049768604 0.0004691763 -0.00032097576 0.00022565029 0.00036588003 -0.0004549965 -0.00016709372 0.00023874045 -0.00012532278 0.00039475854 -0.00031929914 0.0004981583 -0.00021096064 -0.00019926208 -0.00026518162 0.00021230784 9.723027e-05 0.0004794524 -0.00014982914 0.0003918498 0.00039059628 -0.0003686406 -0.00043124452 -0.00026400443 6.663032e-05 -0.00023858965 -0.00047472198 0.0003872963 -0.00025142642 -0.00011669097 0.00034916744 0.00034212117 -0.00027492893 -0.00035959235 -2.7789345e-05 0.0001883242 -0.00033743354 -0.00023733456 0.00038334273 -0.000115518924 -3.6733272e-05 0.00026929638 0.00027087767 0.00045304716 -0.0003242376 -0.00044011936 0.00044511113 1.8005601e-05 -0.00027255501 -0.00046243027 0.00047126826 -0.00027748212 0.0001600564 8.755179e-05 0.00047801275 -7.296243e-05 -0.00039548223 0.00049504987 8.8583154e-05 -0.00030308132 0.000154994 0.00018589012 0.00029746533 1.846998e-05 -0.00034331216 -0.0003017983 0.00019957242 0.00037989506 0.00039934673 -2.9113875e-05 -0.0004193283 -0.0001368747 -0.00016378211 -1.682296e-06 0.00023981559 0.00011390176 0.0004146859 -0.00014758173 -0.0004932446 -8.586885e-05 0.00045606014 -0.00036791238 0.00038370772 0.00023229263 0.00038648624 -0.0004399818 -5.1069048e-05 -0.00040500087 -0.0003895601 7.686436e-05 0.0004167511 0.00025304596 0.00016797942 0.00011960446 -3.625044e-05 0.000259634 -0.00027206176 -0.00033005854 -0.0004261665 -2.6387896e-05 0.00046726243 -0.00045957425 0.00032211648 0.00036532126 9.7149525e-05 0.0003406624 -0.00044234443 -0.00035493655 -0.0001463744 0.00018077812 -0.00042300817 -9.23581e-05 -0.000179073 0.000118721546 3.6758236e-05 -7.088694e-05 6.805915e-05 -1.3784646e-05 -0.00040122482 -6.6403765e-05 0.00033969857 0.00011449976 -0.00021614086 -0.00038199747 0.00033264057 0.0004673161 0.00046255314 0.00026428624 -0.0004378589 0.0003982455 0.00045237227 0.00041334395 0.00038921286 0.00034636413 0.00015358656 -0.00026536864 0.00036635745 -0.0004121878 0.00017942535 0.00011475856 -0.00024377694 -0.00023873914 0.00027846737 0.0004965932 -0.0002393271 -0.0004695583 -0.0002752798 0.00029547076 -0.000121039695 -0.00024092809 -0.00046346054 -0.0002621401 0.00023047978 0.00042166392 -0.00038605646 0.00046486643 8.352944e-05 -0.00010522124 0.00031370192 -2.8457876e-05 -0.00032939113 -0.00033355673 -0.00033063805 0.0004842625 -0.00017508281 -5.81632e-05 -0.0002729058 5.1987332e-05 -0.00041384832 0.0001527696 7.3384894e-05 0.0004285553 -0.00033899906 0.00015216562 -0.00028612636 -2.087118e-05 -0.0002700789 0.00047668503 -0.00022445327 -0.00021671533 0.00033605687 -0.000466007 -6.980837e-05 9.716121e-05 -7.97233e-05 -0.00043429714 -0.00011479233 -0.0004488286 0.0004344439 -0.0003629138 -0.0004239163 0.000195687 -0.0004847654 -0.00031949763 -0.00041735143 0.0002228134 -0.000186513 -0.00034881805 -6.493916e-05 -0.00011190971 0.0004477598 3.713264e-05 0.00046402853 -0.00032011216 -8.857781e-06 -0.00011825951 -0.00012014428 2.859393e-05 0.0004359717 0.00040479022 -0.000433589 -0.00035942585 0.00042415506 0.00030297035 -0.000107169595 0.00041536236 0.00012623724 -1.6228909e-05 0.00038922936 0.00013280437 0.00037712388 -0.00036596152 -0.00038775662 -0.0004254183 0.0002810256 -4.649638e-05 9.401008e-05 0.00027151543 3.0922634e-05 -1.9340598e-05 -0.00016142754 4.404785e-05 0.00013567935 -0.00020766811 0.0003564143 0.00020304744 -3.0750365e-05 0.00026245438 -6.277522e-05 6.168204e-05 -0.00035113547 -2.8212738e-05 0.00043014117 -5.905767e-05 -0.0001556506 -7.065635e-05 -0.00033416503 6.579338e-05 -0.00035666185 0.0004517845 0.00032453265 -0.00048569476 0.0004700448 -0.00029884235 -0.0002763349 -0.0001395185 -0.00032369455 -0.00039164413 0.00048400214 -0.0002852045 0.00035996345 -0.00013038277 -0.00018452968 6.73731e-05 -9.964733e-06 0.00023380433 0.00022631908 3.980914e-05 -0.00037505076 -0.00022296749 1.6364831e-05 -0.00038751104 0.00033908515 0.0001096451 0.00039568965 0.00017300312 -0.00025602704 -0.00047078417 -2.0420373e-05 0.0002677673 8.8944216e-05 -0.0002855247 0.00014318629 -9.598179e-05 0.00037216197 0.00033001654 -0.00024375603 -0.00037721233 0.00010462567 0.00018609673 -0.00017802714 -8.869608e-05 0.00035280088 0.00032729568 -0.000156974 -0.00041068046 0.00020555072 0.00016331613 -1.8623105e-05 0.00016926763 -0.00019615072 0.00040544718 8.092362e-05 0.0004519484 -0.00016715078 -0.00048300688 0.0003798699 -4.484299e-05 -0.0002190421 -0.00044562056 -0.00021949733 -0.00029884776 6.0651542e-05 0.000426558 0.00020013837 -8.2278784e-05 0.00025168346 1.2914258e-05 1.6993894e-05 -0.00026849413 -0.0004793626 0.00029436624 0.00020611081 0.0002929818 -0.000414744 0.00016562086 0.00025508602 -0.00034661044 -0.00043119336 0.0003621959 -0.00046739107 1.3688183e-05 -0.00039642982 0.00033310885 -0.0004964418 -0.00016961402 9.81759e-05 0.00043181764 0.00032860346 -0.00021408613 0.00035178795 -0.00019312161 0.00045708753 3.418089e-05 -0.00025648338 8.4236795e-05 -0.0003740378 0.0002052561 -8.047432e-05 -0.00034943 3.8254893e-05 -0.00010784301 0.00029113644 -0.00044149035 6.966304e-05 -0.0004983436 -0.00042179742 -0.00033504542 -0.00038876262 -0.0002883837 -0.0001751886 -0.00016296754 6.486286e-05 -0.00017071133 -0.0004643925 0.000167292 0.00011571441 0.00032876167 -0.00022909955 3.3334174e-05 0.00046033823 0.0003922994 0.0003213781 -2.4241226e-05 0.00027446955 -0.00043784094 -0.00025701165 3.3271324e-05 -4.780412e-05 0.00043512823 -0.00036956157 9.263254e-05 0.00018578423 -0.00033903506 -0.00024324303 0.00015746937 -0.00030939837 -0.000105945095 0.0002458392 0.00021668473 -0.00045337525 -0.00042002043 9.195176e-05 0.0002627681 -0.00040478967 0.00028335102 -0.00040984998 -0.00024190324 0.00034016842 -0.00031078828 -0.00019814684 0.000122505 -0.00034139268 -0.00029888126 -0.00043733892 0.00029093027 0.00019388447 -9.921128e-05 -0.00016804886 -0.00018706986 -8.274927e-05 0.00047446202 -0.00021358364 0.00024075934 0.00039062882 0.00029780925 -0.00048277865 -0.0003545618 -9.6360236e-05 -0.0004081585 0.000110703935 -0.00040034595 -0.00012341213 0.0004575601 -8.197427e-05 0.00010359009 -9.808768e-05 0.00012403472 -0.00038252844 3.2143394e-05 -0.00018228675 0.00026876508 0.00028689162 -0.00012220476 0.000113506176 5.2521857e-05 0.00014957829 0.00038254602 -0.0004353554 -0.00032169974 -0.00039643692 -0.00018352502 -0.00015138084 -9.7197844e-05 0.00040893603 0.00022631705 7.088654e-05 0.00048389268 -0.00036554036 0.0003711447 0.00039141785 6.829546e-05 -0.00023028567 -0.0004984674 0.00019656944 -0.00022727343 -0.00031812553 -0.000357056 0.00023294617 -0.00024368065 -4.844463e-05 0.00026535313 0.00047038568 -6.102005e-06 -4.9910668e-05 0.0002562602 6.866486e-05 0.00025068768 -0.00022291936 1.659455e-05 0.00025057752 0.0003177244 -0.00033810007 -0.00026302322 0.00035874627 -0.00027347502 0.00021123684 -0.0002250528 -0.00048483393 -0.000109664936 0.0003683635 -6.270324e-05 -0.00020922444 0.00040030404 0.00048999913 -8.070934e-05 -0.00043198848 -0.0004918328 0.0003861107 -2.8927008e-05 0.0002951177 0.00011644259 -5.0921935e-06 0.00025233804 -8.041955e-06 0.000100231046 -0.00021036452 -0.0004757913 0.00012325868 0.00045623118 0.00022116902 -0.00046805682 7.714617e-05 0.00021185752 0.00027863123 -8.1515245e-06 -0.00045525312 0.0004747227 0.00017912027 7.39558e-05 0.00016569725 0.00031330367 6.4561566e-05 -0.00020859706 0.00029194413 3.6307374e-05 0.00040547227 0.00011977492 -0.00021096203 3.2094958e-06 -0.00034356094 -0.0004620921 0.0002437226 -0.00025954843 -0.00022792106 -3.133805e-05 -0.00035026247 -0.00040206546 0.0002628381 0.00019003698 -3.899955e-05 0.00023368592 0.00037028387 8.572453e-06 -2.456382e-05 -0.00041711266 -0.0002687499 0.00020988744 -0.00049378566 0.00034083566 0.00028261892 0.0003669965 -0.00016966368 -0.00019786136 -0.00030743418 0.00014818911 -0.00047305116 -0.00017827864 -0.00042465102 -0.00045929308 -8.4161366e-05 -0.00040833032 -0.00027416294 0.00044473825 -0.00020332847 0.00017807586 -5.0158484e-05 0.00036552924 0.00022993381 -0.0002963097 0.0001525961 -0.00013924207 0.0002707656 -5.0161616e-05 -0.0003592038 0.00042414016 0.00035699763 0.00026824398 0.00019015702 0.0002497704 0.00027640729 0.00019640144 0.00036739133 0.00033337635 -8.351769e-05 -0.00019702532 -0.00035289844 -0.00039416895 9.068068e-05 0.0003415938 -0.000173625 0.0001437111 0.00024678037 0.00019811983 -3.8461534e-05 -1.5889726e-05 5.3330416e-05 -0.00046180273 0.0002633823 0.00033892706 -2.502208e-05 0.00024911336 0.00044622613 -0.00020413479 8.1191756e-05 -0.00016620626 0.0002532273 -0.00030718217 0.00031726048 0.0001952717 -0.00040657286 0.00019766187 -0.00031784363 0.00019286809 0.00022325478 0.00025211388 -0.00032719236 0.00034640814 0.0004889361 -0.00047540583 0.00042581832 7.6697404e-05 0.00046549956 0.00048422746 -0.00020920722 -7.554575e-05 -0.00041464032 -0.00022954473 -0.0004941019 -0.00021668478 0.00039564187 -0.00017852525 0.00021899672 7.174603e-05 0.0003778008 -0.00042138106 -0.00028237436 -0.00018320819 -5.5662164e-05 -0.00033422787 1.6295651e-05 0.000485699 -0.00022473712 0.0004449477 -8.211493e-05 -0.00026389337 0.00034152807 -0.00033485715 -0.00016462966 -0.0003663187 -0.00035787694 0.00010905004 -0.0004120284 6.0843646e-05 0.0002904562 0.00021509374 6.367051e-05 -0.00049312535 -0.0004257983 -8.415e-05 0.00042712287 -0.00014157893 -0.0004885294 -0.00035228694 0.00040825157 9.867957e-05 -0.00019247222 -0.00043961615 0.00017977106 -9.3260525e-05 9.095659e-05 0.0002453592 2.6977035e-05 -2.6377207e-05 -0.00044187042 -0.00012366059 0.00021282907 -0.00044294525 0.00033719678 3.5069726e-05 0.00044173736 -0.00042035035 0.00014533878 -0.0001781343 -5.3971205e-05 0.00012699729 -0.00017049428 -0.0002951992 0.00031171233 0.00049086247 0.0004845286 0.00019397208 -0.00012453792 0.00018622981 0.00028636405 0.0003044586 -0.0004682851 -8.069362e-05 -0.00012132882 9.350551e-05 -5.879433e-05 -0.00029325736 0.00043260294 -0.00017010671 -0.00021898777 -0.00022343757 -0.00023467372 -9.7006005e-06 0.0004985115 -0.00017261844 -0.0004198828 -0.00030110762 -0.00019420216 0.0004470021 -0.00030444382 0.00026492827 -0.00011323397 -0.0002742335 6.0983824e-05 1.8662098e-05 0.0004132987 0.0004277443 0.00030559627 2.8552067e-05 0.00026947216 -0.00031813042 -6.823507e-05 -0.00020858464 3.2934004e-05 0.00036149172 -0.0004501174 0.00046494906 0.00027693188 0.00038650128 -9.929315e-05 -0.00022019977 0.00022063531 -1.9463927e-05 0.00020703921 0.00037236908 1.9095885e-05 0.0004864892 -0.000432659 -0.00025272043 -0.0002580599 0.00022003414 -0.00015875805 0.00040289084 0.00013386569 0.0003597804 -0.00047785128 0.0004295545 -0.0001617956 -0.0003687531 0.00024479144 0.0002295498 0.00026308885 0.0004525669 0.0003304141 -0.00030365656 0.0001814695 9.2215756e-05 -4.4996705e-05 0.00048192043 0.00018630507 -0.00034159492 -0.00037885414 0.00022200048 6.167349e-05 7.269415e-05 0.00049440225 -0.00046065793 0.00013882208 -0.00038571516 0.0002473556 -0.00035918882 0.00040790287 7.9451296e-05 0.0002918394 -0.0004803151 -0.00036016622 0.0004990435 0.00042674207 0.00021417468 -0.00024783798 5.6941277e-05 0.00043211613 4.9744096e-05 -8.65563e-05 0.00049659156 -0.00029850018 -0.00018517161 6.241631e-05 -0.00021884528 -0.00012634648 -0.00010423058 1.3133752e-05 -0.0004231556 -0.00019266139 -0.00033730495 0.00045988974 -0.00030260588 -0.00020236762 -0.00034979382 7.973764e-05 0.00034052596 -1.0315539e-05 0.00043345205 0.00049008126 0.00029923377 -0.0002819201 0.00048132162 -0.00013442404 0.00031558878 -0.00012645156 -0.00022786348 -0.00015531649 -0.00041485042 6.6955886e-06 0.0001830493 -0.0002850124 -0.00045473262 -1.9348486e-06 -3.3080927e-05 -0.00015206098 8.59719e-05 -0.0001338013 -0.00020189665 0.00024207043 0.00042290508 -4.2949526e-07 0.00022484502 2.8992827e-05 -0.00014294335 -6.0572565e-05 -0.00020515714 -0.00036315923 -0.00030900037 0.0004999796 3.164741e-05 0.00047407404 3.6406662e-05 -2.5010482e-05 0.00026432224 -0.0004455954 -7.921511e-05 0.0003352689 -0.00023941808 -4.6121484e-05 -0.000464628 -0.00035758107 -0.00018807473 0.00047133284 -2.7113685e-05 -0.00033545142 0.00034738192 -0.00018465292 0.00046288618 0.00023950032 -0.00010591263 0.00020818604 -0.000430516 -0.00041879556 0.00021486214 -0.00015999505 -0.00018206204 -3.4131623e-05 -0.00031787777 -0.0001378126 0.0002144146 6.5948316e-06 -1.8420971e-05 -0.0001836757 0.00027441836 -0.0003653194 -0.00021452643 -0.00047397122 -0.00043205498 -0.0003591508 -0.00032609707 4.6347344e-05 0.00020656007 0.00025741442 4.5748435e-05 0.0003625185 -0.00049987144 -0.00043344317 7.460484e-05 -5.758984e-05 0.00012289132 -0.00040998112 -0.00049898034 0.00018664103 -2.4181245e-05 0.00029635496 0.00030524458 -0.00028397894 -4.5800305e-05 -0.0001508843 -0.00033287783 -9.3119e-05 -0.00041730265 0.00036196556 0.00018665736 -0.00043202718 -0.00040876845 -0.00015982483 6.3908315e-05 0.0001912282 1.8181827e-06 0.0002195758 -0.0002916846 0.0002231298 0.00040154904 0.00047832957 -0.00011805375 -0.00019478034 -0.0004377202 -0.00022988876 0.00022623444 0.00043484007 0.00019253265 -2.5754634e-05 -0.00025588134 -0.00047640933 -0.00011817869 -0.00019811152 0.0003431565 -0.0004997657 0.00030890713 -0.00013720039 -0.00018906772 -0.00034402683 0.00028695498 0.00030737597 0.00015584735 -0.0004892087 2.317993e-05 -4.371576e-05 0.00030703374 6.142995e-05 -0.00014351578 0.0004834179 -0.00024723803 9.834691e-07 0.0003955172 -0.00016772345 0.00031138156 0.00010540937 0.0002538282 0.00032499194 -0.00037499398 -0.0004683446
敌人 0.00015385097 -5.438116e-05 -0.000417361 -0.00023235915 -0.00040487852 0.0002648789 -8.005009e-05 -0.00020366469 -0.00030744413 0.00042444994 -0.00029684984 0.00019409496 -0.00042121808 -6.248854e-05 -6.985413e-05 0.00042010756 -0.00015500808 0.00027003515 -0.00021221071 -8.082606e-05 0.00049918104 4.1271614e-05 0.0004292409 -0.00046785592 -0.0003225027 -0.00041416808 7.725347e-05 -0.00033541565 3.6558085e-05 -0.00034999696 0.000262 -0.00040121362 -0.00012061302 0.00047133188 0.00026784212 0.00034437448 0.00012730379 -0.00029435309 0.00028050164 -5.0832787e-05 -0.00016123493 0.00017793156 0.00030815374 -6.003755e-05 0.0001759788 9.0409485e-05 0.00022447981 0.00018727376 0.00010465368 0.00027309533 -0.00017497702 0.0002932186 0.0003329808 0.000120284574 0.0004645328 -0.0003071982 0.00010798469 0.00033719538 -4.6171703e-05 -0.0004065856 0.0002519147 -0.00028093427 -0.00044123706 -0.00042669923 -0.00045265953 -0.00013766905 -0.00024272983 0.00048086158 -0.0002282957 -0.00019754944 -8.1769365e-05 0.0002497759 0.00035451527 0.0001957478 -0.00024901045 1.0880103e-05 7.617144e-05 0.00043103518 -3.7671474e-05 4.1995063e-05 -0.00048033614 0.00044243992 0.0001982952 0.00012754614 0.00047741304 -3.88909e-06 0.0004925684 0.00029647496 0.00019441794 0.00044356225 9.2774035e-06 -0.00035543417 -0.0004557555 0.00018232534 -1.638648e-05 0.00040446015 -0.0004999491 0.00036710108 0.00042689336 -0.00026572926 -0.00026876427 0.0003963646 -0.0003877984 7.7010285e-05 0.00025415013 -0.00048629925 1.5088502e-05 0.00041068258 -7.444924e-05 0.00029879058 0.0001511382 1.9159732e-05 -0.00013983806 0.00029779453 -0.00013903802 -0.000465415 -0.00030410482 -0.00020847245 0.00020211494 -0.00034290436 0.000113596514 -0.00034153374 0.000131904 -0.00037680802 -0.00029744624 0.00023736715 -0.00019726087 0.00046204217 -0.00014042227 -0.0001337762 0.00030529237 -0.00034790408 -0.00017498793 -0.00029870492 6.355445e-05 -0.0001618486 -0.00045936217 0.00012323602 0.00010007659 -4.1391788e-05 0.00037123397 -6.290436e-05 -0.000112449634 -0.00045566683 0.00041064312 0.00022748382 0.00036179193 0.00048638025 -0.00035401268 0.0003492293 0.00020180621 -0.00045585944 0.00024562224 -0.00048105398 0.00020792923 2.4367038e-05 0.00022709764 3.171247e-05 0.0004783136 -0.00047725879 0.0004005093 -0.00024386049 9.726847e-05 -0.000115444964 1.9153735e-05 0.00016412669 -0.00036796226 2.2500322e-05 0.00023150384 1.8738698e-05 -0.0002636026 0.0004547918 0.00017373258 0.0002108102 8.761414e-05 -4.009437e-05 0.00044491238 -0.0001711954 0.0003790932 -8.8137385e-05 0.00037258113 0.00033745033 -0.0001607579 -0.00018359102 0.0003530351 -0.0004555444 0.00046013255 -0.00029749263 -0.00038076044 -0.00038891027 0.0002934868 -0.0002844509 0.00030821058 -3.9579125e-05 -0.00043052432 0.00024293554 -0.00019368337 0.00018538782 -7.174137e-05 -0.00018010961 0.00019488776 -0.000260797 0.00046766858 -0.000106591935 0.00031583692 0.00025116204 -0.00025530186 -0.00018786278 7.5288306e-05 -0.00010718949 0.00041267526 0.00017003716 0.0004942284 -3.25494e-05 0.00021301127 0.00017110081 6.848049e-05 0.00021990843 0.0004694652 0.00022499966 -0.00045072797 -0.00039965828 -0.00021339046 -0.00028166355 0.00020523871 0.00023093197 0.00010578973 -0.00018758136 -0.00033415845 8.577792e-05 0.000245825 0.0004622611 -0.00048653584 0.00021378948 -0.0003370412 0.0003351554 0.00029258773 3.455853e-06 -0.00012512247 0.00037207454 -0.00044112385 -0.000110180845 0.0003363022 -1.9889707e-05 -0.00019576984 0.0002688969 0.0004325615 -0.0003135632 -0.00019743296 0.00042690098 -0.00033930092 -0.00025272623 -0.00025360438 -5.7594807e-05 0.00046577564 -0.0004992659 -4.1217612e-05 -0.0001879752 -0.00039442853 -7.092826e-05 0.00018544048 0.0003657019 -0.00037575033 -0.00021788958 0.00027976683 -9.093967e-05 -8.854812e-06 -0.0004979875 9.3776034e-05 -7.662138e-05 -7.618408e-05 -0.0003589403 9.799301e-05 -4.075334e-05 -0.0004789803 0.0005000484 -0.00047784176 -9.379678e-05 0.00021327492 4.7271606e-05 0.0004896403 -9.561092e-05 -0.00020041325 -0.00019654511 2.2882059e-05 0.00010337119 0.0002917631 0.00033790682 0.00011134346 -7.558443e-05 -0.00047269725 -0.00042581145 -0.00032489604 -9.770647e-05 -0.00024183333 -0.00021577129 0.00046853878 -0.00033664657 0.0001282662 6.539147e-05 -6.616459e-05 0.00019395078 -0.00048015767 -0.00014561898 0.00034848668 0.00035237696 -0.00012017275 -0.00047660287 6.251465e-05 0.00038987907 0.00022790382 -1.3052535e-05 -3.8300863e-05 -0.00031347628 0.00044223413 -0.00049548264 0.00021318803 -0.00034346996 -0.00019479978 -9.7893746e-05 -0.00021329029 -0.00036130176 0.00023504357 -0.0004335711 4.4641798e-05 -4.8548733e-05 0.0003517676 -0.00025404926 -9.230839e-05 -0.00010952798 -0.00047232694 0.00016818948 -0.0003605839 5.8032478e-05 0.00024683337 0.00010975511 -0.0002561574 0.00026295055 0.00042409732 0.00044305946 0.0003901327 0.00031344843 -0.00049022195 -0.00030406445 0.00020373502 -0.00025179292 -3.6515037e-05 0.00041616737 4.519298e-05 -0.00032911077 -0.00024519503 0.00015298782 -0.00039991582 0.0003059436 4.9764327e-05 0.0002821828 0.00019162073 -0.00031699648 0.00023432478 1.3823311e-05 -6.8634777e-06 -0.00037662033 0.00013179943 0.0003932084 -0.00020001014 -0.00041042126 -4.4969824e-05 -0.00041595593 0.00042068536 6.731515e-05 -0.00017733265 1.9837491e-06 0.00021801978 -0.00028605465 -6.6641485e-05 0.0004409191 -0.00020220323 0.0003278957 0.00015618002 -2.2513697e-05 -0.00034307275 -0.00017666254 -0.00046176428 -0.00042908348 -0.00023504932 0.00035245562 0.00042800384 0.00029614448 -0.00017771711 -0.00030113742 -0.00013943411 7.396758e-05 -0.00037340858 0.00045269605 -0.00021549489 -0.0004002775 0.000308222 -0.00021274204 -0.00038670786 -4.04933e-05 0.00045200935 -0.00047556203 0.00019491381 0.00030828067 -0.00014384507 7.1875314e-05 0.00040416908 -0.0004697409 -0.00018950588 0.00010465673 0.0003687009 0.00048173332 0.00013698204 -0.0001489803 8.5360574e-05 0.00020839994 -0.0004506716 -0.00030429306 -0.00034877565 0.0004114647 -0.00013664116 0.0002437923 -0.00015027593 -7.380664e-05 -0.00017941582 3.4354023e-05 -0.00040379172 0.00018007949 0.00044232485 0.000103857594 -0.0002438266 -0.00044549815 0.00020637175 0.00016253389 0.00032655272 0.00019804783 -6.650019e-05 0.00039167743 0.00024239856 -8.573707e-05 9.171364e-05 -0.0003328435 0.0004552037 -0.00031146436 0.00022064976 -0.0004496249 2.6758109e-05 0.0003687601 0.00013028028 0.0003023025 -0.00026850725 0.00010286538 0.00012423856 0.00021050208 0.00031715367 -0.00043395415 0.0002286261 0.00037480376 0.0001830464 -0.00043641657 -0.00022428548 -0.00041347614 0.00029593144 0.0002592343 -0.00022651989 0.00013544834 -3.9743212e-05 0.00038057394 0.00015043352 -0.00023852829 -0.00014756073 -0.0004045864 0.00016713298 0.00035975748 0.0002693032 -0.000114281334 0.00017199253 -0.00035342088 0.00037309958 0.0003197234 1.0575882e-05 -0.0002919899 0.00033924912 -0.00042558776 -0.00024027356 -0.00013243088 0.0003845791 0.00043248374 -9.878551e-05 -9.05885e-05 0.00029157376 -0.00044678574 -0.00045295164 0.00011492019 1.700526e-05 -6.303266e-05 0.00031798042 -0.00016173885 0.00015441494 0.0003234944 -0.00018702768 0.00025079362 0.00045936357 -4.4447144e-05 -9.556698e-05 -0.000304229 0.00032742694 0.00013606867 -0.00032743672 0.0002752368 0.0002903672 -0.0004712124 -0.00035948504 0.0003424621 0.00013952391 4.5270215e-05 -0.00038508515 0.00035617815 -1.39513895e-05 -0.00028638696 0.00041111026 0.00022357455 0.00028200465 0.00022337714 -0.0004522993 -5.1000126e-05 4.7329286e-05 5.53517e-05 0.00022966415 2.1845766e-05 0.00013738284 0.00027930614 -0.00027690086 -3.0973086e-05 -0.000493241 0.000367713 0.00025803383 0.00025789218 -2.0306814e-05 0.00039412317 0.0004028447 -0.00040721387 -0.0004798267 -0.00012894529 -0.00045347438 -0.00041499917 -0.000430811 0.00028028575 0.00013934402 -0.0001394991 -0.00040373683 -0.00027694265 -0.00015878338 0.00013727488 -0.00023275598 -0.00020472759 -6.662587e-05 0.00023788198 -0.0002463578 8.6179345e-05 -7.012756e-06 -6.3216496e-05 -0.00012194297 3.2372786e-06 -5.43768e-05 0.0004118711 0.0002092075 -6.899401e-05 -0.00017586573 0.00018917429 -0.00014608844 -8.074408e-05 -0.00034616818 0.00020220228 -0.00014755676 -9.4289506e-05 -0.00013545532 -0.0003517991 -0.0003619706 0.00036015606 -0.00029279123 0.000253799 0.00022115614 0.000110615416 -6.5234235e-05 -0.00021791275 -0.0002739982 0.000101916456 4.0024766e-05 0.00027357516 0.00042700022 -7.7098315e-07 -4.1018004e-05 0.00042077692 1.604987e-05 0.0003870267 -0.00019882734 -0.0003954186 0.00033991365 3.9283674e-05 -1.1910336e-05 -0.00024368735 -0.0002535424 0.00033245224 0.00022224669 8.647459e-05 0.00016444483 9.832348e-06 -0.00049779256 -4.813643e-05 0.0001484918 -0.0003927816 0.00036845205 0.00039732025 9.012221e-05 -0.00048436006 -0.00033496524 0.00039324752 -2.7734053e-05 0.0002953253 0.00023718715 0.00020730373 -1.3361592e-06 -0.0001847062 -0.00035097005 -0.00034075507 -0.00034917818 0.00038361267 0.0003827049 -7.9396115e-05 -0.00011559735 -0.00044257598 0.00022401186 -3.851823e-05 -0.00037667374 0.00033117985 -0.0002525322 0.00014191224 -1.9210009e-05 -0.00041800633 -0.00027239535 0.0001742709 -0.0001783798 0.00041602508 -0.00010394309 -0.00046103328 -0.00010340174 -0.00022757566 0.00038735275 -0.00026655887 -4.71492e-06 -0.00019689115 0.00043803806 -0.000102029066 0.0002912861 -0.0003104951 0.0004879947 0.00036374512 0.00032374237 -0.00013794757 -0.00013953965 -9.0103946e-05 -0.00030874982 -5.58584e-05 -0.00034777896 0.00039573282 -0.00044796578 -0.00016956445 -0.0001929071 0.00028167988 -0.00033220186 0.00020655183 -0.00022833335 -0.00029271265 -3.139116e-05 -0.00037307927 -0.0001696871 -0.00016771817 -5.884122e-05 0.00016954102 0.00015371905 -0.00041086006 -8.50558e-05 0.00014164817 -8.770264e-05 0.00013757242 -0.00033332538 -0.0002891303 0.00033741555 -0.00044475027 -5.9422702e-05 0.0003991129 -0.00036874673 -0.00013036223 0.0001793068 0.000288776 -0.00047179707 0.00041574892 -0.0001580587 0.0004490252 0.00027207145 -0.00034701428 8.047154e-05 -0.0003327225 -0.0002718173 0.00033425112 8.7392036e-05 -0.0001776969 0.00043322679 7.385063e-05 -0.00035223467 0.00017547821 -1.918633e-05 -0.00046829917 0.00029294752 6.124841e-05 -5.002474e-05 -0.00031854367 -0.0004952279 0.00046365074 0.0004017712 -0.00029850288 0.00010971113 -0.00020381619 0.00046664357 7.291576e-05 -7.004746e-05 -0.00044675378 0.00013193059 -0.0002402825 0.00022929383 0.0001362383 0.00020304964 -0.0001664635 0.00040108888 -0.00016552374 -0.00027314882 -0.0004430592 0.00036105287 0.00017181825 0.0002278564 -0.00016056903 -0.00013799654 -0.000268525 -4.0428047e-05 0.00032886563 -0.00047899593 7.522825e-05 -0.00041871078 1.590152e-05 0.00025836803 -0.0002634066 -0.00043185125 0.00018149675 -0.00013029523 0.000105290834 -0.00014324514 -0.00036564836 0.00040354618 -0.0004973971 -0.0004497663 0.00048001274 -0.00028998157 -0.00024204153 0.00016088644 0.00014269208 0.00021403494 0.00015456341 -0.00042414272 0.00031913 -0.000113561124 0.00029877666 -3.110547e-05 -0.0004625951 -0.00039307703 0.00045072922 -0.00038318615 -0.00042128123 -0.00011298502 -0.00022207099 9.1152295e-05 5.2793843e-05 0.0003627196 0.0001778886 0.00035598874 -0.0004385152 -0.0004602833 -0.00010494169 0.00026209257 0.00045080477 -0.00044649173 0.00010298668 -3.0652573e-05 -0.0003225872 2.9109322e-05 4.7484256e-05 0.00037921517 -0.0003506996 -0.00015257476 0.0002548255 0.0003462677 -0.00032011257 -0.00048127226 0.000168689 -1.7710865e-05 0.0001500455 -0.0004205179 0.00028717887 0.00022878186 0.000120627556 0.00012365115 -0.0003495122 -0.00039298736 -6.6497e-05 4.1877498e-05 -2.3618209e-06 0.000146649 1.768651e-05 -0.00039782005 9.355607e-05 0.00034270357 0.00032139278 0.00024322407 0.00033693775 -5.23252e-05 0.0003689511 0.0002685041 -0.00032504988 -8.9463516e-05 -0.00024855547 8.058234e-06 0.00035913623 0.00013474084 0.00022533923 -0.00039959076 4.6911282e-05 1.7936392e-05 -0.0002125015 0.00035391023 -0.00046508864 0.0004504539 -0.00019163953 0.0004111948 -0.00027311392 -3.8502007e-05 -8.101439e-05 -0.00034211934 0.00029047352 0.00017543914 -0.0001536222 -0.00047165732 0.00021970067 7.1847726e-06 -0.00045723224 0.0002761158 0.00025378208 -0.00024071446 -1.972323e-05 0.00011208526 5.263888e-05 -0.00043996447 0.00038149796 0.00045484197 0.00026789913 -5.5389268e-05 -0.00014845736 0.0002657372 3.223483e-05 0.000103923536 -0.00012473331 0.00030682888 -0.00042986686 0.00017586771 -4.6858462e-05 -0.00018010089 -2.7278575e-05 3.4836354e-05 5.814608e-05 -0.00026128173 -0.000107669315 -0.000110369125 0.00038602945 0.00026185624 0.0003789324 -2.8661721e-05 8.18319e-05 0.00037424895 0.00042664006 0.00030775936 3.7629656e-05 -0.0003880836 3.6118276e-05 0.00031207126 -0.00039606832 5.102255e-05 -0.00036375035 -0.00013176384 -6.4944565e-05 -0.00037016097 0.00040508196 -0.00016129 0.000276383 0.00010048434 0.00038975565 -0.00045323488 -0.00041925817 -0.000308069 0.000256731 -0.00022727442 0.0001383781 2.8664095e-05 -0.00022025456 -0.00016874839 -0.00013046869 0.00012681703 -0.0002839083 0.0002902317 -0.00025067313 0.0003687522 0.0004169684 0.00015839523 -0.00036626836 -0.00011384557 0.00032261972 0.00034022963 0.0001215609 0.0002462333 -3.4200344e-05 1.6788392e-05 9.4524075e-05 0.000104109735 6.530898e-05 -2.548183e-05 6.262837e-05 -0.0004620717 0.00016889846 0.00047660957 -8.437437e-05 -0.00022351451 0.0002859709 -0.000468737 -0.00023385398 0.00030579529 -5.0782895e-05 -0.0003944765 0.00011585426 -0.00022053589 0.00036211716 0.000479949 -0.00012149763 0.00049871067 0.00029443635 0.0002501236 0.0004684328 -2.472969e-05 -0.00015559467 -0.00026721007 0.0002142332 -0.00042182292 0.00032168275 0.00035073387 0.00028349902 -0.00039892172 -0.0004984726 -3.9530903e-05 -0.00036869216 -0.00024316 -0.00013720266 0.0004307036 -0.00028257698 4.598733e-05 -0.00017411032 0.0002574617 -0.00033899947 0.00039056037 -0.00040480783 0.00038178937 -0.00043741576 0.00026861497 -6.356467e-05 -0.00041197866 0.00048531857 -0.0003436542 -0.0002720327 -1.9061024e-05 -0.00010840216 -5.0468723e-05 0.00042326542 -0.0003850274 0.00016472564 -0.00035351713 0.00035741358 -7.810074e-05 -4.9947626e-05 -9.727087e-05 -0.00025094723 -0.00025740292 -0.0003981768 -0.00014395417 0.00043715208
战争 -0.00030137223 0.00039942784 0.00035172014 0.00035012927 -0.000411272 -0.00022581285 -0.0003688909 0.00017022586 7.958782e-05 -0.00042668896 0.00026778207 0.00010106272 -0.00014459915 0.00048280266 0.00042985252 0.00014639134 0.00047848118 6.9783923e-06 0.00022241083 0.00036946117 0.0003204155 0.00024940431 9.206924e-05 0.0001369576 -0.00043179802 -9.073714e-05 0.00036449693 0.00029046056 -0.00049178663 0.0002177376 0.00020344993 -0.00023189414 -5.532028e-05 5.006032e-05 -6.107615e-05 1.789573e-05 -0.00028159356 -4.2178257e-05 0.00017130381 -0.0004981042 -0.00018699649 -3.8765185e-05 -0.0002515067 0.0003767234 0.0003104583 9.3302755e-05 -0.00022541078 -0.00016815946 0.00036446712 0.00015162396 0.00021787098 6.846274e-05 0.0001798824 -0.0004746767 -0.00016166377 0.00024288992 -0.00019019011 -0.00046385478 -0.00013667918 0.000427572 -7.0269575e-06 0.00045604305 -0.00026159015 0.0004115025 0.00033493992 0.0004056176 0.0003199506 -3.773235e-05 0.0004219519 0.00014223898 -0.00024352774 8.4588435e-05 5.2138068e-05 -0.0004726939 6.397997e-05 0.0001033414 -0.00022042473 -0.00034366563 -0.00010783622 0.00015305706 -0.00030937832 -0.00010518228 -8.913319e-06 5.519505e-05 0.00012922908 -0.00044070889 -1.1952164e-06 0.00041830647 -0.00036523282 0.00026556375 -0.00031012046 -0.00022614162 -0.00027394074 -0.00010216615 -0.00038908518 0.00012228903 -0.00048707827 -0.0002733535 8.621464e-05 0.00046517613 -0.00016289965 0.0002846668 7.753306e-05 0.00025998437 -0.00022461724 -0.00016097946 -0.000330639 -0.0003744611 0.00036160194 -0.00018088144 -0.00025448465 0.0004297988 -0.0004266217 -0.00048103428 -0.0004334326 -0.00041190756 0.00031210412 -0.00023391013 2.275656e-05 -5.482922e-05 0.00018882877 -0.00030476155 -0.00033352585 0.00045640237 6.0368442e-05 -5.8486108e-05 -5.2342522e-05 9.066919e-05 -0.00019369087 -0.0003658087 -0.00035119476 0.00042419057 -0.00018545166 -3.2168715e-05 -0.00037161694 -0.00011077694 -3.3658187e-05 -0.00046208888 -9.932223e-05 0.00031137426 -0.00043471594 0.00024156252 -0.00047101345 0.00032038492 1.5819842e-05 -0.00028875537 -0.0002736769 -0.00035609104 0.00029245229 0.00034485853 -9.006436e-05 -5.899704e-05 -0.00042078912 -0.0002041276 0.0004686315 0.000429315 0.00027944444 0.0001501142 0.00040435462 -0.0001739901 -0.00013759358 -0.00013186786 0.00016708445 0.00022603618 0.00037098723 -0.00030505544 -0.0003363841 -0.00044832475 0.00021775822 -0.00024615775 0.0003251616 4.544136e-05 0.0004236043 0.00036641967 0.00034969987 -0.00031341513 4.8701037e-05 -0.00049428985 -0.00036408243 -0.00044788595 0.00022611726 6.175742e-05 -0.00043809076 0.00044428295 -0.00012367817 0.00022219382 0.00047056106 -0.00039009552 0.00022379811 -0.00042911695 -0.00024881496 -7.06049e-05 -2.3280196e-05 1.6847589e-05 -0.00017564074 1.6240081e-05 0.0004960017 -0.00037297915 0.00019393672 0.00040781146 0.0004998417 3.832134e-05 0.00043686433 0.00025327582 0.00013803708 8.791644e-06 0.00028000856 -0.0004894736 -0.0004874755 -0.00016714606 0.00035516702 -0.00031906893 -0.00045167987 -0.00041188032 0.00012936012 0.0004588031 0.0002671559 2.1057465e-05 8.739269e-05 0.00043721212 0.00011512173 -0.0003264521 -0.00017138336 2.8062488e-05 -6.4904394e-05 0.00028605154 5.2565e-05 -0.00020370778 -0.00011812073 -3.412038e-05 0.00014528053 -3.964112e-05 -0.00036691013 0.00046668056 0.00025096326 5.597599e-05 0.00018458648 -0.00047758114 -0.00036164184 0.000414144 0.00041026482 -0.0002916709 -9.6778305e-05 0.00017843512 0.00014611559 -0.00039726385 -0.00014011451 0.0003227851 -0.00011068151 -0.00042419828 5.969971e-06 -0.00027179107 0.00039169157 -0.00043264066 5.0084927e-05 -0.00025961184 -9.454368e-05 -0.00028717727 0.0003826345 0.00043474158 0.00025781943 -0.00029626902 -0.00041010464 0.00020903327 8.429411e-05 0.00011059133 0.00025941507 0.00041537842 0.00024860827 0.00014627104 6.8392816e-05 -0.00024637312 -0.00023378253 0.00016109689 -4.9905306e-05 -1.7750099e-06 -5.590563e-05 0.00046028386 -0.00047311056 -0.00039419078 -0.00044841412 0.00017004494 0.00015606939 0.00032707892 -0.00022293875 -0.00022758087 0.00037760197 -0.00035473012 -0.00025073581 0.0002702584 -0.0002057566 0.00029785678 0.00012670494 0.00043398634 0.00015768013 0.00011529829 -2.5135812e-05 2.7785794e-05 -0.00022033809 -6.8509915e-05 -0.0001587488 -0.00041660693 0.0002702185 0.00029907998 0.0004629283 0.00018300998 0.0002366993 0.00030681668 0.00028234496 0.000120974444 -0.00039247907 0.00028344145 -0.00024303856 0.00028820286 0.0003499989 0.0001660223 0.00023690364 -0.00042625994 0.0004070413 -0.00041744372 -0.00012873634 9.676476e-05 0.00013840539 -0.00020615694 -0.00045062552 -8.823445e-05 -0.00020449788 -0.0002556667 -0.0002510136 0.00016396606 1.5409902e-05 -0.00043562189 0.00010653906 -0.00040453003 2.8352642e-05 0.0004731113 -0.00030126254 0.00042920018 0.00016209029 -5.298079e-05 0.00023353419 -0.00042513304 -0.00033970084 0.0004557117 -0.0004185351 -0.0004326418 8.5577005e-05 -0.0002186933 -0.0004159377 -9.2766015e-05 0.0004170174 0.00018234937 0.00045231622 0.00048335933 0.00031712386 -0.000111070425 0.00035977524 0.00016365829 -0.00039436293 0.00031652473 3.2088028e-05 0.00038948815 5.552808e-06 0.0003057759 0.00025516705 -0.0002463911 -0.0003387217 -0.00019145118 0.0003274803 -0.00034153485 0.00028219636 0.0004360041 -0.00020747313 0.00024493312 -0.00010392137 -0.00018838575 -6.729886e-05 -0.00037679533 5.554054e-06 -0.0002909553 -0.00041538148 -0.000109118264 0.00035908696 -0.00043781125 -0.00044152976 1.858682e-05 -0.00010066207 0.00039904626 0.00023180826 0.0003401089 -0.00039415996 0.00035257186 -0.0001675318 -0.00023375908 -0.00015092369 0.0004969566 -9.1191665e-05 0.0004015629 -0.00041421712 3.4510726e-05 -0.00043594732 -0.00016887912 -0.00030907852 -0.00034892227 -0.000280164 0.00017896676 -0.0003833094 -0.00045187172 -0.0004919824 -0.0002835696 3.266909e-05 -0.00011467037 0.0002476075 -0.00016873641 -0.00044803187 0.0004791433 -0.00028402446 0.00023079987 0.00016504341 0.00025072548 -0.0003905305 0.0004794044 0.00036971318 -0.00012184489 0.00048824045 -0.0002846278 -9.637573e-05 -8.527412e-05 0.00035426795 -0.00032907433 -8.13765e-05 -0.00023145055 -6.787567e-05 0.00045611607 -9.8036464e-05 -0.00039678262 0.0001966338 0.00011615699 -0.00022626268 0.00031955034 0.00018844621 0.00036936786 -0.0004764539 -0.00014473646 -0.00012972686 0.00028545927 -9.965997e-07 -6.1289524e-05 0.00023685234 -0.00024346921 -0.00044743996 6.799172e-05 0.00014296279 -0.00034163802 0.0004510433 0.00037668782 0.00018676558 -0.00034013324 -0.000492818 3.8784834e-05 -0.00010565727 -0.00020958405 0.0004541802 -9.975684e-05 0.00046534563 0.00036177385 0.000105772924 0.0001382938 -0.00039841398 -0.00025172578 0.00024190884 0.00047102117 -0.00021176768 0.00040142078 -1.6075279e-05 -0.00021827916 2.4824662e-06 -0.0001122689 0.00044956783 -0.00027050648 -0.00045919034 -6.571424e-05 0.00025798677 0.00021356357 -0.00048349216 0.00046491428 9.373991e-05 0.0001607803 -0.00013325419 0.00024822846 -0.000356732 -8.904953e-05 -0.00011992231 -0.000434838 -0.00030307207 -1.0350871e-05 -0.00029109925 0.00011761622 -0.00048281386 0.00046024087 -0.0002406525 0.0003096395 -0.00030491117 -0.00033447635 -0.00027267123 -0.00022152677 4.795669e-05 -0.0003373371 0.0003903846 -0.00039578727 0.0001558662 0.00041081526 -0.00046243478 1.8728365e-07 -0.00023948347 0.00029959047 -0.00036518407 0.00015668625 -0.00028729002 -0.00013753511 -0.00037664484 0.00018938127 0.00038980652 -0.00039666492 0.0003381381 0.0002584249 0.00039474943 -0.00017290411 7.9403944e-05 0.0001555935 -0.00049689785 -0.00020253094 0.00016376536 0.00041478703 7.0098286e-05 -0.0002368076 0.000441133 0.00041818997 0.00016387698 0.00048527366 -0.00021269743 -0.00036413115 0.00039469317 -0.00017192376 -0.00035635123 -0.00032851548 -6.369244e-05 0.00011924965 -0.0002743148 0.00021663785 4.525803e-06 -0.00015596405 0.0001181287 -0.0001874137 -0.00033986935 -0.00024655435 -0.00018046933 -4.949799e-05 -0.00040190172 0.00027745235 -2.115674e-05 -0.00047395637 -3.8577196e-05 -0.0002270835 1.4763491e-06 0.0003949843 -0.0001751973 0.00017500375 -0.00041449047 -0.0003949892 0.00047133997 -0.0004165831 -0.0003865695 -0.00043486172 0.0003662312 0.00012559972 -0.0003792764 -0.00045497654 0.00022809717 -0.00017486713 -0.00019780363 7.3196155e-05 0.00018375186 0.00041817618 0.00044221937 -9.901616e-05 -0.00025981586 -0.00041071099 0.00012206543 0.0004063911 -0.00042193392 -0.00013075034 0.00029844927 0.00013043481 -0.00028118122 0.0003324918 -0.0004191828 0.00045004048 0.00026275287 -0.00020174363 5.8299778e-05 5.349734e-05 0.00017957043 -0.0001603997 -0.00012772133 -0.00044762657 0.00020680537 -0.00043468014 -0.00035556863 -0.0004765974 8.918549e-05 0.00040914348 -0.00040654934 8.464664e-05 0.00044969012 0.00030912156 0.00046210692 -0.0002126438 -0.0001404302 -0.0003626027 -0.00023564708 0.00041258917 9.669327e-05 -0.00040600277 -7.2642164e-05 0.00036004456 6.692755e-05 0.00013047938 -0.00019106262 0.00014822559 -0.00024472093 0.00034366144 0.00047486054 0.00022206288 -0.00014311989 -0.000119127675 -7.900439e-05 0.0003549831 -0.00044823418 -0.00033257424 -0.00043858067 6.615164e-05 0.0002709721 -0.00035193108 -7.214191e-06 -0.00015741699 0.00012277465 0.0002882992 0.0001981656 0.00016859359 0.00049158925 0.0004876227 -0.00028673414 0.000495565 -0.00021227093 -0.00033101116 0.00035663694 0.00015588023 0.00023210749 -0.00040518967 0.00018164668 -7.3770923e-07 5.588646e-05 -7.946632e-05 0.00039439998 -0.000495439 0.00043572483 -4.3572334e-05 -0.0004918754 -0.00033561248 0.0004328968 -9.772867e-05 -4.4001004e-05 0.0002699068 -0.00042131866 0.0001348188 -0.00032831216 6.454375e-05 0.00017976575 -0.00038798305 -0.00017487182 -0.000113973976 0.00040518626 -0.00022838287 0.000120917386 0.00030753514 -0.0002520306 0.0004780304 -0.00032496228 0.00013297466 0.0001746164 0.00026413225 0.00038953492 -0.00034288625 -1.5716982e-05 0.00033328813 -0.00045259803 -0.00011624218 0.000109144996 2.0763004e-05 0.00037465486 -0.00029518397 0.00034728248 0.0003205771 0.00040170303 0.00031510292 0.00043362752 0.00035514406 -0.00015128752 -0.00011722351 -0.00011719277 -0.00029034753 0.00024690168 -0.0002521086 8.206335e-06 -0.00025116708 -0.00028697526 -0.00040763465 -0.00041639947 0.00013770802 0.00040893152 0.0001880111 3.9577335e-05 0.00039302258 -0.00027793384 -0.0002706601 -0.00026401607 0.00035250394 -7.605062e-05 -0.00049644726 -3.713067e-05 -2.8507138e-05 -0.00039312488 0.00013191112 0.00024115997 -0.00021323038 -0.00022476498 0.00041537735 -0.00037625805 0.00049635797 -0.00033841887 0.0004308443 -0.00010815238 0.00032855946 0.0003439911 -6.411764e-05 0.00043965757 0.00018190932 0.00029583022 0.00019230638 -0.00030069382 0.000139582 -3.1828546e-05 0.00029200004 7.2368675e-05 0.0004982695 0.000100545214 -1.555772e-05 -0.0003495488 0.00029047581 0.00026597784 0.00018860388 -0.0003175533 -0.00033125453 9.40728e-05 9.7525226e-05 -0.0002677922 0.00022727165 0.00046943207 -0.00024436973 -0.00041152147 -0.00033122042 0.00024383157 -0.00020309113 7.489431e-05 -0.00039673908 0.0004383548 0.00012584729 0.0004830246 0.00019158646 -0.00039921136 0.00010463463 0.00015993854 -0.00017613287 0.00043168265 -0.00023059228 0.00025426448 -0.0004721158 0.00033051736 -0.000110226996 -0.00028373834 -0.0003063935 6.180484e-06 -4.2912256e-05 -0.00033590125 0.00036086817 -0.00044724232 -0.0003305513 0.00017262928 -0.00029904224 -7.489454e-06 0.00019791193 0.00018391926 -9.4137955e-05 3.9119823e-05 3.1438503e-05 0.00038184616 -0.00023689555 0.0003242509 -0.0002243763 -0.000116774754 0.00040815718 0.000189672 0.00046797784 8.256434e-05 0.0004742505 -0.0003121252 -7.225834e-06 0.00026704877 0.00021842653 -0.00048600681 -0.00029435495 0.0004130544 0.00024346367 0.0001501934 -0.00018226691 -0.0003859103 -0.00015151176 0.00047307395 -0.00026580784 0.0003605809 -0.00024619626 0.0001321565 0.00043465022 -0.00029425407 -0.00023998933 -0.00022678009 -2.0643776e-05 0.00014981037 -0.000102513215 -0.000185535 -0.00049860723 -6.2737075e-05 0.0003675211 -0.00019071782 2.7327455e-05 0.00023328894 -2.0935224e-05 0.00019939168 0.00020634856 0.00044601742 -0.00046015985 -7.426925e-05 -0.00013813762 -0.00029936375 0.00032997382 -0.00023512355 -0.00011919973 -0.00032414123 0.0001971768 -0.00014555118 0.00036970925 -0.00023490454 -0.0001280428 -0.00041836902 -0.00043437717 0.00011494011 -0.00023941413 -0.00015014508 -0.00043627043 5.8397898e-05 -0.00037566462 0.00014098884 -0.0004922635 -0.00049789815 -2.948136e-05 -0.00028879504 -0.00041289692 -7.0682996e-05 -0.00023124336 -0.00025857106 -0.0001244262 0.0004344099 -0.0004938256 0.00030736453 -0.000252399 -0.00043384204 -0.0002030103 0.00034736557 -0.00046708045 -0.0004890937 0.0004467866 -0.000126401 6.481776e-05 0.00035316078 0.00017690107 -0.00022135221 -0.00011981701 -0.00014307839 -4.1815132e-05 -6.5652326e-05 0.00020177648 0.00016693039 0.00038106056 -4.0561128e-05 0.0004739903 0.00021987586 8.390413e-05 -0.00027818276 9.709874e-05 -0.00023507814 0.00032371943 0.0003835208 -0.0004389668 -0.0003255941 0.00040248275 0.000107171436 0.00012884992 -0.0001246562 0.00043850986 -0.00027752455 -4.617896e-05 0.0004745346 0.00035859577 0.0003013353 0.00023367978 -0.000152306 0.00019003668 -0.00034175953 0.00012436458 -0.00049322005 -0.00020099562 -6.0890343e-05 -6.334275e-05 0.00012312016 1.7404453e-05 -0.000100249774 0.0001237713 0.00022385652 2.4823612e-05 -0.00029531552 6.789616e-05 -8.023697e-05 -0.00020950234 -3.5978188e-05 -0.00011398722 0.0003573321 0.00039829646 2.282181e-05 -8.3945415e-05 -0.00047750244 1.5888232e-05 5.6703375e-06 0.00017153924 -0.00048089217 -9.53186e-05 0.00036272933 -0.00026110772 -0.00031028123 3.823495e-05 -0.00017940364 0.00045976677 -0.00025899746 -0.0002215585 -0.00044825964 -4.71292e-05 -0.0004550628 0.000439459 -0.00022225262 -0.00031020824 -0.0002591264 0.00021714436 0.00048750712 -0.00024172702 -0.00012587139 -0.0004961846 -0.00041095982 -0.0004285128 0.00025686048 -1.349035e-06 -0.00026905807 -0.00027066577 -0.00015017946 0.000290901 -4.8250113e-05 -0.00019692045 -0.00046700024 -7.988623e-05 -0.00013477537 -0.00043785924 0.00038233743 0.00037995278 0.00049477274 -0.0001265079 -3.173254e-05 0.00037742988 0.00041699104 -0.00024919354 -5.5449083e-05 -2.9465473e-05
