135 300
革命 0.0014104083 -0.001079807 -0.0009094806 0.001044232 -0.0013419437 0.0013881067 -0.0014635749 -0.0010946599 -0.0014554822 0.00039442425 -0.0009589022 -0.0017792057 -9.299247e-05 -0.0012996261 0.00045109307 0.00059164385 4.5729685e-05 -0.0011870838 0.00053170254 -0.0007052988 0.0004066156 -0.00021071282 -0.0010461792 -0.0007831161 0.001369491 -0.00070652267 -0.0014378679 -0.00016381787 0.0011643899 -6.418779e-05 -0.001168773 -0.00084808434 0.0015993557 0.0012631 -0.00020349867 -0.00042401705 -5.1385803e-05 0.0006971976 0.00045144508 -0.0007222468 -0.0009897548 -4.366729e-05 0.0005800115 -4.3446606e-05 0.0010400356 -0.0010090694 0.00023161835 0.00089889317 -0.00019625692 0.0014178281 -0.000507628 0.0009447861 -0.0013960318 -0.00047982545 0.0013866017 -0.0015426837 0.00054328673 -0.00055379444 0.00068297365 -0.00014108639 0.0014199503 0.0010995073 -0.0007702742 0.0009904315 -0.00067572546 0.0005402591 -0.001063576 0.00025808244 0.0016551306 -0.0016846765 0.00069894764 0.00031461677 -0.0014315821 -2.3125345e-05 0.0009975698 0.0011371722 0.0014042726 -2.1046782e-05 0.0008008128 -0.0014399111 -0.0009827918 0.00152611 -0.0005722604 0.00040260612 0.000789811 0.00039931774 0.0010459569 -0.00033678696 0.0015231771 0.00067390036 -0.0015849934 -0.0012026326 0.00086615083 0.0012892714 -0.00070757593 -0.00020063721 0.00026198057 -0.00062227034 -0.0009862371 0.00046323033 0.0010925602 0.00021750928 -0.0011825139 2.580119e-05 -0.0010242809 0.00051607564 -0.0007060143 0.00025810473 -0.000911794 -0.001584538 0.00079640216 -0.00093851716 0.00042134066 0.001105432 6.415896e-05 0.00093842804 -0.00029052186 -0.0006111649 0.0004365536 -1.96293e-05 0.00067432696 0.00046575294 -0.0010404178 -0.0011069818 0.0011281386 -8.773843e-05 -3.2215066e-05 0.00045675467 0.0006174951 0.00038509016 -0.0013268079 -0.00088822993 -0.0013791859 0.0010545303 0.0009600844 -0.0011016399 -0.001629338 -0.00049525214 0.0013554099 -0.0014849466 0.000623923 9.015014e-05 -9.21209e-06 0.0009345177 -0.00062878075 0.001130485 -0.00087378494 -0.00039816985 -0.00010057582 5.699055e-05 -0.0003710361 -0.00086609385 -0.00012372991 -0.0004976532 0.00018658188 4.006941e-05 -0.0013039653 0.001298366 0.00030274075 -0.0010930761 -0.00065598177 -0.00012485268 0.00052923075 0.00029285022 -9.189312e-05 0.0007265278 0.0007030862 -0.0010775645 0.0014275525 -0.00067032076 0.00023250966 -0.00025193527 -0.00068359094 -0.0010719375 -6.9112684e-05 -0.00044360713 0.0008928196 0.00011130033 0.0014680779 -0.0012360617 0.001223896 -0.00052047084 5.272097e-05 -0.00070779223 0.0013881661 0.0007000117 -0.0005488741 -0.00029906235 -0.0013634912 -0.0009960092 7.942157e-05 -0.00067935087 0.001664947 -0.0013208184 0.00030362795 0.00021690941 -0.0016775975 -0.0004986742 0.00064103794 -0.00077870564 0.0007934062 -0.001541794 -0.00048246386 0.0014759867 -9.2380025e-05 -0.0010708704 0.0010120578 -0.00033123477 -0.0006397409 -0.00094201585 0.00048273703 -0.00010574255 0.0011929283 0.00062622025 0.00025531094 -0.0010785447 -0.00066311297 -0.0014470505 -0.0010802835 0.001305433 -0.0009804283 -0.0005526296 -0.00019182778 1.7216369e-05 0.0016585733 0.00069908315 0.0016512641 -0.0003452458 0.0013507466 0.0006734273 -0.00056695315 0.0014090773 0.0008505304 -0.0001690011 9.8236254e-05 -0.00043377024 0.00093590224 -0.00103726 -0.00134146 0.00092235947 -0.0016411507 0.0010156278 6.126076e-05 -0.0010807286 -0.0012186617 0.0012052632 -0.0012636215 -0.00087413774 -0.00027885972 -0.0010724223 0.0012044654 -8.584017e-06 -0.0011490188 -0.0007808916 -0.001264879 -0.0010301811 0.0009507995 -0.00041385868 -0.0006282965 0.00021334109 -0.00017206902 0.00016120035 0.0006692306 -0.0011289022 0.00021227823 0.0014428931 0.0014770374 0.001289853 -0.000651839 -0.00031944716 -0.0006440493 -0.00024132941 0.0011797411 0.0004614607 -0.00070969475 -0.0011991964 0.0015785864 0.0007343194 -0.0002560329 0.0012222121 0.0006246848 0.0006651971 0.0007020779 -0.0014375026 0.00081667496 0.0011415528 -0.00037546188 -0.00055258366 -0.0010773757 -0.0011980343 -0.0015364202 -7.2752526e-05 -3.2864154e-05 -0.000601083 0.00027770957 -0.00043883375 0.0013252496 -0.0015657566 0.0006010573 0.0010138322
矛盾 -0.0010249529 -0.0012389994 -0.001065986 -0.00030268016 -0.0011144346 0.00029891226 0.00077809364 -0.00060776377 -0.0001410087 -0.0009984497 -0.0005651149 0.00077006186 -7.6746364e-05 8.874034e-05 -0.00056075054 -0.00019562605 -0.0011596116 0.0016130442 0.00013448835 0.00020471084 -2.2712924e-05 0.00095954293 -0.00051336404 0.0011791809 2.4299059e-05 -0.0014341661 0.0015490175 -0.00093953183 -0.00023264112 -0.0015945779 0.0009425622 -8.405264e-05 0.00058250694 0.0014941619 -0.0016091856 0.0011679686 0.00038052443 0.00034721603 0.0011924945 0.00020777245 0.0010071399 0.00040187506 -0.0013508651 -0.0006115665 -0.0009673705 0.0009007831 0.0014149905 -0.0008027156 0.00158178 -0.0009555799 3.254339e-05 0.0005041466 -0.0013669999 0.00025141466 0.00017886645 -0.0011054139 -0.0013689776 -0.00039804785 0.0012982759 -0.00044633084 -0.00090027286 -6.831337e-05 0.0013083732 0.0014579433 -0.0005731905 -0.0015169322 0.0003843217 0.00066644646 0.0012877518 -0.00076552236 0.0011223287 0.0016182173 -0.0016320123 0.0010546908 0.00094705867 -0.0012298188 0.0010371676 0.00041819844 -0.00056887034 0.00016967715 0.0010631112 0.0012465018 7.877305e-05 0.0013328057 -0.0012794172 -0.001232238 0.0015567092 -0.0007584464 -0.0010721927 -0.0011600278 0.0014884542 -0.0011461031 -0.0011252215 0.00068101723 0.00022870942 -0.0014455355 7.897332e-05 -0.00079068134 0.0004198167 -0.0001294669 -2.1676942e-05 0.00042385957 -0.0008615005 0.00052028784 0.0008938682 -0.0006571166 0.00036887173 -0.0003131528 0.0003459933 0.00030609145 -0.0016001137 -0.00038794574 -0.0002951351 0.001439217 -0.0013571411 -9.434041e-05 -0.00088888174 0.00090333493 -0.00034090452 0.0016463142 0.0014819823 -0.0016939846 -0.00041199714 9.471796e-05 0.0016020046 0.00048518353 0.0015300947 0.00025271648 -0.00057121547 0.0008013103 0.0006126784 -0.00011436293 0.0015671661 -0.0016206929 0.0004822501 0.00055176055 0.0006041906 -0.0006048856 -0.000897134 0.001391169 -0.00018786872 -0.0013224013 0.0013235139 -0.0013833644 0.00016502888 0.0015743223 0.0015762366 0.00071042666 -0.00088926876 -0.0005618404 6.388627e-06 -0.0002232307 0.0005655035 -0.00059141533 0.0010149056 0.00067671493 0.0007699719 -4.612936e-06 0.0015135715 -0.0013388258 -0.0011533509 -0.0006988406 0.00012814823 -0.00016893854 -0.0015930329 0.0014149339 0.0016310051 0.0010259717 -0.00029171922 -0.00023111612 0.00040625726 -0.0010932054 0.0011161967 -0.0013114976 -1.7427341e-05 0.0009349507 0.0014680146 0.00090366823 -0.00013446507 -0.0004987256 0.00032192495 -0.0009009859 0.00031126267 -0.00034633835 -0.0014645241 -0.0013980423 0.0010989468 0.0014454303 -0.0013052201 -0.0007560859 -0.0013755817 0.0005159361 0.0013370218 -0.00018242623 0.0010943615 -0.0014670253 0.00078119687 -0.00030335004 0.0009973099 -0.001398175 -0.00034851744 0.00012415725 0.00038578938 -0.0003992533 -0.00043077226 0.0014458011 0.00111918 0.001427375 0.00045164648 0.0007675062 -0.0009769433 -0.0004968782 0.000742999 0.00019886918 -0.00082493795 0.0011413319 -0.0014248552 0.0010394178 -0.00015719316 -8.4067615e-05 0.0006328322 0.0014277524 6.1014896e-05 0.00030260315 -0.00016578515 -0.0011631947 -0.00029529707 -0.0009098875 -0.00018079772 0.00050703477 -0.0013171881 -0.0012795752 0.0016596745 -0.00030830016 0.0009107588 -6.1349536e-05 0.0014451471 -0.00091117166 -0.0013197912 0.00013029783 -0.0016428268 -0.00064654095 -0.0016098038 0.0012534965 0.0014316692 -0.00154566 -0.0016289238 0.0015934414 0.0008389914 0.00033012382 0.000217021 0.000721822 -0.00013871718 0.0012575145 -0.00076799013 -0.00042504747 -0.00093601673 0.00019893314 0.0013700357 0.0014738363 0.00034895047 0.0016810313 0.00092575257 -0.0011396903 -0.0015515654 0.00062061776 -0.00079567375 -0.0015227965 -0.0006553458 0.0006834551 0.00076639996 0.0007220411 -0.0011739681 0.00041305096 0.0005566506 0.0011890568 0.0008520665 -0.0010307147 0.0006902617 0.00042570205 -0.0013659486 0.0016878044 0.00089034374 0.00026404217 0.00086633203 0.0004941632 0.001298822 -8.650125e-05 -0.001315254 -0.0012349355 -0.0014994558 -0.00068821537 0.00013667055 -0.00020245375 9.276083e-05 -0.00027607265 -0.00021997027 -0.0014970175 -0.0012947086 -0.00093362684
群众 0.0012510646 -0.00010223422 -0.0009121031 0.0006983069 -0.0015195507 -0.0013815041 -0.00091907254 0.00039078167 5.9224643e-05 0.0001568817 -4.779969e-05 -0.0005703307 0.0007248863 -0.0009162059 -0.00020053487 0.0010930082 0.00083556667 0.00028514132 0.0014429594 -0.0012357507 0.0006167091 -0.00014440222 -0.00028214318 -6.7105066e-05 -0.00024434456 0.0010964097 7.681944e-05 -0.0010393165 -0.00016101144 0.0013234561 -0.0010341055 6.205912e-05 -4.49106e-05 0.0011574542 0.00011582349 -8.490821e-05 0.0013695648 -0.0002989642 0.0014318697 0.00095407164 -0.0005646723 -0.00011319515 -0.00018209167 0.0009382362 0.0013929624 -1.5564332e-05 -0.0005475644 0.0007192773 -0.00029812052 -0.00079942733 -0.00077740214 -0.0017217698 0.00077266124 -0.0013338359 -0.0007482715 0.00048039737 -0.00023165806 0.0010563555 0.0007929089 0.0011270206 7.637154e-05 -0.0007698307 -3.1893487e-05 0.00010468177 0.0012793143 -0.0006985677 0.0014097291 0.00037418862 0.0017365931 0.0005218881 -0.001655799 0.001316288 0.00024625316 -0.0007249563 -0.00074391876 0.0008540831 2.362822e-05 -0.0015927092 0.0005596817 0.00072887546 -0.00022947381 -0.00032167605 -0.001463647 -0.00093254534 -0.000583027 -0.0014169931 -2.0648835e-05 -0.001345056 0.0013398515 0.00046378994 -0.00026923788 0.0005467214 -0.0009842267 -0.00076036825 0.00014224615 0.0004066033 -0.0011326538 -0.00050454 -0.0014799483 -0.0013940734 -0.0013062543 -0.0005831403 0.0008585235 -0.00021097323 -0.00079053163 -0.000821278 0.00017997496 -0.00071774196 3.8904833e-05 0.00047036482 -8.198797e-06 0.00065783213 -0.0008445522 -0.00036871055 0.00081232795 -0.00018661594 0.00013070088 0.0003188093 -0.0006121731 -0.0011372948 7.979185e-05 -0.00018572652 -0.0011751975 -0.0008481474 -1.1029618e-05 0.0009786162 -0.00032084776 -0.0012196113 0.0015093421 0.00021578245 0.00046552595 -0.0009575585 0.00014495662 -3.1438805e-05 3.466818e-05 0.0010239052 0.00021993567 -0.0002527641 -0.0016586544 -0.0010925501 0.0013290928 0.0009625295 -0.0006952638 0.0009617293 0.00067150185 0.0012027986 0.0005054196 -0.0010706199 0.0016916434 -0.0016534007 0.00085714884 -0.00034875545 -0.00031862408 -8.602757e-05 0.0012489764 -0.0016229723 -0.0010864933 -0.0016177446 0.00039903892 0.00013680143 0.00038355356 0.00054503384 -0.0011156268 0.0003616243 -0.00022955157 -0.0013483658 0.0016523035 0.0008071029 0.0016729655 -3.8149352e-05 -0.0013699151 -0.00046739163 -0.00044290914 -0.001106819 -0.0015639206 0.000536049 -0.00016787005 -0.0014998153 0.0016256402 0.0015466319 0.000107314474 -0.0006943701 -0.00094482506 -0.0005740983 0.0014130778 -0.001221492 -0.0013911843 -0.0007281611 0.00072576164 0.00016493145 -0.0015646558 1.473398e-05 0.001241715 0.0006119902 -0.0010897139 0.0011325821 0.0007209012 0.0009710966 0.00055882346 -0.0015198308 -0.00044996082 -0.0008338752 -0.0009943314 -0.001567237 -0.0013684835 0.0004228657 0.001426557 -0.0013841244 -0.0012353347 0.00047864506 -0.00086624164 0.0009931772 0.00012789786 -0.00072445744 -0.00029480414 0.0014848174 -0.0016099894 -0.00055424584 0.0011244861 -5.0972787e-05 -0.0010824758 0.0011947795 0.00075361924 -0.0016471866 0.0013730214 -0.0005252597 -0.00023472177 -0.0016340096 -0.00033614904 0.00037701367 -0.00042871688 0.00076588575 -8.845238e-05 0.0005736525 -0.00042897015 0.0010644245 0.00021255187 -0.0005381718 0.0015458845 0.0015866974 -0.0008869608 0.00160112 -0.0009141805 0.00015808546 0.0009325333 -0.0014573983 0.00015016296 -0.001277644 -0.00031951183 -0.0007727625 0.0015324459 0.00055719755 -0.00037945452 0.00059240795 0.0013850105 -0.0001407459 -0.0011807114 -0.0016918764 -0.0012853426 0.00095328386 0.0013684124 -0.00044980453 -0.001088133 0.0008812286 -3.6983794e-05 0.0011264941 0.0012851746 -0.0008908769 0.0016092395 0.0006574844 -0.001185255 0.0010762607 0.000974158 -0.0007010081 -0.0011436967 0.0007194392 0.00027314125 0.0017026595 -0.0010450347 0.00011781372 -0.0005685946 0.0014426179 0.00016229834 0.0012108877 5.4653752e-05 2.6176263e-05 -0.0017334516 -0.00048323267 0.0014586932 -0.00017126204 0.00048096158 0.0015605268 0.0015696923 -0.0006704322 3.9782655e-05 -0.00038011992 -0.00059677754 0.0011894649 9.8150784e-05 0.0006878105
战争 -0.001609685 -0.0013993894 -0.0011407745 0.0014733957 0.00080368534 0.00022538622 0.00054645847 0.0014794756 0.0014530577 -0.0001529539 -0.001159873 -0.00090275717 -0.0011316041 0.0010761187 -0.001607499 -0.0008742933 -0.00085998036 -0.0013012649 0.0001808132 0.0006716548 -0.0001968321 0.0013340631 0.0011917575 0.0014227706 0.0011674855 0.0004480066 0.0010977124 0.0012986702 0.0014202852 0.0016102864 -0.00050935865 0.0016388135 0.0012139429 0.0010291926 0.0002444005 -0.0015429708 -0.00052267814 -0.00077768794 0.0015749672 0.00085647317 0.0013577403 -8.381993e-05 -0.0011016448 -0.00047515094 0.000102977225 2.269877e-05 -0.0003112504 0.001527092 -0.0007180392 -0.0013337997 -0.0011588298 0.00039952574 0.00078674854 0.0014476357 -0.0014781973 -0.0008326921 -0.00010294718 -8.3868144e-05 5.2723237e-05 0.00026491057 -0.00035188123 -0.0009911285 -0.0014811605 0.0002593698 -0.0013937227 0.0014994388 -0.0014400793 0.00019720278 0.0001802436 -0.0015326231 0.0013679294 0.0003386211 0.00017409856 -0.0002313418 0.0005927768 -0.0008813677 -0.0007288502 0.0011713773 0.0011274153 -0.00017241648 -0.0002971777 0.001063805 0.0015781992 0.0011140791 0.00089067704 -0.00081730494 0.00016142243 -0.00025880025 0.00052496145 0.0009404303 -0.0010887319 -0.0005757177 0.0013041225 -0.00070187444 0.0013326416 -0.00040438096 -0.0016333009 -0.00077562226 0.00017320392 0.00073032413 0.0012176931 2.0444977e-05 3.170412e-05 0.0015227741 0.0011017922 4.8039325e-05 0.00052199117 0.0012737617 -0.00082505547 0.00068547874 0.0004387385 0.0011054949 -0.00073935546 0.0007516316 0.0002382848 -6.6574066e-05 0.0013677403 -0.00037779502 -0.00041647034 -0.00082321063 1.8237779e-05 0.0010753036 -0.0014553434 0.00028212796 0.00045653697 -8.118878e-05 -0.0001414725 0.001303778 0.0011577121 -0.00031121427 5.042652e-05 -0.00072176213 -0.0015954814 0.0015608985 -0.0013257755 0.00091740617 0.0011313496 -0.0011917766 0.0012409089 0.0012599584 -0.00066596165 0.00095074717 -0.0010239066 0.0014611532 1.7431636e-05 -0.00029398693 -0.0007817689 0.00024944523 0.0017113416 -0.00045253505 -0.000876514 3.7424285e-05 0.0012225929 -0.00033801576 0.0013319503 -0.00031345195 -0.00086602033 -0.00035879025 -0.00065385236 -0.0007468727 0.0014346758 -0.0013595418 -0.0014243579 -0.00040083722 -0.00054190407 0.0009985736 2.0630498e-05 0.0011376167 0.0006580177 0.0003873586 -0.00012982781 -0.0010585231 -0.00033768293 -0.0011367146 -0.0012545519 -0.0014706188 0.0014422255 -0.0013156146 0.0015557691 0.00054339 0.0015358429 0.0005624085 -0.00020828031 0.0013143284 0.0005778957 0.00029323515 0.0013817897 -0.00072457746 -0.00014795635 3.5350415e-05 6.159748e-05 -0.0006525797 -2.4266481e-05 0.0006115436 -0.0006659279 -0.0010655742 -7.5292446e-05 5.165664e-05 -0.0012734086 -0.00024077875 0.0015413322 0.0002367119 -0.00070440606 0.0011970659 -0.00056857563 -0.0017321114 0.0008725626 -0.00033138014 -0.00044911672 0.0015616469 2.4660185e-05 -0.001297463 -0.0011280358 -2.24927e-05 -0.00015951837 -0.00031320166 0.0005537132 -0.0010255892 -0.00089108304 0.0005020543 -3.004976e-05 3.0869942e-05 -0.0008697449 -0.0008933671 0.0011582393 0.0011465166 0.0013613794 -0.00014842872 -0.000106217536 0.00042511293 0.00069070194 -0.0008662291 -0.0015379896 0.0012643418 -0.0011412813 -4.451199e-05 0.0007528677 0.00021456245 0.0017092442 0.00061207067 -0.0014294013 0.0014623385 -0.0003705448 -0.0016673374 6.842999e-05 -0.0004904918 0.00012119381 -0.00028369445 0.0010145913 0.0015235723 0.0014482795 -0.00019927918 -0.0007488719 -0.0011173415 -0.0015868068 -0.0015621281 0.0011858672 -0.0008249474 0.0010226442 0.0011994494 0.00055957935 0.0016111229 0.00095887174 0.00075418083 0.0008687163 0.0010286319 -0.0005421158 -0.00039537158 0.0012022748 -0.00029869576 0.00060973415 -0.00063980266 0.0008553466 0.0006032847 -0.0015580518 -0.0008439507 -0.001123938 -0.0007911642 0.0012754549 -0.0012633363 -0.00025258705 0.000355753 0.0015231833 -0.0010341884 -0.0010376266 -0.0014638936 -0.0005979005 -0.00033776445 0.0011291245 0.0015128837 -0.0008712183 0.00025584263 -0.00022226722 -0.0003324121 -0.0006258287 0.0005206097 0.00077146967 0.00030682088 -0.0015265148 0.0009804701
工作 0.0013021784 0.000994968 -0.001545832 -0.00020631524 -0.0005065585 0.0014686836 0.0009427974 0.00062897214 0.00049435406 0.0011719564 0.00022991757 -0.00085232937 -0.0010646743 0.0014093041 0.0009388994 -0.0014401631 0.0005754172 -0.0008323154 0.00067497056 -0.0006804204 0.0013513989 -0.0015829505 -0.0007639104 0.0012842321 -0.000988144 -0.0003835844 1.5959001e-06 -0.0010187507 0.0010647143 0.00090335053 1.5761116e-05 -3.8126967e-05 -0.0015421666 -0.00021936865 -0.001587683 0.0016461697 -0.0013809506 0.001244551 -0.0011267215 0.00044046866 -0.0010108714 0.00043921138 -0.001637812 -0.0003504776 -0.00013450421 -0.0015496805 0.001456397 0.0011771927 -0.0011632678 0.00040324894 -0.0016904924 -0.0015829868 0.0012812199 -0.00033524472 0.0010026153 -0.0011551001 -0.00036609446 0.0011003249 0.00073068315 0.0009496439 0.0007121739 -0.0012720312 -0.0009395335 0.00031281027 0.00076603924 -0.000727902 1.9972062e-05 -0.0011960213 -0.00079299347 -0.0013856556 -0.0012768109 0.001722171 -0.0013775879 0.0012906619 0.0013704776 -0.001343825 -0.00023394472 0.0009847855 0.0006501816 -0.0006570165 0.00055471325 -0.0012193737 -0.00012384597 0.0012026889 -0.00059741 0.001500329 0.001533506 0.0012318186 -0.0014901977 -0.0013358216 0.0010203982 0.0015509529 0.0015518438 -0.00075344526 4.4043514e-07 -0.0004971494 -0.0011432304 0.0013784808 -0.0014600379 0.001736627 6.5429995e-05 -0.0003541828 -0.00042142192 0.000731025 -0.0007223957 0.0013719848 -0.00077934924 0.00024826138 0.0007533091 0.0009178069 -0.0015024499 8.637203e-05 -0.0014872189 0.00059074233 0.0015288733 0.0014338705 -0.00039456028 -0.0014787432 0.00091605703 -0.0013997541 -0.0014759998 0.0009210112 0.0006557781 0.0002502529 0.0014770082 -0.0009312945 -0.0007519635 -0.0014562502 0.00093381724 0.0011659986 0.00023605266 -0.0005434814 -0.00029713975 -0.0013061751 -0.00072822254 -0.0012805127 0.00013313413 0.0008849598 0.00020135741 0.00096173724 0.0013381309 -0.0013036497 0.0012149146 -0.0001678159 -0.0013173842 -0.0016143731 0.00021106203 -0.0013692682 0.0011662826 -0.0015016794 0.00027707656 0.00037742968 0.00055743405 0.00074881635 0.0015750396 0.00017300625 -0.0006492408 0.0013082597 0.0002168948 0.0011289064 -0.0010791335 -0.0005430458 -0.00027936808 -0.0011229648 -0.00045360613 -0.000111552385 -0.00027212067 0.00036643565 0.0016671026 -0.0014810368 -0.001603689 -0.00049020495 -0.0005462632 -0.0010796731 3.900504e-05 0.0004031811 -0.0013957979 -0.0005822576 0.00039325014 0.0014992331 -0.00062348996 -0.0009378994 -0.00042772107 0.0006701383 0.0015581104 -0.0003773401 0.00024415486 -0.0010706871 -0.0005369649 -0.0015322636 0.0003120583 0.0016150149 0.0010363304 -0.00034460626 0.0015936915 -0.00020630269 -0.00035344923 -0.0015447886 -0.0013892195 -0.000576686 -0.000881851 0.0004288874 0.00064655073 9.387482e-05 0.0010394746 -0.001214445 6.4753134e-05 0.00037952766 0.0009853872 -0.0010999612 -0.00048093713 0.0013895773 0.00040732065 0.0009025178 0.00088724284 -0.0011600746 0.001185543 -0.0012963683 0.00055236067 -0.0013979984 0.0014571835 -0.0013414444 0.0016465771 0.0011843598 -0.000771674 -0.00070578424 -0.00063942187 -0.00086402457 -0.0011642546 0.0008952626 0.0015888365 0.00013756646 0.0014333444 -0.00027312082 0.0005732069 -5.5284723e-05 -4.9621256e-05 -0.0015768539 0.00050710706 -0.0006577393 -0.0006001583 0.0007273274 -0.00024045735 -0.0011307618 -0.0012934791 -0.0015789672 0.0014988261 0.0006043756 0.0011589109 -0.001345959 0.0011289614 0.001167981 0.001103554 0.000498851 -0.00030886967 0.00091509055 -1.38912155e-05 -0.00055705087 0.00043634968 0.0014557074 -0.0004874344 -0.0011344447 -0.0015374225 -0.001402563 -0.0016947271 0.0005857963 -0.0011785201 0.0005754207 0.00056895847 0.00040435535 0.0014196383 -0.0006394828 0.0008389903 -0.00140003 -0.00056342594 0.0007008264 0.0016239719 0.0013660678 0.0013068496 6.066124e-05 0.0011068463 0.0013283497 0.0005968767 -0.0002922011 0.0008374835 -0.0014120196 0.00097045203 -0.0010086175 -0.0016558482 0.0010003764 2.7875085e-05 0.00044011412 0.00038612398 0.000103704886 0.0009845191 0.0007181165 0.000608717 -0.00063941965 0.00059415743 -0.0012925726
敌人 -0.0015253578 -0.00075769366 -0.0010046323 -0.0010654435 0.00074626616 0.00010910481 -0.00022244302 -0.0015177755 -0.00014168612 -0.0014416644 -0.0004473769 -0.0005860204 -0.0012056429 -0.00033383133 -0.00050508714 0.00016734263 -0.0001658853 0.0012349085 0.00052637665 -0.0017677865 0.0010566323 0.0007599254 3.7664715e-05 0.0017525438 -0.0013874209 0.00046884976 -0.00091549335 -0.0011871234 -0.0007891798 4.9311617e-05 -0.0015847168 0.0002935636 0.0009935991 0.00081647857 0.0007397293 0.00085950334 0.0014632044 0.0006071619 0.00053609663 -0.00021226074 0.0011738868 0.000991994 0.0013164327 -0.0011159588 -0.00030821734 -0.0016020178 0.0010421082 -0.0010472115 0.0012621221 0.0005252746 -0.0016997209 -0.0012715765 -0.0015421916 -0.00079602445 -0.0013210813 0.0015559202 -0.00017093394 -0.00014099696 0.00048724594 0.00017926698 0.00096583035 -0.0006620201 0.0007253239 0.0005684945 0.0010494087 -0.0013924523 -7.426145e-05 0.0006244048 -0.00076330226 -0.0005207232 0.0016774056 0.000100773 0.0002868108 -0.001334257 0.00018474595 0.0013704846 0.0012405397 -0.00030193946 -0.00091748557 0.0010634727 -0.0009146167 0.0007582839 0.0013972077 -0.00036741438 -0.0008385721 0.0007942241 -0.0009438581 -0.0009315056 -0.0015681803 -0.0010544945 0.0009206697 -0.0012078821 -0.0014308585 8.160846e-05 -0.00093980087 9.689123e-05 0.0011182033 -0.00016652161 -0.0014751197 -0.0013739537 0.00074271066 0.0004451603 -0.00041133052 0.00020528377 -0.00068210956 -0.0001766008 0.0011624104 -0.0014362506 -0.0007658877 -0.0013682008 -0.0007528288 -0.0006532037 -0.00036692395 0.0015049784 0.0014567241 0.0009852588 -0.00084084115 -5.6743156e-05 -0.0004267867 -0.00053245877 0.000835214 -0.0015594733 0.0005263399 -0.00046288717 0.0014809648 0.0006350361 0.0006054892 0.0006426498 -0.00058243325 0.00020858004 -0.0009231041 -0.00062097877 -0.00034931026 -0.0004492598 0.00033315938 -3.3281565e-05 -0.00024066148 3.2461783e-06 0.0013388325 0.0011104243 -0.0013155836 -0.0015438771 0.00044396383 0.00089404784 -0.0011121533 0.00047915603 -0.0012752492 0.000589581 0.0013865045 -4.1148425e-05 -0.0011558698 -0.0016921718 0.0008085969 0.0007093967 0.00096976885 0.0011154757 -0.0012409993 -0.00052640063 0.0014552955 0.0009316296 -0.00017200988 0.001509948 -0.001108793 -0.0011634398 0.0012180385 0.00070085627 7.423176e-05 -0.00052687695 -0.00076811004 0.00084800797 -0.00064173125 -0.00015560958 -0.0010387035 -0.0008314018 0.00032086798 -0.00037884532 0.00069482066 -0.00035746561 -0.00041761828 -0.00033342882 -0.0001474877 0.00065333024 0.00010038513 0.00059087336 0.0006005038 0.0015644416 0.00061516196 0.0014867793 0.00050378666 -0.0016134443 -0.0002786552 0.000741246 0.0012429367 0.00062554417 0.0012337703 -0.001143466 -0.0007335171 -0.00042784997 0.0002891931 -0.0010101172 -0.0005647464 0.0015709958 -0.0007778751 0.0016370901 0.00037414173 0.0009133172 -0.000740828 0.0006325227 -0.0013840041 0.0015868907 -0.00035393107 0.0003727263 -0.0014968805 0.0014686999 -2.3875853e-05 0.0013899598 0.0011124725 -0.000435108 0.0011117245 -0.0015692858 0.0013187567 0.0005487687 0.00073517277 -0.00016004645 0.0006212814 0.00044407332 -0.00035893245 -0.0006206157 0.0007990601 -0.00087506464 -0.00038118853 9.5988646e-05 -0.0013553352 0.00077692926 -0.00034152763 0.00020417225 0.0010324195 0.00023759768 0.0016554951 -0.0005299686 0.0015348401 -0.0014253488 -0.0014289743 -0.00031807594 0.0015764945 -0.0005232727 0.00017218602 0.00082681753 0.00014885317 -0.0012936561 -0.0015099021 0.00073552266 -0.0013467354 0.0002471326 -0.0004838739 -0.000893828 0.0006061328 -0.00035203298 0.001152266 -0.00046588303 -0.0012455902 -0.00066667265 -0.000574519 -3.0510426e-05 -0.0011163055 0.00080416945 0.00094151247 -0.0016263333 -0.0011769116 0.0014738695 -0.0015339188 -0.00097087363 0.0009269314 0.00039886424 0.0015262879 0.00044350332 -0.00091732637 0.0010518675 5.0773368e-05 0.0015489017 0.0005368609 0.00031593555 -0.0015648466 -0.0009219218 -0.00071718276 0.0012524285 0.00045272236 0.0014006019 0.001567991 0.0014877727 0.00040739228 -0.0004913787 0.001422047 0.00019324817 -0.000625344 2.8604238e-05 0.0014220014 -0.00013797336 -0.00043539345 -0.001190246
解决 -0.0015149616 -0.0007906656 0.0013843945 -0.0014637877 0.00053465826 -0.0015465512 -0.001222988 0.0007376473 0.0016213085 -0.00072928146 -0.0009670433 -0.0018727225 -0.0016804958 -0.0009159754 0.00014207995 0.0017245797 -0.0005586544 -0.000352972 0.00049231556 0.00053352513 -0.0010601472 0.0013912494 0.0004853086 0.0005013951 0.00072861667 -0.0012585118 0.0007280827 -0.00076820975 0.00050807965 -0.0007188879 -0.00039260928 0.00079095905 0.0016913076 -0.00053685886 0.0004491165 -0.0005655932 0.000506846 0.00059750903 0.0012718576 -0.00037604675 0.0008967084 0.0011515078 -0.0007462469 -0.00071460375 -0.0013869121 0.001175587 0.0013013184 -0.00035607483 -0.0012347725 0.0010820928 -0.0014816164 -0.0014097989 -0.0012892367 -0.00027329783 -0.0015247947 -0.00059886626 0.0004359927 0.00095347327 0.0007955503 -0.0002925387 -0.0012788398 -0.0011536632 -0.0011831317 0.0009531741 -0.0003139868 0.00028512007 -0.0006702566 0.0016960576 0.0016567258 0.0012993847 0.0015308782 0.00029884846 -6.022732e-05 4.2514115e-05 0.0003572945 0.0014197928 0.0016326322 0.00017127428 -0.00033258644 -0.0002655562 0.0015374422 -0.00052547094 0.0003419775 -0.0009246566 0.0015657685 -0.0012296699 -0.0011214371 -0.001296805 -0.0005351311 -0.0012481039 -0.0012624174 -0.0015178793 -0.0003493589 0.00021960874 0.001784345 -0.00022059592 0.0004774339 -0.00085811 0.0006805619 0.00042667618 -0.001338002 -0.0012257621 -0.0010348199 0.00067744125 0.0011565811 -0.00011463725 7.34694e-05 0.0007837185 0.0013956274 0.0005329952 -0.0015063926 0.0006751298 9.957833e-05 -0.00022082806 0.0006953775 0.0015450984 0.00075915543 0.0006762375 -0.0015892305 -0.0001877575 -0.0014761145 -0.00020391268 -0.00052802556 0.00094167667 -0.0012964486 -0.0010429636 -0.0016137835 0.001421085 -0.00021558262 0.0011853878 0.0009113104 0.00059804786 -0.0016257139 0.0012926843 0.00071098644 -0.00080027356 -0.0011668559 -0.0004623907 0.00032884555 -0.0001956772 -0.0016122126 -6.252116e-05 -0.00029702627 -0.001395903 0.000718185 -0.00024134021 0.0006022999 -0.00073881325 0.00040975088 -0.0010959802 -0.0012013117 -0.0002273021 -0.000109698616 0.00140163 0.00088038004 0.00062514906 0.00052049337 0.0014383909 -0.0009634333 0.00035200006 0.0014220007 0.00015562384 -0.00026841616 0.0005715879 0.0013689384 0.0013329246 -0.0008441875 -0.00014486039 -0.00044728146 -0.0012078355 -0.0012520042 -0.0016321804 -0.0015265153 0.0016252549 0.00074653636 0.00044994132 0.0017564145 -0.00023910699 1.1270543e-05 -0.00025723747 0.00017428304 0.0006932764 -0.0005197692 0.00013034044 0.001068115 -8.566257e-05 0.0012824914 0.0011776634 0.0014518435 0.0010586673 0.00041049972 0.0006187702 0.0008221358 0.00048515137 -0.0011146372 -0.00051219616 -0.001161036 0.0007048665 -4.6377558e-05 -0.0011244175 0.0013972678 -0.00024736687 -0.00034368955 0.00077332085 0.00089234824 -0.0016150373 0.0017202273 -0.00059615186 0.001337343 -0.0006421127 -0.0016043196 -0.0014747258 -5.589299e-05 -0.001265345 -0.0017036255 -0.00010758575 -0.0014031326 0.0012366439 0.00026578057 -3.3631677e-05 0.0012641681 -0.0009247865 0.000589725 0.0013086749 0.00089130586 -0.0008661333 -0.0013496993 -0.00079834834 -0.00074611424 0.00050284405 0.00030952445 -0.0016769738 0.00127493 -0.0006792508 0.0006284295 -0.0010633573 -0.0013513038 -0.001323068 -0.0011774637 -0.0013724334 0.00019162564 -0.0009228864 -0.001544214 0.00031525877 0.0013748973 -0.0011881795 0.0013358011 -0.00036281042 -0.0004723501 -0.0014911293 0.0004822868 -0.0015125336 -0.0016316301 -7.7929326e-05 -0.001184087 0.0013877101 -0.00015699622 -0.0005864295 -7.5136515e-05 -0.0014096815 0.0015526817 0.0015035206 -0.0007117608 0.0015669418 -0.0014761374 0.0013123157 -0.0002008772 -0.0006633711 -0.00121046 0.0005062564 -0.001092833 0.0015116436 -0.001520466 -0.0008156922 4.0526265e-05 -4.680536e-05 -0.00062858814 0.0009891916 0.0014656296 0.00092466973 0.0007725303 -0.00029362686 -0.00014052339 -0.00015081084 -0.0010511656 0.0006010531 0.0004142998 0.00088820927 -0.0014806796 0.0012628043 -0.00090387365 -0.0016165087 -0.00045120288 -0.0010873813 0.0012789585 -0.0010384955 0.0004989303 0.0009420844 -0.0010110524 0.00022449408
军队 0.0014489513 -0.00063263177 -0.0014306176 -0.00025057857 -0.0010553604 -0.0015632982 0.0010720233 -0.0016050643 -0.00074934 0.00077972666 0.00017192519 -0.001605063 -3.9148443e-05 0.0010428556 -0.0006338651 0.00084953965 0.00051611307 0.0015747936 -0.0009184285 0.0014067083 -0.00016373523 -0.0013421504 -0.001207795 0.00092611066 0.0005796666 0.0004954117 0.001316794 -0.0014791697 2.6168333e-05 0.00079049985 0.0014424098 -0.0012741019 -0.00012793229 0.0011035806 -0.0010777228 -0.0011442481 -0.00070781267 -0.00012478477 -0.0012903592 -0.0010906802 -0.0007024336 -0.00141906 0.00023405362 -0.0005343155 0.0015133148 0.00049248844 -0.00020355177 0.0013641142 -0.0003854924 -0.0007815119 -0.00056577334 5.7809164e-05 -0.0015253393 0.00039117932 0.0013053332 0.0006332773 0.00052116223 -8.99764e-05 -0.000788371 0.0015241398 -0.0010832916 -0.00059899525 0.00081056164 -0.00025323362 -0.0016067108 -0.0001283566 0.000934991 -0.00065114035 -0.001060104 0.0007070834 0.00035162375 0.0009614806 -0.0017325251 -0.0012541538 0.0016882478 -0.00013224223 4.226571e-05 0.0015618413 -0.0007722811 3.641523e-05 -1.6517175e-05 -0.0008505436 0.00013302332 0.0014817477 -0.0014171967 0.00011506889 0.0012427391 2.40652e-05 0.00012854328 -0.0012649769 -0.0013634688 0.0005850722 0.00042845515 0.00040258412 -0.0014397743 -0.00032450666 0.00015415448 0.0005944301 -0.0001473594 0.0005180175 0.0006984868 0.00051110436 -0.00083793304 -0.0005844263 -0.00030286273 -0.0014066166 0.00050361577 -0.00056355254 -0.0006756461 -0.0012161616 0.0008264739 -0.00014643114 0.0014522396 -0.00015533724 -0.00036298457 0.00058046693 -0.00048231427 -0.001067111 -0.0005685345 -0.001116305 -0.0014951784 0.00053362065 -0.0016477841 0.0014090963 -0.000586036 -0.00036521044 -0.00020695843 -0.00018181065 0.00043901714 -0.00042327069 0.0010707793 -0.00039937577 0.0011314604 -0.00063106674 0.0011621861 -0.00026756639 0.0006329769 4.610915e-05 -0.00085675437 -0.00032014766 -0.0009868245 0.00065117114 0.00010718492 0.0002499212 -0.0016169683 0.0008977379 0.000570647 -0.0013114113 0.00173135 0.0005970238 -0.0005998712 -0.0014879924 -0.00048484863 0.0014587797 -0.00038059996 0.00032799863 0.00053518504 -6.76213e-05 0.0010963661 -0.0008515685 -0.0014696749 -0.0015681629 5.4136603e-05 0.001430431 -0.0008604961 0.0010358996 0.0008150815 -0.0006906637 0.0005649832 -0.0013460136 3.8299757e-05 0.00025081818 0.0012784894 -0.0014216076 -0.0010972212 0.001487893 -0.00027661712 -0.0005840036 -0.0005710549 -0.0011973786 0.0010036139 7.739866e-07 -0.00021083072 -0.000108593296 0.0015701017 0.00089863397 -0.00034882204 0.0010860503 0.0007188803 -0.00028873864 -0.00018408558 0.0010000175 -0.00062891026 -0.0005442139 0.0006729669 0.0006927209 0.0014001029 0.00018370681 -0.00016339785 -0.0016529487 -0.0016791752 -0.0013398101 -0.0008546914 -6.70607e-05 0.0015693186 -0.00025293906 -0.0011565381 -0.00024701137 -0.0007153656 -0.0007010733 0.0015491141 -0.00059688074 0.0016754684 0.0009740103 -0.00018868197 0.00061698724 -0.0008049075 -0.001100125 0.000972411 -0.0003030791 0.0015527749 0.0008382137 0.0015267091 0.0012734508 -0.00015575097 0.001278791 -0.00043520203 0.0013020609 7.858984e-05 -0.0013863435 0.00068187196 -0.0009634809 -8.675096e-05 -0.0013551275 5.492352e-05 -0.0012658265 0.00028372766 -0.0017469482 0.00012715248 -0.0006189867 0.0012880971 0.0003180019 0.001538859 0.001127136 0.00025056716 0.00067095464 -0.00029270895 -0.0006692868 -0.0008668508 0.00094905874 -0.00028799588 0.00116319 0.0013119008 0.0011957057 0.0006120889 0.0013080448 -0.00042858112 -0.0003575988 0.00013548459 -0.00014879851 0.0015177244 0.0004270055 0.00017472215 -0.0003333163 -0.0016142125 -0.00033953506 0.0010198997 -0.001307733 -0.0008318892 -0.00075407216 0.00096838735 -0.0016532647 0.00030623435 -0.0010902516 -0.000274319 -0.0005846027 0.0010825173 -0.0010498993 -0.00081941247 0.0015791608 -3.8016136e-05 0.0014458072 -0.00081942894 -0.00096260547 0.0014857297 -0.00050714717 0.0013274477 -0.00081777823 -0.0012719284 0.0015527634 0.0011923377 0.0013751308 0.0005128709 -2.9246468e-05 0.0010289905 0.0004010917 0.0006992941 0.00012569163 -1.5885906e-05 0.0011042313
意见 -0.0013656907 0.000489965 -0.0007771991 0.0006574272 0.0003178947 -0.0007380888 -0.0014817582 -0.0006483045 0.000613138 -0.00044006706 -0.00024303497 -0.0015477046 -0.0001393072 0.00051042886 5.352114e-05 -0.0012022931 6.118542e-05 -0.00043798474 -0.00012360481 0.00084118283 -0.0009246578 -0.00071237737 0.0013699741 0.0007274351 -0.0014232649 0.00027673753 0.00129932 0.0008031039 -0.0015861099 -0.00058446033 -0.00080378633 -0.00024934695 0.0008939217 -0.0007027508 0.0008329669 0.00033447327 0.0017202055 0.00014909735 -0.00136176 0.0015630247 -0.0005315374 0.0016390716 0.00038012367 0.0002241251 -0.0009748181 -0.00040896714 -0.0005669034 0.0012848472 0.0016523105 0.0011549471 0.00097593846 -0.0015895606 -0.0012506614 0.00074089447 0.0009066913 -0.000881179 0.0010364971 8.370685e-05 -0.001228849 -0.0014427847 -0.00062185345 -0.00021698006 -0.0012292917 -0.00012305942 -6.204126e-05 0.00088949857 0.0011447804 -0.0010609069 0.00096757343 0.001446434 2.3876803e-05 -0.0015706827 -0.0016242842 0.0015691647 0.0015006468 0.001332749 -0.0010532014 -0.00026847835 -0.00043644334 -0.0012838454 0.0001170072 -6.20444e-05 -0.0005967728 -0.00011300991 0.00045815922 -5.51383e-05 7.584724e-05 0.00022031572 0.0010604986 -0.0013496124 -0.00063630816 -0.0016153917 0.0010435161 -0.001522942 0.0017871115 -0.00030913093 0.00029624367 0.0003572684 -0.0010639351 -0.00040903297 0.00023120492 0.001110733 2.9714709e-05 1.8671457e-05 -0.0005298278 -0.00085813215 0.0002870576 0.00036382728 -0.00016897489 -6.0504157e-05 -0.00031085635 -0.0007711631 -0.0014748999 -0.0011834059 0.00015387514 -0.00020057813 -0.0005476108 0.0008101138 -0.00015782494 0.0001943647 -0.00071479875 -0.0010839669 0.0005633306 0.0016068653 -0.0012200517 -6.4315296e-05 0.00092359714 6.913415e-05 0.0005707351 0.0005318887 -0.00039445283 -0.0013836022 0.0015206521 -0.0016699677 0.001034985 0.00043650222 -0.0007653278 -0.0016319354 0.0008139965 0.0004747121 0.0002145377 -0.00015202937 -0.0016166188 0.0015370374 0.00143857 0.0011980473 5.8082234e-05 0.0012436776 -0.0009575581 -0.0013885 -0.0012940173 -0.0007341468 -0.0013050131 3.24503e-05 0.00040907564 0.0015405695 0.00085123326 -0.0011813069 -0.001341925 0.0005994163 -0.0013996661 0.0016010132 -0.0006281941 0.0012662392 0.00023082747 0.0014590914 -0.00084809307 0.00072737125 0.0008963962 -0.0014155909 0.00027936776 -2.3878729e-05 -0.0010919585 0.0009417158 0.00054441247 -0.0003177343 0.00074653246 0.0005843531 -0.0009609744 0.00086632685 0.00093337067 0.0010762927 -0.0005246864 -0.0006564665 -0.0012781492 -0.0005264612 0.0005372002 -0.00027510626 -0.0012480487 -0.0003498041 -0.00056537194 -1.9431443e-05 -0.0002720351 0.00052991696 0.0017112806 0.00021035626 0.00013108803 -0.0007267828 -0.0011808531 0.0004722497 -0.0006421302 0.00024210544 0.00015738892 0.0010761188 0.00033068884 0.00048222204 0.0012104077 0.00016198441 -0.0011600062 0.0011503043 0.0012278635 3.492151e-05 -7.318445e-05 0.0013033509 -0.0017088982 2.445311e-05 0.00059750275 0.00084767654 0.00013659091 -0.00067576667 -0.0012170764 -0.0010301106 -0.0015810524 -0.0016481718 -0.0004029607 -0.0008428825 0.0013623377 0.00026538945 -0.0014265779 -0.00012744464 0.0016891162 0.0016117848 6.575961e-05 0.0011057394 0.00081523333 0.0016890591 -0.0016299246 -0.0009931959 0.0015333055 0.0007434998 0.0014452281 -0.00061097613 -3.9075454e-05 -0.0011368705 -0.0013105914 0.0011434486 -0.0015234329 -0.00094034435 -0.0017011752 -0.001365387 0.0005490811 -5.53845e-05 -0.00026564108 0.0013524484 -0.0011887628 -0.0006273611 -0.0016398724 -0.00033462088 0.0012739756 0.0016218048 0.0016550823 0.0015409351 -0.00082144304 -0.0014139588 -0.00025094158 0.00034609786 -0.0012000884 -0.0011468966 0.00095325423 -0.0006052982 0.00035446597 -0.0010704815 0.0010073272 0.00013429819 -0.0012115825 0.0008871822 0.0010338665 0.0012989661 0.00037855582 0.00091040443 0.00016370106 -0.00071782316 -0.0007556603 0.0014203135 -0.0008546597 0.00013779066 -0.0014329387 -3.0222996e-06 -0.0015265008 0.000750355 -0.0015182323 -0.0006047267 0.00043078646 -0.0003558588 0.00041601915 0.0015600722 -0.0013440959 -0.0014726316 -0.00024418614 -0.0007954681
态度 -0.00032007752 -0.000386974 -0.0016323453 0.0010655404 -0.00017349835 0.00033488875 -0.000891127 -0.00056355994 -0.0015594881 -0.0007487745 -0.0013635644 0.00018272683 -0.00016611513 0.0011631607 -0.0008588207 -0.00031664228 0.0005490495 0.00064196775 -0.0014103389 -0.00096423307 0.0013902555 0.00029275793 -0.0011078108 -0.0005758322 0.0009235019 0.00045187838 0.0002445609 0.00056948216 -0.00016572466 0.0007048062 -0.00034019293 0.0003157529 -0.00024920126 0.0007645664 0.0015742941 -0.00018126344 0.0009185117 0.00081722206 0.0014775052 0.0003190751 -0.0005991393 0.00031204667 -0.000982133 -0.00079065864 -0.0012751076 0.0015232252 9.1669666e-05 0.00095760997 -0.0007202592 -8.667533e-06 0.00022225217 -0.0012043262 -0.0008725059 -0.0012775626 -0.00079440296 0.0006324088 -0.0008520121 -0.00057653664 0.0007441331 0.00043456227 0.0011589298 0.0006912284 0.0006937656 0.0010882665 -0.001007903 0.00077231386 0.00030194194 0.0007610125 0.00041551387 0.0012932733 -0.000223868 -8.479573e-05 -0.00083918776 0.0016960739 -0.0014301803 0.00042919698 -0.0008433049 0.0010027129 -0.0005244086 0.001090827 0.0010328492 -0.0014968265 0.00018203876 -0.00066900754 9.301725e-05 -0.0013550773 -0.0016514307 -4.6451087e-06 -0.00090961147 -0.0011433077 -0.00029992402 -0.00041077507 -0.00040909703 0.0004970338 0.000237636 -0.00043237183 -0.00041029588 -0.00107988 -0.0008697396 0.00082215056 -0.0011940197 -0.00058055064 -0.0010735599 0.00062894606 -0.0012968704 0.00067548244 0.0015140654 0.00017777042 0.00087988324 0.001413603 0.0005047515 -0.00072624936 0.0003321803 -0.0012844697 -0.0005373316 0.0013427491 0.0016571493 0.0006619888 -0.000255838 -0.00073312985 -0.00091070554 0.0010068904 -0.0014359019 0.0015543306 -0.0003904677 -0.00020322384 -0.00032489878 -0.00011335648 -0.00038591205 0.00049905013 -0.0011484913 0.0007255958 0.000488989 -0.0008798618 0.0013713656 -0.00087288034 -0.0015284322 -0.0010384956 0.0013217698 -0.00048937375 0.0008329009 0.001099553 -0.0010177105 0.0011090831 -0.0012608115 -0.0011946891 0.0008261292 -0.0012109773 -0.0002900797 0.0006585888 -0.0015850642 0.00021508604 0.0007948237 0.00043195643 0.0006738088 0.00066327164 -6.543209e-05 -0.0007748819 0.00017859832 -0.00013733208 -0.00086719904 -0.0012368724 -0.0014653114 0.0013429961 -0.0011577888 -0.00071204774 -0.0015520027 -0.000947708 0.0014127382 -0.0004809045 -0.00020056815 -0.0016948011 -0.00058148784 0.00049875164 0.0010780792 0.00070082676 0.001181186 -0.0014532261 0.00080056954 0.0010381645 -0.00045544698 0.0014037048 0.0015556158 0.0015037111 0.0009536917 -0.0008664056 -0.001347923 -0.0014254274 -0.0008328779 -0.0014526546 0.0010935934 -0.00031589874 0.0014734088 0.00032783122 4.7807484e-06 0.00039888776 0.0010969234 -0.0011987205 0.0010386561 -0.00017122299 -7.526706e-07 0.00058260123 -0.0005344024 6.638084e-05 -0.00069990236 -0.001250097 -0.00015281778 -0.0013816982 -0.00115193 0.0002674421 0.0003826623 -0.00091922405 0.0007015924 -0.00045787645 0.00021508751 0.00044394797 -0.00019133443 0.001632919 -0.00017820515 -0.00041452737 0.00034736123 -0.0011089594 0.0010981428 0.000687932 0.0006299759 0.00016318136 -0.0009541084 -0.0007909549 0.00085114315 -0.0013396824 2.8020388e-06 0.0012387189 0.0014563255 -0.000972856 -0.00023824818 0.0012604772 -0.0010329903 0.00024497515 -0.00074813643 0.0010837951 -0.0004309482 0.0010618318 -0.0015624962 3.404752e-06 0.0015743967 0.0012210094 0.00040448934 0.0015563762 -0.0013293414 -0.0005443788 0.001447248 0.0009793324 0.0016832158 0.0011495323 -0.0016901204 0.00016277666 0.0004026837 0.0005013501 -0.0007806873 0.0015539754 0.0012518818 -0.00032701142 -0.001582554 0.00031654158 -0.0014933025 -0.0009837494 0.0010486408 0.0006949178 0.0013095856 4.609786e-05 0.001541222 -0.000956636 0.0005410916 -0.0012679844 -0.0010951472 -0.0014255632 -0.0015308611 0.00095038867 0.00062462536 -0.0012183473 0.0012566459 -9.903438e-05 0.00054783956 -0.00096499885 0.0002505714 0.00093214976 -0.00090718165 -0.001232613 -0.0016429614 -0.0008200842 2.0014919e-05 0.00017388804 0.00024092449 0.0016570133 -0.00067743665 -0.0015043858 -0.0006646346 4.940062e-05 0.00048444222 -0.0005221923
消灭 -0.00035521787 0.0003620395 -0.0010741705 -0.0016426174 0.001087227 0.0007573177 -0.00027753488 0.0008969733 -0.0010836862 -0.000804887 -0.00027374973 -0.00087239407 0.00038928245 0.0013733791 0.00020513654 3.7266156e-05 -0.0014709857 -0.000346145 0.0004589891 -0.0014943042 -0.00029649455 0.0015251414 -0.00092321745 -0.00094802305 0.00031015405 -0.0014770671 -0.0010270481 -0.0004963724 0.00036066517 0.0010008662 0.0013131741 7.872246e-05 -0.00071613124 -0.0012640132 0.0005402132 -0.00010591933 1.7177705e-05 0.0010660093 -0.00030418843 -0.0004935185 -0.00030860017 -0.0008362302 -0.00025385406 0.0015336587 -0.00011502593 -0.0015380046 -0.0008956646 0.0004171232 8.539834e-05 0.0006452485 -0.0012252629 0.00045559046 -0.0014802685 -0.0003145825 0.0011190311 -0.0013302084 0.001585854 -0.0015358845 0.0004150274 5.007896e-05 -0.00071966235 -0.0013533356 -0.0011910684 -0.0008180315 0.00017070968 -0.00088437356 0.00034103746 0.0010127247 -0.00055077905 -0.00048557104 -0.0008272438 0.00024535754 -0.00042659597 -0.0005204039 -0.0012139565 -0.0006241873 0.0003073536 0.0009692783 0.0011938141 0.00080018514 0.001477973 -0.000449315 -0.0014613749 0.00038824946 7.764648e-05 -0.00043384562 -0.0015382511 -0.0011116553 -9.749303e-05 0.0003602916 0.0014759712 0.0009914686 -0.0011697827 -0.00030909863 0.0013942998 0.0014925092 -0.0012365696 0.0005947638 -0.0012201606 -5.816654e-05 -0.0015648552 4.8829486e-05 -0.00032248104 -0.00015527508 0.0014619783 -0.0012162235 -0.0012004068 0.001515947 -0.0006374686 -0.00055154355 0.0005721324 -0.0016515338 0.00060963264 5.4267988e-05 -0.0004753962 -0.00042182262 -0.00025342972 0.00110953 0.0009262128 0.0016063235 0.0015164389 6.156339e-05 -0.00043978108 0.0015988634 0.0007258149 -0.00094802305 0.00034947583 0.00068483694 0.0013508847 -7.1604104e-06 -0.00055581937 -0.00036735338 0.00046542316 -0.0010471905 -0.0014253535 0.0013932406 -0.00056123955 -0.0008722001 -0.00019411549 -0.0008486957 0.00070642825 0.00044580997 -0.0006430609 -0.0003869391 0.0013360342 1.5729194e-05 0.00091607426 0.0006636413 0.00028573524 -0.000517322 0.00045195504 -0.00038405973 -0.0010368809 -0.0015062938 -0.001177687 -0.0017245698 -0.001591075 -0.00015290121 0.0005909568 0.0007222379 0.0012827626 0.0001117251 0.0007819726 0.0009996565 -0.00014948605 0.0017647609 0.0007413214 0.00033124638 0.00055315247 0.001225198 -0.0001955279 -0.00078594126 -0.0013213622 0.0009504028 -0.0015327516 0.00057008024 -0.0015104732 -0.00041696316 -0.00027195262 0.0004950484 -0.0015158092 0.00013442512 0.00015034163 0.0014418312 -0.0004901393 -0.0014985185 0.0001687817 -0.0013628572 0.00023823537 0.0001530883 -0.0015677188 0.00037118746 0.00044397372 -0.0015163908 -0.0011698017 -0.000647087 6.778037e-05 0.00086841936 -0.0009812657 0.0012195458 -0.0012043178 -0.0011511873 -0.001357174 -0.0006278714 4.6679863e-05 0.00016194976 0.0017150998 0.0005535042 0.00050538784 -0.001004008 2.5365003e-05 0.0001917127 0.0015301768 -0.00053615833 -0.00084649347 0.0010667447 0.00034665345 0.0008918076 0.0004852282 -0.0014020845 0.001520879 0.00044445455 0.0011567427 -0.00043356407 0.0002017497 -0.0009105537 -0.00056934 0.0002712171 -0.0011551973 -0.0016940199 0.0017614969 -0.0016827299 0.001125638 0.00077228545 -0.00026099247 -0.0012522133 2.2497074e-05 0.00031385678 0.0009844231 0.0004593001 0.0012113554 0.0016327937 -0.001624837 -0.0003507459 -4.2648053e-06 -0.00023557825 -0.0009837647 0.0012753992 -0.00036812612 -0.0013158808 -0.00093035423 0.00023733459 -0.0011360253 -0.0016484128 -0.00038900776 -0.0011131553 -0.0016470351 -0.0011438382 -0.00031425737 -8.794851e-05 0.00054255023 0.0014035263 0.00078216207 0.0016627607 -0.00028664025 0.0009937712 0.0016780874 0.0010842775 -0.0011338792 0.0010034573 0.0011874501 -0.00031226684 0.00055799907 -0.00032872468 0.00051685626 -0.00047226032 0.00075414276 0.0012658255 -0.00073342765 0.00025527438 -0.0016843474 -0.0008156519 0.001542303 -0.00029517032 -0.0013043212 0.00056602043 0.00051764847 -0.001577051 -0.0013885705 0.0012141668 -0.0011954694 -0.0005228023 0.00010473379 0.0008205192 -0.00092123926 -0.0003039875 0.0010338201 0.00063988304 -0.0008680388 -0.0016235372
资产阶级 -0.0011709731 -0.00090191496 0.00065526285 -5.3137486e-05 -0.0010624989 -0.0013166941 0.000651181 0.0011081144 0.00087945396 0.0014577231 -0.0016372995 -0.0005145378 0.0003845183 -0.001172992 0.00021694339 0.00047495676 -0.0006652166 -0.0015194585 -0.0004092108 -0.0010160602 0.00022320371 -0.00072179496 0.000383955 0.0012913168 -0.0005859844 0.00030883605 -0.0011766673 -0.00053070404 0.0017066017 -0.0012854588 0.00042471298 0.0015920507 0.0008979651 0.0012746132 -0.0002295199 0.0006679879 0.00044521404 0.0013047805 -0.0010271048 0.0001020083 -0.00049569394 0.00052634877 -0.00013501772 -0.0003638642 0.00015718838 -3.0284935e-05 -0.00064394705 -0.00013081272 0.00044079951 0.00062076875 -0.0011253929 0.0004878064 -0.00044770978 4.6246394e-05 -0.0007304764 0.0011674628 0.0003588653 0.0015474495 0.0014231779 -0.0006829071 -0.0015321147 -8.586624e-05 -0.00076484407 0.0004665047 -0.0012371409 -0.00038128733 7.772269e-05 -0.00028560555 0.0014138563 0.0010492047 -0.0014522654 -0.0008626153 -0.00062816497 -0.0011271562 0.00060009677 -0.0010676458 -0.00013362046 0.0003927006 0.0006273071 9.9959405e-05 -0.0012195307 -0.0011762469 0.0008535643 0.0012060091 -0.00023240532 0.0013623544 0.00095279067 -0.0011973098 0.00068087626 0.0008138944 2.4805122e-05 0.0014744778 0.0009298763 -0.0015952268 0.0009865555 -0.0010332499 0.00016115191 -0.00054427 -0.0005292339 -0.000462725 0.0014613129 -0.0004390144 -0.001399659 0.0016727197 -0.00058641774 0.0008031835 -0.0005711094 0.0007030587 0.0016213286 0.0011117145 0.00063640065 1.8446934e-05 -0.000884595 0.0014324234 -0.00086512696 0.000911004 0.0015415935 -0.0012898102 0.00096427114 -0.00094726833 0.0015161796 -0.0011856023 0.00079345104 0.0001543622 -0.00014876957 -0.000967876 -0.0016379138 0.0013337057 -0.00072843675 -0.00087858463 0.0010158375 0.00073924614 -0.00094913214 -8.4241845e-05 0.00019412131 -0.0014566208 0.0016566556 0.0004483296 -0.0012880301 -0.00037317813 -0.0016174131 -0.0004299088 -0.0015708213 -0.0015307303 0.0003884893 0.00044428342 -0.0014510019 -0.000698753 -0.00029442355 -0.0011345121 -0.0016045909 -0.0012604812 0.0013317307 0.00033455165 -0.0010209971 0.0005346406 0.00013136372 0.0003961327 0.001164348 -0.0015945827 0.0013398521 -0.0013955669 -0.0004042693 0.0010321593 0.00023616404 0.00062670576 -0.0015321446 3.0056572e-05 -0.0013009431 -0.0010167046 0.0010784261 0.00021411409 -0.0009224662 0.0013814744 -0.0009755043 -0.0015449574 0.0012935501 0.0004135325 -0.00052610534 0.00155245 0.0010427058 -0.0006294053 0.00022359162 -0.0003638658 0.0002619287 -0.000871011 0.0010927519 -0.0009032713 0.00023003868 0.0012294184 -0.0004000262 0.00022032404 0.0016041922 0.0015384335 0.0015093575 2.0111835e-05 -0.0002629809 0.00038400042 0.00093685096 0.0014580211 -0.0012570494 0.00018444152 -0.0016893819 0.00040935463 0.0010687148 -0.001197608 0.0016574201 -0.0010485317 -0.0013136698 0.0010570085 -0.00020494715 -0.0010676165 0.0005226699 -0.0010584629 -0.0013710811 -0.00089970627 -0.001627586 0.00053554523 -0.0016594289 -0.0009561896 -0.0006510399 0.001102746 0.00056738633 -0.0010011496 5.155514e-05 0.0014064024 0.00041408732 0.00026357765 0.00062578515 -0.0015041195 0.0007245135 -0.0016722877 0.0004668144 -0.00047973733 -0.00071228604 -0.0013304898 -0.0009352674 -0.0017046793 0.0016719748 -0.00047315974 -0.00041112496 0.00092472637 0.0010399658 -0.0017265357 0.001444178 -0.00028568512 0.00031854387 0.00061837246 0.0014529163 -0.0007998447 0.0007053364 -0.00046181123 0.0014115686 -0.0016138804 -0.00090047804 -5.8687954e-05 -0.0002726609 0.0012867542 0.00082034245 -2.1468977e-05 0.0005435128 -0.0011599375 0.001428214 0.000988631 0.0014657865 0.0016342979 0.00084436336 -0.00021682905 0.00080401235 0.0017826534 -0.0005709798 -0.001066389 -0.00037894223 -0.00018864826 -0.0005434403 0.0005502015 -0.00026622124 0.00052256824 0.0010168747 -0.001580409 0.0015039471 0.0010513408 -0.00020071412 0.0015029379 0.0006232567 0.0010477125 -0.00083610706 -0.00065901957 -0.00024651331 0.0013217499 -0.0013142787 0.0012214201 0.0012614442 -0.0010223986 -0.001587468 0.00046406273 -0.0014578518 -0.0005422127 -0.00025537488 -0.00045820564
方法 0.00021999041 -0.0014169003 0.000121740166 -0.0013774652 -0.0012267302 0.0007379293 -0.0005377677 0.0008557455 0.0012940163 -0.0003458202 -0.0009024005 -0.00072752254 0.0003530904 0.00028700114 0.00045846027 0.0013182927 0.00019857418 -0.00048703086 0.0013728644 0.0005854823 -0.00057256705 0.0011527473 -0.0008244421 -0.00089457736 0.0009511188 0.00056143635 0.0010421864 -0.00063606066 0.00037206957 -0.0010560495 0.0009099367 0.00075706484 0.0014369577 0.0004935708 0.00025372702 0.0015886471 0.0015648479 0.0003344218 0.0013107223 0.0003488581 -0.0007322353 -0.00089049444 0.0014925057 0.00027495925 -0.00026524198 -3.1266874e-05 0.00063880155 -0.00038792903 0.0006684986 0.00019090156 -0.00014898703 -0.0017746729 0.0004658296 -0.0005423378 -0.0016439698 -0.00029999128 -0.00046110823 0.00021438385 -0.0012932778 -1.764919e-05 -0.001439556 -0.0005492007 0.00044791948 -0.0015531409 -0.0003342108 0.0012661114 -0.001202826 0.0012125107 0.0007317022 -0.0001905794 -0.00019675863 -0.00037924523 -0.0017364043 0.0013838945 -0.0010998482 -0.0004100612 0.00037021853 0.00034454942 -0.00090088526 0.00025891542 0.0017540555 -0.00040144043 -0.0014785716 -0.0011078467 -0.0011192667 -1.1928096e-05 0.00051772123 -0.0010028356 0.0013647308 0.0014453928 -0.00035060593 0.0010077696 0.0007782061 -0.00040491228 -0.00023069074 -0.0013298658 -0.0004861476 1.7685163e-05 0.001015774 0.0013012036 0.0016125842 -0.0014983489 0.0009319322 -0.00056939095 -0.0010748521 -0.0008340716 -0.0005881047 -0.0008176407 -0.0007995191 -0.001478418 0.00043385156 -0.0007556972 1.0671112e-05 -0.00055921235 0.00055709365 0.00084809394 -0.0007409789 0.00087054673 0.0004102573 -0.00048498428 0.0006089913 -0.00061290385 -0.0008123559 0.000423556 -0.0015419417 -0.00023542914 -0.0011953275 0.0015214292 -0.0009972262 0.0012753292 -0.00028618387 -0.0010154629 -0.00072671636 0.0014721071 0.0005885167 -0.001172376 0.0008132425 -0.0013210928 -0.00017708763 -0.0014929671 0.0006159415 0.00085597846 0.0003282325 0.0015349052 -0.001314877 -0.000368921 -0.0014192008 2.275835e-05 -0.0012266326 0.0014439719 0.0009971387 0.0010161245 0.0012409075 -0.0014653162 -0.0006750539 -0.000308021 -0.0017058563 -0.00085668196 -5.8505575e-05 0.00056772237 0.00095291075 -0.0010436856 -0.0013236166 0.0006429275 -0.0012493504 -0.0006668402 0.0009999983 -0.0015624583 0.0011022938 0.0013876652 2.0872325e-05 0.0015091912 0.00026139297 0.00050939264 0.0013961197 0.0013407035 -0.0010443713 0.0006329047 0.0011631624 0.0012609323 -0.0012171433 -0.0012577225 0.0010735638 0.0014100568 0.00021738876 0.00023419963 -0.0012228428 -0.000668189 -0.0012994332 -0.00037015107 0.00083920785 -0.0015042744 0.0007125961 0.0001460997 -0.0015659517 -0.0002307613 -5.7002337e-05 -0.0011331367 0.00024902663 0.00058352074 0.0009761675 -0.0005160764 -0.0008538448 -0.0006981133 -7.4929744e-06 -0.00025188032 0.0008481408 0.001586222 -0.001628758 -0.00075446337 6.750647e-05 -0.00031599757 -0.0013947042 -0.00092003244 0.0016200601 0.0013866292 -5.6752942e-05 -0.00083648146 0.0011634517 -0.0016301558 0.00015340782 0.0015511303 -0.0005367648 0.00069052394 -0.0011565547 -0.0012139505 0.00037059866 -0.0004627617 0.0013857259 0.0003728792 0.0009650333 0.0015489765 0.0012257821 0.00017074044 0.00060454337 3.0159266e-05 -0.0014629497 -0.0014474877 -0.0010939754 7.370047e-05 0.00014659665 0.0009768375 0.0015815222 -0.0001375517 -0.0013242495 -0.0009377731 -0.00048578173 -0.0009012477 -0.000744216 0.0003778891 0.0012547849 0.0003211745 0.0015234228 -0.0015333081 -0.0016164001 0.0003212162 0.0009808454 -0.0014669973 -7.270575e-05 -5.2676995e-05 -0.0015117391 0.00030331739 0.00031510703 -0.00014183247 -0.0013421654 -0.0007443487 0.0015303242 -0.0012945168 0.0006214402 0.0006794534 -2.7931228e-05 0.0004199621 0.0008979742 0.0013294312 -0.00080145756 -0.0013104099 -0.0005965873 -0.001184563 0.0007826579 0.001514178 -0.000994207 -3.1230236e-05 -0.0012442719 0.00034183616 -0.0014575156 -0.0010552756 -0.0016850567 0.00059915317 -0.00047107818 0.0012459332 -0.000725587 0.0011911814 -0.0011174397 0.000604285 -0.00038531164 -0.0013584929 0.0009561542 -0.00049051835 0.0012169537 0.00042633462
善于 0.00053221406 0.0012572922 0.0006276689 -0.0013511016 0.00058265973 -0.0004672682 -0.0005399103 0.0011593126 0.0012453359 0.00058385456 0.0011495489 0.0012125726 0.0014983662 -0.0004770048 -0.00022584373 0.0011317307 -0.0015564542 -0.0014433672 0.0006079047 -0.0017375654 -2.0465108e-05 -0.0014483816 0.0015178551 0.0008549292 -0.0004698709 0.0010717208 -0.0006742576 -0.00077428325 -3.603836e-05 0.0016568401 0.0013439284 0.0014230795 0.0008807426 0.0005442249 -0.00027674867 0.000404813 -6.14226e-05 0.0016650565 0.00015893605 -0.00095394725 0.0008323159 -0.0010894728 0.00088865875 0.00165822 0.00023469591 -0.0007428482 0.00065062 -0.0015249169 0.0005291322 -0.000697866 0.00012816838 -0.0008249912 -0.0005322964 -0.0012870543 0.001013996 0.0010014306 -0.00020598239 0.00068873144 -0.000602775 0.0008996223 0.00043766137 -0.0013876148 0.0016179464 0.00039104742 -0.001102957 -0.0007449702 -0.0012017831 0.001692004 -0.0013268243 0.0011404206 0.00031318178 -0.00040989125 4.8750448e-05 0.0017327525 0.0006275288 0.0006934695 -0.001593904 0.001734993 0.0004512143 3.6229118e-05 0.0005138008 -0.0010965954 -0.0016920292 -0.0009871263 0.00094715145 -0.0010015842 -0.0014493567 -0.0004916554 -0.00026086174 0.00090443017 -0.00026121922 0.0009762783 0.00117879 -0.0016391382 0.0015696699 0.0011894511 0.0015539215 0.0007991924 -0.0009569291 0.0008553738 -0.00065441726 0.0014248044 -1.6081856e-05 0.0007169766 -0.0015266588 -0.00088829524 0.00040772854 0.00083093 0.0016117798 -0.0005407777 0.00074661453 -0.00058247 6.919024e-05 -3.617676e-05 0.00019177217 -0.00016790334 -0.00091515854 -0.00058597897 -0.00090047414 0.001173025 -0.0010822715 -0.0013405362 8.883383e-05 0.0012045617 -0.0011000925 0.001510105 -0.00083974976 0.00016576036 -0.00021106693 0.00015220305 0.00078654924 -0.0006108012 -0.0005810817 0.00062891387 -0.0014857864 -0.0007918164 2.3001385e-05 -0.00048255624 0.0006269783 0.00019196578 0.0009834524 -0.0016658998 1.1292431e-05 -0.0013059515 0.000470035 -0.0017226457 -0.0007907221 -0.0013876852 0.0016001911 0.000117035874 -0.00023105553 0.0015057634 -0.00076398643 0.0009826251 -0.001166196 0.00037806077 -0.00066363433 -2.8722663e-05 -0.00054962095 0.00043327833 -0.0015210818 -0.0014696836 -0.001190627 -0.0008813389 0.00024243552 0.00048066102 0.0015571874 0.00021759032 0.0017075287 0.0015787404 -0.0012713333 -0.0007673999 0.0016095188 0.0004998573 0.001611955 -0.00077731657 0.0012626717 0.0016396557 0.0006516159 0.0015010313 0.0015108603 -0.0005003434 0.00053172384 0.0010128691 0.001572075 -0.00053361204 0.0013073446 -0.00021783657 -1.5996762e-05 -0.00028133218 -0.00027525288 -0.0009584413 -0.00061518943 -0.00022239872 0.00040744693 -0.0009979069 -0.00044978838 -0.0005457408 -0.001093652 -0.0011939931 0.0008142341 0.00058975455 -0.0014190306 -0.0008927551 -0.0014445275 -0.0009526569 -0.0014584567 -0.0004568824 -0.0009813446 0.0010714835 -7.0682734e-05 9.172442e-06 0.001509035 0.0011347876 -0.0012640773 -0.00066176883 0.0014202207 -0.0004001619 0.0010578004 -0.00024938319 0.00029481793 0.0013157122 -0.00062144327 -0.0017094546 0.0016219928 -0.000293252 -0.0003394548 0.0008875474 -0.00062806916 0.0006345937 0.0016160214 0.001183312 0.0012966454 0.0013176239 0.0014103022 -0.00078194065 0.0010353441 -0.0008991337 -0.0009257421 -0.0007365241 -0.00031344246 -0.0013818234 0.0009993265 0.00063043355 0.0009002394 -5.8863884e-06 0.00016222762 0.0006116355 -0.00022372577 9.945091e-05 -0.0011969205 2.9776638e-05 -1.3852789e-06 -0.00091096445 -0.0003740649 -0.0005418586 -0.0016108967 -0.00065665646 0.00077985786 0.00040089837 -0.00019406505 0.0008728373 -0.0005408136 0.0015494465 0.0010521719 -4.4752655e-05 -0.00038535695 5.8038437e-05 -0.0016117264 -0.00021349864 0.0010175436 0.0011880485 0.0014332132 0.00042330663 -0.0010038125 0.0005397057 0.0011403664 -0.00053659163 -0.0016083233 0.0015870284 0.0012373326 0.000686658 -0.00057637866 -0.0011216967 0.0009877441 -0.00058788667 0.0014504063 0.00058353133 0.00090628443 0.00046675355 0.00046957785 -0.0005518455 -0.00071021967 -0.0012564535 -0.0007412072 -9.903797e-05 0.0008284383 0.00022048743 0.0004115941 -0.00060702284
马克思主义 0.00046855275 0.0016408062 0.0010449551 0.0003727738 0.00048273645 -0.00014974225 0.0007797057 0.00019257315 0.0008623605 0.0016327793 -0.0014762618 0.0013221123 0.0013943022 0.00023575501 0.0012670711 0.001385432 0.0010053336 -4.0609884e-05 0.0011809985 0.0011305962 0.0012532291 3.132774e-05 0.0002006911 -0.0014506573 0.00033649296 -0.000718139 0.0006399489 -0.00045925906 0.00023309133 -0.0014561084 -0.0005912054 -0.0007360504 8.591155e-05 -0.0015271996 -0.0010542993 -0.0013424634 0.0007350708 -0.0013170454 -0.00018529716 -0.0009137605 0.0008416568 0.00089412223 -0.0014684902 0.0006532978 -0.0011080707 0.000102650105 -0.0013784884 -0.0012539979 0.00087378133 -0.0010413076 -0.0012985507 9.167263e-05 0.00063930877 -0.0015522237 -0.0006783383 -0.001511499 0.00036663233 0.00063952967 0.0013292411 0.0007551371 -0.0012595996 -0.0002514378 -0.00061144674 0.00037569538 -0.0009249051 0.0002143595 -0.0011301317 -0.00028570145 -0.00038479007 -0.00097198284 0.0011837559 -0.0010664131 -0.0011568556 0.00041704558 -0.0011057762 0.0016709132 0.0006050206 0.0003318145 -0.0014499394 1.2846817e-05 -0.0008838907 -0.0014293635 -0.0008176961 -0.0012084563 0.0004948559 -0.0016725424 -0.0012369344 -0.0007596742 0.00014272243 -0.0012147601 -0.0012664797 0.00020022392 0.00093055627 -0.0008678734 -0.0009365534 0.0008358907 0.00043984337 2.4301358e-05 -0.0005532363 0.0015959761 0.00012922706 -0.00049407204 -0.00065960974 -0.0013710398 -0.0007659945 0.0014471968 0.0001681706 -0.001318578 0.00026270497 -0.0014209693 0.00029816336 -0.00018484025 -6.137152e-05 0.00032272452 -0.00056359405 0.0002084855 0.00062288734 -4.313958e-05 -0.0011024781 0.0014058027 -0.00075508887 -0.0011150318 -0.0010200319 0.0017069528 -0.00011891509 0.00051615573 0.00018275449 -0.0009527336 -0.0009325091 0.00080110034 0.0004992337 -0.00044780044 -0.0014647166 -0.00020543428 0.00090609025 -0.00012711674 0.000724326 0.0009805035 0.00050112215 -0.00153284 -0.0006716967 0.0008393292 -0.00027263467 -0.000820611 -0.00074790505 -0.0013880228 -0.0015278859 -0.0009141528 0.0014098352 0.0014045986 -0.0013631551 0.0006999173 0.001559157 -0.0006596133 0.0011060457 0.0015309765 -0.0015162413 -0.000819338 -0.00084327214 -0.0010322571 -0.0012456268 0.0010985114 0.00044275686 0.0006818653 -0.0007877535 -0.00045945574 0.0015836228 -0.0003395901 0.0015889799 0.0013774642 0.00079791254 0.0014813266 0.0015297052 -0.0011765984 -0.00045816478 0.0008146177 -0.00031303262 -0.0006672331 0.0016025094 0.0007788767 0.00012704098 -0.0012762725 0.001468298 0.0016566322 -0.0009231025 0.0009686492 4.1303156e-05 -0.00041779832 0.00052096567 0.00049930246 0.0006772869 -3.0351992e-05 -0.00091306114 0.00022473757 -0.0015450371 0.00034530647 0.001266279 -0.00014139674 -0.0011258776 0.0015511302 -6.125959e-05 0.00048139118 -0.0015114418 -0.00070934417 -0.0009330895 -0.0014714242 0.00042766237 0.00048545847 -0.0013596909 -0.00048832374 -2.566703e-05 -0.0007259014 0.001194275 0.001539507 0.00063521526 -0.0013016168 0.00039090027 -0.001524283 -0.00039720896 0.0015956846 0.0014886921 0.00067457184 0.0006812471 -0.00033427723 -0.0010058901 0.0013045976 -0.0011030888 0.00042761478 -0.0010588542 0.00039329744 0.0005522077 -0.0011385004 -0.0010861539 0.000302649 0.0009306815 0.0006194663 0.0001188303 -0.0012410026 -0.00044958765 -0.00029880623 -0.00083754526 -0.00065834436 0.001298768 -0.0017242087 0.000424631 0.0013005356 0.0016216796 -0.0005748814 -3.6245114e-05 -0.0011201365 -0.0013941632 -0.0006505186 0.0009474822 0.001545387 0.00080890453 0.0012716322 -8.1919025e-05 0.00084097986 -0.00089410646 -0.001198846 -0.00021596423 -0.00056750875 -0.00016940884 0.0015597291 0.0009787341 0.0006492874 -0.0011282845 -0.00041675742 0.0010886652 0.0017303545 -0.00085406477 -5.923981e-05 -0.00067824003 -0.000378129 -0.0013991022 0.0015711137 -0.00018513916 0.00047379232 0.00015828211 0.00026388632 -0.00040768812 -0.0005153802 -0.0006338183 -0.0008723689 -0.0016617144 -0.00010970104 0.0005813931 -0.0014976603 0.0011749566 0.0011947319 0.001551168 0.0015179458 -0.0014283968 -7.952319e-05 -0.0010836963 4.5964334e-05 -0.001127125 0.0016475825 -0.00040174078 -0.0012813477
政策 0.00054175477 0.0013572042 0.00023600047 0.0005230831 0.0010557796 0.00033654657 -0.001570591 0.00032623397 0.0004935438 -0.0005594495 0.0010208583 -3.267456e-05 0.0012526836 0.001504595 0.00034051095 2.2817626e-06 -0.001414638 -0.0014962893 0.00079477264 -0.0016533134 0.0011798823 -0.0012847183 0.0010756273 0.0014156754 0.0014035662 -0.00089924235 0.0016222629 -6.3153515e-05 0.0006381864 -0.0006990352 0.00064475747 -0.00082178623 0.0015038912 -0.0013505758 -0.00011995953 0.0012116744 -7.188439e-05 -0.0012239526 0.0002717 -0.001069241 0.000515935 0.0011512301 -0.001053782 0.0013669853 -0.0006809106 -0.0006591866 0.000530623 -0.0007281077 0.00023007198 0.001353222 0.00057085353 -0.0011691654 0.00010068465 0.0015091364 0.00075237185 -0.00021255857 -0.0013845344 0.0002270213 -0.000584748 0.001532089 4.4095053e-05 0.0012355531 0.0011748802 -0.0010429492 -0.0012560256 0.0011781512 -0.00074094237 -0.00014138492 -0.0008569235 -0.00048077625 -0.00072424335 -0.0003546871 0.00064858684 0.0016942963 9.9292194e-08 -0.001182234 0.0012391475 -0.00041203536 0.0010152106 0.0013981095 0.001254228 0.0006097143 -0.0015188305 0.001207443 -0.000467387 -0.0014145001 0.0006018056 -0.00083733967 0.0011563764 0.00045855873 0.0012278454 0.00038795586 0.0010443217 0.0012018837 0.0015406632 0.00065030344 0.00065644877 0.0015881081 0.00047905865 -0.00025366416 -0.0011210728 0.00055065344 -0.0011151788 -0.00053622253 -0.0004359174 0.0009148108 0.0015267349 0.00090678746 0.0011255259 2.2270517e-05 -0.0011419868 -0.00086788996 -0.0007220158 0.0012501257 -0.00020954672 0.0013238597 -0.00049088395 -0.001526734 -0.0013899127 0.0007345072 0.0013355539 -0.00090763986 0.00048120512 0.0001641341 -0.0006282514 -0.0010311038 0.0008771281 0.0011621414 0.0004621022 0.00072773785 0.0003551883 0.0011411324 0.00016554886 0.0012411302 0.00043609002 -0.0007706056 0.0015500465 -0.00074569223 0.0003957076 0.0015074667 -0.0013055726 -0.0015438098 -0.0007244076 0.00036583314 -0.0008650267 0.00058662065 -0.0009216214 -0.0015462675 -0.0013620866 0.0011680651 -0.0015404888 -0.0012403267 2.2792345e-05 0.0014496641 0.0015759135 0.0014233241 -0.0013055908 -0.0011551471 0.000776998 -0.001181211 -0.00073462207 0.00026278512 -0.00022809277 -0.0013241441 -0.0012166962 0.0009769775 0.0011042895 -0.0016802547 -0.0001954369 -0.0002983178 -0.00037940862 -0.0008162465 0.0015936126 0.0007661708 -0.0016476266 -0.00081077026 5.612331e-06 9.30554e-06 -0.0010338434 0.0012716209 -0.00047550476 0.0007652615 0.00092785875 -0.0014330649 0.0007500396 0.00056308054 0.0014530806 0.00022085043 -0.0013231472 0.0009912341 0.0004415109 -0.0013922141 0.0014842636 -0.0015116819 -0.0010833858 -0.0005961253 -0.0015652757 -0.00020169847 -0.0012479209 -0.00038712073 -0.0012002393 0.0008785246 0.001463248 0.0012879213 -0.00080690975 0.00064818846 -0.00053861237 0.001521003 -0.0005752253 0.0011021064 -0.0016625572 -0.0006639071 0.0007035466 -3.2829369e-06 0.0014116062 0.00037223852 -0.0007400012 0.00037229733 0.0014020745 -0.0013090501 -0.000702841 -4.574725e-05 0.0005954905 0.0009209487 -0.0010194205 0.001712546 -0.0012503451 0.000982256 7.460435e-05 -0.00066908955 0.0011995329 -0.00030205672 0.00024490038 0.0006168291 -0.00024057257 -0.001435937 0.0014822332 -0.0014120778 -0.0014162275 0.00032872142 0.0012344928 0.00059614243 -0.00042593942 -0.0011097173 0.00084188156 0.0007874298 -0.0007190303 0.0009791844 0.00042998683 0.0010191401 1.8913439e-05 0.0006122363 0.00036361103 0.00076206715 -0.00087657606 0.0006543085 -0.0005212798 0.0012918941 0.0015793935 0.00045533682 -0.0008254415 0.0001462589 0.0007156529 0.0006451546 -0.0012185966 0.0008558982 -0.00095239654 -0.001204229 -0.00045857567 0.0016597026 0.00035786026 -0.00065332983 0.0012554725 0.0012653146 0.0012618832 0.0008888789 -0.00046906856 -0.0010454275 0.001643325 0.0016497382 0.0015295744 0.0012081987 0.0007387681 -0.00011871663 0.0006057564 -0.00050746335 -0.0012701633 0.0014838697 -0.0009505856 0.0014025596 -0.0010700086 0.00020021116 0.00086982636 -0.0011197774 -0.0014790113 -0.00032053085 0.0010483615 0.0013701846 0.000129648 -0.0016105261
实行 -0.0013767568 -0.0016014053 -0.00055893697 0.00080873596 -0.0016910442 0.00052141235 0.00080918183 -0.00051533943 -0.0011030736 0.00070628885 -0.00029645403 0.0014027116 0.00013646696 0.001178865 0.0013546632 0.00052047655 0.00068286736 0.0011000548 -0.0011726912 -0.0005202586 0.0009236624 0.00043556836 0.0010446828 -0.0011653857 -0.0011559058 -0.00023450474 -0.00073627906 -0.00023626114 0.0012280209 -0.001120738 0.0005891363 -0.0008695978 0.00026694016 0.00036309878 -0.0009570175 0.00013120113 -0.0013153577 9.980684e-05 0.00032549945 0.0015392099 -0.0010215323 0.00016140699 0.0015061571 0.0015484936 2.4392948e-05 -0.0011450691 0.0013092237 -0.0001323749 -0.0011083124 0.0012289224 0.0015916248 -0.0017737797 -9.720222e-05 -0.00066246116 0.001574563 -0.00017240559 -0.0012328997 -0.00040611965 -0.00093666476 0.00092586724 0.00067854364 -5.61806e-06 0.00069689663 1.9433552e-05 -0.0014711054 -0.001540872 -0.000121840676 -0.0013276729 0.00020508487 -0.0008257816 0.0006821751 0.0015428365 0.00086901226 -0.0003698741 0.00065608235 0.0014472844 0.0010532924 -0.00056337815 0.0014690174 -0.0008886518 0.0009870501 0.00059191923 -0.0016576133 -0.0014785622 0.0016665304 -0.0010678582 0.00029900623 -0.0005876322 0.0014034507 0.000839843 -0.00028114024 0.00032473655 -0.00152501 3.4589408e-05 0.0010684327 0.0014611653 0.0016647113 -0.0004697312 0.0014114947 -0.0012575721 -0.0008467908 -0.0015680196 -0.00020064967 0.0002572715 -0.0006866444 -0.001436747 -0.0011247885 0.0007285206 -0.0003759716 0.0009469999 -0.001704608 0.0005398539 -0.0011637157 0.0006274687 0.0013644181 0.0011725001 0.0015602667 -0.0013986586 -1.0417999e-06 -0.0014143533 0.00018030906 0.0003627114 0.0007193571 -6.9692396e-05 0.001287304 -0.0012771448 0.0003358288 0.0013674821 -0.00010522177 -0.00066804735 0.0014832935 0.0004727333 -0.0007702662 -0.00074552203 0.00026766612 -0.00088013906 0.00039683026 -0.0011393802 0.00047835865 0.0008018419 -0.0016677284 0.0005815824 -0.0014469486 -0.00073064846 0.0013929837 -0.0008602572 -2.657613e-05 0.00016059619 0.00019927994 0.00136132 -0.0011173207 -0.0010076879 0.001649077 0.0008838662 -0.00039701717 -0.00069022604 -0.0013486665 0.001640887 -0.0011775529 -0.00025928143 -0.00082168495 0.00078557985 0.0013814924 0.0014422981 -0.00025533626 0.00068122114 0.00021922203 -0.0003307896 -0.0005727501 0.0015521875 -0.0011125379 -0.0011368929 -0.001450832 -0.0008792094 -8.889827e-05 -0.0007328845 -0.00023188064 0.0011373502 -0.0009291449 -0.0013804373 -0.0007599805 -0.00015007149 0.001307839 -0.00015218333 -0.0012725635 0.001472163 -5.8354337e-05 0.0008099642 -0.0016250951 0.00077181385 -0.0014227049 0.00013628115 0.0009037318 -0.0006373216 0.0010171465 -3.7602837e-05 -0.0016474528 -0.0009754915 0.00046697046 0.0015367221 -0.00028488575 -0.00044482065 0.0011822447 -0.0011755092 -0.0013649546 -0.00086386263 0.0006834583 -0.0016400818 0.00072900834 0.0016427498 -0.00010557548 0.00062266807 0.0009967007 0.00033356293 0.0008724019 0.00015075442 0.0008171948 -0.0009431425 0.00015343641 -0.0006603491 -0.0014839882 0.0013447411 -0.00097348203 0.0011778681 -0.0011394791 0.00043333764 0.0014589753 0.0011340311 0.00041222037 -0.00047267787 0.00078532525 0.00024986413 0.0008116509 -0.0011828345 0.0015532444 -1.6972139e-05 -0.0008884415 -0.0006458814 -0.00042140437 -0.00061412854 -0.00037547768 -0.0009161979 0.00035236566 0.0010320744 -0.00039131127 -0.000103522725 0.00074628624 -0.0009457164 0.00086926774 -0.0012561695 -0.00025768692 -0.00026900694 0.0010734033 0.0005856192 -2.8672772e-05 -0.001021133 -0.00067747064 -0.00028018167 0.0013756 -0.001399483 0.00078305084 -0.0010001288 -0.0010413631 -0.0003895212 -0.00015798963 0.0016093709 0.00066756876 0.0007495747 -4.2265343e-05 0.0013148955 0.0010025847 0.00037514116 0.00058337 -0.0007176477 0.00040890198 0.00071650464 -2.335622e-05 -0.0010372367 -0.0006986361 -1.40165685e-05 -0.0011345271 -5.9657024e-05 -0.001379432 -0.00021793504 -0.0012929618 -0.00023417782 -0.00071982644 -0.00044942528 0.0006975734 0.0009083873 -0.0011692804 -0.0011266151 0.0013509453 0.0011939604 0.00021632964 0.00023239481 -0.0015457099 -0.0003538223 -0.001375085 -0.00029669146
历史 -7.095324e-05 -0.0006695727 0.0015557605 0.0015796911 -8.867736e-05 -0.00065095286 -0.00034039002 -0.0010470095 7.491404e-05 0.00070740475 0.00045689213 -0.0015607099 -0.0013942274 -0.0013501266 -0.0016916716 -0.0010076821 -0.0014485113 0.000751248 -0.0003037351 0.00015632086 -4.2604308e-05 -0.00089640246 -0.0011875749 -0.0001999015 -0.0016449288 0.0013332001 -0.00021776544 0.0012217617 -0.00091397925 0.0014897193 0.00075137086 -0.0005539527 0.00090468006 -0.0013750226 -0.00025422638 -0.00042084637 -0.0008304519 -0.0015246451 0.0011040388 0.0011830695 0.0004753268 0.0016171177 0.0015983698 1.5212278e-05 0.0013147912 -0.00010323404 0.0016941325 0.00069959357 0.0005591578 0.00018908735 0.00068679254 0.0010762657 0.0015261187 -0.00082878897 -0.0012412358 -0.0016459443 0.0012211464 -0.00025197817 -0.00033036846 -0.0015726944 -5.1269093e-05 -0.00030439766 -0.0005158924 0.001268471 0.00025268295 0.0013900927 0.0012489591 -0.0010823853 -0.0012700649 -0.0016081957 0.0010325528 0.0013504603 -0.00092645426 -0.0009818829 0.0014088337 0.0016626914 -0.00085469964 0.0007707226 0.001305822 -0.00048979005 0.0007615188 -0.0010883365 0.0008379255 0.000710248 -0.0001313193 -9.155457e-05 -0.0005392194 0.0014477072 -0.0012570827 -0.00016175373 0.0005250126 -0.0016096303 0.0008941507 0.0006655266 -6.8261247e-06 0.0016142069 -0.0014561113 0.00070760946 0.00065886293 0.001618446 -0.00085727184 -0.0009773871 6.2237787e-06 -0.00012377356 -0.0012126181 -5.9977243e-05 0.0010021663 -0.0009812304 0.0004531851 0.00075240823 -0.0011278492 -0.0013702695 -0.0014547078 0.00038319273 0.0006001979 -0.00013620853 0.00081368606 -0.0012719341 -0.0009864027 0.001472884 -0.00041423057 -0.0017380122 -0.0016405158 -8.094105e-05 0.0014559549 0.00017524575 -0.00057718204 -0.0015616536 -0.00065254216 0.0005724594 0.0015676782 -0.0008615911 0.00017579448 -0.0014153933 -0.00026963055 0.0010290117 -0.000112515285 0.00029152955 0.00041597465 0.00021937185 0.00027279902 -0.00016805377 -0.0005263375 -0.0015596595 0.0016312673 -0.00059270207 0.0006866568 -0.0012193345 -0.00031464206 -0.00052834436 -0.00087120483 0.00056551467 -0.000964403 6.565823e-05 0.00086541544 -0.00060776825 -0.00054704695 -0.0015138555 -0.0010535963 -0.00048784926 0.0011454477 0.00097571046 0.0013408422 0.00062935636 0.001198253 -0.0012484863 -0.0005764731 0.0012761052 0.00073709525 -0.001065642 -0.0011204575 -0.0010779189 -0.00032801734 -0.00047099058 0.0006071255 0.0012417071 -0.0013606121 -0.0013076816 -0.0005173449 -0.001204431 -0.0014641512 -0.00024555705 -0.0012233369 0.0014811921 -0.0010974605 0.00066017034 -0.001098325 -0.0016656632 -0.00155034 -0.00066386495 -0.0013947766 0.0013378963 0.0014558524 -0.0006360031 0.0004166395 -0.0009959927 0.0010084442 -0.00045552186 0.00070216495 -0.00033429102 -0.000992481 -0.00014366131 0.00045418163 -0.00079912075 -0.00028608614 -0.00067599834 0.0012111731 0.000600231 -0.00041560945 0.0012836817 -0.0007627138 0.0015340529 -0.0013575387 -0.00092429394 -0.0010256576 0.0008109654 0.00096646004 0.00036581082 -0.0014151443 0.0013003504 0.0009967204 -0.0009646703 0.0012939619 -0.0017025722 0.0005913013 -0.0015722929 -0.00043741454 2.1136877e-05 0.00056218414 -0.0015498697 0.00037247664 0.00080068107 0.0005645215 0.001027237 -0.00034440198 -0.00034615648 0.00038360627 0.00055843795 0.0016640966 -0.0009917781 0.0001819698 0.0016549263 0.00048081196 -0.0013522987 0.0014368827 0.00069188664 -0.0012385036 0.0015482003 -0.0016983954 0.0014623665 -0.0001370499 -0.0011668627 0.00077999436 0.000834493 -0.000957474 0.001536958 0.0011639344 -2.7812457e-05 -0.00038709736 0.0002559229 0.0011100403 -0.00057781354 0.0008389158 0.0016616727 -0.0011612121 0.001548806 -0.00067135453 -0.00017875695 0.0009957958 0.001233414 -0.0014613874 -0.0010318656 -0.00021860251 -0.00092095614 0.00015729482 -0.0006514078 0.00070308027 0.0015640366 -2.8298848e-05 0.0012349235 -0.00042459 0.0012979043 -0.00047302138 -0.00072843017 0.00026586317 -7.293959e-05 -0.0014691254 -7.483409e-05 0.00070046994 0.0006475644 0.0005293039 0.0012229951 3.3565826e-07 0.00067462056 -0.00026306167 0.0014394678 0.00024755523 -0.00039922958 0.0015582733 -0.00068941497
观点 0.00067410996 -0.00013921392 0.00062908523 0.0014408873 -0.00022611217 -0.0011317014 0.0010675772 -0.0016646733 -0.0012410093 -0.00081350806 -0.0010930923 -0.0013977003 0.0009905747 0.0015591948 -0.00042099715 -0.00048794647 -0.0014786414 0.00035748992 -0.0001952171 7.630921e-05 0.0014004009 0.0005549232 5.1775492e-05 -2.0365515e-05 -0.0017161663 -0.00035449158 -0.000490361 0.0014236621 -0.0015189829 0.001518119 0.00022710241 -0.0009792997 -3.0457484e-06 -0.0003620696 0.0009983986 0.0008620649 -0.0009970004 0.0013729974 0.0016312619 -0.00046148952 0.0010376375 0.0004919648 0.00030195664 0.00042659408 -0.0012000976 -0.0013046145 0.0013269692 -0.0007058265 -0.0011842514 0.0016469466 0.0003829468 -0.0014636391 0.00089687115 0.00090477144 0.00018355549 7.924847e-05 0.00054938346 0.00048449892 -0.00084243005 0.0009492304 0.0014548566 -0.00036211917 -0.0011859674 0.00032183834 0.0005215238 0.0014047055 -0.0015675763 -0.00022674556 6.951283e-05 -0.00076687813 -0.00043110672 -0.00089412334 -0.0013263086 0.0012402979 0.0013554961 0.0014534687 3.724979e-05 0.00022970335 -0.00013094368 0.0015605732 0.0012067297 0.001429471 0.00093076285 0.0009052653 0.0011198871 -2.381583e-05 0.001236623 0.0014609806 0.00015163807 0.00057144475 -0.0007400181 0.00078561 0.0008946922 0.00023722101 -0.00074361364 0.0015307922 -0.0011599701 -0.0008060496 1.6103111e-05 -0.001357114 0.0016126753 -5.9272134e-05 -0.0006579607 0.00052515045 0.0015710854 -0.00046470042 0.00042196605 0.0013854542 0.0016097343 -0.001180183 0.00091419945 -0.001191752 0.0007837433 -0.000965024 -0.0015714848 -0.0014756798 -0.00049316423 -0.00019642878 -0.0003085847 -0.00016933355 -0.0008344392 -0.00035136568 0.0014758273 -0.0002747064 0.0002802959 -0.00050256844 0.0001894731 0.0002757718 -0.0009766477 -0.0015697394 0.0015074816 0.00038467578 -0.0016239373 0.00033674476 -0.0014799632 0.00043787452 0.00024105144 0.0012381595 -0.0013756023 -0.00011752515 -0.00025729393 0.000507525 0.000548788 -0.00022447441 9.0793554e-05 -0.0015606631 -0.000986839 0.001133806 -0.0009493819 0.0010327694 -3.0801733e-05 0.000853905 0.0006729039 -0.0015396781 0.0014171747 0.0010796676 0.000108115295 -0.0006089325 0.0006508121 -0.0004867499 -1.2043924e-05 0.0010562302 -0.0001572785 0.00086559996 3.7893617e-05 0.00027665857 0.00039375882 0.0014525715 0.0010737393 0.00040562122 -0.0010510735 0.001345299 -0.0014608846 -0.0005764873 0.0010456643 -0.0012909523 0.00075794925 -0.0009971694 7.530542e-05 0.0014412266 0.00037606526 0.0013194083 0.0009214073 -0.001335443 0.0011098892 -0.0014152306 0.00039590566 0.00034816758 0.0016036157 -0.0010483026 0.0014318498 0.0011396521 -0.0014209565 0.0011015226 0.00062697317 -0.0017554063 0.0006398769 -0.0011373993 -0.0011488331 -0.001112419 -0.00043541353 -0.0015524781 -0.00023065346 0.0011022638 0.0012469733 -0.001031696 0.00056506385 2.2519458e-05 -0.00080736825 0.00080113957 -0.00013014588 0.0008988778 0.0014324709 -0.0004610599 0.00016986435 -0.00030122156 0.00022170457 -0.00022980261 0.00083936396 0.00028102897 0.0008245987 0.0011951106 -0.0006532091 0.00080926466 -0.0006659594 0.0015669033 1.03299435e-05 -0.0007445649 -2.0364641e-05 -0.0011168118 -0.00066116743 0.00079326105 0.0009097332 -0.0013558683 -0.0010247859 0.001390517 0.0002722506 -0.0017015921 0.0010967278 0.001501012 0.0014513991 -0.0015651534 0.0009096581 0.0013487249 0.00096356636 -5.3745083e-05 -0.0015928958 0.00017815689 0.00051747455 -0.00079049566 0.0008275852 -0.0013618201 -0.0009431331 0.0014549114 0.0014087276 -0.00069904275 0.00010614851 -0.0017562731 0.0014112148 0.0007026201 0.0016533134 -0.00014881002 0.00025207704 -0.00042389962 -0.0005334869 -0.0012552873 -0.0012387416 8.8270506e-05 -0.0009098688 -0.00036407085 -0.00090992794 -0.0015824127 -0.000790607 -0.0009285555 -0.0013605129 -0.0005115655 -0.0006142653 0.00058280793 0.0004797963 -0.0013732443 0.0015939161 0.001079873 -0.00095905206 -0.00032068495 0.00046929732 -0.0005373629 0.0007819705 0.0008798222 0.00068589434 -0.00093624694 0.00132549 0.0010022244 -0.0005753142 -0.0014110287 0.0009904117 -0.00028114358 0.0007836842 -0.001128181 0.0011677692 0.0010984658
农民 0.0015975039 -0.00077729265 -0.0013063852 -0.0004952865 0.00041675824 -0.0008684619 -0.00083985995 -1.3228778e-05 -0.0004734243 0.0010071816 0.0012129183 -0.0007600432 0.0011466678 0.00028351243 0.0016194042 0.0015511304 -0.00096112414 -1.9136653e-05 0.001143672 0.0011011512 6.045576e-05 0.0016555464 -0.00075539656 0.00042311868 -0.00038107394 -0.0010300907 -0.00040473463 -0.00095154217 0.0012265282 -0.0015931051 -3.040655e-05 -0.000821034 -0.0010195589 0.001062567 0.0007131792 -0.0005165348 0.0004658677 -0.00077008206 -0.00062391214 0.0012165434 -2.065169e-05 -0.0015109935 -0.0003670066 0.0006490015 -0.0004891415 0.00048317717 0.0007704213 0.0010432681 -0.00016009189 0.0014764721 -0.0008823413 -0.0011973192 -0.0005936313 0.00029062762 0.0011516977 -0.00040384984 -0.0005050952 -0.0005813436 -0.0010427923 0.0013093436 -0.0013256634 0.0006610844 0.0011351117 -0.0016135651 0.0015583397 0.0003377297 -0.0006915212 0.0006560799 -0.00065346004 0.0008285698 -0.001026643 -0.0014354116 0.0015484928 -0.0014273451 0.0011745114 0.0009553765 0.001180671 0.00031887606 0.00028448898 -0.00049303676 -0.0011480313 0.00043687242 0.00020995412 -0.0005468151 0.0013240593 -0.00063627074 -0.001560344 -0.001281227 -0.0015126943 -0.00021025928 1.1140435e-05 0.00034473935 -0.00069203717 0.00035814752 0.00041613713 -0.0004140419 -0.00046062 0.0016123927 0.00014751502 -0.0015700059 4.256965e-05 -0.00058831746 0.0012925706 0.0011091324 0.00091389817 -0.0014312501 -0.0008858887 -1.9680454e-05 0.0017438659 -0.001334932 0.0011147744 0.0014859395 0.00019706419 0.0015748622 -0.00014316067 0.001422171 6.58523e-05 0.00049258396 -0.00136093 0.00068217225 -0.001286467 0.00062427577 0.00019973065 -0.0007969121 0.00028124495 -0.0015782409 -0.0009856749 0.00024183923 -0.0012890036 -3.2751508e-05 0.0016553747 0.00019927355 -0.0016842285 0.0015295416 -0.0008551934 -0.0006247488 0.0015147775 -0.000691796 -0.0010533002 -0.0009351552 0.0015983077 0.00019208615 -0.00021922872 0.0005186738 0.0005483883 -0.0010830712 0.0007279279 0.00072152115 0.0011109977 0.0013162656 -0.0012560701 0.000643439 -0.0008864309 0.00075706095 0.0014424862 -0.00043120154 -0.0007878752 0.00030364594 -0.0009768417 -0.0016890205 -0.0009371733 0.0012445026 -0.00038007266 -0.0010703093 5.51158e-05 9.027521e-05 0.0010893892 -0.00016732687 0.0015333769 -0.0010043858 -0.00086710975 -0.000728906 -0.00083929853 0.0010827909 -0.0008684956 -0.0009979197 0.000130176 -0.0010448429 0.0010523058 -0.0005435822 -0.0015144735 0.000523187 -0.0012458627 0.00017851558 0.0006221918 0.001365314 -0.0005832892 -0.0013631752 0.00044478176 8.687275e-05 0.0003871349 0.00014396328 8.359361e-06 -0.0005821782 -0.0016180793 -0.0016947137 0.0015787304 -0.00090659084 -0.0015271753 -0.0004235738 -0.00036431963 -0.0012311215 -0.001356081 0.00036186323 0.00062984455 -0.0015360786 0.0006043372 -0.0012667895 -0.0008163854 -0.0012944973 -0.00094271585 -0.00048222308 0.0013342076 -0.0011563215 -0.0015224424 0.0009925187 -0.00079711224 -0.0016054193 0.0009867261 0.0013408894 0.000992737 0.00078602775 -0.0007578216 -0.0012177909 -0.00092437124 -0.0010150097 -0.00021897489 -0.0010837804 -0.0007264577 -0.0011147282 0.0014509269 -0.0012290725 -0.0009845902 0.0009516285 0.001478712 0.0009993353 0.00029192423 -0.0011663489 0.0014376324 -7.131672e-05 -0.00069544086 -0.0013349176 0.0002457095 -0.00033943515 0.0001389584 -0.00035212273 -0.0009133854 0.0012739898 0.00018170211 0.00013176115 -7.050683e-05 0.0008379794 0.0015918304 -0.00042381056 0.0012182103 -0.0010931713 -0.0013999947 0.0011125588 0.0014497977 -0.0007498382 0.0013691433 0.0007169762 -0.00011245172 -0.0014768116 -0.0016508388 0.00065029133 0.0003107404 -0.0014116504 0.0006616854 0.0015677254 -0.0006486011 0.00018874173 -0.0004013693 0.00086829165 -0.0011684389 -0.00056431326 0.00035334678 -0.0007720298 -0.000763124 -0.0009836172 0.0015754147 0.0014841339 -0.0010878363 0.0012243724 -0.0015364205 0.00025425907 7.532682e-05 -0.00051674584 -0.00025260716 -0.001240444 -7.772536e-06 -0.00080929283 0.0013191445 -0.0007495393 0.0010241225 0.00015745206 -0.0010474272 0.0011191437 0.0010205781 -0.0012123701
情况 0.00085492595 0.00026889596 0.00057128095 -0.00063910143 -0.00058594043 -0.0016340982 0.00036725253 0.0001939669 0.0013575034 0.00086159026 0.0013329502 0.00096987997 0.00054532534 0.0014598949 -0.00023897021 0.0010024061 -0.0008570726 6.883518e-05 0.0002718493 -7.6396595e-05 -0.0007805447 0.00011929794 -0.00071596703 -0.00032741603 -0.00044720774 -0.00040714387 0.0008226362 0.00018622015 -0.0012391023 0.001650176 -0.001217676 3.3527365e-05 0.00038560998 0.0016848964 -0.00039885484 -0.0015932498 -0.00020256372 0.001666973 -0.0011828428 0.0016495258 0.0010349643 0.0010585132 6.625486e-05 0.0016190816 -0.0012574564 -0.0007437341 -0.001575439 -0.0006320994 0.00013823404 -0.00059987773 0.0003021302 -0.001608633 0.00011052245 0.0014892458 -0.0014597409 0.00019936 0.0012892741 -0.0003140855 -0.00096909126 0.00061444385 0.0002718843 0.0010549391 -0.0005462131 -0.0015726417 -0.0011199251 0.00025079664 0.0010360277 0.0010137708 -0.00023821215 0.0012320862 0.0005449431 -0.0005642978 0.00087720685 0.00017350996 0.0010653839 0.0008125645 0.0007163047 0.00023393663 -0.0012127102 -0.0011710332 -0.0008042098 0.00012407538 -0.0010181941 -0.0010793889 -0.00072410627 -0.00050571735 0.0016654395 0.0006669149 -0.0014365308 0.00029935694 -0.0015395214 0.0015719729 -0.00048157998 -0.0014973305 0.0013152718 -0.00083926826 -0.00021847048 -0.00066205376 0.001057995 0.00045727286 0.0008671746 0.0009879343 -0.0016389025 -0.0006189127 0.0011206482 -0.0012909836 -0.00087264116 -0.000814728 -0.00026879643 -0.0005496462 0.001323964 0.000729752 0.0015762564 -0.0011822362 -0.0012332621 5.001866e-05 0.0015720618 -0.00074484595 0.0013666077 -0.0010869692 0.0014067306 3.225111e-05 -0.00050590816 -0.0013822295 -0.00072448794 0.0010122792 -0.0015988968 0.0010614403 -0.0009311238 -0.0015926071 -0.001330454 0.001370054 -0.0015159383 -0.0016769689 0.00045186712 0.0010631954 -0.0006616327 -0.0002470165 -0.000215241 0.0014754937 -0.0015919892 -0.0005699062 0.0015216745 -0.0002370561 -0.00086818414 0.00055239693 0.0008045078 -0.00062901253 -0.0008812147 0.0007809437 0.0010039642 -0.001682691 -0.00014102837 0.001638608 -0.0015290851 0.00016891705 -0.0006804901 7.1615745e-05 -0.0008204186 0.000640901 0.0011650305 -0.0005918841 -0.001297656 0.0013135601 0.0011549918 0.00031202947 0.00075095956 0.0010561979 0.0010246345 -0.00069634244 0.0013752279 -0.0012424899 -0.0006357941 -0.00083594647 -0.0011045607 -0.00055390655 0.0015650713 0.00022439889 -0.0015469196 -0.0005439351 0.00012834933 -0.0010204643 -0.00088631746 0.0007630726 -0.00014416565 0.000606766 -0.0015515505 0.0005635162 -0.0013176864 -0.0007133336 -0.00023238198 0.0014160528 2.8286388e-05 -0.0008280608 0.00037935798 0.0015198926 0.0009847236 0.000429274 0.0013137793 -0.001080239 -0.00052391016 -0.0011980227 -0.0010817312 -0.0007494645 -0.0006518286 -0.0002765122 0.000594048 0.0004483627 0.00012367211 -0.00076089357 -0.0012335385 0.00031748434 -0.0014736124 -0.00026193354 0.00035208368 7.716214e-05 -0.0015745126 0.0013272894 0.0011578533 -1.0258804e-05 0.00033590358 -0.00014403462 -0.00030524094 -0.00034794 6.517476e-05 0.00014182492 -9.718096e-05 -0.00032131927 -5.270491e-05 -0.0009871378 -0.001272401 -0.00026213963 -0.00015986015 -0.00038106213 -0.0008369398 -0.0007018592 0.00039333678 -0.0009288706 -0.0011656679 -0.0009476012 -1.6716962e-05 0.00025980663 0.0008596924 -0.0014835113 0.0012610632 -0.00075762026 -1.0193469e-05 0.0012597039 0.00042269734 -0.0015871715 -0.0007292336 0.0007426475 -0.00065315893 -0.00022596966 -0.001470217 -6.1626335e-05 0.0010845151 0.0009723526 0.0017181512 -0.0012103257 0.00087704766 -2.7348784e-05 -0.0005144187 -0.0015593518 -0.00022320425 0.0014523979 -0.0010120354 0.000821118 -0.00080996763 -0.00075861823 -0.0014338832 -0.000103445556 0.0016054405 -0.0010041475 0.00072552444 -0.00036659933 0.0006355188 0.0010086149 -0.0009867627 -0.0009862288 0.0015443045 -0.00056456507 0.0015198218 -4.0881227e-05 -0.000509363 -0.0013765639 -0.0010425568 0.0005520552 -0.00053737673 -0.0015781464 -0.0013733339 -0.0008205707 0.0011997318 0.00089726323 -4.0885385e-05 0.0012422967 0.0005707627 0.0013682558 0.0002801241 0.0010923136
一种 -0.0012165114 0.00078005437 -5.6966324e-05 -0.00015768477 0.00064668903 0.0012952749 0.0013327018 -0.0014439166 -0.00045423178 -0.0015909899 0.0008916614 -0.00036861078 -0.0006338521 0.0006181771 -0.00066441525 -0.00020323921 0.00061705866 -3.6247533e-05 -0.0012880948 4.321193e-05 0.0010432326 0.0014246248 0.00032833582 0.0017221613 -0.0001764564 -0.0014533685 0.0005762805 -0.0015709613 0.0011692084 0.0010548873 -0.0013569433 -0.0005612309 -0.00092107366 0.0013378627 -0.00033978262 0.0010195159 2.0960602e-05 -0.00057421386 0.0008898445 -9.0547255e-05 -0.0008800106 0.001658233 0.001489847 -0.0008325996 0.0010239355 -0.0013698175 -0.001388842 0.0015548501 0.000449343 0.00020318752 0.0005976072 -0.00030550564 0.0012664422 -0.0009041145 -0.00042479855 -0.00042323724 0.0016161175 -0.00045830963 0.0013055551 0.0011543406 2.8284438e-05 -0.0007747613 -0.00020396015 -0.0008906992 0.0014116078 0.0003396209 0.0011293563 0.00095566735 5.4922824e-05 0.0005189816 0.00019892368 0.00030505087 -0.0016913202 0.0003702346 -0.0016155983 -0.0007226155 -0.00033784145 0.0004925869 -0.0016136918 -0.0010227764 0.0008127928 -0.0014763474 -0.00081226544 -0.001251511 -6.696284e-05 -0.0012123515 -0.00085636665 -0.001648066 -0.001415002 0.00012097895 -0.0011557614 -0.00039621047 -1.0654918e-05 0.0008399671 0.00019663063 -0.0011531857 0.0008502443 0.0012198902 -0.00064570364 0.00022970756 -0.0014095292 -0.00057639624 0.0010389114 0.0017105367 0.00031087289 -0.00074490515 0.0002341609 0.00084883237 -0.0006736826 -0.0012125823 -0.0010287069 -0.00012590607 0.0008559934 -0.0005577013 0.0013589336 0.00021435243 0.001349597 -0.0006677088 -0.0011778091 0.0013100296 0.00020992516 0.00087082636 0.00019555308 -0.0009751499 -0.0010474178 0.00050582114 -0.0007703683 0.00041796637 0.0004440503 -0.0011672521 -0.0003825494 0.00061490876 -0.0006200458 -0.0012897119 0.00047049994 -0.000664481 -0.0005839713 0.0013532588 -0.00028320996 0.00024326584 -0.00057926483 0.00078643416 0.0002551879 0.0013506896 -0.0004511829 -0.0012354378 0.00068905024 -0.0013144964 0.00069415185 -0.0009193924 -9.498515e-05 -0.0016076897 -0.0015110489 -0.0016317115 -0.00077995326 -0.00082120375 0.00090419996 -0.0005387496 -0.0013632723 0.0014122418 -0.0007328513 -0.00031859084 0.0010238823 -0.00022119028 -0.00083574 -0.0006369953 -0.0013817421 0.00028747693 0.0007225711 -0.0014679099 -0.0005399817 -8.686024e-05 0.0010370433 -0.00084861054 0.0006685362 0.001352839 0.0013442723 0.0011532423 0.00077840325 -0.0004523613 0.0016096425 0.00085558265 -0.0012313992 3.1965046e-05 -0.0015560373 -0.00091867975 -0.001101851 0.00062093127 0.0010951072 -0.0007429499 0.0004338019 -0.0013470723 -0.00029295572 0.0009905805 -0.00021277694 -0.0011447114 -0.00045377403 0.0013033424 -0.0003496026 0.0005638903 0.00039879128 -0.0012710742 0.00072427717 0.00051356567 0.0008246139 0.0010753936 -0.00040655053 -0.0013909041 -0.0010815491 -0.0001434432 0.0006655042 -0.00078075635 -0.0010020346 0.00065126765 -0.00074118027 0.0013294648 0.0013860189 0.0013355004 -0.0013366323 0.0003955644 0.00035099918 -0.001398492 -0.00042862046 0.0011925376 0.001654601 0.00083825114 -0.0004620092 0.00041855022 -0.0011102468 0.00072205206 4.9085615e-05 0.00151594 -0.0012506768 -0.00026959527 0.0012999354 0.00038461637 0.000897123 -0.0011547774 -0.00017904863 -0.0009584392 -0.00039133383 0.00084562355 -0.0010525157 -0.00029797657 -0.00015399483 0.0005279749 8.8526176e-05 -0.0015268903 -0.00087757147 -0.0014856439 -0.0013070137 0.001351388 0.00016488649 -0.0011083861 -0.00021485191 0.00089677965 -0.0014606096 -0.00088676787 0.00083889597 -0.0012401086 0.0010577047 -0.00018896998 -0.0010852468 -0.0008274938 -3.5851142e-05 0.00030660504 0.00033065092 -0.000653253 0.0014084857 -0.00078066473 -0.0012640732 -0.00075488584 -0.00084722484 -0.0001716232 0.00035764568 -0.0005347284 -0.00085959194 0.00090857694 -0.00017981547 0.0011353587 -0.0015561515 0.0005164128 0.0014091607 0.0005379184 0.00046064207 0.00054481 -0.00044493005 -0.0009614564 -0.0012151304 -0.0012159008 0.00025198347 0.0008839635 -0.0006350673 0.00013493637 -0.00016122799 0.0013346528 0.00078063493 0.0004634182 0.00066529313 -0.0011316945
团结 -0.0010763523 -0.0010916796 0.00057242345 -4.3066848e-05 -0.0012760463 -0.00036925526 0.0011299468 -0.00023596223 0.00077016494 0.0015492516 -0.00085565995 -0.0012195759 0.00020750111 0.00040286628 0.00026207592 0.00019654843 -0.0010373656 -0.0013772467 -0.000727121 -0.00035990463 -0.0004003032 0.0005601325 -0.0012406498 0.00092442404 -0.0003431091 -0.0010311388 -0.0012725495 -0.0003742171 0.0013868865 -0.00071329833 0.0008555375 -0.00024224057 -0.00043815054 -0.0015436071 0.0012128389 -0.0006073933 -0.00045633712 -0.0016252092 0.0016060075 0.0014584863 0.0013352941 0.00048633083 -0.0016781512 0.000893851 0.0016276191 0.0008565071 0.00070895866 0.0009493924 0.0011058779 -0.0010340938 -0.0008426727 0.00047205048 -3.8270366e-05 0.0006122587 0.0011118453 0.0011729968 0.00064447295 0.0011715868 -8.109385e-05 0.0002248573 0.0013821817 -0.0015758926 0.00045048754 -0.0009301032 0.0010101248 0.0007345245 0.0014039032 0.0015703255 0.00092974404 -0.0010291879 9.774539e-05 0.0014192259 -0.0003361187 0.0006434895 0.001636079 -0.000626674 0.00072825834 -0.0013565635 -0.0015051852 0.0013359728 0.00037977257 -0.0006337895 -0.00035035532 0.000974811 0.00044040647 -0.00040601243 -0.0004070631 0.00014593071 0.00062451937 -0.0002999157 0.000840422 0.00026498025 -0.0009741959 0.0004000333 0.0003535948 -0.0010218818 -0.00041601982 -0.0016794768 -0.000802464 0.00089328235 0.0011532432 -0.0016276706 -0.0016788596 0.0005576673 -0.0016200121 0.00046943285 0.00130325 0.0005380919 0.0010072468 -0.0006478 -0.000767059 -0.00047432672 0.0014780137 -0.00028482714 0.0015376976 0.0015432584 0.0016305813 -0.00013908662 0.00077099534 0.00015722682 0.0011547327 -0.00029133016 -0.0010957111 0.0002380998 -0.0016293759 0.0010453087 -0.001002703 0.0012747343 0.0016010219 -0.00056433707 0.00028702006 0.0007815594 0.001156202 0.0010443566 0.0016698161 0.0014416274 0.00069636607 0.0012522853 0.000967834 0.0011275861 -1.4136093e-06 -0.001420809 0.00055461226 0.0007563641 -0.0010985759 0.0001571594 -0.0014882329 -0.00074882375 4.9211474e-05 0.00023164497 0.0004504986 -0.0010404625 0.00021875756 -0.00016912718 0.001511113 -0.00097173644 0.0004077305 -0.00035258027 0.00034912932 -0.00071672536 4.2003052e-05 0.001242649 0.0012641413 -0.00029703375 -0.001536416 0.00029305177 -0.0010002954 -0.0013877811 -0.00050382334 0.00084321166 -0.0002322004 0.0010613629 -0.0010292775 0.0016844805 0.00050941634 -0.0015383844 0.0015931689 -0.0008779556 0.00064797536 -0.0012975263 0.0015240791 -0.0003608292 -3.4883087e-05 -0.0009970024 -0.0014805553 -0.0001866003 -0.00040742315 0.00084501796 0.0014710476 -0.00018107449 -0.00091471424 -0.0012384685 0.000799567 -0.0013433687 0.001505279 0.00028284336 0.00068843324 0.0004976966 -0.00019726033 -0.00058326084 0.00025996266 0.000993075 0.0014265184 0.0012697738 0.0015020026 -0.0011586281 -0.00152725 -0.00047994807 0.00043453163 -0.0014919324 0.00051110896 -0.0009252532 0.0010099306 0.0012749698 -0.0016336073 -0.000409753 0.00036503415 -5.1239593e-05 0.0012178525 0.00034649108 0.00046372862 -0.0006218991 0.00056084484 -0.0008446463 -0.0012884524 0.0013672301 0.0012269715 0.0011549098 0.0010896297 0.0006930939 0.0008513343 0.0011023153 0.0012559314 -0.0015402515 0.001399218 -0.0003713633 0.00034184192 -0.0014238168 0.00096395356 0.00066784705 0.0005333044 0.00041022024 -0.001559404 6.492373e-05 -0.0013864515 0.00030930416 -0.00010910051 -0.00067369314 0.0015394528 -0.0001085146 -0.0002507087 0.0009278583 -0.0011004453 0.0003364032 -0.00049031456 -0.0007914393 0.00079517224 -0.0016447157 0.00030545448 0.0016861358 0.00013886116 0.00046302335 -0.0005154161 0.0012015734 0.0014670254 -0.00017452726 0.0007252602 0.00039126654 -0.00036194702 -0.00035701582 0.00021297607 6.7176436e-05 0.0008358486 -0.00063362496 -0.0001957413 0.0009414033 -0.0012342911 -0.00047345783 0.00012094889 0.0012406668 0.0011956996 -0.0013475124 0.0005381331 -0.00016078756 0.00078145094 0.0003715003 -0.0010977061 6.7045235e-05 0.0005909136 -0.00015812601 0.00022144215 -0.0008832116 0.0008558255 0.00014782805 -0.0005427142 0.00025835203 -0.00012971954 -0.00061790296 -0.0014856964 -0.00014620111
一点 0.00033855197 -0.00046394774 0.0010182742 -5.453554e-05 -6.168058e-05 0.00073788245 0.0013235701 -0.0005452004 0.0010133593 -0.00036888008 0.00028758048 -0.00083574344 2.184565e-05 -0.0003861734 -0.0017245959 -0.00080364785 0.0010803366 0.0003877109 0.0014061055 -0.0013743632 0.0011776236 -0.0012210972 -0.0011618375 -0.0006577584 -0.0012401079 -0.0007535204 0.0016046346 -0.0009688898 0.0003713893 0.0009341341 0.0001922855 0.0002838499 -0.0011277711 -0.0015442397 -0.0012459754 0.0009860207 -0.0014958627 -0.00055972993 0.00090378645 -0.0011233446 -6.841007e-05 0.0011695197 0.0010132531 0.00022935699 -0.00093554734 0.0013490277 0.00074595877 0.0010231188 -0.0014636836 0.0015353558 0.0013935424 -0.0011057155 0.0012877114 -0.0012738261 0.00014330132 -0.00046566184 0.0003279567 -0.00065174385 0.0013774934 -0.0011699776 -0.000696805 0.0012687609 -0.00084492465 -0.0008073235 0.00030635638 0.0011140221 0.0015613995 0.00014004362 0.0011132444 0.000546226 0.0012610727 0.0004275935 0.0011523974 -7.561537e-05 0.00074430194 -0.00084253435 0.0003578288 0.0015248915 0.00061983964 -0.0008054252 -6.255044e-05 -0.0016017144 0.00065388135 -0.0014343138 -0.00041073043 0.00063085195 0.0011953776 0.00043256042 -7.581993e-05 0.00053989264 0.0014736771 -0.0014706046 0.00023507679 -0.00016141024 -0.0007332057 -0.0014182138 -0.00064092845 -0.00033426343 -9.5047246e-05 0.001719557 -0.0005751911 -0.0016167974 0.0008759778 0.0012341794 -0.00045528178 0.00092498393 0.0012866246 -0.0014588881 0.0015369608 0.0007261063 0.00054126896 -0.0009654318 0.00084085524 -0.00019317612 -0.0005773242 -0.0009252953 0.0007485225 -0.0007156417 -0.0011851053 0.00037530722 -0.0008785577 -0.000679737 -0.0013572236 0.0006173438 0.0007828063 -0.0013860048 0.0006753379 -0.0010249405 0.0006303259 0.0013530662 0.0010927902 -0.00147446 -0.00012375737 -0.0016836002 0.0014220184 0.00068309595 -7.979766e-05 0.0006124833 0.0014946741 9.269991e-05 0.0001134565 -0.00114084 0.0009687266 -0.00073424034 -0.0013066343 -0.00054395135 -0.0013063687 -0.001624998 4.260374e-05 0.0008691316 -0.0010808421 0.0014378962 0.00042548685 0.0011595554 0.00091086805 -0.0013802327 -0.00011084177 0.0011487644 0.0002941069 -0.00044670101 -0.0005938924 0.0014293381 -0.0008729535 0.0010672718 -0.0010579652 -0.000607237 -0.0008782276 -0.000102679165 0.0012396204 -0.00021890174 -0.00159457 0.0010948392 0.0007095994 0.00011131529 -0.00011349526 0.0015224874 0.0015335653 0.001572116 -0.0013484361 0.0010171691 0.0002559356 -0.00038758508 0.0003159977 0.0012502887 0.00015796015 0.000187235 -0.0001039718 0.00089050183 0.001601143 -0.00085402647 0.0012612527 0.0006503334 -0.00027322178 0.0007001406 1.2601834e-05 -0.0016262905 -0.00048146886 -0.001683945 0.0016227254 -0.0015424391 -0.00091994024 -0.00090686843 -0.0003763717 -0.00056411437 -0.0004218483 -0.0011755547 0.00097248715 -0.0015682401 -0.0002440695 -0.0013688777 0.00078326336 -0.0011322888 0.000818908 -0.0013206437 -0.00021881555 0.0011989421 0.0002955973 -0.00034924207 -0.0016651949 0.0004110494 -0.00095255993 -0.0005903624 0.0004934893 -0.00035114368 -0.00029329778 -0.0014852561 0.0005295602 -0.00052999373 -0.0014787482 -0.0011058834 0.0009780041 -0.0010137035 -0.0013416044 -0.0011677104 -0.0015279473 0.0002730684 0.0005899909 -0.0011618639 0.0015147107 8.383184e-05 0.0007508164 0.0004424786 0.001514581 0.00012803182 0.00085816754 -0.0002773125 -0.00068596035 -0.0014151285 -4.479308e-05 -0.0010152993 -9.846234e-05 -0.000526746 0.0005376251 0.0011652573 -0.00068902096 -0.0010290609 0.0012194971 -0.0013438393 -0.0011332287 0.0012669355 -0.0013420065 0.0015393265 -0.0014438276 -0.0002868097 0.0012475766 -5.482693e-05 3.4521432e-05 0.0013653582 0.0011417918 -0.0012977296 0.000115799834 -0.0015739255 0.001440936 -0.001523869 -0.00028369797 0.000853815 0.0008933024 -0.0006150398 0.0012502592 -0.0013281715 -0.0014293832 1.1604729e-05 -0.0004257539 -0.00033614523 0.0015205529 -0.0013987685 1.6603226e-05 0.001332937 -0.00022082598 9.768186e-05 7.3164515e-06 0.0009331411 -0.00020682183 0.00023672079 -0.0011252229 -0.00090974505 -9.924844e-05 0.0012248025 0.0015307611 -0.0009600329
