20 1000
革命 0.0001602818 0.000118637035 -0.0001234976 -7.949028e-05 0.00041895264 0.00030348334 0.00020274207 -0.0004211178 -2.9072175e-05 4.7442623e-09 0.00029522588 0.0002131877 -2.1626402e-05 3.3092158e-06 9.810549e-05 0.0002502719 -0.00013458553 0.00043795133 0.00036122653 0.00039700506 0.00026459762 -0.00030677457 0.00021783308 -0.00023300877 -0.00029304824 0.00034127323 5.9279493e-05 0.00031336202 0.00049276743 0.00037607778 -7.715933e-06 0.0004094173 0.00031396284 0.0003450299 0.00023603124 0.00048168868 0.00033830295 -0.00035803515 -0.00031249342 0.00045112695 -0.0003368714 -0.00024054685 0.00049844076 -0.00037310162 -7.921752e-05 0.00022282914 -0.00041521745 9.976157e-05 8.990869e-05 0.00040428515 -0.00016469165 0.00023330437 0.00027908356 0.00037999247 0.0003928324 -8.5913765e-05 -4.3736258e-05 0.00011623254 0.00020667858 -3.2012867e-05 -0.00037580673 0.00032067284 -0.00041105488 0.00039919693 -0.0003235145 0.00041053255 0.00018704138 0.00033147712 0.00047565426 -0.00028925185 -0.00043018165 -0.00016232372 0.00014664012 0.00022255816 -0.00042396897 -0.00028943893 -0.0002067025 0.00017125577 0.00039664347 -0.00023735208 -0.0002242601 -0.00021656825 -8.3567786e-05 -6.380267e-05 -0.000121398465 0.0003298611 -0.0003394851 -0.00017818982 0.00010610791 0.00045321442 0.00038135264 -6.0202547e-05 -1.1829038e-05 -0.0003301889 -0.00024206436 -0.00013643401 0.000382829 0.00015625464 0.0004662295 0.00020758461 0.00046123617 -3.4310222e-05 5.193561e-05 -2.0085188e-05 0.00025461018 0.0001743242 -0.00049646955 0.00013754664 -9.608068e-05 0.00041378132 -0.00020543952 0.0003700039 -0.0002061569 -0.00044232956 -0.00027744327 -0.00023726161 0.00035872933 0.00018440842 0.00029394426 0.00035597 0.00038424556 -0.00017750618 0.00023994686 0.00010702828 -5.136147e-05 0.00014114428 -0.00035389932 0.00049342157 0.0004274099 0.00021888078 0.00046947022 0.00042842835 -0.0004896643 0.00045186945 -0.0002834234 0.000330849 -2.3529996e-05 -0.00033809664 -4.0243587e-05 -0.00024858533 -1.3697032e-05 0.00043218376 -0.00040675822 -0.00019587507 -7.392722e-05 -0.00045339574 0.00043395074 -0.00035769466 -0.00040388422 0.00022539144 0.00040874566 8.263723e-06 0.0004815301 -0.000448713 0.00022980323 0.00047391804 0.00010312018 2.051096e-05 1.8042316e-05 -0.0002682144 -0.00034793877 3.78535e-06 0.00036138485 0.00040065826 -0.00025561024 -0.00030738243 -0.0001241706 -0.00034742788 -0.00011702763 0.0004827509 0.00044790955 -0.00040023905 0.00014862919 -0.00044053223 -0.00042708486 -4.9849008e-05 -0.00030345528 0.00036749028 -0.00010565101 -0.0004188001 0.00034013248 -0.00032616215 -0.00023824396 0.00014767518 -0.00012212637 0.00012225857 0.000117591044 -0.00028000277 0.00031745122 -6.608214e-06 -7.326751e-05 7.80673e-05 -0.00018645384 -0.00020773588 -0.0002024316 -0.00041999077 0.00018305643 -9.45239e-05 0.00015675733 -0.00032818905 -0.0003221928 0.00040585882 0.00019399992 8.488886e-05 -0.00019249413 2.0963083e-05 8.037166e-05 3.130734e-05 -0.00049039134 -0.0003763779 -0.0001890834 0.00038194386 0.0004932931 -0.00012198783 0.00028677768 2.7133863e-05 0.00029996235 -0.0004805425 0.0002873823 0.0004183294 0.00045077314 -0.00034507675 0.00020779282 -0.00045313625 0.00018077361 -0.00048053358 9.548886e-06 -0.0004021783 0.00013865705 -0.00017797953 -5.3488417e-05 0.00037856482 -0.00027892107 6.385987e-05 -0.00013761758 0.00015493324 0.00012237964 -0.00045094133 -0.0001198594 0.00031004532 0.000112143614 -0.00017401022 0.00012828497 0.00035306095 -0.00031184874 -0.0003096728 0.0002829849 0.00027591077 -0.00043884202 0.00049241347 0.0004072229 -0.00016345462 -0.00026295288 1.7621185e-05 0.00035068288 0.0003861441 0.00028595052 0.00014266212 0.00015381834 -0.00036187633 -0.00023199504 -4.7044396e-05 0.0003702913 4.4036682e-05 9.596147e-05 -0.00026469008 -0.00016372226 -0.00028672104 0.00036086098 0.00032050008 0.00035093128 0.00041633786 -0.00017669279 -0.0003999578 0.00011854291 -7.338877e-05 -0.00043199092 -0.00021082381 -0.00018291072 -0.00019565814 -0.00040362723 -0.00039861666 -0.00023510538 0.00034034203 0.00031420175 -0.00040042395 -0.00014897363 -0.0004875783 0.0003023822 0.00019175853 5.318718e-05 0.00044634863 8.822758e-05 -0.0004281436 -0.00043275516 0.00045534736 -0.00010666327 0.00042415684 3.367041e-06 0.00036546786 0.00035298258 -0.00022355179 0.00031262008 0.0003754306 0.00020898269 0.00034309764 7.141916e-05 -0.00024050746 -0.0002136831 0.00043332225 -0.0004293621 9.386719e-05 1.2111785e-05 -0.00021703624 0.00023415181 0.00040642006 -0.0002931034 0.00031715556 0.000328788 0.00022544459 -0.00019824486 -2.4985075e-06 0.00012400575 -0.00038495462 -0.00038613172 0.00047938415 0.00022008317 0.00016296488 0.00039310168 -5.386018e-05 -0.00016334948 0.00011689179 0.00036101797 0.00041969493 0.000471001 0.00043800872 -0.00045435983 -0.000481259 0.00046621962 -8.046132e-05 -2.1151436e-05 0.00033837958 0.00013922808 0.00010827846 -0.00037251486 0.00021725826 -0.00027298735 -0.00012439537 0.00021201897 -0.00021954371 0.00024611136 -0.000331615 -1.08608665e-05 0.00043443387 2.0219982e-08 0.00019861964 -0.00021986951 -6.4228654e-05 0.0003515011 0.00044505193 7.17468e-05 6.971539e-05 6.669613e-05 -0.00027103137 0.0004843175 -0.00036164795 0.00030722158 -0.00018053083 -0.000498988 -5.7853467e-06 0.0004617924 0.0004525652 -0.00044871008 9.947894e-07 -0.00017364637 -0.00031635526 -0.00035941138 -0.0003982005 1.4930215e-05 9.261379e-05 0.0003787913 0.00016154569 0.00019716653 0.0003875428 0.00019840506 -0.00017997972 -0.0001127172 -0.00023624115 0.00022744856 -0.00036355318 -0.00020245087 -0.000207008 0.00040531112 0.00010175359 8.3163366e-05 -7.521938e-05 -0.0004397431 0.00035675152 2.1877004e-05 0.00022275628 0.0004784222 -9.965008e-05 -0.00035256607 -0.00034526046 -0.00039708515 -0.00049516704 -0.00047128476 0.00014341291 -0.00019566175 1.5780004e-05 -0.00044682494 0.00022711918 0.00021187204 -0.00032992248 8.716626e-05 -0.00042946739 -0.00025766605 0.00048754114 0.00034313017 -0.00047271326 0.00032474066 0.00038175256 4.6518002e-05 0.0002513718 -0.0002025544 0.00033013037 -6.85057e-05 -0.000149669 -0.00039210657 -0.00033298155 -0.00030905125 9.454856e-05 0.00030349812 0.00038801492 0.00046399215 -0.00045773378 0.0002557525 -0.00010041532 -0.00027288092 0.00014576458 0.00048094805 -0.00039372355 0.00019327442 -1.6251828e-05 -0.00019872884 -0.00031000288 0.00010695891 0.00021205474 0.0004540546 1.4918163e-06 0.00040580687 -0.00013940656 0.00048457854 -0.00037106458 0.00027033803 0.00018186419 0.00018468701 -6.578587e-05 -0.00013067925 -0.00022788242 0.0004456479 -0.00033429716 0.0002724372 -0.00028801904 -0.00045871278 -6.13232e-05 0.00014122251 -0.00038260335 0.00030109088 -0.00034197557 -0.00039086785 3.4996843e-05 0.0004588717 0.00049312314 0.00031641213 3.2589982e-05 -7.415321e-05 -0.00043913175 -0.0002767435 0.00028403063 0.00036209816 0.00018254801 0.00043491658 0.00040625117 3.0439054e-05 1.8463732e-05 -0.00021164698 -7.961176e-05 0.00047080658 7.180349e-05 0.0002657349 -0.00048872887 -0.00039467544 0.00012873636 1.825997e-05 -1.3753483e-05 -0.00024980697 -0.00010073524 -0.00021601129 0.00013455737 -0.00035706483 -7.2899085e-05 -0.00031150086 0.0001505364 0.00030683973 7.323202e-05 -0.00046500735 -0.00031686045 -0.00034562798 -0.0004934631 -0.00012626355 -4.4640117e-05 0.000103196304 -0.00031024363 0.00027599756 -0.00047156744 6.6883025e-05 -0.00017088358 0.00037898877 0.00036780915 -0.0002443058 -4.5389475e-05 -0.000423582 0.0002378536 0.00035987803 -0.00034878455 -3.224177e-05 0.0003486674 -9.439694e-05 -0.00023227757 0.00018902874 -0.000121219564 -0.0004157208 0.0004854878 -0.00046840488 -6.552797e-05 0.00029443475 0.00031793685 9.184499e-05 -0.00042703937 0.00010834735 -0.00013091257 0.00015832967 0.00031024724 -0.00040366108 -0.0003968536 0.00016561477 -0.00029693503 0.00023329038 8.200599e-05 0.00044477577 -3.296485e-06 -8.426001e-05 6.2278996e-05 -9.1233225e-05 -0.00049913867 -0.00013700113 0.00010740411 0.00034082407 0.0004496179 7.312505e-05 -0.00013240482 0.00037617225 0.0003604778 0.0003823772 1.3398912e-05 0.00011353176 -0.00046601324 0.00027380715 -0.00044825976 -6.036994e-05 0.00020607006 -0.00044764765 8.737069e-05 -0.00033027056 -0.0003218464 -0.000100022065 -0.00014150808 -0.00038239718 0.00021752878 5.327094e-05 6.308146e-05 0.00048705778 -4.5818204e-05 0.00026537673 -9.278974e-05 6.2005354e-05 0.00041888992 -0.00032120792 0.00013134416 -0.00022359297 -0.00045322176 -6.0233135e-05 0.00039303052 0.00018201912 -0.00012542946 -0.00021432342 -9.355599e-05 0.00029302703 3.3416327e-05 0.00024065148 -1.869998e-05 -0.00010919814 0.0002171777 -0.00024795593 0.00018493019 0.00043812656 3.6598012e-05 -0.00037461988 0.00011103925 1.5342059e-05 0.00027811067 -0.0002544013 0.00033784838 -0.00021380938 -0.00013430353 -8.129405e-05 0.00040653883 -0.00047532085 -0.00042432305 0.00044329194 7.157194e-05 1.2216964e-06 0.0004958774 5.892476e-05 0.00045770098 0.0003336968 0.00017385464 -9.8163226e-05 0.00038733182 -0.0001118548 0.00048537736 -0.00026156753 -7.124945e-05 -0.00036081165 0.00020957289 -0.0002667216 0.0004716693 1.593527e-05 -0.00045059752 -0.0001447704 0.00029453708 0.00046761497 -8.099007e-05 -0.0003395113 2.4128201e-05 0.0004981546 0.0004278765 -0.00039296606 -0.00021188176 0.00034165828 0.00019017952 0.00016613012 -9.081314e-05 0.00031953517 -6.083273e-05 0.00019215373 -0.00021894547 -0.000109954606 -0.00020906256 0.00043392653 -0.00017942041 -0.00044414203 -0.0002647324 0.0003794921 -0.00010839064 0.00032290778 -4.7903774e-05 0.0004712231 -0.00026303745 -0.00017233645 -0.00028620858 -0.0003048795 0.0002786944 0.00030959334 -1.5082147e-05 -0.00016378443 0.00045006583 0.00011807713 -9.04754e-05 0.000116624564 -0.0004925533 -0.0001539982 9.9250494e-05 -0.00019474236 -0.00015226555 -0.00037159218 -2.704889e-05 -0.00046645777 0.00038499205 0.00021298527 7.113544e-05 7.458888e-05 -0.00044837312 -0.00031112504 -0.00030149988 -0.00028476826 -0.00037814802 7.363195e-05 -8.8817345e-05 -5.0018756e-05 -1.34351e-05 0.00019311027 0.00014484856 0.00012548991 7.096338e-05 0.00025866446 0.00013162504 -0.0004886557 0.00022324057 9.032526e-05 -0.00017808811 9.5076546e-05 -0.00028917904 -0.00047331763 -0.00012663144 -0.0003216632 -0.00027497424 -0.00040579142 3.107801e-05 -0.0004620532 -0.00041615078 0.00035947506 0.0001236212 0.000350412 -5.742119e-05 -0.00024400296 -0.0004273318 0.00025567546 -0.00047051345 9.718091e-05 -0.00035329556 0.00010768811 -0.0004498237 -7.3634175e-05 0.0003141981 0.00032672207 0.00048681328 0.00023687634 0.00014287847 -0.00027355106 -0.00023820382 -0.00029670005 0.00034044043 -0.00033645975 0.00040689317 -0.00033531847 0.00013679004 0.00017043232 0.0002673181 -2.1331539e-06 -0.0003346113 -0.00036617392 0.0001397931 0.00017668956 -0.00048358762 -0.00035214107 2.1755715e-05 -0.00019902494 0.00023282375 -0.0002516318 -0.00030769748 0.00012349451 0.00034105487 -3.330489e-05 0.00036166 0.00029915958 -0.00038270382 -0.0002914079 -0.00047004496 9.938971e-05 -0.00023928528 -0.000456653 -0.00018407202 0.00042253974 -0.00043554747 0.00032161732 -0.00029958363 -0.00031647328 -0.00031535115 -0.00037395096 -9.111895e-05 -0.00014511148 0.00031353772 0.0004745866 0.00032778268 0.00020427785 -0.00017039134 -0.00025768386 -0.00019667587 8.9992405e-05 -6.3281135e-05 -0.00028588096 3.5800273e-05 9.708456e-05 -0.00036209545 0.0003218872 0.0003011446 1.0148386e-05 -0.00027735476 -0.00045162742 -9.9718e-05 6.5112494e-05 -0.00047649688 0.00041634246 0.00014468479 -7.449166e-05 -0.00012280582 -0.00014942212 -0.00014396473 -3.3784752e-05 0.00048514415 0.00013068656 -0.0002867751 -0.0004924755 -0.00013755127 4.1506828e-05 -6.993482e-05 -4.8599297e-05 -2.7947437e-05 -0.0001555157 2.5853471e-05 0.00027416748 6.907766e-05 -0.0003818528 5.5072276e-05 0.00038696494 0.00016836452 -0.00030944744 -0.00030702876 0.0002630237 -0.00046638068 -0.00011453057 -0.00027804315 0.00024856135 0.00025988533 -0.00035731687 0.0001616041 5.0500385e-05 5.5613305e-05 -4.597838e-05 0.00041468968 0.0004422382 -0.00015083453 0.00022907529 0.00027364455 0.00034226847 -3.8521994e-05 9.273802e-05 0.00045736888 -0.00031361208 -6.157877e-05 -0.00024243977 -0.0001592993 0.00036955284 0.0004020623 -0.00039526308 0.0003876237 -0.0004110621 0.00019415334 -3.9092112e-05 -0.00041021366 0.00014220478 1.0978728e-05 -0.00037865207 -0.00039571844 -0.00013805402 -0.000432808 -0.000474003 0.00042784403 0.000117367366 -0.0004846671 0.0002771058 8.848821e-05 0.00047275014 -0.00037517922 0.0004893045 0.0002939855 0.00021383428 0.00026300896 0.00011954079 -0.00035852 -5.4254833e-05 0.0001405335 2.8826928e-05 -4.4454632e-07 0.00019107727 0.00033553928 -1.8234135e-05 3.3662013e-06 -0.00029016554 -8.074137e-05 -7.485159e-05 -0.0004537771 0.00032576307 0.00031786432 0.0003353217 0.0003070412 0.00019635326 0.00042890597 0.0004618663 -0.0003530692 8.8798086e-05 0.00034728594 0.0004328245 -0.00036611964 -0.00016406013 -0.0003893577 0.00018058156 -0.00043241968 -0.00039239813 0.00023360984 -0.00029881555 1.1975435e-05 0.0003972222 7.2758725e-05 -0.00021955206 -4.0378727e-05 -0.00044493904 -0.0004079802 0.00018512308 -0.0004704294 4.1172134e-05 0.00042923162 -0.0003906343 0.00017591385 -8.846185e-05 0.00021299263 -0.00024027187 -0.0003359698 0.00030962794 0.0003974726 9.971086e-05 0.00015570964 -0.0004509438 9.960864e-05 -0.00013424314 2.0726802e-05 0.00023738037 0.00045642353 -0.00019556635 0.00024269265 0.0003222209 0.0003014208 -7.204006e-05 0.00031457283 0.00026845178 0.0004252636 -0.00033221766 -0.00031697258 0.00028944752 0.00014833244 -0.00035018113 0.00031642636 0.00048312734 0.00034129014 -5.0835206e-05 -0.0004551374 -6.715132e-05 -0.00042476648 0.00026669542 -3.446104e-05 -0.00041077237 0.00014200155 -0.00016550162 6.651563e-05 -7.515542e-05 7.364457e-05 0.00032300182 -7.193363e-06 0.0004806099 -0.00010314563 4.4140364e-05 0.0004925376 -8.725355e-05 0.00044190037 3.8199578e-05 0.00033064382 0.00019804381 -0.00030554784 0.00011730644 0.00030077694 0.00011552495 0.00031332884 -0.00020387479 -0.0001650911 0.00038210262 0.00047275034 -0.00010624777 0.00020135129 0.0002575605 0.000499149 -0.00011444682 -0.0001346837 -6.0832535e-05 0.00010531497 0.00041301784 -0.00029375762 8.90621e-05 9.74046e-06
工作 -0.00020119858 -1.1470963e-05 0.00014439947 -0.0001197144 9.558669e-05 7.8611105e-05 0.0004550462 -0.00024348222 -0.00019017387 -0.00047883732 -0.00015445657 -0.00017008664 -0.00018020839 -9.975331e-05 -0.0002686537 0.00014495473 9.532195e-05 0.00034295925 0.00022533648 -0.00047086648 0.00030387423 0.0002919831 0.00028806573 0.0003131975 -0.00025188932 0.0003495581 0.00010439402 -0.00016670079 9.079552e-06 -0.00029843944 -5.060927e-05 0.00027798174 -0.00047851482 -0.00022090778 0.00049214135 3.052426e-05 0.00030002 -0.00024740674 0.000120521276 0.00025178946 -0.0004754195 8.389517e-05 -0.00032671445 -0.00019146231 0.0001643206 -0.00039095487 0.00035633447 -0.0004193957 -0.00017732829 0.00025169025 -0.00025886434 0.00038509813 -0.0003386139 -2.9714027e-05 6.270149e-05 -0.00010975983 -0.00016877573 -0.00032482317 -5.768939e-05 -0.00026673434 -0.00045809714 5.095413e-06 -0.00014514451 -0.00037381845 0.00021062705 0.0004539007 -0.0003057031 -0.00012568895 -0.00028884856 2.462309e-05 0.00024301697 0.00024543962 0.00030794705 2.194217e-05 -1.9493778e-05 -0.00018951415 7.166957e-05 -0.00030235443 -0.00014959036 0.00010588807 7.8692676e-05 7.2947965e-05 -0.00013779796 -0.0001795817 0.000108591026 0.00029880978 -0.000116914365 0.00012967555 0.00022873828 -4.2204956e-05 0.00036509515 0.00028352102 0.0002701477 -0.00030302448 -0.0002759666 0.00036244755 0.00023643003 0.00034176183 0.0003929202 0.000417673 -0.000451488 0.00011879056 -0.00012707638 -0.00032718192 -0.00024670523 2.4574332e-05 6.64337e-05 0.0002966164 -0.00012373777 -0.00037240432 0.00030556638 -0.00024904075 0.00026204705 0.00020998725 0.00047691105 8.1078426e-05 0.00010524772 -0.00035572366 0.00020612478 -0.00036714983 0.00046843512 0.00023601734 0.0003138447 -0.00029439872 -5.7916037e-05 -0.0004160886 -0.00032825157 7.84787e-05 -8.33261e-05 -0.00022413355 -0.00046207156 -0.0003430328 0.000431962 -5.807953e-05 -0.00038280318 -0.00034160103 0.000266758 -6.5410204e-05 -0.00045963738 0.00042240234 -0.0001177631 -0.00028675413 -0.00032550446 -7.658794e-05 -0.00020932421 0.00016426227 0.00031502 -0.00011454313 0.00032114395 -0.00047227947 7.836567e-05 0.00049020705 2.079334e-05 -0.00016189313 0.00012010677 0.0004934404 6.0010967e-05 0.00027527637 7.6651646e-05 1.2787932e-05 0.0004962988 -0.00038578425 0.00041583116 -0.0004955005 0.00035400418 0.00014020228 5.750275e-05 0.000284186 -0.00024602332 0.00023855458 0.00016217187 -0.000117650605 6.637314e-05 0.00015236232 0.000214879 -0.0004121515 -0.0004206971 -0.00048859173 -1.5039102e-06 0.00032961584 0.00012657899 -0.00013332127 -0.00027364132 -0.00018102436 0.00022798224 0.00020369948 -4.8831494e-05 0.0003004228 9.143291e-05 -0.00035268642 0.00010216687 0.00019581184 0.0004553059 0.00046732026 0.00042901316 -0.00043484662 0.0001705897 0.00019303175 0.00036598364 -0.00020071176 6.9285394e-05 -0.00040070136 0.00044887242 -3.528317e-05 0.0002249791 0.00019650531 0.00013477658 0.00030505826 0.00047238398 0.000113733106 -0.0004798102 -0.0004015135 0.00044531724 0.00027844094 9.127695e-05 -0.00023764737 -1.498856e-05 -0.00043319425 0.0003118924 -4.305144e-05 -0.00023140752 0.00019941857 -0.00038590556 -0.0004970309 0.00017607964 0.0001340888 6.552839e-05 -0.00013907276 -0.0002710826 -0.00025814606 -0.00042969288 0.00013206198 -3.115019e-05 -0.0001876148 -0.00021850022 -0.00035937337 0.00012852177 0.00022729173 -4.149868e-05 -3.0508687e-05 4.8666778e-05 -0.00022331749 -0.00016155351 0.00035694582 0.00040193895 0.0002335968 0.0003615036 -0.00020293957 -0.00048724038 0.00046920803 8.579286e-05 1.775358e-05 0.00010007089 0.00010913411 0.000206288 -0.00029472532 -0.00018347707 -0.00012289068 0.00016063971 -0.00046586775 -8.804659e-05 4.3726464e-05 0.00034234457 5.0822233e-05 0.000340714 -0.0003194488 -3.8787883e-05 -0.00019077785 -6.298756e-05 -0.00014912811 0.00014489531 6.518587e-05 0.0003144406 0.00016710201 -0.00038171365 -0.0003750095 -0.0001788992 -6.0500282e-05 -0.00010817471 0.0001902297 5.802304e-05 -6.360752e-05 -0.00030103233 -8.4746694e-05 0.00044939935 0.00025318254 -0.00047917705 -6.844583e-05 -0.00016897106 -0.00020562856 0.0003079016 0.00015059093 -0.00017700416 -0.0004632181 0.00037225275 0.0004932154 -0.00015052622 9.794755e-06 0.00033085627 0.0001331644 -0.00041476215 0.000274676 0.0002815979 0.00024721367 -0.00017778523 4.9713395e-05 1.4060157e-06 0.00046191315 -0.00015683379 0.00017553952 -0.00021626192 0.0003245094 0.00017219679 -0.0001454082 0.00043790616 3.3943047e-06 -0.0001521046 -0.00037486322 -2.5256839e-05 4.723991e-05 0.00030198338 0.00034648218 -4.8971953e-05 -0.00040096327 -5.5330416e-05 0.0002641549 -0.00040307373 1.2764401e-05 7.874271e-05 -0.00023198345 0.00026140694 -2.1344928e-05 -0.00048460285 -0.00025864417 -8.70242e-05 -8.057292e-05 0.00036615503 -0.00029164038 0.00049846 -0.00024498595 -0.00045123996 0.00034554314 -5.4485023e-05 -0.00030829306 0.00033320035 0.00044313128 -0.00042366108 -0.00046590096 -4.2126914e-05 -0.00013446243 0.0002833417 0.00028287008 -0.00029303925 -0.00016687356 -0.00016147566 -0.00043199654 -0.0004315458 0.00033850357 -0.0004506699 -0.00032757648 3.9928545e-05 -0.00017813433 0.0004148702 -0.0004652656 6.9671725e-05 0.00034017212 -0.00045289728 -0.00015383406 0.00039376342 -7.217729e-05 8.28286e-05 -0.0003867431 -1.1178211e-05 -3.5011497e-05 7.459777e-05 0.00030173466 -1.6722102e-05 0.00031434064 0.00021806057 0.00016611733 0.00014986265 3.2169173e-05 4.7256584e-05 0.00045732994 -0.00040639983 5.4166896e-05 4.442103e-05 -0.00020277975 -0.00033040773 0.00048566697 -0.00024204417 -1.6594713e-06 0.00015966863 0.00032289693 -0.00018282389 0.00021624911 -0.000121057696 -5.5845007e-06 0.00023446402 -0.00038343316 0.00049165497 0.00013218784 0.00015088091 0.00038713054 -0.00017972276 -1.865295e-05 0.0003449291 -5.63053e-05 0.00038064938 4.9642887e-05 0.00040548842 -0.00034317386 -0.0003621728 -0.00031574018 0.00025255114 -0.0003970611 0.00017877163 -0.00027178615 -0.00020523094 -4.2018215e-05 0.0002307667 0.00016146086 -0.00013853973 -0.00043248723 -0.0003168455 -0.00035750636 -4.7622878e-05 -4.9152135e-05 5.1395138e-05 0.0002264509 0.00042287336 0.00045169797 0.0004607583 -0.00041256793 0.00047083627 -0.00025892924 -5.077683e-05 -0.0004925708 0.0004696427 -0.00015179804 -0.00018497469 -0.00030230882 -0.0004087011 -5.880603e-05 0.00048342903 -0.00029188857 -5.520622e-05 0.00046821145 -7.426568e-05 -3.6835623e-05 -0.0003752592 -0.00020785879 -0.00030147115 -0.00036920683 -9.650904e-06 0.00033687887 -0.00023478607 0.00033041075 -0.00033967532 -0.00025508917 -0.00029379662 0.00039983742 -0.00046898986 0.00020146147 -0.00011904322 -0.00033052036 -0.00022625033 0.00035397103 0.00020250682 -0.00014594862 -0.0002680782 0.00035779242 0.0002655274 0.0003124319 -0.000292121 -0.0001882608 -0.00019601987 -0.0004327523 0.0004110717 -0.00048341407 0.00019304566 7.288573e-05 -0.00018907028 0.0004413949 -7.8284516e-05 -0.00032874756 4.2449425e-05 -0.00039386394 -0.00031543648 0.00040495503 4.0849527e-06 -0.00024251922 -3.347032e-05 -0.00025792414 -0.00041762614 -8.6918815e-05 -0.00048395616 0.00049143186 -1.4470427e-06 -0.00041977523 0.00038929272 -0.00039225188 -0.00028505074 8.763224e-05 0.0001825443 -0.00010582579 0.00016764755 -8.4031424e-05 0.00043351328 0.00029867815 6.0873685e-05 -0.00048837694 0.00048246144 2.2953322e-05 -0.00031982485 -0.00037863248 0.00014599289 -0.00015560903 -0.00038691552 0.000412132 -0.00017220482 9.787076e-05 0.00023854742 -0.00047496025 -6.585729e-05 0.00039430973 -0.0002458884 -1.4695712e-05 0.00037636142 -0.00021270156 0.00021044028 0.00012695338 0.00026283078 0.00036110473 0.00036205142 0.00013047238 -0.0001840468 -0.00014692314 -0.00049246143 -0.00018100091 0.00035194098 -0.00029175798 -0.0004447785 0.00041874585 7.2144794e-05 1.2637306e-05 0.00030072907 -0.00012177067 3.7106012e-05 -0.00019935168 0.00034220397 -7.6950426e-05 0.00041541728 0.00019340946 0.00047057524 -0.0003534334 0.00030618062 -7.820963e-06 -0.00034413888 0.00034617953 -3.1242787e-05 -0.00032498394 0.00044186955 9.14482e-05 0.00013683904 0.00046378284 -0.00035531807 -7.876071e-05 -3.5630936e-05 -0.00035839144 0.00026608192 -3.516166e-05 -0.0004953245 -0.0002761422 -5.635047e-05 -1.5825044e-05 -4.6974936e-05 8.19464e-05 -8.58024e-05 0.00021598257 0.00041590803 0.00017177044 -1.4764968e-05 -0.00038538812 -0.000489909 -0.0004986666 -0.00026981632 -0.00019138947 -0.00024681256 -0.00027136278 -0.00010234369 6.637406e-05 -6.235263e-05 0.0002690368 -4.073337e-05 0.00028570197 -0.00035756239 -0.00024527503 0.00026142292 -9.218642e-05 0.00041826075 0.00016473744 0.00046587616 -0.000107993976 -0.00024936668 -0.00019523293 -0.00032851193 -0.00042118496 -0.0004137043 -0.00012205887 -0.0004507976 -0.00014420802 -0.00039722884 -0.00012928738 -0.00044049346 -0.0002492003 -0.0004494914 -0.00045428565 0.00034788626 9.0160465e-05 -0.0004938546 0.00035874077 0.0003521569 -0.00017165979 0.0003482541 -8.259213e-05 7.25473e-05 0.0002765636 -0.00012731475 -0.00033767388 -1.0099704e-05 0.00026007343 0.000117982214 -0.00039053673 0.0003462533 0.0003406412 -9.7732605e-05 0.00047860958 -0.0003330195 -0.0002331897 0.00030576476 0.00015527014 0.00015137112 1.7779139e-06 0.00027481187 0.00028206568 4.6601825e-05 5.8617883e-05 -0.00036353403 0.00012983277 0.00019679585 0.00018166065 -0.00036569673 -0.00021371554 0.00040751314 1.4101778e-05 0.00047265354 -0.0004048961 5.8435686e-05 -0.00023891841 0.00019695635 -0.00019907227 -7.0095793e-06 -0.00044738431 4.4301596e-05 0.00034721498 9.9265664e-05 -0.0001075209 0.00015458347 -0.00014352525 -0.0003791868 -0.00042977897 -0.00016245307 -7.584752e-05 8.899351e-05 0.00028857772 -0.00023177233 0.00035616962 0.00042072302 -7.810862e-06 8.568981e-05 -0.00041633047 -6.553576e-05 -4.3352364e-05 0.00027279096 -0.0002988865 0.00045977064 -1.1084146e-05 0.00024262648 -0.0002047039 -0.000111852234 -0.00036823397 -0.00022071502 5.403274e-05 -0.00043068855 -3.4794033e-05 -0.0004388377 0.00014390214 -0.00049931055 0.0003411594 0.00037573837 -0.00031484815 -8.932966e-05 0.00013477802 -0.00037320622 0.0003552391 0.000485983 -0.00035005616 4.048689e-05 -0.00033824248 8.80595e-05 -0.00021986416 0.00022769734 -5.3955082e-05 -1.703098e-05 -5.9507758e-05 -0.00018624653 0.00016213123 -0.0002169672 -0.00017157618 -0.00029387654 -0.00037351236 0.00017350625 0.000121618206 0.00048792627 -0.00016862761 0.00013990526 -7.5272124e-05 -0.00021257663 0.00043631595 -1.6182663e-05 1.9342184e-05 0.00027679635 -0.00037420768 0.00026288448 -0.00023088988 -2.2724806e-05 0.0002170452 0.00023211516 -0.0004844512 5.6225053e-05 -2.5176858e-05 -0.00024268062 0.00032480247 -0.0002746435 0.00043300597 0.0003093407 7.893142e-05 0.0003708393 9.045044e-06 5.7070683e-05 9.244346e-05 0.00020836908 5.9007678e-05 -0.000102582184 -0.00046693295 -0.00033547546 -0.00032157532 0.00016030352 -0.0004891994 -0.00037469895 0.00016895107 -0.00044029628 -3.1023053e-05 -1.9254156e-05 -9.88045e-05 -0.0004938298 0.00045753 0.00027524473 -0.000489828 2.044959e-05 6.02693e-05 0.0004721985 0.0003129912 -0.00031652846 0.00015195378 -0.00020431404 -0.00031292203 -0.00037205924 -0.00036556573 0.00040667574 0.00045039813 0.00025800095 -0.00023953043 4.8196365e-05 -0.00048063422 -0.00048530614 0.00010908218 0.00021838251 0.00029692432 0.0004724341 -0.00014762503 -0.00026031976 -0.00017289257 0.0004839747 0.00022249864 3.4845092e-05 -0.0004969505 -0.00031570907 -0.0002222904 -8.865955e-05 -0.0002875694 0.00034656902 0.00013283594 0.00026220363 0.000111100795 -0.00040059508 0.00032615225 0.00027565798 -0.00013418269 0.00047944218 0.00041563722 -0.00028805714 0.00036049073 0.00018390443 0.00043303228 -0.00037864372 5.3302742e-06 0.0004584327 -0.0004224428 0.00014555646 0.00028568794 0.00023298815 0.00026160138 0.00017541858 -0.00033773915 -0.00016775426 0.0001405094 0.0004054863 0.00016761037 0.0004504771 -5.789733e-06 -9.6419186e-05 3.6812893e-05 -0.00037039627 -9.297279e-05 -0.00030506167 0.00012601186 -0.00026861852 -7.888344e-06 -0.0004751078 0.00027997186 0.00017068777 6.387748e-05 -0.00013322094 -0.00038665897 -0.00018079985 -0.00020092362 -0.00019900607 0.00012015399 -8.403172e-05 0.00049891265 -3.9597806e-05 -0.00014591243 2.567913e-05 9.861953e-06 0.00012984553 0.00017642189 6.36203e-05 -0.0003835753 0.00049011037 -6.5462677e-06 0.00031455944 0.0004181375 -0.00015074208 -0.00045477028 -9.053669e-05 -0.00032541042 4.2772335e-05 -0.00021449797 -0.00019709834 -0.00018284675 6.426504e-05 -0.00012837532 0.0003391278 -1.7284556e-05 -0.00047077792 -0.00028468997 0.0002091656 -0.00011989202 -0.00047786837 -0.00025724308 0.00034424715 8.624571e-05 -0.00037903513 0.0002884339 0.00011589355 -0.00043154112 0.0002864994 -1.1632467e-05 -0.00019100585 8.5263804e-05 0.000305778 4.6716417e-05 -0.00015619228 0.00037881875 7.483801e-05 -0.00041712387 0.00049036223 7.570939e-05 0.0004918463 -0.00044657517 0.00044207825 0.00037104555 -0.00011305047 -0.00024862884 -0.00025249718 -0.00041326854 0.00016988009 -0.00041092403 -0.00013181622 -0.00045632513 0.0004912289 0.000409828 8.559355e-05 -8.4181156e-05 -0.00046595058 -0.00036485182 4.4492476e-06 -0.00043417155 -0.0001727978 -0.00012419709 -7.9601676e-05 -0.0003667143 -0.0004384627 0.00027068687 -0.00013478409 0.00029320313 6.4284235e-05 0.00021771043 2.9558218e-05 -0.00014101824 -0.00030036824 0.00017796684 -0.00034552952 -0.00024859697 0.00031775128 -0.00027429484 -0.00019466568 0.0004888021 -0.00025231883 -0.00033847473 0.0004319779 0.00044266504 5.187467e-05 -0.0003334514 -0.0003066897 -0.00010515718 -0.00018241783 -0.00026050507 0.00012638756 -0.00013601671 0.00042142626 -0.0001267546 -0.00028527508 -0.00033111483 0.00023150594 0.00036432472 0.00047931165 -0.00028192496 0.00034233576 -1.2038438e-05 -6.7447436e-05 0.00045440497 0.00023351957 0.00022558577 -6.0796156e-05 -0.00042391827 0.00026758522 7.353075e-05 0.00013481778 4.017012e-05 -1.4234371e-05 0.00026042844 -0.00019367739 0.00032620283 0.00037777927 -0.0001466271 -0.00013779728 -0.00044917545 1.41967585e-05 -0.00045407793 0.00033228018 -6.463735e-05 0.00043020133 -0.00038920375 0.00020712978 2.4326557e-05 0.00025132077 -0.00038070983 -0.0004372322 0.00023443082 -9.1323236e-05 -0.00011484343 -0.00029821345 0.00048427144 8.4649124e-05 0.0002162938 -0.00039723003 -0.0003710606
群众 0.00031760434 0.00029697694 -0.00012926983 6.298291e-05 -0.00013765518 -0.00010438843 0.0003232408 6.374894e-05 8.1663886e-05 -0.0002158522 -0.0002598781 0.00048749056 0.00041889306 -2.2570077e-05 -0.00030603295 0.00011057225 -0.00049016956 0.00021769114 5.654463e-05 -0.00046977747 0.00022747277 0.0004689696 0.00046945352 0.0003931555 -0.00023076493 0.0004152476 0.00040869619 -8.4769956e-05 0.0002689508 -0.00048681133 0.0003089798 0.00021512626 -8.886616e-05 0.00029889692 7.880244e-05 -7.711073e-05 -0.00036333088 -8.412655e-05 0.00029010308 -8.399868e-05 0.000109054454 -0.00027668456 0.00038951807 0.00026317767 -1.6237453e-05 0.00014755287 0.00018152795 4.653158e-05 0.00018964444 -0.0001422466 4.1097e-05 0.00014576162 -0.00045513076 -0.00013487085 -0.00022557011 -2.5685265e-06 -0.00024833807 0.00032800031 0.00044626964 -0.00029092457 0.00031094265 4.132457e-05 -0.00049563503 -0.00019406366 0.00044790813 0.00015061464 5.9332888e-05 -0.0003061534 0.00042891462 5.1810493e-05 9.3952105e-05 -0.00025523323 0.00036464477 -0.00027620426 -6.936309e-05 0.00025479528 -0.00010154064 0.00020321456 0.0001443957 0.0001043763 0.00012767194 0.0001713759 0.00012808997 -0.00034855778 0.00013360249 0.00046989173 9.913109e-05 0.0002589536 2.4806177e-05 0.00023598259 0.000283981 -0.00028028563 0.0001816681 0.00023302394 0.00029100137 -0.00039766298 -9.87315e-05 -0.00019541175 -0.00029439936 0.0002869413 0.00012663162 0.00038571737 0.00034109585 -0.0001129033 0.00032645042 -0.00042800265 0.00025865217 -0.00031086724 0.00024859764 -0.00017248646 -0.0003847503 -0.00026353804 0.00047181064 8.41382e-05 0.00014061795 -0.00010951159 -0.00041143518 -0.0003871897 -0.00022027659 -6.720157e-05 -0.000294619 0.00045130015 0.00014521393 0.00020226924 -0.00017229548 -0.00013713008 -0.00019799682 1.0245434e-05 0.00013435444 0.00012604553 0.000304384 -3.182595e-05 0.0002717285 7.430756e-05 0.00044906014 -0.00016759725 6.144542e-05 -0.000105659106 -0.0004131593 -3.3813918e-05 0.0001061367 -4.9815164e-05 -0.00035610498 0.00019240344 -0.00021786799 -0.00019127634 -0.0002177501 -0.00013976455 1.917654e-05 0.00047477585 0.00034065146 -0.00048826967 0.00045516712 -9.681037e-06 -0.0002358138 -0.00016481864 -0.00038292137 0.00011649097 -2.1978341e-05 0.00024274958 0.00015281688 0.0002167973 7.5692275e-05 -0.00014746949 0.00026579198 -0.00040126627 -0.0002887159 0.00027341812 0.00023671197 0.0004882948 -3.910555e-05 0.000124099 0.0002754701 -0.00015245013 -1.724959e-06 -0.0004648349 -0.00036202162 -8.656765e-05 0.00015769748 0.00019817773 4.4321732e-05 0.00029006708 -0.0003808663 2.0942073e-06 0.00049173407 3.0582556e-05 -0.00042222577 0.0003430138 -0.00048719085 1.0394599e-05 0.00041617002 -0.00046999461 0.00014576182 0.00015615183 -0.00044990925 -0.000318531 0.00039965587 -0.0003029168 3.2831595e-05 -0.00025724169 0.0004605871 -0.00046053427 8.634604e-05 -0.00017935986 -5.1343857e-05 -0.00026587606 -0.00028001436 0.00045447727 0.00047023332 0.0002406025 0.00042492538 2.4379804e-05 0.0004794432 0.00034015503 -0.00028557485 4.9839073e-05 -0.00044474992 -0.00045977058 0.00045165417 0.00015108383 0.00038553422 -0.00018345956 -0.00040387007 -0.00024254702 6.565217e-05 -6.76844e-05 -0.0003238864 -0.00023468363 0.0002951682 -0.00034905106 -0.00040178647 0.00016748256 0.0002809479 -0.0003185041 -6.496378e-05 -0.00048996956 7.1121874e-05 -0.00023340118 -0.00041585215 0.00035518737 -0.00011551916 0.00049404573 -1.614242e-05 -0.00043982186 -0.0001473253 -3.2823427e-05 0.00025152098 -7.7029224e-05 -0.000110456196 0.0004942226 0.0003100385 0.00013099726 -0.0002692613 -6.696142e-05 0.00045653465 0.0004696846 0.00035139002 0.00038916522 9.3742325e-05 -5.1607803e-05 -0.000172925 0.00015984902 -0.00035075017 0.00037042715 -8.587324e-05 2.2962358e-05 -0.00031585942 0.00024017415 0.00049731747 0.0002949807 0.00021275664 -0.00047301847 0.000112486894 5.800669e-05 0.0004458464 0.00032804822 -0.00041456797 8.515749e-05 0.00016624914 0.000328399 0.00021187367 1.6524706e-05 -6.212313e-05 -0.00022345819 -0.00038315915 -4.1478503e-05 -0.00024378818 0.00019268047 9.393506e-05 -7.283475e-05 0.0004505405 0.00033288632 -0.0004949924 -0.0002808118 -0.00041718828 0.00011431441 0.00025981633 -0.00037775174 -0.00029938988 -0.00044610153 -0.00043273848 -0.0002403803 -0.00021285018 -0.00045382918 -0.00032018364 -6.729224e-05 -0.00023698228 -1.9026767e-05 0.00038987325 -9.425051e-05 -0.00043002068 -0.00027177617 0.00037340506 -0.000490251 0.00035436524 0.00032366763 0.00041488386 -0.00017377886 -8.61069e-05 0.00016615281 -0.00032434016 0.0003949716 0.00023328024 -0.00027960588 5.5657616e-05 -0.00034939253 -0.00027480331 -0.0003172265 -0.00025916746 0.0002602257 0.00022108848 -0.00019118849 -0.00049371854 0.0003147095 0.00043574945 -1.3667308e-05 0.0001330198 0.0003226162 6.952111e-06 -0.0002148721 -6.98801e-05 -6.2369625e-05 3.5766272e-05 -0.00027584968 -8.714924e-05 -0.00012347879 0.000111042405 9.605344e-05 -0.00040847855 -0.0004189614 -0.00040939104 1.760157e-05 0.00033661915 -0.00022323307 0.00011059776 -0.00040117474 -0.0003759971 0.0003842957 -0.0003816914 0.00038975076 -1.4537236e-05 -0.00046427207 0.0004118299 0.000421147 -0.00017864423 0.00038997745 0.0004182669 2.4566087e-05 0.00043465995 0.00016735255 -5.9477374e-05 -0.0001257216 0.00036000513 -0.00032630385 0.00012696012 -0.00018230025 0.00017662258 -0.00046703147 0.00020028987 -2.0634501e-05 0.0003223772 -5.888517e-05 0.00017506258 0.00033629223 0.0004348143 0.00015204512 -8.2025625e-05 -0.00016775508 0.00021138253 -0.00044025554 -9.989246e-05 0.0003456243 0.00026338262 -7.837815e-06 0.0004418693 2.512618e-05 0.00017037838 0.0004645935 0.00046731072 6.283937e-05 0.00019072054 -0.00015283936 0.00031909577 -0.00013932706 -0.00042063833 0.00041213018 -0.00026048426 2.5549001e-05 -0.00012474984 -0.00044948174 -0.0002455882 -0.00047098412 -4.360606e-05 0.00041011022 0.00015211725 -7.991053e-05 -0.00010591209 -0.0004169317 -3.71723e-06 0.00020160248 -0.00044105077 -0.00017178104 -0.00034855306 -0.00038233184 0.00020462356 -0.0004881981 0.00032901124 -0.00025178728 -0.00011204984 0.00015678458 -0.000336403 0.0002889142 -0.00024194407 -0.00026574644 0.0004618026 0.00032471027 0.00027123795 0.0003915516 -0.00018597655 -0.00016012078 -0.00031272587 1.2059929e-05 0.00046959386 -9.9150886e-05 -0.0004033026 0.0002855731 -0.00018010507 -4.8487203e-05 0.00036048697 0.00010813166 6.542114e-05 0.00025373386 6.2942985e-05 0.00033481608 -7.432993e-05 -0.0003048369 3.9383012e-05 -8.868992e-05 0.00045895 -0.00025281755 -0.0002103464 -0.00027508443 -0.000113082315 -0.00028592243 0.00018241629 -0.00039373274 0.00024647408 0.000120987606 -0.0003793082 0.00048275074 -0.00015200152 0.00032630644 -0.00015199828 0.00039848074 0.00011673382 0.00015605584 0.00016629086 0.00043301174 0.00028000286 0.00044580916 5.232646e-05 6.8706454e-06 0.00016628343 -0.00024763768 -0.00044680716 0.0004792134 -8.2418126e-05 0.00044150342 5.2308595e-05 0.00017286965 -0.00017100478 0.0003029979 -0.00021498778 0.0004444027 -0.00015049169 0.00043894554 0.00013671823 -0.00023546659 8.4271735e-05 0.00040346978 0.0002238052 -0.00028945753 -0.00033548844 -2.9057072e-05 -0.00023114361 -1.7247596e-05 -0.0002472059 1.8297294e-05 0.00010463009 0.00032524066 0.00022289787 0.00032959407 -0.00020817044 0.00020627555 -7.860651e-06 0.00047753358 -0.00035957393 0.00010970447 0.00028682925 -6.234864e-05 0.00039686484 -9.110652e-05 0.00040905882 7.522972e-05 -0.00027678156 -0.00029895405 -0.00030810595 -2.7790378e-05 -0.0004390313 0.00017201251 0.0002312738 9.682307e-06 -1.3931316e-05 0.0003279485 0.00013053227 -0.00018860988 0.00024138641 0.00033992567 -0.00013474221 -0.00028041055 -0.00037584463 3.540081e-05 7.9572645e-05 -0.00047260645 -5.677672e-05 0.00037333582 -0.0003396291 -0.00013616408 0.00021637532 -2.3498675e-05 0.00035264782 0.00036527976 -0.00010622905 0.00034925042 -0.0001517834 0.00048537445 0.00022923877 -0.00017580786 5.11976e-05 -0.0003331776 0.0004233533 -0.00026839707 0.00014699178 -0.00013153566 -0.00019684763 -0.00042078338 -8.951403e-05 -0.00043351704 0.00046975855 0.00032974282 -0.00047614667 -0.0002878253 0.00012728828 -0.00018954382 0.00033252133 -0.0001451313 0.00047189018 0.00013378276 -0.00039811633 0.0001938455 0.00025787708 0.0003299905 -0.000361287 0.00022076155 -4.60949e-05 0.00024717196 -5.6930327e-05 7.996376e-05 0.00037049432 -0.00018638815 3.540507e-05 -0.00028305157 -6.104437e-05 -2.0338734e-05 2.3789098e-05 -1.1714292e-05 -0.00019802338 -0.0004059457 -4.497512e-05 0.0004557592 0.00010045071 0.00049467455 8.1423124e-05 0.0002147029 0.00027525864 0.00021550494 -0.0002488195 -0.0004169889 7.5745644e-05 -0.00045986622 0.00017173166 9.090459e-05 0.00032081176 -0.00026889605 6.4893735e-05 1.3089367e-06 9.92589e-05 8.560886e-06 0.00025268638 -0.00029769054 -1.2396116e-05 0.00040865602 0.00036341336 -0.00013376748 -0.00021675587 -0.00038259238 -0.0003035643 -0.0002542705 0.00019252229 0.0001941669 -0.00022247744 9.3402174e-05 -4.1493287e-05 0.0002864075 -0.0003719659 0.00014427971 0.0004271495 0.0003778373 0.00025732166 -7.531662e-06 0.00038635306 0.0003895873 -0.00046128593 -0.00040992288 0.00022509378 -1.3310933e-05 0.00012230276 -6.6560024e-05 0.00035667446 0.0003123004 -0.00017191 -6.0014616e-05 0.00014424355 0.00042254638 3.389096e-05 -0.00048431417 0.00029186622 -0.00019568943 -0.00026735052 5.024152e-05 0.00027938443 -4.5916102e-05 -0.00034177143 0.0003527319 -9.747339e-05 0.00034599518 -0.0002226292 -0.0003053397 0.00016751312 -0.0003257675 0.000100944715 -1.4185774e-05 -0.0002376879 0.00048562267 0.00033634648 -0.00021930324 0.00012341468 0.0002289423 -0.0002116148 0.00037243808 -5.0419138e-05 -8.2926585e-05 -0.00035577212 0.00030012554 5.816048e-05 -0.00024900373 0.00032861627 0.00032043317 0.0001716123 -0.00038548693 0.00017543328 -1.2714099e-05 -3.7006725e-05 -0.0002786875 0.00022217244 0.00032637373 -0.00031572263 0.00010162356 -0.00043221124 0.00019272418 0.00043133512 -0.00020844716 9.5906034e-05 0.00046982884 -0.0003377153 0.00013942958 -8.78463e-05 -0.00048938714 0.0003005186 -0.00044061698 -0.00015311813 0.00040023113 0.00032595577 -5.811478e-05 -0.0002105026 0.00016298585 -0.00048123248 -0.00018341046 0.00018610754 0.00024372517 8.421792e-05 0.00038606377 -0.00011770305 0.00035475622 0.00014174462 0.00020945296 0.00046322084 -0.00048757726 4.991927e-06 6.353362e-05 0.00031778926 0.00016883356 0.00016730324 0.00017245795 -0.0003007322 0.00032658264 -0.00034286513 -9.7636934e-05 0.00018440225 -0.00039311327 0.00033587264 0.0002972801 0.0004505066 -0.00022857034 -3.5883884e-05 0.00044667933 0.0004688151 1.7992748e-05 -0.0002437159 -0.0003035697 -0.00023861848 -5.5832956e-05 0.00034304947 0.00029494133 -0.0004267933 0.0002350464 0.00043368142 0.00024574657 -7.991129e-05 -0.0001223266 0.00014363352 -0.00015629285 -0.00010194077 -8.436081e-05 0.00011025853 5.0232804e-05 0.00013086361 2.7724845e-06 0.00014856042 0.000107869746 0.00049563614 3.1703257e-05 0.0002457167 0.00028327934 0.00037412217 -0.00014715608 0.0003645531 -0.00015792968 -0.00018017013 0.00026617065 -6.336289e-05 -0.00025249182 0.00022175004 -0.000114063834 -0.0004868044 -0.00035769324 6.413995e-05 0.00018436823 0.0004911857 0.00042311565 0.00021915586 -0.00019607886 -0.00037309976 0.00020813286 0.0004166341 -0.0004742531 0.00032011556 -0.0001043117 0.00022180613 0.0004527169 0.0003552923 0.00015405091 -0.0002101564 -0.00044438473 -0.00016572134 -0.00034496724 -0.00023987851 0.00022596362 -0.00014033621 -0.00043022106 0.00047754758 -0.0002864543 -0.00024661224 -0.0004471693 -0.00030790994 0.00027946229 0.0001341601 0.00047901607 -0.0004774638 -0.00012902058 -0.000378459 -2.4000617e-06 0.00036815414 0.00036091954 0.00026454806 -0.00022664657 0.00017923012 0.0001982727 0.0004080987 0.00011313087 0.00039021517 -0.00016822494 -5.380168e-05 -0.00027892157 -0.00013315189 -0.0002678978 8.9742374e-05 0.00017810767 0.00019001625 -0.00017549912 6.933203e-05 0.00024234474 0.00035479022 0.0001502812 0.00039129073 -0.00012886446 -0.000224356 0.00015124977 -0.00018355115 0.00010378833 0.00045030555 -0.00022727367 -8.048045e-05 -0.0004184648 0.0004399375 -0.00041139266 0.0002667313 -3.6502053e-05 -0.000487183 0.00019298807 -5.6017227e-05 2.8546357e-05 0.00045778902 -0.0003283871 0.00020674111 -0.00022338858 -9.3470175e-05 -0.00041811535 0.00045998007 -7.100119e-05 -8.952158e-05 -0.00044815737 -0.0002537521 0.00049278326 -0.00020120427 0.0004633565 -0.00028261638 0.00016668085 7.707522e-05 -0.000276665 0.00047037035 0.00041776244 0.00019525686 0.00033453235 -0.000108901506 0.0002557742 -0.00048307772 0.00031291452 -0.00013861345 -0.00047442736 8.3241895e-05 0.00030636997 -0.00022175077 0.0004555834 0.00015625612 0.00032119715 0.00039294874 0.00015526761 -0.0003575991 0.0004901114 0.00031553663 0.0002115908 0.000415224 6.67764e-05 -1.1663029e-05 -6.5696135e-05 4.6835383e-05 -0.00031878438 0.0003083792 -0.0002139845 -0.00043461972 -0.00033015796 -6.4260945e-05 -0.000408075 -0.0002590325 -1.1553115e-05 0.00022611572 0.00036486637 -0.00010042417 8.505062e-05 5.872041e-05 0.00016580144 -1.9950571e-06 -0.00018216345 0.00039260535 -0.00039533904 -0.00022068471 -2.7979913e-05 0.00029699123 -0.00014262604 0.00036629062 -0.0003006374 -0.00013648535 -0.00012666557 7.087918e-05 0.00049892446 2.3236706e-05 8.7616805e-05 0.00026918674 0.00031156198 -0.00029008344 -0.00016126352 4.7070185e-05 0.00046882362 0.00025356803 0.0002879663 0.00014610616 4.3356154e-05 -0.0003985774 -0.00011353436 0.000146437 0.00020319528 -5.77884e-05 -3.393392e-05 2.7362188e-05 -0.00024471278 6.0371847e-05 -0.0003721362 0.00033867033 1.8537152e-05 -0.00033357422 0.000119397155 0.0004764039 0.0002558263 0.00036787923 -0.0003851056 0.00038264037 -0.0004381994 0.00038365263 -0.00017928511 0.00031747378 0.00039320718 -0.00017817291 -0.00022223181 -0.00033459967 -0.00034088996 -0.00026227033 -0.0004277228 -3.7411584e-05 -0.0002974572 0.00045623461 -0.00037103673 -0.00045804796 -0.00016773041 -0.00010672816 -3.0704323e-05 -0.00029621192 0.00027362411 0.0003789905 0.00030526344 -8.296725e-06 4.29066e-06 -0.00028555762 1.2515502e-05 0.000319173 -2.6148988e-05 7.4719624e-06 2.9123456e-05 -9.972882e-06 0.00033492045
矛盾 0.00012757153 5.6030367e-05 0.0003685821 0.00030588385 0.00043905954 -0.00018932282 -3.299664e-05 -8.100655e-05 -0.00037672673 -0.00019387832 0.0004693277 0.00016088833 -8.845544e-08 0.0001725583 -0.00039217641 0.00021428104 0.00041411602 5.019467e-05 0.00024739487 -0.00021114766 9.788497e-05 -7.4411306e-05 -0.0004319079 0.00042104212 -0.00024249085 -0.00048365435 0.0003744812 0.000117595766 0.0002841474 -0.00045891214 -5.3593176e-05 -4.399903e-05 0.00022766585 -8.889966e-05 0.00019947274 -0.00016162485 0.00021675628 -0.00044163474 0.0004242601 -0.00018691263 -0.00042691253 -0.00032146784 -1.9218392e-05 -0.00011638379 -0.00011061137 0.0004137383 -3.334362e-05 -0.0004182432 -7.732617e-05 -0.00019992805 0.00044164716 0.0002474634 0.0003356113 0.0003225663 -0.00035462328 0.0001453361 2.3872937e-05 0.0003694524 -0.00032680054 0.00019968064 0.00033921745 0.00049031695 0.00026788661 -0.00036808956 -3.0881558e-05 5.4689797e-05 -1.735883e-05 -0.00039375434 0.00022501992 -0.00030393628 0.00041432658 0.00012332633 -0.00031250535 -2.7967404e-05 0.000352938 0.0004910835 6.2837644e-05 0.00019804847 -1.8806938e-06 -0.00040681552 0.00041459297 -0.00014357093 0.00025779632 2.5583991e-05 0.0004260706 0.00046272864 2.302981e-05 8.872078e-05 -0.00033146515 -0.0003548138 -6.2113526e-05 -0.0002302048 -0.00033059725 -0.00039525263 8.127178e-05 0.00027292006 -3.899542e-05 8.127631e-05 -0.000101187194 -0.0004365202 0.00038402554 -0.00036983885 0.00048517008 0.000100409 -2.3014316e-05 0.00010645666 8.821773e-05 0.00017841716 -0.00045024534 -0.0004210026 0.00046229787 -7.28126e-05 -0.00038123233 -0.00029182748 -1.8024184e-05 0.00047845126 -8.3997336e-05 -0.0003942845 0.00020530261 -0.00024320006 0.0002726524 -0.00012061199 -0.00017193718 0.00037496007 1.4438872e-05 0.00030666855 -0.00014889012 -4.055004e-05 -0.00017001503 -0.00028028234 0.00024768044 -0.00032366926 0.00025108203 0.00013381564 -0.00010010149 -0.00012683468 0.00029666978 -0.00018880813 0.00033663557 -0.00014629259 -0.00041379148 -0.0002541111 -6.313247e-05 -0.0003139757 0.00035485422 0.00015121674 -0.00016717776 9.471889e-05 0.0004966167 0.0001146324 0.00014636338 0.00027264463 -0.0002942289 -0.00046376494 0.00016883931 -0.00034071092 0.00023832975 0.00014939731 0.0002758147 -0.00035344082 -0.00023348478 -0.00023135095 0.000256126 -0.00028425065 -3.7768263e-05 6.138945e-05 0.0002588478 0.00013604795 -1.8280833e-05 0.00024088407 0.00019806281 0.00018741334 -0.00048726457 -0.00021693541 -0.00035618764 0.00023726854 -0.00026044113 8.98528e-05 -0.00032027072 -0.00044879367 -9.4516385e-05 -3.1610594e-05 0.00034032293 5.9936996e-05 -0.0001700311 0.00025304587 0.00021898243 2.7276137e-05 -0.00022744702 -0.00019458514 -0.00024155082 -0.00041172747 0.00018226905 0.00023251884 0.00021028967 0.0004616818 -0.00027281424 3.5549736e-05 0.00034431825 0.00031810594 0.00021519561 -0.00017905512 0.00039715524 -0.00026046095 -0.00048549 -0.00033706662 -0.00018698256 9.132424e-06 1.881868e-06 -0.00035759638 0.00035184834 7.86925e-05 -0.0003761549 -0.00016083923 0.00021109713 -0.00042248392 -7.9457204e-05 -0.00023077354 0.00033645652 4.0927636e-05 -0.00020497962 0.00017038458 0.00044863214 1.2427199e-05 0.00033655693 0.00013889773 0.0004265747 -0.000112268106 -0.0004832872 -6.741741e-05 -0.00039313047 0.00015626563 0.00010484166 -2.286268e-06 -0.00042059485 0.00038571592 0.00022856619 0.00015618195 -5.5921042e-05 -0.00042630808 9.826026e-05 0.00012328886 0.00021825482 0.00043955873 -0.00031486157 -0.00026852428 -0.00010708338 0.00048210003 -0.00028863666 0.0004443209 0.00029173982 -0.00033885098 -0.00016116991 0.0003080404 -0.00043779227 0.00043976205 -0.00043886335 -0.0003446604 -9.047856e-05 -0.0002469869 0.00045278037 0.00020550106 -0.00043741975 0.000295908 0.0001492456 0.00011182708 0.0004133139 0.0002713279 -0.00045171045 0.00034290363 -0.00033076337 -0.00025172922 -0.00012645754 0.00026531264 0.00015563205 -0.00023749909 -0.00045345325 0.00049901643 -0.00018871507 0.0002436657 0.00030415817 0.0003093739 0.00011553087 0.0004170389 -0.00033084676 -0.00026445137 -0.00024391404 -1.3369704e-05 -0.00012155546 0.0003979711 -0.00019410349 -0.00033855118 -0.00032458224 -0.0003983485 -0.00022548105 -0.00041693423 -0.00047636396 0.00043154228 -0.0002953548 0.00023571118 9.1571355e-06 5.1517978e-05 0.00035481603 -5.642227e-05 5.2204876e-05 0.0002844381 -0.00021856987 -0.0001927795 -0.0004768438 -0.00024447375 -4.3585078e-05 0.00019658446 -0.00049099344 -0.00011707765 7.316843e-05 0.00016472577 0.00029386868 -0.0004188791 0.00042128089 0.00016536936 -0.0004856249 -0.00023688322 -1.5531685e-05 0.00017789862 5.2999043e-05 -0.00046807388 0.00027900736 -1.0908597e-05 -0.00033046518 0.00016512166 4.4907316e-05 0.00025983728 0.0004998412 -0.00024153401 0.0004923799 -0.00019960314 0.0003789119 -0.00015651603 0.0004689629 -3.061579e-05 0.0004949451 0.00041200494 2.3615557e-05 -1.4054608e-05 -0.00047251326 -6.4964195e-05 0.00021560818 -0.00010142964 -0.0001586571 0.00021737431 -0.00046102403 0.0002881253 -0.000282915 0.00046470205 0.0003857256 -0.00021604272 9.67284e-05 -0.0003933328 0.00022022652 -7.2657625e-05 -7.467241e-05 -0.00030873308 0.0002669888 0.0002548776 0.00013341787 -0.00047352593 -0.00036524833 0.00031906491 -0.00017594382 0.0003507298 -0.00016790116 0.0003750855 0.00032085652 0.00042121153 -8.831621e-05 0.00030404748 -0.00029044945 -0.00029827683 0.00035240263 0.0001745876 -7.300298e-05 0.000488008 -0.00013417497 0.00033470194 -0.00018255887 0.00040188478 -5.3873227e-05 -0.00013059062 0.00039648204 -5.800589e-05 -0.0004898247 0.0004995067 -0.00019708514 2.8042788e-05 0.00012101183 0.00014260747 0.00022249657 -0.00018395868 0.00027918108 0.0001713973 0.00026172912 -1.3829813e-07 -0.0004946817 -0.00029210382 -0.000406278 -0.0003920916 0.0003017331 0.00020124027 -0.00023824652 0.00048706346 0.00042664888 -3.1272313e-05 2.1799213e-05 -0.00012512774 -0.00029063024 -0.00046858258 0.00044056214 -0.0001071111 -0.00045013614 0.0002359677 -0.00027718776 -5.5599132e-05 -0.00024202946 0.0004977726 0.00020541884 -0.00032939145 -0.0002892226 0.0001572898 -0.00031990523 -5.5415832e-05 -0.00012215007 -0.00031434817 -0.00027776902 0.00016146616 -0.00029994897 -0.00015945338 -0.00016400206 -0.0002765475 0.00041589056 0.00041395932 0.00047627444 -8.3461455e-05 -7.701182e-06 0.00045284186 0.00022128146 -0.0004575332 0.00013319653 6.1869156e-05 0.00044061345 -0.0004081378 0.00022890628 0.00015972645 0.0004672362 0.0004441021 -0.00023824723 -0.00043858495 -0.00017993592 -1.08481945e-05 -0.00010508202 0.00033442036 0.00044379124 -0.00044157167 -8.870326e-06 -2.807075e-05 -0.00034387957 -0.00037577393 -0.00031720873 -5.1238516e-05 0.00034084433 -0.00024461764 -9.3343304e-05 0.00033634828 -0.00040023285 9.674134e-05 0.00037746673 -0.00042037028 0.0002623624 0.00032767883 0.0003064249 0.00041779774 0.0004803589 -0.00048186394 0.00047642743 9.693813e-05 -0.0004445752 -0.00013501443 2.316355e-05 -0.00028788095 -0.00046264078 -0.00019564148 8.916299e-05 -0.0004603034 0.00029667848 -0.00035875486 0.00043172907 -0.00019697381 -0.0003418325 -0.00016517576 0.00027536167 -0.0002459468 -0.00041184327 0.00029706623 0.00030500584 -0.0001452446 -0.00022085455 -0.00019229605 -0.00022490705 -1.9134355e-05 -0.0004658079 -0.00036464908 0.00048231927 0.000107278895 -5.5712375e-05 5.7039644e-05 -0.0003044381 0.00049414503 -3.223838e-05 0.00020603274 0.00016491946 6.5671375e-05 0.00047300168 0.0003694462 1.0009692e-05 -6.0052505e-05 -0.00024995484 0.00031571707 0.00012890392 0.00023246557 -0.0003804338 0.00011238295 0.00021266908 -0.00022735455 0.00023522925 -0.00012081555 -0.0004454827 0.00024206698 0.00016630942 0.00032112785 -0.0002066377 0.0004257218 -0.0002501504 0.00026424383 0.00027173615 -9.397743e-05 0.0004523569 0.00018089805 -0.00016652742 0.0004217066 0.00021948692 0.00026178412 0.000117361036 -4.6684243e-05 -0.0003620661 -0.00021243942 0.00013384494 0.00011475272 0.00048856455 0.0004573901 -0.0003841823 0.0002716575 7.267038e-05 -0.0004202477 0.000496071 0.00011044557 0.000425596 -0.00023025805 -3.4664038e-06 -0.0004957632 -0.00044902667 6.578983e-05 0.000112206246 -0.00017577295 -0.000314664 5.659625e-05 -0.00017143792 0.0002589749 -0.0003962162 -0.00022931033 8.936808e-05 -0.0002037406 0.00032231378 -0.00047303087 0.00039060303 2.5475232e-05 0.00045318535 0.00049256365 -0.00040646753 0.00018009965 0.00025509964 -0.00029865713 0.00016652182 0.00023324501 -4.8629314e-05 0.00021094938 0.00012214277 0.00022697012 -0.00038765583 0.0001700351 0.000313824 -0.00029313314 0.00040619422 -1.2955218e-05 0.00037074636 0.00043616976 -0.00014117385 0.00044203398 -0.00041421806 -0.0001472085 0.00013619056 -0.0002629606 -0.0002829511 0.0004504566 0.0003106293 -0.0004237417 0.0001183737 0.00014661434 0.00010085896 -0.00024305398 0.0004893161 -3.0581192e-05 0.00039891893 0.00037524925 -0.00042299723 4.172707e-06 0.00047491354 0.00026610043 0.0003610531 -0.00039639513 0.00019155322 0.000117466436 -5.2071355e-05 0.00046769244 0.00020024733 -0.00035031693 8.6365246e-05 0.00013325008 -0.00041557717 0.00042213555 0.00040707606 -0.0003814521 -8.4173305e-05 0.0002614548 -0.0002485966 -0.00017281843 0.00012611302 0.00037580665 0.00010671461 -0.00026152216 0.00023190178 0.0001239705 -0.00016672352 0.000480696 0.0004918648 0.00023316754 0.00048086024 0.00045506854 -0.0004247708 0.00011409899 8.912226e-05 -5.9032718e-05 -0.0003927859 -0.0002516085 0.00040238185 9.909743e-05 -0.00022128403 9.824194e-05 0.00018412399 0.00022117888 -0.0004502009 0.00030108323 -0.00015595533 0.00041773496 0.00024302347 -0.00016059194 -0.00032349885 0.00040853096 -0.00039212502 0.00041137074 0.0002120236 -0.00016022466 -0.00039256198 0.0004587584 0.0002374506 0.00049354136 0.00028229857 -0.00030821972 -7.540718e-05 0.00040393183 -0.00036517013 -0.00031927944 1.9548217e-05 -5.175026e-05 0.0002889428 7.143042e-05 0.0002342209 0.00018167103 0.00034012762 -0.00017662233 0.00023950599 -7.274964e-05 -0.00034002808 8.738133e-05 0.000113759 0.00036334744 -0.00022352059 0.00015191616 -0.00019841264 0.00036297564 0.00041722335 -0.00016535858 0.00031368082 -3.0211435e-05 -1.0269015e-05 0.0002507328 -0.00015157353 0.00031115767 0.00040601924 0.00011928782 9.381438e-05 -0.00012632902 0.00011370822 -0.0002953015 0.00022878604 -0.00039734677 6.4657215e-05 0.00027268406 0.00017857473 -7.922193e-05 -0.0001473306 0.00027883152 -0.00030670542 0.00049807417 -0.00019228818 -0.00025867618 -0.0001701577 8.057771e-06 0.00039549725 0.00018673947 0.00034109203 -0.00022794248 0.0002356217 0.00018241903 0.00029894878 0.0001535702 -0.00017420112 -0.00018112305 0.00024701477 -1.2385083e-05 -0.0002632238 0.00028702922 -0.00018087743 6.0880822e-05 -0.0001839001 -0.00030757498 0.0004684769 -0.00032825692 0.00037393207 -6.512538e-05 0.0003543757 0.0002265139 0.00045593453 -0.00025691633 0.0004934264 -0.00042620752 0.00049097964 0.00043554715 -0.00029108068 -5.271009e-05 -0.00013953217 0.00012966391 0.00021422397 0.00020254042 -0.0004388262 0.00026370646 0.000311381 0.00042983348 0.00032626986 -0.00015339407 0.00032119188 -0.00014390303 -0.00047610616 0.0003761233 0.00040803204 6.0033784e-05 0.00011539911 0.00017307725 -0.00024036525 0.00020580905 0.00047504948 0.0003989791 -1.9243505e-05 0.00015696621 0.00036493407 0.0002541943 -0.0002856374 -0.00042650662 0.00012728033 -0.0004829135 -0.00032323258 0.00022825219 -0.0004823328 -0.00010425127 0.00013193223 0.00028388257 0.0002621506 5.2143212e-05 0.00034893153 -0.00019450384 -0.00042187067 0.00019297216 0.00046350417 -0.0004094272 0.0004184113 2.5686897e-05 5.84911e-05 -0.0003212494 0.0004495251 0.00020089478 0.00026352736 -0.00048260565 -0.00027167465 5.54041e-05 0.00047641597 -0.00027158993 -0.00019471261 -3.7909907e-05 0.00012660013 0.00023704855 -0.00039086322 6.107457e-05 0.00031020583 0.00011022807 0.00021525707 0.00049962016 5.5721266e-06 -0.0003235851 -0.00035277914 0.000111201065 0.00038412906 7.4742726e-05 6.0414422e-05 4.5096753e-05 0.00026176966 0.00037897387 -9.5261705e-05 0.00039994248 -0.00030176016 0.00039300782 -0.00020620294 -0.00032183283 2.246772e-05 -2.0931516e-06 -9.6112955e-05 -0.00022325323 -0.00044050216 -0.00035719355 -0.00034834797 0.00025603338 -0.00039117664 -0.00049476465 -0.00010143523 7.0553084e-05 2.2771846e-05 -0.00035166446 0.0002958639 0.00046334547 -0.00036928384 -0.000121764024 0.00011583725 0.00029865027 -9.5660225e-06 0.00027526158 0.00033984933 0.00044976763 -0.00024636573 -4.7329486e-05 -0.00012433872 0.00026490848 -2.1979185e-05 -0.00030673848 0.000185746 -0.00036442783 -0.00020302339 -0.000102231716 0.00024380833 0.0004686544 0.00034860193 1.8321203e-05 -0.0002642949 0.0004141236 -0.00046198058 -0.000444324 9.675723e-05 3.3561777e-05 -4.5032877e-05 0.00042664463 0.00033855767 -0.0002353571 0.0004376373 -0.0004837894 -0.0003044393 -0.00039967432 3.7243947e-06 0.00042652307 -0.00029936296 -5.3149422e-05 -0.0004104296 0.0004502499 -0.00031366365 -0.00040518126 0.0004555337 6.9214057e-06 -7.962662e-05 -0.00029921572 4.0664487e-05 -0.00036182877 -0.00027035008 -0.0001790987 -7.381258e-05 -0.00034847163 5.963377e-05 0.00017445159 -0.00024950423 -0.00023102698 0.00015535156 -0.0003361756 -0.00044255657 6.8025576e-05 0.00042639123 -5.9431404e-06 -0.00019318446 -0.00044942892 -0.00032966866 -0.00016264089 0.0003349634 -0.0003793138 0.0002839084 0.0003632612 -0.00028100575 -0.00045863754 0.0002497001 -0.00044075868 0.0004591011 -0.00014157039 5.0045204e-05 5.9347425e-05 -0.00036665637 -0.0004887224 0.00049103453 -0.00018000252 9.25141e-05 -6.115875e-05 -0.00028283012 0.00043105363 -0.00033608818 -0.00023970428 0.00030449292 1.4811206e-06 -0.00034781234 -0.00025693994 0.00019423658 -0.00037899855 -5.448146e-05 0.00044985948 0.00013982659 -0.00043183452 -0.00010517611 0.00028554915 -8.042786e-05 4.7149348e-05 -0.00010590078 -0.0004745364 0.00040276672 -0.00040209267 -0.00018680363 -0.00030773686 -0.0004413267 -0.00014162519 0.00018535506 -0.00012552402 -0.0001682595 -0.0001332196 3.0646042e-05 -1.9940739e-05 -0.00033971705 0.0003833895 -0.00046200043 0.00014750539 -7.9712394e-05 -5.5853452e-05 -0.0004911223 0.00015751447 -0.00013803122 -8.9268244e-05 0.00028225503 0.00023105698 3.5527853e-05 -0.00015599045 -5.961213e-05 6.41437e-05
政治 -0.00011244813 -0.0002375559 0.0002102622 2.154764e-05 5.283336e-05 -0.0004307719 -0.00039281958 -0.000100066354 4.3145166e-05 0.00023750374 -0.00026964353 9.883082e-05 0.00036574804 -0.0002603847 0.00040123923 -0.00015453204 -0.00042636492 -0.0003801243 -0.00045798664 -0.00028813398 0.00043031882 -0.00048372307 0.00026899 0.00035106254 -8.8922214e-05 -0.00034477032 0.00020286498 0.00039273442 0.00040360566 -0.00043840858 -0.000102941216 9.9733545e-05 0.00032331175 0.00014748336 0.00016171762 -0.00020984214 9.131536e-05 -0.00043200323 0.0003525218 -0.0001067901 0.00043710583 -0.00018258566 -0.00014725023 -0.00021013418 0.0004470412 0.00018519929 -0.00020297767 -0.00030282466 0.00016217979 9.6509386e-05 -0.00037042823 4.6297588e-05 0.00032304338 -0.00036580095 0.00032775803 -0.00047948599 -4.7764785e-05 0.0002875253 -0.00036777783 0.00027883388 0.00046048526 -0.00013354448 4.355663e-05 0.00021545596 -0.00020329865 -0.00027691165 0.0002839414 -0.00019695671 -0.00029318198 -0.00029403777 -0.00016162114 -3.7216865e-05 -0.00042869622 0.00019930047 0.00013001403 0.00023313769 0.00013347594 -0.00027491598 -0.00036312075 0.0003728468 1.7641283e-05 -0.0004268111 -0.00016805629 0.00020474914 0.00017873655 -1.4970448e-05 -0.0002778776 0.00042547905 0.00018161786 -0.00022308022 -0.00046684023 -0.00032453003 0.00016445304 0.00033395362 -0.00022342768 0.00026873665 8.8553665e-05 -0.00015561742 0.0003017153 -0.00017443522 6.837021e-06 -0.00025537555 8.508682e-05 -0.00040507186 -0.00039108767 -5.6284857e-06 0.00020787277 -0.00024017422 0.00046262957 0.000329263 -0.0002918505 0.00046646185 0.0003391588 -0.00044882024 0.00044536105 2.625104e-05 -0.00046961874 -0.00019063472 0.00036622395 -0.00040726078 -0.0003376305 9.642163e-06 -0.00014134977 0.0001124072 0.00040600516 0.00046049227 -0.00031070563 1.2683503e-05 6.876326e-05 9.4468494e-05 0.00016670152 0.00040805087 -0.00012325113 0.000329381 0.00036068185 0.00020486255 1.3506484e-05 -0.00010913213 -0.0001248855 0.0003726306 -0.00029297083 0.0004936374 -4.7080342e-05 7.558422e-05 0.00035929322 -0.00035398162 -0.0004817063 -0.00016281752 -0.00038829359 0.00026778685 0.0002705765 0.00024982938 0.00037804674 -0.00041196524 -8.260668e-05 -0.00012359783 -5.572707e-06 -4.575747e-06 0.00014449884 0.000496868 -0.00010556327 -0.00028332951 -6.253604e-05 0.0002570777 2.376055e-06 -0.0002095679 7.9334044e-05 0.00027817418 7.159832e-05 -0.0002902354 0.0002550822 -9.739373e-05 0.00019922949 0.00011854856 0.00044151978 0.00021769528 -0.00039108985 -0.00041235713 -0.000117389216 -0.00040264736 0.00044991585 8.601467e-05 -0.00022619883 2.5899239e-05 0.00049844023 0.00040654742 0.00038537767 -0.00016953405 4.4191213e-05 0.00010080374 0.0004892965 0.0002981066 -0.00026159987 -0.00010158035 -0.00012764534 6.1038416e-05 -9.225087e-05 -0.00031096008 0.00043356666 9.741732e-05 -0.00015638642 -0.00020715252 0.0001488814 -0.00020455658 0.00040605024 -0.00025277314 0.00023145742 -8.548874e-05 -0.000102085025 1.0053169e-06 -0.00021806135 -8.414871e-05 0.00026640302 -9.667081e-06 -0.00026460484 -0.0004251492 -0.0004615421 0.000263435 0.0003339385 0.00028724418 0.00011846779 0.00028181678 -0.00011111137 -0.00015549884 -0.0002700927 0.00038827545 0.00027413433 -0.00041059608 0.00036360795 -0.00016971176 -0.000494156 1.5034994e-06 -0.00036614342 -0.00030388904 -0.0003283647 0.00045846033 0.00018628262 0.00031426884 -0.00044433677 -0.0003738886 0.00018710211 6.135337e-05 0.00034917783 -3.309377e-05 -0.0001569959 0.00015497541 0.0002195355 0.00020735057 0.00049875985 -0.0004413303 -0.00012420658 0.00032847468 -0.00047001417 9.3267154e-05 -0.0002133383 0.00017058056 0.00042246358 -6.009212e-05 0.00011939833 -9.079307e-05 -0.00044358135 -0.00043285594 -0.00013228365 -0.00019396194 0.0001181389 -0.00019921624 -0.00017969815 0.00039442183 -0.00012967782 8.805995e-06 -0.00034061982 -8.0313876e-05 -0.0003214259 -0.00023207284 -0.00013871402 -3.6217953e-05 0.00022891299 0.00032922847 0.00012948501 4.756544e-07 5.7208294e-05 9.438309e-05 0.00023476843 -0.00043363898 -0.00045079424 0.00025116498 0.0004645574 -7.692505e-05 0.0001297525 -0.00048601808 -0.00017524615 0.00026922603 -0.0003617567 9.737143e-05 -0.00021973383 -0.00021552382 -0.0004240596 -0.0003062181 -0.000119585486 0.0003654152 -0.0004207605 -0.00019603406 -0.0001119469 -0.0004139694 -0.00010781694 -0.00023413659 -0.00030480928 -0.00040264602 -0.000129905 -0.00034766924 -0.00041050423 -0.00015700508 -0.00041885197 -0.00018943932 -0.00045878373 -0.00018414475 -0.00020192674 0.00041488238 0.00019124415 -0.0002668161 2.1512613e-05 -2.1806853e-05 -3.432772e-05 7.519054e-05 0.00025867997 0.00023449634 -0.00017035668 1.566185e-05 0.0003603848 0.0004376332 -7.5050644e-05 0.00012939882 -0.00022437182 0.00011223042 -0.0004241808 -0.00018872276 -0.00040620347 2.9838453e-05 0.00010912865 -0.0004636174 -0.0001283757 5.5273977e-05 0.0004034909 -0.00011347937 0.00021844938 -0.00020695098 0.0001623103 0.0004608523 0.00042890644 -0.0003297997 -0.00017915365 0.00017990025 -0.00027511662 -0.00039369223 -0.00031664938 0.00012967885 -0.00036817245 0.00027426868 -0.0003124997 -0.00044399643 0.00019361232 0.00034976535 -0.00034637807 -0.00035751215 0.00019820732 -0.00021846332 0.0004715442 0.00048094755 -5.705444e-06 0.00023302324 -7.210028e-05 4.7177982e-05 0.00033459137 -6.5675784e-05 -0.0002707787 0.00012636397 0.0004078913 -0.00020171114 0.00015335507 0.00035466885 0.00046330367 0.0004326217 -0.00020981254 5.309615e-05 -0.000431683 -0.0002893622 -0.00034149375 -0.00028075083 -0.00021183383 -0.00024906898 -0.0002673295 -0.00032954142 -0.0003638011 0.00024513426 -0.0004524117 0.00011316608 -0.00030800112 2.1410633e-05 0.00046737035 -0.00027835404 0.00024010686 0.000272073 -0.00027178085 5.075726e-07 -0.00014144028 0.000102714235 0.00024384761 0.00016712575 0.00027367938 -0.00024316103 0.00010801586 -0.00013707229 0.00035916944 0.000109809735 -0.00016279278 -2.9266526e-05 -0.00042239044 0.0004483919 0.0004591473 -4.1755313e-05 -0.0003391212 -0.00027207713 -0.00019238894 -0.00034082503 0.00041099224 0.0004905666 0.00030765697 -0.00035037383 -0.00041559013 0.00021749407 0.00036842606 0.000108481974 -1.6005451e-05 -0.00013407053 -0.00038561327 0.00039851016 -0.00043889674 -3.2924847e-05 -0.00035348412 -0.0003200853 0.00046443456 4.2384596e-05 0.0003573747 -0.0004270124 -4.6284138e-05 0.00041123095 -0.00046512173 -8.4293155e-05 0.00020459793 0.00045178452 -0.0004220317 -0.00039255063 1.4330936e-08 -0.0002898508 -0.00037557437 -8.183962e-05 -0.00013909834 -0.00015479354 6.3441395e-05 -4.830098e-05 -0.000106725995 -9.536404e-05 -0.00032547262 -6.2602725e-05 -0.00046891102 1.0694061e-05 -5.3985383e-05 -0.00028836576 0.00027478999 -3.62611e-05 0.0004424928 -6.213424e-05 0.00013642713 0.00024903266 -0.00047796097 0.00027507337 2.4700425e-05 0.00026544064 -0.0003059269 0.0002290654 2.502449e-06 7.672621e-05 -0.00020696438 0.00041375373 0.00043351715 -0.0003130519 -0.0004810181 0.00033104673 -0.0004040212 0.00030644675 -0.00013662652 -0.00021407317 0.0001961383 0.00035517832 -8.680147e-05 0.00016980122 -0.00043663784 -0.00048997614 4.8680547e-05 0.00013608247 0.00016246662 -0.00041421692 -3.7905873e-05 0.0003675936 0.0002972428 0.00030224118 -0.0002508979 -0.00012462128 0.00024399534 9.069272e-05 -0.00045676768 0.00040888204 -0.00021637422 -0.00036115412 0.00047078772 0.000462408 -0.00028968055 -0.00039088159 7.828963e-05 0.00014630628 0.00035570186 -0.00015357307 5.6156667e-05 -0.00046858372 -0.0004636715 -0.00020103497 0.00012175682 -0.00021060366 0.00032873487 0.0004986473 0.00032838076 0.0002510591 0.00036886943 -0.00012215335 0.00012236157 0.00030411256 0.00038964 1.688614e-05 0.0004615641 0.00034063577 -8.416254e-05 -0.0004688484 -0.00033549962 -0.00033506873 0.000119405595 -5.0351016e-05 0.0003609581 0.00012949879 0.0002603316 8.34435e-05 -9.474948e-05 -0.00039661388 0.00040747246 0.0002987879 -9.083404e-05 -0.0004794124 0.00046248385 0.0004914196 1.4251219e-05 -0.00013476498 -7.840214e-05 8.736554e-05 -0.0003733099 -0.00031538188 0.00025484932 6.9140638e-06 -0.0004276941 -0.00032577687 -0.0004078623 -0.00023950374 -0.0003802369 -0.00047463313 -4.954225e-05 0.00020468657 -0.00039126741 0.00023233827 -6.136405e-05 -0.0003455328 0.00029448196 0.00037527073 -0.000458123 4.960712e-05 0.00025068998 -0.00045446202 -0.0004727584 7.297627e-05 -3.6970843e-05 0.0004287706 -0.00045683995 -0.00022392104 0.00033224953 -0.00010784154 0.00011547008 0.00046956172 0.00015090176 0.00019365226 0.00043181455 0.00014873303 -0.00024398047 -0.0003208275 -0.0004806248 0.0004471318 -0.0002967031 -0.00024805762 9.5473224e-05 -0.00032917052 0.00016286845 -0.00039225147 0.00011573726 4.4450695e-05 0.00045019962 -4.5558532e-05 -0.0004420981 -0.0002926781 -0.00020815812 -0.00010076183 0.00029818763 -0.000426506 0.00040081044 0.00014571869 0.0003840991 0.00030503236 -0.00047762858 -6.55264e-05 0.00036967592 0.00013249766 -0.00027633674 3.8972295e-05 -0.0003211669 -4.933559e-05 -0.00025325164 -0.00022613614 -0.00014298069 0.00040194433 0.0003223286 0.00021007103 -0.00014606799 -0.00030552663 -0.00040522142 7.2866875e-05 -0.0003600735 0.00037602906 5.019974e-05 -3.8045404e-05 0.00028448572 -0.00043750997 -6.563937e-06 -0.00030447412 2.0046424e-05 0.00023184245 -0.0001400693 0.0003135058 -0.0003767997 -1.2402847e-05 -0.00022949406 -0.00017093203 0.00034999265 -2.9992309e-05 0.00034769246 0.00025835255 0.00028142726 -0.0004300398 -5.0024406e-05 -9.533578e-05 0.00046876632 -0.00021506188 -0.00032181476 -5.361491e-05 0.0004591773 -8.656318e-05 0.00029371743 -6.9571455e-05 0.00037004097 5.9558668e-05 0.00022803435 -0.0004732998 5.5197164e-05 0.00033345545 -2.3336077e-05 -0.0001930512 -0.00046032234 -0.00037055375 -0.0003144075 -9.5172305e-05 -0.0001642304 -7.2375256e-06 0.00017541561 5.669428e-05 -0.0002380777 -0.00037254728 0.00041062754 0.00044753792 0.00019390318 0.00013412362 -0.00043957072 -0.00020321672 9.348712e-05 -0.00013922699 -4.0021823e-05 -0.00028028112 7.568365e-05 0.0004205725 0.00033622186 -7.555394e-05 0.0001772941 -0.00016116037 -0.00047884244 -0.00036052786 -0.00030931865 0.00033720536 -0.00043689256 0.00046692652 0.00012745794 0.00019064033 0.000198619 -0.00037048827 -5.7899855e-05 0.00030917794 0.00045954128 8.400827e-05 9.289641e-05 -0.0004767825 -0.00014095206 -0.00040146965 -6.9667374e-05 -0.00017152117 0.0002319806 8.468717e-05 0.00041972115 -0.0001540123 -0.00015001428 0.00043124266 -0.0001978994 -0.00014793809 -1.4525092e-05 0.0003253139 -0.00035381468 0.00032085628 -0.00048619142 -0.00021023177 0.00011598948 0.00039578232 0.00031042044 0.000111053676 -0.0004278329 0.00042871753 -0.00016217955 5.8844733e-05 0.00040185524 -0.00032638415 -0.0003195412 -7.1279086e-05 -0.0003590186 0.00027690092 -0.00039958378 -0.0004942891 0.00012792817 -1.3480658e-05 -0.0004200333 0.00013426018 -0.00038818 0.0002221198 0.0002670808 -0.0003822173 0.00021777861 -0.0004679481 -6.2879644e-06 -0.00048467694 0.00023383656 -4.794836e-05 0.00020436285 0.00023098571 0.00032110405 -0.00043082997 0.00043403733 0.00011258574 0.00018057907 0.00017951553 0.00013878141 0.00041080415 0.00041417876 0.00020684976 0.00026863578 -0.00026092728 6.690498e-05 -0.00043575064 -0.00033274209 0.00038740897 -0.00024482148 9.1667236e-05 0.00029360113 -0.00044572685 -0.0001739091 6.206365e-05 -0.00035436434 -0.000115745795 0.00042653442 1.7918415e-05 -4.3953045e-05 -3.4759855e-06 0.0003951928 0.0001277749 -0.00023745582 -0.00038095162 -0.0003173964 0.00031648428 -0.0001222479 -0.00031332087 8.136974e-05 -0.0003765659 -0.0002712379 0.0002586367 -4.948849e-05 -0.0003317254 0.00049900427 -0.00035257873 -0.000117138115 -0.00047053982 0.00035864566 0.0003604967 0.00029408926 4.689401e-06 -5.9244496e-05 0.0003706055 0.00027649145 -3.2325184e-05 -5.189379e-05 -0.00016946293 6.746117e-05 0.00039103444 9.439078e-05 -0.00025795356 -0.00048618793 0.00034524337 -0.0003750609 -0.0003448184 -8.004577e-05 0.00034935676 -4.4579778e-05 -0.00012955978 0.00036780944 -2.1908985e-05 0.00033419565 0.00044292276 0.0003227865 0.0004410118 -0.00039264024 -0.0004756785 0.00014816041 0.00023400098 0.00037749714 0.00030240114 0.00020305497 0.0003564798 8.419386e-05 -0.00044045513 0.00012082146 -0.00041135884 -0.00028118782 -0.00014730626 -0.00015185286 0.00021123319 -0.0001579951 -0.00038231106 -2.743066e-05 -4.4177537e-05 0.00015861062 0.00041985855 -1.2386185e-05 -0.0002391971 -8.210702e-05 -0.00016802581 0.0003920514 0.00023592397 0.0002805364 -1.3466935e-05 0.00045165932 -0.00018673539 1.1546326e-05 -0.00046260245 0.0001721188 -0.0002495129 0.00047168115 0.00043196295 6.654898e-05 -0.00022940393 -0.00012252064 -0.00024386031 -0.00042010905 -0.00023786769 0.00032058937 1.4907268e-06 -0.00011681375 -0.00030593536 0.00024412776 -0.00038653836 0.00037978956 0.0004964107 -0.00021451215 -0.00028114294 1.7852095e-05 -0.00034172792 -0.00016071364 -9.339778e-05 -9.924697e-05 4.5749504e-05 8.467704e-05 -0.00022790676 8.8721485e-05 -5.5878418e-06 0.000102546706 8.5926586e-05 -0.0003447894 -0.0004903824 -0.0004689038 -0.0003834091 -7.6258795e-05 -0.00035353855 0.0002802247 0.00034154163 5.0373932e-05 1.4184183e-05 0.00041413016 -6.816643e-05 -0.000284225 -0.00021259348 -0.00014898322 -0.00038381066 0.00038122578 0.00010469431 -0.00033102024 -0.00013288375 0.00036281033 -0.00023588387 -0.00044248998 0.000321486 -0.00041585075 0.00032476604 0.00040549197 -0.00036205497 -0.0001054513 0.00021175818 -2.2412421e-05 0.0002417767 0.00027630804 1.25163715e-05 0.00045303433 -0.00042876098 -0.000108672975 3.3177e-05 2.3597065e-06 3.2034673e-05 0.00026369627 -0.00040128274 0.0002168821 0.000332232 -0.0003864054 -0.00016026526 0.00048802074 -6.9482594e-05 -0.00049330154 0.00039313664 0.00032127427 0.00023870001 -0.00025098608 0.00046043636 0.00046671182 -0.0004916707 -7.46125e-05 -0.00041752568 5.6969853e-05 -0.00046232095 0.00041462725 1.897831e-05 0.00021624556 -0.0003751055 -0.00015429223 -0.00017057588 5.4699103e-05 0.00039724525 -0.00028998472 -0.00011094865 0.0003982118 0.0004312132 0.00038263772 0.00019576513 6.705356e-05 0.0004573436 0.00022926336 0.00027365267 -0.00042938534 -0.00043471053 -0.00047649164 -0.00016737967 -0.00019631012 -0.00045341803 -1.7581267e-05 -3.89063e-05 0.00030905526 -0.00026097466
敌人 -0.00031635215 -0.00042731315 8.239879e-05 0.00044345195 -0.00033590104 -0.000119854856 -0.00036026404 -0.00011254499 -0.00014167515 0.00017801861 0.00044434142 0.00049510115 -9.259611e-05 -0.0003815254 -9.030228e-05 -4.970927e-05 -0.00030831975 -0.0003586999 -0.0001950739 0.00038360685 -0.00017979085 0.0004645856 3.7201076e-05 -3.7760077e-05 -5.93231e-06 -0.00047926098 -0.00034595607 -0.00046573122 -0.00010310264 -0.0004640367 7.034428e-05 0.0004974491 0.00040977582 -0.00010384896 -0.0004864605 2.3371702e-05 0.0004709671 -0.00043495372 -0.00045478853 -0.00044672383 -0.00030222366 0.00040352752 -5.3665382e-05 0.00015634457 -0.00029980953 -8.3625775e-05 0.00033461043 0.0004049263 -0.00034364386 0.0002494942 0.00022621176 0.0001632414 -0.00035363412 -0.0004002158 0.00011909314 0.0004302054 -0.00017200797 0.00013803194 0.00012071354 0.000102036116 -6.945228e-06 0.00046889434 -0.00041346136 -6.6878296e-05 0.00040706617 -0.0004807224 -0.00012138626 -0.0003515378 -7.428324e-05 -0.00015514324 -0.00016777123 -0.000290011 9.419349e-05 0.0004781428 -0.00042414342 -0.00037345022 -0.00034192114 0.00036335585 7.9872814e-05 0.00020806871 -0.00010839189 0.00036637665 0.00040352912 2.8098877e-06 -0.00019542407 -0.00036972825 -0.0004388741 0.00020961344 -0.0004479325 -0.0001865427 0.00034172487 -5.678626e-05 0.00041425062 -0.00040312254 -0.00010295597 -0.00043561685 0.00047844034 -0.0004172008 -0.00031745966 -0.00024262548 0.00029340328 -0.00046722908 5.6844758e-05 0.00048713325 0.00044475732 -0.00020006024 0.0003300234 0.00047021732 0.00019983415 4.1509586e-05 0.00033254284 -0.00011495656 0.00011561489 -0.0004762499 2.72545e-05 -0.00010777829 -7.436198e-05 -0.000121997626 -0.0002601532 -0.00024343799 -0.0004938612 -2.0916943e-05 2.598293e-05 0.0004969534 0.00047336376 0.00034325983 0.00024921808 0.0002954004 0.00019991862 -0.0003061487 -0.00038525052 -0.00037217964 0.0004696938 -0.00017509013 0.00010615685 -0.00017614801 -7.2110575e-05 -0.0003459217 -0.00019840826 -0.0002720995 0.00041044154 8.860776e-05 -6.0666094e-05 0.0004861638 0.0004260068 -0.0004961868 0.00029956014 -0.000486313 0.00027749463 -2.1926899e-05 0.00015517698 3.925285e-05 -0.00033585724 -0.00011793446 0.00025196883 -0.00028386788 -0.00016334273 -0.00032791402 0.00016472566 9.266817e-05 -0.00018820373 0.00045560315 -1.9042316e-05 -0.00036576207 -1.9849022e-05 0.000119136654 -0.00013019129 4.523669e-05 0.00030947124 0.00018172174 -0.0004641385 -0.00045823428 0.00021831332 -0.0001911463 0.0003243079 -8.0817605e-05 -5.7851965e-05 0.0004141239 0.00025774853 0.00021230723 -0.00013609091 0.00033991117 0.00020868708 0.00016918487 0.00031702177 0.0004191317 -0.00025530418 -0.00042850545 -0.00022103115 -9.739472e-05 0.00032461475 -0.00028762076 3.266235e-05 -0.00042061834 0.00022318504 0.0002489074 6.8900976e-05 0.00015063546 -0.00025225314 -0.00013584887 -0.0001425573 -0.00017819635 0.00044304502 -3.1142918e-05 -0.00041353135 0.00021644685 0.00037575234 -5.54858e-06 -0.00017090613 -1.3405355e-05 0.00029282406 0.00023361619 0.00039542033 0.00032356934 -0.0002859571 0.00047703955 -0.0004735044 0.0003591541 -0.00041323502 0.0002493313 -0.00028035382 -0.00022977966 0.0002343685 -0.00040912017 4.4633798e-05 0.00018025198 -0.00015034292 0.00040160897 -5.1577426e-05 0.0003039473 -9.182381e-05 0.00015600846 0.00022543185 -6.862994e-05 0.00047736103 0.00038575951 -1.45890335e-05 -0.00019434003 -8.0680504e-05 -0.0003021041 -0.00046559674 -0.00010130521 -0.00014635561 0.00013467275 -6.0464565e-05 -0.0003114002 -5.8660113e-05 0.000348997 0.00030460308 0.00048111178 -0.00015330841 -0.00035507206 0.00045838134 -6.051225e-05 0.00019064719 0.00041300282 0.00031658815 -1.4885044e-05 -0.00047618418 7.977479e-05 0.00041179842 -0.00018240104 0.00019466819 0.00034963115 9.896901e-05 -0.00036140176 -0.00036127985 -8.280249e-05 0.00026751467 0.00022614919 -6.742982e-05 -0.0001514654 -0.00015889789 -0.00032404918 -0.00033237456 7.113146e-05 -0.00033535136 0.00025320833 -0.0002083074 -2.9459085e-05 0.00023880636 -0.00033903564 0.00012867808 -0.00020949137 -0.00024394259 -0.00048020424 0.00015220001 0.00043187826 0.00035011952 -0.00026851843 0.0004255884 0.00028809154 0.0003907352 -0.00025330772 0.00026963602 -7.580872e-05 0.00031394593 0.00025730548 -0.00019033418 0.0004359562 0.00014583007 -0.0002210644 -0.0004529626 0.0003105647 0.00033698737 0.00027558397 -0.00013624535 1.1228664e-05 -6.03418e-05 -0.0003221254 -0.0003030573 -0.00018672648 0.000342519 0.00029042797 0.00027587858 0.0004560324 -0.0002879881 -0.00020635767 -0.00042933825 -0.000164622 -0.0004366241 -0.00012935231 -0.00037047622 -0.00016094014 -0.00026694252 0.00038362737 0.00024848807 -0.00012809184 -0.00036497868 -0.00023583291 -0.00014430267 0.00030262774 -0.00020305104 0.0003830487 -0.00024858263 8.6729786e-05 -0.00021602563 0.00043885256 -0.00020198392 -0.0003942134 -1.57839e-05 -1.6352631e-05 -3.583915e-05 -7.923147e-05 0.00047677086 0.00022865806 -0.00042790634 -0.0001639858 -0.00014639174 7.646393e-05 0.00029771723 0.00039460452 -0.00025555995 -0.0004607334 0.00016811841 1.4641218e-05 6.3015e-05 0.00038433858 0.00029718154 -0.00034503202 -0.00044523855 -0.00021717908 2.21671e-05 9.631305e-06 -0.0002318586 0.00022825645 -0.00030697635 -0.00024575627 -0.0002740046 -8.554028e-05 0.0002640612 0.00020720882 0.00020026974 -0.00021953309 0.00049703335 0.00025019736 -0.00018956131 -0.00021180701 5.6142668e-05 0.00039827597 0.00023283687 -0.00044164792 1.3692761e-05 -6.8763795e-05 -0.00018573682 1.7757264e-05 -0.00010303823 0.0004683824 -0.00038429216 8.305875e-05 0.00014601504 -0.00011987224 0.00020918112 6.495151e-05 -0.00017160969 -0.00029105964 -0.00038245463 0.00040672722 0.00016296699 0.00019967557 0.00036817443 0.0003584877 -7.42964e-05 -0.00033768994 0.0003046936 -0.0004974973 -0.0004892518 4.9070706e-05 0.00015324091 0.00049469474 0.00015320924 -0.00017525764 -0.00025438893 -0.0002644154 6.0178587e-05 -0.00045440867 3.785313e-05 0.00041919158 0.00044002468 0.00048329352 -0.00033078605 0.00048144005 0.00018803265 -6.158359e-05 -0.0003800408 -0.00034303812 0.00026195328 -1.315645e-05 -0.000108467655 0.0004892866 -0.0003260325 -0.00044660724 -0.00036231268 -0.00021431627 0.00036779547 -0.000227135 -4.173183e-05 0.00022242141 0.00012690599 0.00020458047 0.00028859923 0.00016572233 9.449589e-05 -0.0002778952 0.0004903362 -0.00030928457 -0.00014634465 0.00036815795 -0.00034552848 -8.960414e-05 0.00012296642 0.00041670204 0.00015634183 0.0003428301 3.5635672e-05 0.0004038879 -0.0004165247 0.00036135528 0.00043766046 0.00033310932 -6.1165054e-05 9.795303e-06 -0.00019457623 -0.00030110314 3.6579546e-05 -0.00030134674 -4.817877e-05 -0.00017424366 2.298997e-05 -2.7881293e-05 -0.00045510606 0.0003588021 0.00032209227 0.00040700633 0.00035842412 0.00028882374 -7.241023e-05 -0.00021647132 -0.00034386496 -0.00012260726 -0.00033011986 0.0004540085 -0.00042292738 0.00044417512 2.114519e-05 -0.00028008263 0.0002485422 -0.00015215973 -0.00044597784 -5.7309917e-05 0.00043977165 -0.00017797192 -0.0004846667 -0.0003799689 4.759696e-05 -0.00048841775 0.0003823259 -0.00028765298 0.00026487932 -0.00040938234 -0.00019250072 6.672098e-05 0.000118469165 -1.3277709e-05 0.00021133745 0.00045153877 -0.0002944176 -3.1961357e-05 6.115542e-05 0.000113761664 0.0003222776 8.617699e-05 0.00027425773 0.00011961358 0.00024376847 0.00036198198 5.127261e-05 0.00048935786 -0.00047186157 -0.0003589491 -0.00017783772 -0.00018002262 -0.00014693965 -2.3095245e-05 6.314108e-05 -9.4429335e-05 0.0003065306 0.00017959518 0.00043697088 0.00037102823 -0.00037337234 0.00028512222 -0.00039241448 -0.00025815977 0.00035012135 -0.00033691732 0.00027131467 -0.00039162883 -0.00023448835 -0.00023274621 7.801999e-05 -0.00026723856 -0.0004966781 0.00013965862 -0.00012600915 0.0003559238 0.00030616968 -0.00044424267 0.00022816643 0.00038000982 -0.00044788132 0.00020623404 -0.00033119833 -0.00028779378 -0.00012655926 0.00043220693 -0.00022794018 -4.399015e-05 -0.0003135837 0.00016771877 0.00022510125 -8.8490146e-05 -4.304141e-05 0.00024724437 0.00020218655 -0.00021972039 -0.00011538711 -0.00041104175 0.00031317607 0.00029074325 -0.00017338463 -0.0004265511 0.00023706698 0.0003263148 -0.00024705063 -0.00015741037 -0.00034712048 3.592628e-05 1.604818e-05 -0.0002433377 2.0083246e-05 -0.0003340436 8.3327184e-05 -0.00038482007 0.00048579325 -0.00011371667 0.00014294378 -0.00016921545 -0.00042698762 0.00020256802 0.0004793404 -0.00034597647 -0.00039709685 0.00042401455 -0.00027910408 1.2871498e-06 -6.5367974e-05 0.000495887 -0.00045234562 -6.9952686e-05 -0.00021195781 -0.00017157581 0.00041059728 0.00017021807 7.955772e-06 0.00026662782 0.00019710053 0.0001649387 -0.00023024934 1.3062573e-05 0.00046186734 0.0004513854 -0.0004551202 -7.475761e-05 -0.0001760636 -0.00026220028 0.00047663733 -0.00022030184 -5.400251e-05 -0.00016362774 0.0001567919 -0.0003931516 0.00048086495 -1.3487129e-05 -0.00022851402 -0.0001965971 -0.00018363868 -0.00027324946 0.00034670936 -0.00014909328 -0.0002894117 0.0002544591 2.0215282e-05 -0.00020967211 0.00041907345 0.00024937117 -0.0001314903 0.00028818953 -0.00035876653 -0.00030841227 0.00014902669 0.000378027 0.00041662133 -9.163171e-05 -0.000205456 2.3694904e-05 -0.0003549759 -6.0411272e-05 9.988782e-05 -9.0454705e-07 -0.0004086871 0.00028092 0.00032946237 0.0004978941 -0.0002147293 0.00041339974 -0.00014581424 0.00029865306 -0.00010610608 -0.00041530526 0.00018117407 -6.766018e-05 -9.125967e-06 0.00038731485 -0.00034493007 0.00023217384 0.00037629053 -3.8821648e-07 -0.0004443434 -0.000334465 -0.00023101695 0.00038891207 -0.0003534563 -3.6375906e-05 0.00034628678 -0.00039373006 0.00036635113 -0.0003787195 -0.00018087144 0.00048214683 4.3824297e-05 -0.00011423573 0.00028265204 -7.731934e-05 0.0003793231 9.179636e-05 -0.00021979732 -0.00022364248 0.00034808027 0.00021451301 2.8579925e-05 -0.00011435692 0.00038775435 0.000103300445 0.00017945642 -0.00037304312 0.00013793974 -0.00041919106 0.00020876886 0.00029441988 -2.3008834e-05 -0.0001877403 0.0002558932 -0.00011987398 0.00040241255 0.00042239996 -0.00046585326 -0.00016562136 0.0004802164 -0.00021319724 0.00030617346 0.0003781432 -0.00033499688 -0.00027739687 0.00015625835 0.0001132867 -0.0002684211 -0.0002732502 -0.00048759536 0.00046548047 -0.00044763752 0.00036227037 3.902067e-05 -0.0004329755 -0.0002255668 -7.8902995e-05 0.00032428777 -0.00025865904 -0.00035203475 0.0003970126 -0.00042138947 0.00049496925 -0.00040091874 -0.00020056093 -9.019637e-05 -0.00037343916 0.0002677115 -9.391801e-05 -6.065682e-05 0.00024110626 9.567284e-05 -0.00031360664 0.00040146863 0.00013285485 -0.00030154435 0.00032583138 -0.00021717907 0.0004128301 0.00032537588 -2.2365957e-05 -0.000107231645 0.00031061948 -5.0587667e-05 -0.00029857844 3.243047e-05 0.00039517033 0.00042852454 0.0003971089 -0.00041955378 -0.0004962017 0.00049866247 4.42554e-05 0.00043105806 -0.00041899103 -0.00040321695 9.669367e-05 7.1264485e-06 0.00039400219 0.00035518836 -0.00026547082 -0.00033868526 -0.00015802593 -0.00040968123 -0.00029280028 -0.000268051 9.867184e-05 -3.2432963e-05 0.00040977247 -0.00028554763 0.00042556523 0.00022542053 0.00047712334 -0.0004984736 0.000417283 0.00014954203 5.235121e-05 0.00040649422 0.00024374538 -0.0002230746 0.00028911553 -0.00016235569 0.0002998503 -0.0003809328 9.819253e-05 -0.00016424785 -3.529028e-05 -0.00021104612 -0.00039088138 -0.00045115268 -5.931615e-05 0.00034562324 -0.00036838162 0.00028284322 -5.7790076e-05 0.00038135803 -0.0003318014 -0.0004194919 -0.00030116894 0.00034977682 0.0002783887 9.961179e-05 -0.00016203328 -0.00012188987 -0.00041683498 0.00016642328 -5.4000648e-05 -4.064811e-05 0.00038698153 -0.0003742102 -2.6558688e-05 -0.00039973558 0.0002804082 -9.9599776e-05 0.0004221843 -0.00030676293 -0.00027459362 -0.0003209166 -0.00017066333 -0.00014667309 0.00033822615 -5.017427e-05 -0.00036305134 -3.8932194e-05 -0.00048687498 0.00022850712 9.8013574e-05 0.00047911084 -0.00011022625 -0.0003200679 0.00017605431 -0.00023573048 -0.00046958026 0.00035644174 0.00041642826 -0.00019732628 -0.00012313512 0.00027969314 -0.0001722023 -0.00046037545 7.2408635e-05 0.00032214657 -1.2996943e-05 -2.2570048e-05 -0.0004539941 4.6377023e-05 -0.00018921918 -0.00047272746 0.00042846263 -0.00023142342 0.00013386596 -0.0001805326 -0.0003050375 0.00047411092 -1.2958985e-05 0.00034832602 -0.00037420832 0.00020334046 0.00023268827 0.00030905422 0.0002664316 0.0004894532 0.0004727591 -0.00044174743 -0.00030879705 -0.00044743458 -0.00021533377 -2.9310462e-05 0.00016804798 0.0003790513 -0.0002744141 -6.898156e-05 -0.00021728264 0.0003519382 0.00032447942 -0.00025315527 -0.00018511384 0.00039717573 -0.0003768444 -0.00014415878 -0.00033216114 0.00029559605 0.00036603835 0.00032294396 -0.00034719805 0.00046054128 0.00036517624 0.0004271616 -0.0002533918 -0.0004584705 -0.00032298264 0.00017696155 -0.00013247799 -0.00034287202 0.0003245335 -0.00025438526 0.0003581181 -0.00011956518 -1.0885392e-05 6.714816e-05 -0.00042061778 0.00031773123 4.433837e-05 0.00041055126 -0.00033096658 -5.6056713e-05 0.00016744838 0.00010108729 0.00037995438 -0.00042779098 0.00031779116 0.00032374868 0.00040929922 -8.9632274e-05 -0.0004248664 0.00022634467 8.693812e-05 -0.0003657949 -0.00024247164 -0.00021446178 -0.0003812212 0.00018439017 0.00016860742 -0.00023661504 0.00016407303 4.7132153e-06 -0.00042171893 0.00036584685 -0.0004850923 0.00014919255 -3.063911e-05 -5.7340665e-05 0.00024403931 -0.00036318842 -7.2792674e-05 -0.0003354412 -0.00018177196 0.00028171137 -0.0004962276 -0.00048808212 -7.442446e-05 0.00010324162 0.0004531671 -0.0002601202 -0.00028469256 0.00028861867 2.018222e-05 0.00011003706 8.567504e-06 -0.00030048154 -0.00011565743 -0.00018579484 -0.00014583542 0.0002092734 0.00048165885 -5.225082e-05 6.300728e-05 -0.00014560675 0.00034037308 0.000109964276 -0.00026268742 0.00013506516 -0.00016199826 -0.00029723893 -0.00032729362 0.00022500056 -0.00015260516 7.079409e-05 -0.00019964713 -0.00010970762 0.00035159785 -4.3578508e-05 0.00043731477 3.6228972e-05 -0.00029107803 -0.0003855817 4.5208108e-05 0.00045945318 0.0002840084 0.00014800768 7.3867355e-05 -0.0004638022 -0.00010998849 0.00027605487 -0.00015129548 -0.00022829117 2.4748297e-05 -0.00011417566 -0.00017589485 -0.00046169697 7.962645e-05
战争 -3.3761924e-05 -0.0002682909 0.00037729525 7.829118e-05 0.00015716744 7.450254e-05 -2.0303794e-05 0.00017515608 0.0004834529 -8.31984e-05 0.00048351163 -8.747455e-06 9.6439864e-05 -3.2935164e-05 0.00022787544 -0.0002776083 -7.8391255e-05 -0.00039999903 0.00021544202 0.00021620534 0.0002790434 -0.00018289872 -0.0002917375 0.00032940376 -9.1821916e-05 -0.0004959713 -5.7007448e-05 0.00014672201 -0.00035257734 -8.7101136e-05 -9.596717e-06 -0.000103675666 -4.617636e-05 -0.000296349 -0.00043049466 -1.1860081e-05 -0.00022455104 -0.00027657673 0.00019990192 0.0003821547 0.00014868418 9.1909846e-05 0.00014387374 -0.00019514648 0.000276063 0.0002769377 -7.923611e-05 -0.0003047348 -0.00048500428 -0.00037786918 -0.00035479915 -0.00045639445 0.00035543132 -7.8538804e-05 -0.00010683074 0.00046933972 -0.0002626243 -0.0003726994 0.00048397275 0.00043813416 -0.00041616947 0.00033988967 0.00014643166 -0.00016177892 -0.00018205596 0.0003766081 -0.0003866514 0.00030932238 0.0002050687 2.8828556e-05 -3.411738e-05 0.00030815392 0.00046333094 0.00011539703 0.00029733154 0.00042992184 -0.00017771305 0.00014281 0.00015522732 0.00013537408 0.00042764266 -8.48935e-05 0.00043701372 -6.515386e-05 -0.00031819713 -6.188606e-05 9.39978e-05 -0.00029326897 7.7789606e-05 0.00022147172 0.00046036494 0.00035656017 -0.000100723766 0.00026041098 -0.00015661723 -0.0002201982 -0.00020778751 -0.00019440286 -0.0003030625 -0.00030802147 -0.0003918547 -0.00016293168 0.0003838092 -0.00042545664 0.0004942917 -5.538549e-05 0.00046300935 -0.00017003652 0.0004916429 1.51129125e-05 0.00021750169 -6.442262e-05 0.00045586468 0.00041800304 0.00013735922 -0.0001687352 7.735263e-05 -0.00031432233 0.00037483385 0.00024761952 0.00034557562 0.0003665973 0.00038257305 0.0002408569 0.000482637 -0.00028743176 0.00045710983 -0.00016398994 0.00027136545 -0.00046396305 -7.745833e-05 0.0004603772 -0.00014180191 0.00043012077 -0.00031424005 -0.0004631247 0.0001485654 -0.00020327831 -0.00022192947 -0.00039827693 0.00016956979 -0.00044866715 -0.00012869098 6.2257226e-05 6.3865526e-05 0.00028251257 -0.00032413306 -0.00016355539 -0.00030251048 0.00012513339 0.0002733606 0.0002510561 -0.00013302708 0.000143964 -0.00022993548 -0.00037938802 -0.00027321125 0.00013720967 -0.00026704697 -0.00043047202 0.0003363036 -8.503638e-05 -0.0004956363 0.00038670885 -0.00048672777 0.00013830743 0.00014678332 -0.00016878401 0.00035444277 0.00045598843 -0.00013601406 -0.00038349314 -0.000496693 -0.00048124132 -0.00012532416 -4.695803e-06 -3.0796615e-05 0.000118103446 0.0003176897 0.00046975806 -4.661496e-05 -0.00029347985 -0.00041452082 0.00015337676 0.00046945811 -0.0001495036 -1.718012e-05 3.404306e-05 -1.765761e-05 -0.00048448524 0.00012160597 -0.00048081166 0.0004799422 -0.00042934 0.0001860641 4.3494143e-05 0.00018388273 -0.00014534272 -6.9336006e-06 0.00028040595 -0.000426935 -0.0004073094 0.00045523624 -4.4067205e-05 -0.0004950074 0.00028035682 0.00015572623 5.2952357e-05 0.00029935958 -0.0003988439 0.00049623626 -0.0004447387 0.00017422118 -0.00032299446 0.0003985697 0.000411564 7.339589e-05 -0.00010526719 0.00015625362 -8.919884e-05 0.00043389754 0.0003470606 0.00034538168 -0.00046058156 -0.00031309258 -0.00020076343 -0.0002600273 -0.00013248381 0.00022938548 -2.2094914e-06 1.1469401e-06 0.000383032 0.00029361263 -0.0002922679 0.00013831844 -0.00042297598 -0.00040209605 0.0004951172 -1.0584391e-05 -0.00022950127 0.00043550174 -3.621435e-05 -0.00013344771 4.0165763e-05 -0.00019605024 0.000347391 4.03083e-06 0.00026255095 -0.0002819346 0.00037425582 -0.00024611372 -0.00022376957 0.00049791066 0.00037924157 -5.5512184e-05 -6.331422e-05 0.00014310784 0.000115363546 0.00039546122 -0.00023378758 0.00033874853 0.00038854036 -0.00033399175 -4.4923258e-05 0.00047402273 -0.00021863013 1.0552851e-06 0.00032473565 0.0002489928 0.00020580091 0.00036057408 0.000350821 0.00039001956 -0.00016401244 0.00017073793 0.00017862003 0.00018518764 -0.00047620092 -0.00020700443 -0.000112807036 0.00045517055 0.00031922202 0.00018982911 5.3252443e-05 -0.00017668992 0.00018986917 0.00013062522 -0.00038575823 -8.890397e-06 0.0001468516 -0.00019799288 -0.000100364785 -0.0001489467 -7.813459e-05 7.40021e-05 -0.00039636059 -0.00012980367 2.849316e-05 -0.0002347313 0.0004827881 0.00032170143 -0.00031857297 0.00012573734 1.8449774e-06 0.00030745662 0.00030193673 0.00017713325 0.00024312694 -0.00033525488 0.0002689221 -3.6648005e-05 0.00023157103 0.00022542976 0.0003493783 0.0001290757 9.010504e-06 0.00023301541 0.00023568048 -0.0002742025 -0.00047104317 -0.00034643104 0.0001917528 0.00037205403 -0.00014021096 0.00015231318 -9.267902e-05 0.00035999878 -0.00032999832 -0.00048664171 0.00024854043 0.00033458174 -0.00014935358 -0.00016110798 0.00037068524 -0.0003337955 0.00031161742 -4.055088e-05 9.81171e-06 -4.6082765e-05 -0.0002800238 7.1337763e-06 0.00010168146 -0.00047466924 -0.00030255254 -0.000466631 -0.00014028056 0.0002193579 9.452028e-05 -0.00030659206 0.00015542781 -0.00045913734 -1.5365631e-05 -6.75946e-05 4.646738e-05 0.0003357371 -0.00032824866 0.00013958904 0.00013958615 0.0004777175 -0.00046616097 -0.0004854243 5.5395474e-05 0.00045267053 0.000342308 -0.00048129688 1.8136918e-05 -7.6254626e-05 0.0002739475 0.0003621826 0.00017799111 0.00040525294 -0.00033682722 -7.8220066e-05 0.0003674214 -0.00020340913 0.00028156218 0.00045421606 1.5086777e-05 -0.00038378692 -5.10594e-05 -0.0003539435 -0.0004965183 -3.7448193e-05 -0.00030843474 0.0003507569 0.0004442238 -0.00019954097 -1.6802094e-05 -0.0003165315 0.00045363454 -0.00047313565 -0.00048676 0.0004392695 -0.00020032433 0.00045298156 -0.00023483715 -0.00047083377 0.00033833715 0.0003814025 -0.00015343621 0.00044209664 -0.00016146721 -0.00025123198 -0.00041476567 -0.00017503659 0.00020564793 0.00026095728 4.9815604e-05 -0.00036984036 -4.204744e-06 -0.00032158114 0.00045980478 0.00017005292 0.0004541417 -0.00010975817 0.00017551484 -7.244123e-06 -0.0004840829 0.00040643392 0.00017503649 0.00010396083 -0.00034420588 0.00044721705 0.0004951513 -0.00010938182 0.00024030177 -6.431924e-05 0.00023627603 0.00028450484 0.0003160088 -9.755822e-05 0.00027927378 -0.00042791633 9.9653764e-05 -0.0004822586 -0.0004012729 0.00017648168 -0.00040554092 9.072148e-05 8.412351e-05 0.00016002089 0.00020815073 3.581814e-05 4.6346813e-05 0.00040511822 4.0511768e-05 -0.00024955973 -0.0003116475 -9.083948e-05 -0.00024377469 7.490164e-05 -0.00016761417 0.0004109333 -0.00025089693 -0.00039533258 -0.0003618609 -0.00035020342 0.00021614162 -0.00043850573 0.00018483771 0.0003313254 -1.9953686e-05 0.00045598872 -2.2992479e-05 -0.00019462302 0.00036698725 -0.0002285277 -0.000344483 -0.00020623788 -0.00046840325 0.0001512913 2.2947515e-05 -0.00030356998 -7.468608e-05 -0.00026719412 -0.0003230563 -1.5739652e-05 -0.00035308852 -0.00023728062 6.570785e-06 -0.00033093852 -0.0002392346 0.00039930906 5.4998814e-05 -0.00045817412 0.00023554855 0.000379968 -0.000106757245 -0.0003406694 0.00034926913 0.0003978193 0.00037571113 -0.00027657422 8.928317e-05 0.0004962507 3.323057e-05 -0.0003202949 -0.00012027345 -8.424881e-05 -0.0003752127 0.00025846224 0.00019876867 -0.0003057989 0.00010932647 -0.0004684194 0.00047977612 0.00015749075 -0.00027649145 0.0003004636 -0.00027995952 -0.00041635314 0.00049485866 -0.00029529046 0.0004971535 -7.72428e-05 0.00034916247 -0.00022272521 3.646557e-05 6.8772686e-05 -0.00028831756 -5.120413e-05 0.00048584197 3.2148775e-05 -0.00024061257 0.0003627765 0.00028956876 0.00031674036 -0.00041346118 6.8667237e-06 0.0003523024 0.00037666937 -0.00030756966 -0.00010474048 -0.00027402063 0.00030953623 -0.0003405776 0.00022982109 -2.8941808e-05 2.6683925e-05 0.0004053951 0.00035468373 -0.00041948515 2.2328733e-05 0.00033683702 -6.463755e-05 8.847946e-05 -0.00030621316 0.00029016004 -0.00021562331 -0.0004677752 9.631733e-05 -0.00010734872 0.0003345682 0.00010723219 0.00043132654 -0.00011215171 0.00014350198 0.00039757512 0.00016374174 0.00022310163 -2.7199914e-05 0.000257065 -0.0002853102 3.541983e-05 0.00022322121 -0.00025481565 0.0002089553 0.00035794007 0.00028728167 0.0004176232 0.000104506355 -0.00044670646 -6.556456e-05 0.00044790746 0.00020639229 0.00047056298 0.00015046031 0.00019048389 -0.0003304466 -0.00037953752 -0.0004818567 0.00044760644 -0.0004572266 -0.00043340182 -9.1664566e-05 0.0004671132 -0.0004953376 -0.00033317765 0.00022735437 -0.00012767166 2.2261216e-05 0.00040694283 0.00039720788 5.4814795e-05 0.0003516961 0.00015863174 -0.00034583037 -2.1334565e-05 0.0002055717 -0.00042291917 -0.000102184225 6.2343155e-05 -0.00036099995 0.00013123344 0.00039923415 0.00044799413 -0.0001306549 0.000110328525 0.0001288797 0.00018690701 -0.00037693232 -2.6905223e-05 -9.197146e-05 0.0004384568 0.0003996625 0.00010589933 -6.5615466e-05 -0.00010752743 0.00021906858 0.00032974384 0.00017223436 -0.00023265394 0.00019329318 -0.0002701694 8.018947e-06 -0.00017693125 -0.0003873174 -0.00013019425 0.00038543865 -1.2924141e-05 0.00037093155 0.00030494065 0.00035415264 0.00014254078 -0.00016683975 -8.5828644e-05 0.0002565228 0.00033363662 -0.00047292977 0.0004770461 -3.6985e-05 -0.00047518557 0.00045961124 0.0004563999 0.00033927886 0.00022695852 0.00045980912 0.00033835173 -0.00013286847 0.00018015516 0.0004546704 0.0002080307 -0.0003154419 0.0003232955 0.00037779481 -0.0003769492 0.00025525928 -1.4778413e-05 -0.0003195544 -0.00032755834 -0.00028051325 -0.00021709285 0.00018359303 -0.00032533202 2.8045279e-06 0.00020281482 -0.00047683285 -0.00019064301 -0.00028036576 -0.00012849303 1.7560542e-05 -0.0002724608 -0.00026041488 -0.00021245747 8.7337554e-05 -0.00037610994 0.00043690013 -0.00022283902 -0.0003819721 7.886243e-05 0.00048031556 -0.00018145247 -0.00044843295 0.00022807709 5.193341e-06 -0.00044334104 0.00014806996 -0.00037311998 -0.0004130551 -1.9011239e-05 -0.000356829 2.1668404e-05 -0.000482413 0.00022600673 0.00048714102 -9.4381656e-05 0.00028885115 -2.5152956e-05 0.0003981507 -0.00011259891 -0.00014816264 0.00032704417 0.00028267133 0.0003535827 -0.00029521255 -0.00032607128 -0.00041518811 0.00024146755 -0.00037592172 -0.00016086259 -0.00023441156 0.0004395468 0.00016255447 -0.00017432534 -7.975183e-05 -0.0001154848 0.00035598327 -7.356056e-05 -0.00033952034 -0.00048371937 0.00012413753 -0.00036310992 0.00025498573 0.00039497117 1.3923096e-05 -5.640074e-05 0.0001815107 -3.875582e-05 -0.00017307709 4.879332e-05 -0.00015542009 2.2420176e-05 -0.00014220564 -0.0001202928 -0.0001012241 0.00046902613 0.000102141996 -0.00020847579 -0.00025960116 -2.6102478e-05 -4.9692073e-05 0.00011158968 0.00041975908 0.00010558619 -0.00019830717 8.25472e-11 -0.00017418814 1.6069707e-05 0.00024989055 -0.00014733344 5.9386355e-05 0.0002549687 -0.0004026088 -0.0004916857 -9.9130375e-05 -0.00031371258 -0.0004195772 -0.0003964059 -0.0001480296 0.00017741928 0.0002898003 0.00039860746 -0.00041266583 6.168724e-05 -0.00033467088 -0.00043986624 0.00016548393 -0.0001995292 -0.00036583107 -0.00042944978 0.00013912807 -0.0004553871 7.4129784e-05 -2.266208e-06 -0.00012310683 0.0003556743 0.00017982433 -0.00010461617 0.00017903036 -0.00010224836 -0.00035356652 -0.0003616601 0.00016109645 6.1261994e-06 -0.00018480583 0.00027329364 0.00017112285 0.00038265184 0.00033232608 -0.00033549409 -0.00035351087 8.1309045e-05 0.00020560666 -0.00049874216 0.00023292811 -0.00037064293 0.00013955348 0.00046268973 -0.00049211207 -0.00030823512 -0.0003989835 -0.00034687162 9.789351e-05 -0.00012643199 5.04641e-05 0.00010228845 0.00023842447 -0.00039774925 0.00016863755 0.00024219161 -1.3850734e-05 -0.00014172954 0.00018412454 -3.3832708e-05 0.00049251993 0.00019120376 -0.00012004333 -0.0003188528 -0.00043266118 -0.0003717434 0.00037133248 0.00036797923 -0.0004886696 0.0001769034 0.00028338787 0.00037738506 -0.00012433172 -0.0003827573 0.00017276264 -0.00032819808 0.00032743634 0.00024677743 5.7616857e-05 -8.762112e-05 0.0004954314 0.0002230072 0.00014793608 -0.00045363378 -0.00032838236 0.00020818655 -0.00012953165 -0.0001228954 -0.00013360543 -0.00028872435 0.00035997885 -0.00037135335 0.0003209853 -0.00013176784 -0.00011869151 4.4865625e-05 -0.000418738 0.00043428922 -0.00046013398 -0.0004354689 0.00018550862 -0.00020558175 -6.681949e-05 0.0001011834 -3.2520282e-05 -0.0003628036 -0.00027071906 0.000110077905 6.818015e-05 -2.1403046e-05 -0.00015843989 -0.00028212232 0.00035542244 -7.824941e-05 -0.000234058 -6.321736e-05 -4.8626234e-06 -0.00039958933 0.00035887733 -0.00047812145 -0.00041818837 0.00041759343 -0.00016512384 0.00012537299 -0.00011000445 1.3137598e-05 0.0002459931 0.00010784179 0.00020691293 -6.1697596e-05 0.0003226299 0.0002833729 -0.00046734087 0.00049717486 -0.0002402504 -0.00029192687 -0.00014571867 -0.00017803798 0.000119787546 0.00041780635 1.1920343e-05 -0.00017650302 -0.00019017226 0.00039551305 -0.000108302374 0.00045150885 0.00015150387 0.0001326506 -7.800867e-05 0.00042734033 -0.0004694035 6.523576e-05 -0.00010658197 -0.0004084656 0.00032995804 0.00039939486 -3.4357712e-05 -0.00027012327 0.00015951671 0.00025404184 -0.00034344592 0.00024253859 -0.00040403678 -0.0004668289 4.5323082e-05 0.00043091032 8.269919e-05 -4.7777223e-05 0.00014946739 0.00012709665 0.00026675648 -0.00022023226 0.00012605997 0.00049398246 3.911277e-05 -0.00012126331 -0.00020607864 -0.00033446358 0.00016461166 -0.00015352314 -0.0003891194 0.00029377505 0.00018664809 0.00048169523 0.00029272563 -0.00021141546 0.00033994875 0.00030829868 -0.0004130799 -0.00036112062 0.00019945779 -0.00038918958 0.000104882456 -0.00046053322 5.529144e-05 -0.00043639875 0.00037598124 -3.6200665e-05 0.00046719407 -0.0003852829 0.00012692722 7.300791e-06 -5.2718704e-05 -0.0002349397 -0.0004937097 0.00029249213 0.00021623731 -0.00040671768 0.0001374944 0.0001148043 -0.0003216178 -7.1159324e-05 0.0004191714 -0.0002506132 -0.00049946015 0.00021889854 -0.00019030321 0.0003457686 -0.00015921844 -0.00024549433 0.00017625562 -2.8241158e-05 0.00038854175 0.00026143005 -0.00031923392 -9.290853e-05 -0.0004097313 -0.00011463105 0.0003825579 -0.00017294248 -0.00022412173 -0.00014978083 0.00013714023 8.946187e-05 -0.000120424236 -0.00025412434 0.000112430265 -0.00016188168 0.000114530674 0.0004111873 0.00022589082 0.00043212474 -0.00034410783 6.2933825e-05 -6.2869054e-05 8.072018e-05
