73 1025
一中 -0.052711986 0.0814579 0.07000853 0.023326335 0.0822991 -0.044731386 -0.053178754 -0.021805335 -0.14901768 0.023526173 0.036468342 0.00868264 0.08276168 0.0012726437 0.0645544 0.06607717 -0.009953533 -0.00069874624 0.020351764 -0.06470223 0.13791099 -0.055088937 0.05724459 0.17378584 -0.11866406 -0.0023602063 -0.09433615 -0.02712205 -0.032414887 -0.010997769 -0.07164886 0.0046103806 -0.10894305 0.071618535 0.041960057 -0.017710429 -0.04426276 -0.13103648 0.1436103 0.08298694 0.049437445 -0.014373573 0.07692366 0.0007926842 0.029907295 -0.022267649 -0.010561967 0.06235671 -0.019001607 -0.008271475 -0.018623335 -0.035890844 0.028387135 -0.06793505 -0.03171925 0.026469598 0.019373627 -0.09547751 0.010555775 -0.02949047 0.045767233 0.011046961 -0.11919316 0.03372316 0.1116368 -0.052523237 0.08065589 0.0103562325 0.022698909 -0.057955466 -0.041675452 0.04526165 0.02277412 -0.037891828 0.0035572227 0.037317276 -0.120959476 -0.078553475 0.042884067 0.010075975 0.058058843 -0.0018270093 -0.024390968 -0.072929285 0.040667046 -0.013127339 -0.029228289 0.02585577 0.04826174 -0.04781515 0.025324306 -0.008005273 0.071982704 0.010636536 0.10043564 -0.022605853 -0.027282853 -0.08313856 -0.01528023 0.1987235 0.077029206 0.0014004328 0.046546955 0.058829688 0.044379737 -0.0040596337 0.076586686 -0.07342411 0.14776881 -0.11659121 -0.059593108 0.014519326 -0.04696658 0.0860336 0.022793518 0.025898417 -0.074923284 0.00284157 -0.03614964 -0.019306308 -0.010369493 -0.0055016624 -0.046578918 0.048500277 0.123314776 -0.037040498 -0.1161748 -0.01790228 -0.11977849 -0.12701823 -0.014902478 0.014664792 0.07226223 -0.03068089 0.041801404 -0.034528654 0.019867197 0.045028217 0.08565334 0.008507312 0.061620027 -0.021444356 -0.07245974 -0.050053127 -0.051528975 0.015307133 -0.20511378 -0.03888063 -0.11150305 0.029961638 0.027144277 -0.03658506 0.016323658 -0.010208225 0.09564681 -0.038629152 0.057744745 -0.03893188 0.017085265 0.03835015 0.025202956 0.0049951705 0.054027364 -0.034003224 0.047534984 0.07335817 0.003604791 0.100152805 -0.010671055 -0.041091416 -0.12303788 0.08405734 -0.034633674 -0.038526434 -0.03212013 0.0006232571 -0.041620787 0.019903634 -0.056684587 -0.10058251 0.05590634 0.04641111 0.0029732664 -0.007136334 0.08253375 -0.07697415 -0.07906006 0.034402177 0.024581108 -0.04722016 -0.032167897 0.001531894 0.0144937 -0.004597523 0.023522757 0.10189623 -0.01534049 0.013709545 0.035985127 0.040155016 0.09106457 -0.026393363 0.004114897 0.03225957 -0.07906255 -0.00056716206 0.0005447506 -0.10554504 0.06615398 0.082909 0.057828754 0.008893177 -0.05654591 0.008460756 0.02693194 0.0048467517 -0.02896134 0.045065295 0.0068442854 -0.15021625 0.009434848 -0.055701025 0.11047514 0.004983289 0.02000693 0.06850494 0.066353634 -0.0778766 0.025213208 -0.07084237 0.05462445 -0.15776278 0.14887194 -0.039645206 0.063092396 0.13384254 -0.051297314 0.028959107 0.03172763 -0.02961555 -0.087585695 0.053545285 -0.03421321 -0.082794964 0.061311707 0.1174731 -0.07917118 -0.009624326 0.05045019 0.04586434 -0.01392731 0.0378744 -0.12720953 -0.07765913 0.036699176 0.10050176 0.04125495 -0.035916455 -0.00046350955 0.033215877 0.033039063 -0.049564548 -0.028152788 0.010461012 -0.12865324 0.009865427 -0.012596927 0.0048238067 -0.011805157 0.08676393 0.09886079 0.09481549 -0.07879455 0.030561773 -0.04250506 -0.14273217 0.029649101 -0.04945151 -0.00011112815 -0.03805622 0.040036257 0.086925566 0.00924668 0.09357713 0.009987785 -0.004628727 0.044676542 -0.09230427 -0.020951595 0.010847902 0.038228597 0.07563219 0.066332534 -0.029986393 0.0019043026 -0.07010395 0.03295359 -0.057629414 0.02543876 -0.024533074 -0.046255216 -0.130168 -0.022698173 0.1372566 0.036279477 -0.001684566 0.043071397 0.088131055 0.120622054 0.15866145 0.07789473 -0.06423827 -0.09696787 0.08870113 0.010533821 -0.09181332 -0.18650912 0.0558852 0.10860838 0.06130602 -0.0025904044 0.018036418 0.17308122 -0.022544008 0.01585753 -0.09737246 -0.025932059 0.043930277 -0.06731918 -0.08089971 0.01765291 -0.036639135 -0.09658313 -0.003728054 0.010994454 0.05752021 0.09122191 0.017786007 -0.014667912 0.00531623 0.005246341 0.0670831 -0.02053809 0.071305074 -0.03417312 0.04989969 0.023714999 0.029272774 0.00038530093 0.11636823 -0.015348039 0.0035996602 -0.012309487 -0.0423973 0.0778851 -0.04044577 0.03825559 0.050195716 0.0010514968 0.0042574327 0.0002071504 0.050153054 0.034771323 -0.037923254 0.0047658435 0.061077524 0.05829257 -0.09643408 -0.116054095 0.046646487 -0.15182775 0.06756034 -0.0067523466 -0.063007295 0.005593722 0.0063886703 -0.07266426 -0.014910923 -0.054003876 -0.08960483 0.028722402 0.011779784 -0.04454545 -0.06439116 0.10522686 0.074008845 0.009728849 -0.094342455 -0.11041139 0.009010185 -0.015956677 0.0054968405 0.031479944 0.046724956 -0.049904834 -0.09166629 -0.037172575 0.08620584 -0.005622728 0.071529284 -0.064835906 -0.06974656 -0.061191615 0.078013994 0.10862506 -0.024635063 0.067455746 0.052875772 -0.00078884786 0.056617074 0.0065100817 -0.04429371 -0.028865485 -0.02983101 -0.091940515 -0.08640207 0.030851984 0.1172945 0.082544476 0.028455924 -0.0060431426 0.009011684 0.035019822 0.010715882 -0.023872344 -0.038562603 0.024885634 -0.045533158 -0.04048175 -0.015774008 -0.00093188323 0.13318545 -0.008368028 0.033985753 0.024035444 -0.08988471 0.034371298 -0.08765999 0.15197003 -0.0781652 0.04054856 0.0022008198 0.036052536 0.023295203 0.03728112 0.08545385 -0.07579819 0.07453212 -0.070934765 0.026656136 0.015760783 -0.10110075 0.04668779 0.07829379 -0.0033360142 -0.014601124 -0.0033342638 -0.06280265 0.06953285 0.022072269 -0.029258758 -0.05645599 -0.007854204 0.037093565 -0.015219423 0.006965319 0.082836404 -0.0071232575 -0.027047778 0.12288987 0.15004596 -0.023583516 0.012105962 0.06422314 -0.06524203 -0.12426435 -0.019531557 -0.05575963 0.040561736 -0.07267107 -0.11655131 0.000212501 -0.014394094 -0.12064294 -0.022841344 0.03760996 0.03976654 -0.0709177 -0.053198367 0.017010188 0.045551527 -0.00463401 -0.02337663 0.040764697 -0.041860055 -0.06457834 0.065279745 0.0015905366 -0.060387325 -0.07046717 0.08145603 0.06600272 0.034187753 -0.008746747 0.0076494254 -0.026439747 0.0073058396 -0.04378237 -0.04894726 -0.03999772 -0.049076077 -0.076807156 -0.0065478208 0.10204935 0.108620234 0.1164332 0.04994536 -0.046911262 0.06361607 -0.0026235098 0.0044690706 -0.12678513 0.06827621 -0.030245818 0.10368714 0.017407939 0.032184098 -0.07752936 -0.03958321 -0.04468639 -0.08062489 0.006095729 -0.03495865 -0.0036233575 0.07169137 0.03118615 0.07228212 -0.0035720149 -0.043760955 0.018573517 0.03979061 0.006984946 0.011709237 -0.0406056 -0.019681986 0.104954325 -0.045468736 0.022645352 -0.072196536 0.039649546 0.0065409746 0.006711353 0.1250726 -0.03228112 0.026574973 0.08411259 -0.07455706 -0.074050166 0.07226045 0.0142875435 0.0039865877 -0.06292396 0.005025485 -0.13787211 0.023029687 -0.04432844 -0.075343534 0.08029141 0.02577502 0.025948383 -0.11656388 0.0059310882 -0.010513859 -0.05203921 0.045753043 -0.0014013769 -0.04278587 -0.031145595 0.0028719287 0.08295222 0.07483078 0.11163334 -0.029141722 0.027110366 0.041845642 -0.04532369 0.13480955 -0.014749466 0.03158559 -0.03571214 -0.07453576 -0.10892655 0.022607373 -0.025837684 -0.058133412 0.019380664 0.066339575 -0.024544425 0.032475013 -0.075459495 -0.006700977 -0.011847132 -0.06466611 -0.062749475 0.08527579 -0.039939567 -0.11588077 0.050160617 0.00571504 -0.04380488 0.052690838 0.021373894 0.044381164 -0.044582095 0.013009595 0.054098863 -0.07676833 -0.07390083 -0.04295907 0.018295117 -0.06336388 0.07669182 -0.035081845 0.1197587 -0.0403247 0.098915525 0.035670124 0.09193 -0.0052062944 0.021862438 0.064191036 0.011988995 0.045300577 -0.017492585 -0.08829475 0.044022843 -0.06869354 0.0057199746 -0.11259894 -0.10507796 0.031417355 -0.048688214 -0.10357452 -0.016737979 0.031098079 0.0031144002 -0.07632077 0.09725407 -0.0467201 0.050680578 0.057286996 -0.024665281 0.004681735 -0.0038593719 0.015585544 0.025874846 0.057066895 0.1408456 0.10100747 -0.016317463 -0.0043479274 -0.011768745 0.057438947 -0.090110734 -0.056968804 0.053695697 0.0037828526 0.04349136 -0.023197368 0.12028269 -0.027666355 -0.074616015 0.088282146 0.047833353 -0.01119149 0.006443236 0.10230358 -0.0070493594 0.06860329 0.037621517 0.04910647 -0.08627539 -0.0731431 -0.036022533 -0.007839447 0.109226175 -0.07520612 0.1502933 -0.011951831 -0.016781827 0.050401043 0.07706951 0.0056485687 0.06797114 -0.032886084 0.048401706 -0.07060626 0.02950017 0.07182987 -0.06444968 -0.08785608 -0.046563808 0.008713178 -0.016161941 0.04583886 0.069253966 0.03766652 -0.060381096 -0.022375423 -0.015775507 -0.084482 0.038709834 0.02251785 0.05270084 -0.0427304 0.0031700379 -0.04269468 0.071565464 0.038124043 -0.07305513 0.013414809 -0.13948518 -0.06096697 -0.05249095 -0.08016234 0.091974586 -0.026452873 0.024875544 0.08621678 -0.1439391 0.012533015 0.026003763 -0.03773508 0.0007120597 0.0027955659 0.052787535 0.1316639 0.05288204 -0.022987498 0.01182819 0.082424305 0.025382224 0.031108722 0.09076993 0.0738753 -0.06687003 -0.010188044 -0.04810354 -0.15007612 0.07725705 -0.117791906 -0.041359544 0.050032828 0.012491078 -0.018202923 0.036269438 0.009762678 0.010216221 -0.017599514 -0.021744614 -0.02054219 0.08658342 0.0692057 -0.033928707 -0.048830412 0.101702735 -0.08467523 0.05223516 0.13623787 0.09356508 -0.036334455 0.0609962 -0.0031607884 -0.023461942 0.16501765 0.04067222 0.029468274 -0.019225229 -0.032384347 0.005915108 0.055668138 -0.005527858 -0.035737902 0.088654466 0.10854571 -0.0031901386 -0.03937291 -0.14646484 -0.016515704 -0.08461265 -0.009948996 0.09822764 -0.024509273 0.1391831 -0.042211525 -0.033014715 -0.020918526 -0.025610842 0.10479248 0.05036592 -0.030313715 -0.06219786 0.060574003 -0.040844332 0.025892721 -0.084093615 0.1601466 0.011718976 -0.026062459 -0.026566219 0.059732493 -0.02659975 0.01193875 -0.045659617 -0.053275995 -0.014338004 -0.09204073 0.031575203 0.026083594 -0.06677022 -0.09473856 -0.021356521 -0.011237273 -0.062210053 0.0050393417 -0.051387746 -0.08636806 0.06440169 0.082257934 -0.1114398 0.041776888 0.05911885 -0.04939221 0.033822745 0.074577354 -0.06116158 -0.047606982 0.030281192 0.05421928 0.093601085 -0.057370495 0.025590988 0.033583574 -0.03734502 0.13688776 0.06385628 -0.04206748 0.013434655 0.07568538 -0.017853545 0.015040173 0.007548399 0.00487546 0.0015556919 -0.0014221163 -0.16600908 -0.08436693 0.05452777 -0.038978115 0.05774866 0.0008865785 0.11884105 0.071530536 0.1454054 0.10930756 0.054147836 -0.048229117 0.091687135 0.016035639 -0.055162434 -0.02703301 -0.1465025 0.031700324 0.062335048 -0.12005701 -0.016639408 0.036154218 -0.009629859 -0.0211561 -0.121679805 0.008942896 -0.02775416 0.07843196 0.045477223 -0.05061426 -0.05097856 0.09332908 0.03621698 0.0058406657 -0.11279946 -0.10270666 -0.024314879 0.027936233 -0.022497328 0.009469315 0.096514516 0.03958883 -0.10277505 0.13540022 0.011504324 -0.033006925 0.026376273 -0.08336681 -0.07939956 -0.008911841 0.013887801 0.013912148 -0.008652846 0.0065197176 0.015678592 -0.13731965 -0.008979821 -0.027220078 -0.057577256 0.049606115 0.047481965 0.01768832 -0.012920125 0.1473097 0.020673463 -0.08744265 0.10093233 0.05829902 -0.033364277 0.022806881 0.005420624 0.047902398 -0.057975624 0.019180188 -0.056083556 -0.00094110006 0.063787766 0.01985534 -0.031332664 -0.04720544 0.017815707 -0.097715504 -0.0024462661 0.018871337 0.019453533 -0.058074564 -0.05580312 0.043936692 -0.12302292 0.07938295 -0.058760982 -0.033665273 -0.07717356 -0.063286185 0.03438019 0.010174895 -0.055382285 0.07731631 0.060118463 0.019407017 0.05795515 0.034909934 -0.05668273 0.07148464 -0.028492741 -0.013556308 -0.0125021925 -0.05954998 0.00089504087 0.018883703 -0.09335232 -0.014356863 0.0077885464 -0.073416024 0.07974083 -0.02494495 -0.06137984 0.053517632 0.14429401 -0.08055594 0.03956163 0.020876635 -0.009175345 0.09530557 -0.012774607 0.038193315 -0.07407991 -0.030025981 -0.002277928 -0.058765344 0.07591131 -0.13601252 -0.08727626 0.074377015 0.02070001 0.03088086 0.12724036 0.013071892 -0.031148076 -0.05871434 0.0022476804 -0.10386009 0.06774244 0.049204905 -0.08575273 0.011068626 -0.014377675 -0.021817332 -0.027385512 0.124691434 0.016888043 -0.03742075 0.024093028 -0.00575346 -0.0065573496 0.0022820001 -0.10535014 0.059619244 0.056450617 -0.06721254 0.046686865 0.014282244 0.11584061 -0.00866177 -0.002828314 -0.008064282 -0.067837164 1.5054904e-06 0.009183395 -0.10583656
一套 -0.056154817 0.08708378 0.0750772 0.024079869 0.0885561 -0.047774155 -0.05677733 -0.023372926 -0.15897352 0.025228564 0.03921003 0.009447588 0.08849273 0.0012107623 0.069000006 0.07015415 -0.010584989 -0.0011126027 0.021641072 -0.06971317 0.14752348 -0.058726095 0.061194837 0.18533772 -0.12599884 -0.0027432796 -0.10075674 -0.028166771 -0.03405333 -0.011602072 -0.07667606 0.0049053524 -0.11570101 0.07596794 0.04444527 -0.018951312 -0.047689334 -0.13977198 0.15294658 0.08756721 0.05258847 -0.015940225 0.08228955 0.0006889421 0.03228047 -0.024540858 -0.011505118 0.0663077 -0.020783953 -0.009394577 -0.019676756 -0.038723428 0.02984159 -0.0729318 -0.033574723 0.028215082 0.02125376 -0.10184601 0.010466486 -0.03160541 0.048480377 0.011897666 -0.12734227 0.035567366 0.11895591 -0.056451626 0.08650598 0.011341117 0.024652572 -0.061709482 -0.044346996 0.04898685 0.024283392 -0.041038994 0.004355845 0.039323132 -0.12891544 -0.08344102 0.046290323 0.010519466 0.062193416 -0.0019983614 -0.025743516 -0.07853938 0.043876536 -0.0139194615 -0.031568788 0.028158749 0.050804593 -0.05108028 0.02679618 -0.008524338 0.076933526 0.01104056 0.1078812 -0.02429956 -0.028224977 -0.08897641 -0.015800402 0.2125733 0.08186207 0.0011079027 0.04945028 0.062480677 0.04698987 -0.0042765182 0.082291745 -0.077993736 0.15795127 -0.12467204 -0.06398376 0.015520732 -0.049566574 0.09142778 0.025249038 0.028452745 -0.080328204 0.003498715 -0.038569037 -0.019770723 -0.01045508 -0.004861819 -0.049835887 0.0515223 0.13145177 -0.039488938 -0.12407701 -0.019388339 -0.12732828 -0.13651396 -0.015257828 0.015226717 0.077094994 -0.031868424 0.044527866 -0.03657123 0.021042967 0.048086237 0.09168842 0.00901005 0.06649913 -0.02343274 -0.07789118 -0.053849112 -0.05492897 0.016603429 -0.21991731 -0.041432954 -0.11899474 0.03216041 0.02823763 -0.038751133 0.017862102 -0.011184709 0.10159827 -0.04115486 0.06213434 -0.041244805 0.018225865 0.04033595 0.026890868 0.0046416367 0.05711302 -0.03677261 0.05158586 0.07794985 0.00367296 0.10696493 -0.011929503 -0.04448946 -0.13085887 0.0896694 -0.03744494 -0.040673237 -0.034589797 0.0005053588 -0.043835595 0.021782285 -0.0599338 -0.10704117 0.059978034 0.049745146 0.0028469353 -0.007524297 0.088638686 -0.08242564 -0.08454663 0.036706585 0.025793321 -0.050196763 -0.034773014 0.0020983135 0.015446751 -0.0044820188 0.02485169 0.10941298 -0.016010877 0.014365118 0.038633216 0.043402433 0.09691833 -0.028924126 0.00462841 0.034622986 -0.08492426 -2.6279937e-05 0.0009556838 -0.11272646 0.071659096 0.08810683 0.06240986 0.009446571 -0.060531788 0.009344347 0.029085878 0.00449879 -0.031466693 0.047721416 0.007041794 -0.16135024 0.009504175 -0.059674717 0.11798991 0.0049910885 0.021995945 0.073126905 0.07066647 -0.083580926 0.026449507 -0.075954415 0.058075406 -0.16859843 0.15814745 -0.042575847 0.06766114 0.14243002 -0.054387294 0.03143694 0.03423244 -0.030850686 -0.09334103 0.057082314 -0.03704393 -0.08844967 0.065055534 0.12550685 -0.08496735 -0.009912093 0.054062165 0.04905981 -0.014977604 0.04051346 -0.13616487 -0.083484806 0.039206155 0.107262574 0.043889068 -0.037459146 -0.0009374177 0.035852857 0.035046164 -0.052895173 -0.030480908 0.011626204 -0.13791507 0.0105546545 -0.014468568 0.0050765 -0.013339224 0.0927469 0.10468805 0.10051253 -0.08360228 0.03269663 -0.044673286 -0.15214728 0.031538837 -0.052898288 -0.00020743272 -0.041161865 0.043085475 0.09221989 0.009240809 0.09995043 0.011123016 -0.0057789776 0.046927627 -0.09812169 -0.023209851 0.01155139 0.041405912 0.080025546 0.07063223 -0.032642152 0.0021679224 -0.07474201 0.034952212 -0.060802083 0.026741566 -0.026875392 -0.050105803 -0.13877408 -0.024277834 0.14723885 0.03885597 -0.002546935 0.046596743 0.094211884 0.1287555 0.17015032 0.08307032 -0.06876476 -0.10405817 0.09473486 0.011429158 -0.09805455 -0.19881456 0.06014396 0.11610478 0.0650471 -0.0023640338 0.019194229 0.18510178 -0.024408935 0.016469663 -0.10334983 -0.026895147 0.04702595 -0.07207504 -0.08725498 0.018897293 -0.040046584 -0.10391734 -0.0036005797 0.011960286 0.061321042 0.09697897 0.018717306 -0.015879378 0.0060542435 0.005801002 0.071280695 -0.021926997 0.075856805 -0.03637151 0.053065848 0.025364144 0.0317488 0.0006686656 0.12375251 -0.016172018 0.0038828368 -0.012865315 -0.045102496 0.08296312 -0.04326337 0.04161037 0.05354144 0.0009111504 0.0038556557 0.00047011347 0.053677805 0.03682633 -0.040052533 0.0051899413 0.065534525 0.06188467 -0.10254878 -0.1236908 0.04964416 -0.16187266 0.07249974 -0.007336859 -0.06808953 0.0058499617 0.006605434 -0.0769469 -0.015815629 -0.057226498 -0.09586284 0.030313745 0.012786201 -0.04802675 -0.068669185 0.112250686 0.0790936 0.010571819 -0.10091392 -0.11817513 0.009678409 -0.017920941 0.0067194975 0.033229213 0.049156383 -0.053889 -0.098382846 -0.039467707 0.09143581 -0.006483298 0.07655356 -0.06940352 -0.074138165 -0.064536914 0.08321386 0.11603746 -0.026045121 0.07237723 0.056518182 -0.00147389 0.060481273 0.007595695 -0.048129212 -0.030965373 -0.0320793 -0.09750323 -0.09248129 0.032524638 0.12549487 0.08801179 0.03141979 -0.0071713584 0.009745889 0.037783563 0.011180979 -0.025534336 -0.041563246 0.02568164 -0.049372654 -0.043456327 -0.01606519 -0.0014168901 0.14273688 -0.009942069 0.036060203 0.025134731 -0.095705256 0.03674682 -0.093784474 0.1616134 -0.08354982 0.04349171 0.003127951 0.03835968 0.024997896 0.039808325 0.09124822 -0.08094763 0.079971164 -0.07587953 0.028914474 0.016909616 -0.10798923 0.049438 0.08291442 -0.003941562 -0.014972156 -0.003913911 -0.06758704 0.074449524 0.024064308 -0.030915443 -0.059824165 -0.0080590565 0.03880147 -0.015848959 0.0070752585 0.088232175 -0.008193454 -0.028920656 0.13159448 0.16045311 -0.025203621 0.012916291 0.068688065 -0.070213504 -0.13241203 -0.021415057 -0.05944334 0.04296502 -0.07733386 -0.12466896 -0.0004912495 -0.015058027 -0.12845498 -0.023839528 0.039888125 0.042002656 -0.07593076 -0.057260387 0.017659968 0.049464453 -0.0045988476 -0.02519965 0.044187758 -0.044412535 -0.06832682 0.06954201 0.0017323004 -0.06417846 -0.07521351 0.08689211 0.0699186 0.03648557 -0.009564365 0.008524089 -0.02860076 0.0074781235 -0.04666183 -0.05169746 -0.042864166 -0.052263014 -0.08260945 -0.0071950117 0.108637765 0.115725085 0.124584205 0.053202856 -0.050156746 0.06742365 -0.0031366493 0.0049866973 -0.13516334 0.07293838 -0.031662457 0.11069211 0.018503131 0.034107707 -0.08282953 -0.04237161 -0.048065856 -0.08595041 0.0065941243 -0.038265403 -0.00361474 0.07614772 0.033790372 0.076240085 -0.0037292044 -0.046954095 0.019228773 0.042098094 0.008203907 0.01252368 -0.042687904 -0.020974735 0.11226479 -0.048683073 0.023702897 -0.07700587 0.04226697 0.0072037615 0.007506249 0.13338274 -0.034284152 0.028426362 0.090057276 -0.08015656 -0.07892995 0.07747167 0.016150594 0.0047700526 -0.06730385 0.005646764 -0.14760055 0.024325486 -0.04744857 -0.08125241 0.08558119 0.02783822 0.028604712 -0.1244925 0.006256177 -0.010380447 -0.05450874 0.04909654 -0.0013975794 -0.04562914 -0.03282433 0.0037972154 0.088715374 0.079603665 0.118723504 -0.031247891 0.028513813 0.044428363 -0.048014827 0.14401606 -0.01561552 0.033148527 -0.03809903 -0.079816505 -0.11605951 0.024229165 -0.027782926 -0.061468504 0.020201314 0.071020566 -0.025648763 0.035400525 -0.08056599 -0.0072675874 -0.012392587 -0.06910128 -0.06720223 0.09186286 -0.04235876 -0.1245122 0.053391874 0.0056138346 -0.04685694 0.05601978 0.022839602 0.04723018 -0.047834385 0.01326296 0.058194384 -0.08118169 -0.07934715 -0.046274256 0.019668743 -0.06714263 0.08180779 -0.037450593 0.12864618 -0.04322099 0.10615947 0.037642475 0.09847792 -0.0057842582 0.02301662 0.06846985 0.012521934 0.048723932 -0.018524636 -0.09399308 0.046781175 -0.072632946 0.0067276442 -0.12065768 -0.11178253 0.033784132 -0.052605554 -0.11064718 -0.017769895 0.03305831 0.0033350487 -0.08218084 0.103402704 -0.050377417 0.054765098 0.06117623 -0.02607117 0.0048604105 -0.0048862654 0.01580808 0.028167687 0.06040614 0.15008822 0.10793533 -0.018342245 -0.004229228 -0.012464636 0.0614768 -0.09591664 -0.061526015 0.057226166 0.0042001503 0.045924373 -0.024437783 0.12784955 -0.029669901 -0.079265036 0.094996214 0.051159006 -0.012319431 0.006904116 0.10888525 -0.0071725994 0.07299971 0.039685465 0.05204286 -0.09197605 -0.07816455 -0.038205937 -0.0076369736 0.115985684 -0.08015898 0.16094227 -0.012959219 -0.017984742 0.053259917 0.082674995 0.0058310986 0.072298594 -0.03487943 0.052084062 -0.07565486 0.031868417 0.07744544 -0.06882089 -0.09353678 -0.05000502 0.009405681 -0.016643187 0.04890243 0.07339606 0.04010806 -0.06413185 -0.023531662 -0.01619657 -0.08982078 0.041142214 0.024242846 0.05584038 -0.045601573 0.0036157372 -0.044821415 0.07561782 0.041197453 -0.078158684 0.0139975585 -0.14855184 -0.06465962 -0.056017734 -0.08590397 0.09748921 -0.02920528 0.027305624 0.09212206 -0.15354185 0.013911791 0.028086944 -0.04010833 0.00057434815 0.0023100122 0.056807354 0.141082 0.05631116 -0.025286635 0.012421741 0.088300474 0.026843395 0.033297163 0.09718659 0.07916717 -0.07196516 -0.010790182 -0.051386338 -0.1603588 0.082522824 -0.12544861 -0.04456942 0.05307998 0.013311805 -0.020157678 0.038571373 0.01037543 0.010342171 -0.017888801 -0.023090128 -0.02183069 0.092381 0.07389504 -0.035870794 -0.051964015 0.10801123 -0.09091141 0.055916235 0.14467396 0.09950284 -0.03863058 0.06516954 -0.0037572305 -0.025177503 0.1760314 0.042787734 0.031923886 -0.021219432 -0.03458712 0.006227405 0.059342623 -0.0063114604 -0.038362153 0.094921984 0.11598678 -0.0029723404 -0.042601123 -0.15638286 -0.017618436 -0.09015532 -0.011082397 0.10467069 -0.025894629 0.14832146 -0.045511063 -0.035954077 -0.02248929 -0.027425468 0.11129915 0.053402968 -0.032155395 -0.06648461 0.06467942 -0.043388214 0.027385293 -0.0896411 0.17112298 0.013278741 -0.02744929 -0.027669113 0.06296997 -0.028096585 0.013317743 -0.049455818 -0.057302617 -0.015599077 -0.09866496 0.03388847 0.028270133 -0.071259655 -0.10098548 -0.022413723 -0.0119496435 -0.06639511 0.0051482543 -0.054761633 -0.09242089 0.06900886 0.08841339 -0.11887785 0.04519428 0.06301282 -0.052916963 0.036610283 0.079513 -0.065278925 -0.051316507 0.032687563 0.05787059 0.09930749 -0.06132747 0.026955247 0.035358634 -0.039859384 0.14695823 0.06746581 -0.044217184 0.01438028 0.08117672 -0.018674174 0.016923409 0.008515226 0.004957612 0.0019989603 -0.0017887639 -0.17785501 -0.090542175 0.05820136 -0.041924153 0.062355153 0.0007252581 0.12746367 0.075754195 0.15576456 0.11662509 0.057922874 -0.051319018 0.09715338 0.017790705 -0.05855487 -0.028624985 -0.15733908 0.033359796 0.06650839 -0.1282346 -0.017955001 0.03874651 -0.0104677975 -0.023609567 -0.12993738 0.008758861 -0.029181078 0.084183104 0.048495542 -0.053671703 -0.053964645 0.0991874 0.038271822 0.005552567 -0.12076417 -0.11001345 -0.026294818 0.029774383 -0.023967134 0.010494845 0.10256691 0.042290617 -0.109216854 0.14452785 0.012817739 -0.035039358 0.02841336 -0.088802546 -0.08486523 -0.009114656 0.014798647 0.014499594 -0.00931393 0.006721364 0.016842533 -0.14661996 -0.009292053 -0.029130435 -0.061802093 0.052755143 0.050127603 0.018962668 -0.013143973 0.15707682 0.021566767 -0.0931123 0.10733924 0.06234462 -0.036402382 0.024411187 0.0063416464 0.051039528 -0.061966967 0.020294936 -0.05994243 -0.0006615777 0.0682215 0.020726256 -0.033978537 -0.05010577 0.018910259 -0.104191005 -0.0021740259 0.02039039 0.020608911 -0.06287658 -0.05913093 0.047266558 -0.13105597 0.084219225 -0.062135547 -0.036735572 -0.08278478 -0.067241035 0.037295505 0.010980263 -0.05972015 0.082563475 0.06442716 0.020169301 0.061386548 0.03638201 -0.060475983 0.0767877 -0.030469632 -0.013975635 -0.012957773 -0.06304464 0.00038246874 0.020329146 -0.09970106 -0.015798897 0.007864779 -0.07802668 0.08575708 -0.02671938 -0.06565847 0.057906765 0.1545793 -0.08572636 0.042425793 0.022236744 -0.010440552 0.10197914 -0.014128273 0.040060453 -0.07912048 -0.032199673 -0.0022264044 -0.062309433 0.08031302 -0.14583099 -0.09295697 0.07934163 0.022050532 0.03235996 0.1360629 0.014396794 -0.03286936 -0.062826484 0.0030843515 -0.11113887 0.07225411 0.052719362 -0.09099385 0.012178972 -0.015514948 -0.02279304 -0.029000483 0.13300149 0.017387694 -0.03919447 0.02583358 -0.0052799457 -0.007169537 0.002451707 -0.11274796 0.06340217 0.06070131 -0.07168032 0.050023306 0.015005704 0.124106236 -0.009452678 -0.0031132563 -0.008665608 -0.072470434 -0.00043165064 0.009443343 -0.1133493
shengzhi -0.05446834 0.08458136 0.072906524 0.023541497 0.0856797 -0.046128403 -0.05455298 -0.022497311 -0.15496483 0.023942668 0.03882088 0.008664745 0.08620614 0.0008618392 0.06700738 0.06840018 -0.010333 -0.0009071247 0.020329485 -0.06766286 0.14302272 -0.056604 0.05933892 0.18070447 -0.1220674 -0.0020891612 -0.09768721 -0.027541963 -0.033109773 -0.010856435 -0.07446659 0.004204185 -0.11291806 0.07413316 0.04367701 -0.018413618 -0.0461632 -0.1351842 0.14862724 0.08524689 0.051818337 -0.015100152 0.07989821 0.0013952252 0.03162052 -0.023902273 -0.011229966 0.06462459 -0.019784778 -0.008517899 -0.019757947 -0.03748295 0.029260473 -0.07042651 -0.03238325 0.028331056 0.020396134 -0.09915345 0.010951042 -0.030785311 0.046758737 0.01131274 -0.12333418 0.035192043 0.11533542 -0.054750904 0.08415516 0.01111787 0.023975968 -0.060003918 -0.042515952 0.047492865 0.023536975 -0.039430127 0.004152725 0.03840946 -0.12528709 -0.08135209 0.044554144 0.010597942 0.06005994 -0.002475927 -0.024796156 -0.07629676 0.04175378 -0.014014559 -0.03003443 0.027379125 0.05003258 -0.04957559 0.026408587 -0.008243062 0.07468689 0.011042222 0.10435825 -0.02387132 -0.027955273 -0.0865622 -0.015373736 0.20615992 0.08011975 0.0014658443 0.04797482 0.060236413 0.04510469 -0.0039806254 0.07992198 -0.07625736 0.15258648 -0.12172692 -0.062158965 0.0152727645 -0.048186637 0.08880146 0.024314882 0.026777692 -0.07730972 0.0026957942 -0.036680207 -0.019476296 -0.010714687 -0.0055168103 -0.048075795 0.04944494 0.1277159 -0.038253617 -0.12036589 -0.018362526 -0.123448946 -0.13264357 -0.014970268 0.015079101 0.07498267 -0.031120988 0.043330118 -0.03587083 0.021463979 0.0473704 0.088915616 0.009040107 0.06484672 -0.022365957 -0.07478173 -0.051886283 -0.053897094 0.016072443 -0.2134546 -0.04029171 -0.11584377 0.031688474 0.028232904 -0.03834408 0.017244691 -0.01131439 0.098916925 -0.040253513 0.059872996 -0.039736688 0.017952934 0.03979116 0.025415342 0.0047643743 0.05560353 -0.035875194 0.05008351 0.076173306 0.003787932 0.10344585 -0.011385682 -0.042354498 -0.12790611 0.08695079 -0.03595151 -0.039739724 -0.033493977 -8.851499e-05 -0.04282296 0.02103774 -0.057819206 -0.1043063 0.05807068 0.048318826 0.0024720847 -0.006935639 0.08649915 -0.07979635 -0.08174344 0.036142886 0.025176497 -0.04899519 -0.033573795 0.0021373944 0.015304195 -0.0041449084 0.02402269 0.1061227 -0.015716339 0.014629772 0.0367803 0.04159167 0.09417226 -0.027620792 0.0050598257 0.033461314 -0.082288936 -0.00070311833 0.0010286428 -0.110093355 0.06902138 0.08511576 0.06073016 0.008983255 -0.05832012 0.009278557 0.027519146 0.0045182076 -0.029548107 0.046697713 0.006628259 -0.15644632 0.009800371 -0.057856973 0.11449644 0.005311024 0.020922713 0.07149472 0.06894607 -0.08088071 0.026021374 -0.073292844 0.056870215 -0.16388431 0.15387984 -0.040827587 0.06543152 0.13857067 -0.053223275 0.030010613 0.032673586 -0.030083766 -0.091000445 0.055881657 -0.035994884 -0.085360885 0.06304595 0.12133537 -0.08229144 -0.009651793 0.051749606 0.047851622 -0.01437322 0.039455935 -0.1314422 -0.08027411 0.038237102 0.10417042 0.04266362 -0.036334313 -0.000517744 0.034682576 0.03351175 -0.050826073 -0.029545756 0.011847631 -0.13355875 0.010766046 -0.013193243 0.004720874 -0.012897429 0.08977528 0.10201941 0.09759793 -0.08174008 0.031622782 -0.043302476 -0.14765702 0.030240193 -0.051113676 0.0006965521 -0.03928741 0.042145893 0.09004461 0.008993012 0.09693709 0.010343561 -0.0049735773 0.04595258 -0.09560695 -0.022389049 0.011942765 0.03992766 0.0782993 0.06839982 -0.031896133 0.0017208041 -0.07245703 0.03396339 -0.059482504 0.025598317 -0.025547808 -0.048178602 -0.13502577 -0.024017237 0.14279705 0.038120724 -0.0022550353 0.044790104 0.09114139 0.12443102 0.16474108 0.080543846 -0.06601611 -0.10088311 0.09220278 0.010774319 -0.09495977 -0.19302562 0.058678422 0.111855395 0.06374188 -0.00182846 0.018313201 0.17918538 -0.024261605 0.016265532 -0.1008072 -0.026237702 0.04636431 -0.069726035 -0.08408029 0.01792165 -0.038348008 -0.10093148 -0.0040856414 0.011774663 0.059304852 0.09437962 0.01843421 -0.01614819 0.005908278 0.005468733 0.068725035 -0.021238148 0.073952265 -0.03513149 0.052342795 0.024628023 0.03077128 0.0006447431 0.12049838 -0.0154905515 0.0033208714 -0.012525743 -0.043533016 0.081120044 -0.04241485 0.04039432 0.05132613 0.0012742366 0.003943299 0.00018856833 0.051999964 0.036055785 -0.03926309 0.00418109 0.06410821 0.06085955 -0.099841245 -0.12019361 0.048177026 -0.15691635 0.070498526 -0.007476173 -0.06555803 0.005787435 0.0069101905 -0.07521438 -0.0151533 -0.05583457 -0.09337797 0.029356673 0.012565313 -0.04662009 -0.067494504 0.10856544 0.077563144 0.0099489875 -0.09754273 -0.11447554 0.009080425 -0.017315283 0.006232373 0.03211612 0.048428316 -0.0522468 -0.09580208 -0.03776515 0.08930364 -0.005972406 0.073994294 -0.06683571 -0.07205635 -0.06333184 0.08105258 0.11262378 -0.024898402 0.06981706 0.054702196 -0.0015607188 0.058832616 0.007374792 -0.04625463 -0.030255858 -0.031759597 -0.09506619 -0.090519615 0.032245155 0.121818066 0.08610204 0.030338496 -0.006846611 0.008866167 0.036743492 0.010652336 -0.025540298 -0.040528372 0.025760965 -0.0476799 -0.04260352 -0.016314318 -0.0007182737 0.13789563 -0.008895746 0.03507061 0.024533115 -0.09262317 0.036413934 -0.09151144 0.15741134 -0.08137473 0.042179517 0.003128448 0.03711506 0.023746563 0.03854225 0.087768905 -0.07816125 0.077142365 -0.07295522 0.027805159 0.017061373 -0.105618484 0.048343062 0.08123047 -0.0035795928 -0.014623611 -0.0041552335 -0.0654594 0.07170298 0.022841012 -0.029748427 -0.058451198 -0.008221528 0.038112976 -0.015659858 0.007377029 0.08603159 -0.007079862 -0.027431304 0.12802438 0.15565418 -0.024768356 0.012226385 0.06652084 -0.06848711 -0.12889838 -0.020566793 -0.05785735 0.041570134 -0.07481223 -0.12116403 -2.7584132e-05 -0.01433791 -0.1250253 -0.02341365 0.038342584 0.040588487 -0.0730991 -0.055028196 0.016792826 0.0477403 -0.0053793546 -0.024372928 0.04302717 -0.04331716 -0.06679364 0.06724942 0.0008578632 -0.062165648 -0.0721553 0.08463203 0.06782076 0.035799682 -0.008334 0.008444284 -0.02769845 0.0077793375 -0.04586239 -0.05085171 -0.041881684 -0.050264433 -0.08025587 -0.006605093 0.10590279 0.11254027 0.1210079 0.052189294 -0.049373586 0.06559014 -0.0028518823 0.0040682172 -0.13211913 0.070242286 -0.03128107 0.10729823 0.01825792 0.033614714 -0.07956441 -0.04105481 -0.047062073 -0.0831076 0.006788493 -0.036304716 -0.0039120363 0.073900014 0.0329763 0.07475504 -0.0034194486 -0.045110393 0.019364024 0.041067496 0.0069516846 0.012303125 -0.04152442 -0.020012695 0.108072385 -0.047191367 0.023050344 -0.07542295 0.04120808 0.0067003565 0.00713078 0.12962781 -0.032960057 0.027339907 0.087083265 -0.07757246 -0.0763528 0.07555414 0.015449152 0.0043479954 -0.065688096 0.004584167 -0.14363587 0.023793207 -0.04601433 -0.07793859 0.08298993 0.026465207 0.0273516 -0.12050568 0.006859718 -0.011094456 -0.05340662 0.047427244 -0.00065053726 -0.044026386 -0.031522226 0.0035204994 0.08664589 0.07701323 0.11539817 -0.030843535 0.027540809 0.042699926 -0.047185272 0.13981856 -0.015021523 0.03292933 -0.037240963 -0.076755844 -0.11302505 0.02352832 -0.026713362 -0.060066085 0.019627672 0.06866357 -0.024753349 0.034497865 -0.07784173 -0.007315169 -0.012194554 -0.06730198 -0.0648115 0.08877764 -0.041187912 -0.12073205 0.05206704 0.005515347 -0.044972364 0.05428925 0.021624103 0.045484573 -0.04698597 0.012740252 0.05609548 -0.07914744 -0.076360725 -0.044880923 0.018687865 -0.06555897 0.07869375 -0.036132302 0.125021 -0.041747674 0.10252458 0.03697083 0.09490232 -0.0049335402 0.022472667 0.066787146 0.0125436345 0.04725924 -0.017447354 -0.09061663 0.045027725 -0.07039895 0.0063746073 -0.117267266 -0.10906902 0.0320847 -0.050523836 -0.10726954 -0.01782584 0.032132078 0.0038370579 -0.07969504 0.10075037 -0.049058553 0.052482773 0.059718344 -0.025086867 0.0049752244 -0.00465088 0.01593296 0.027121278 0.058583047 0.14586166 0.104086995 -0.017639585 -0.0042331405 -0.012596927 0.05863264 -0.093612105 -0.059086233 0.055585057 0.0035278483 0.044204917 -0.023221478 0.12470982 -0.028101796 -0.077269115 0.0914161 0.04896761 -0.012251903 0.0067566135 0.105702884 -0.0067885024 0.07112219 0.03878043 0.049905483 -0.08922967 -0.075863086 -0.03701988 -0.007915642 0.11306797 -0.07717668 0.15633023 -0.012763182 -0.01772835 0.052048866 0.08003516 0.006558657 0.07092129 -0.03438984 0.049678847 -0.07296566 0.03123697 0.07443288 -0.0658981 -0.09044232 -0.048489496 0.008979573 -0.01623484 0.0477547 0.071821086 0.038975492 -0.06219427 -0.022257391 -0.015754757 -0.0872926 0.039146606 0.022733772 0.05465857 -0.04380247 0.00401809 -0.04356749 0.07363685 0.039470352 -0.075178646 0.014028738 -0.14428522 -0.063298576 -0.05515031 -0.083491884 0.09555779 -0.028280135 0.026427958 0.09013351 -0.14915152 0.013010469 0.026503997 -0.039045226 0.0002184738 0.0020928492 0.05512346 0.13618575 0.054632206 -0.024092477 0.011908563 0.08587089 0.02569517 0.03251273 0.09410064 0.077238955 -0.06947676 -0.011202908 -0.04951792 -0.15569653 0.079165064 -0.12247436 -0.04260952 0.052221794 0.013364299 -0.01904147 0.036840558 0.010207477 0.010284065 -0.01806352 -0.022568064 -0.021206332 0.08994039 0.07169282 -0.034764603 -0.05038633 0.104976185 -0.08761933 0.054811977 0.14113708 0.09630071 -0.036955383 0.063621886 -0.003303346 -0.02409541 0.1707633 0.04140736 0.03093276 -0.020320475 -0.033947993 0.0061322753 0.05806507 -0.006167732 -0.036924466 0.0915939 0.11233364 -0.00321875 -0.041120235 -0.15229899 -0.017288102 -0.08708486 -0.010630134 0.10171794 -0.025015557 0.14378534 -0.043851797 -0.034926925 -0.021687437 -0.026538609 0.10849789 0.052229427 -0.031344242 -0.06372644 0.062876485 -0.04263641 0.026258696 -0.08761713 0.16529322 0.012937378 -0.026571883 -0.02689599 0.06163841 -0.02675633 0.012037571 -0.048107617 -0.054624517 -0.014427496 -0.09561373 0.032887984 0.027256278 -0.068961404 -0.09805578 -0.021903144 -0.01207882 -0.0644125 0.00512083 -0.05366999 -0.089834034 0.06667881 0.08516997 -0.11502573 0.043426983 0.0603757 -0.051408585 0.03471283 0.077504806 -0.063093856 -0.050167948 0.031219214 0.05583713 0.09690751 -0.060283244 0.025635295 0.034048732 -0.037881054 0.14261962 0.06571178 -0.043653183 0.01383853 0.0785326 -0.018436188 0.016279776 0.008569165 0.004451711 0.0020275365 -0.0012841064 -0.17264606 -0.08769262 0.05662221 -0.040798567 0.060226966 0.0011670794 0.12337308 0.07416872 0.15106806 0.114215374 0.055541154 -0.04965534 0.09505915 0.01710891 -0.057462502 -0.028227119 -0.15251407 0.032919552 0.06488633 -0.124216475 -0.016840838 0.037907593 -0.009766376 -0.022815993 -0.12624507 0.009224666 -0.028879626 0.08177521 0.047553416 -0.052240904 -0.052266177 0.09687219 0.03734616 0.0053131375 -0.116531946 -0.10631517 -0.024658734 0.028683882 -0.024097852 0.009802422 0.09928019 0.04114977 -0.10624753 0.1405207 0.012354281 -0.033828337 0.028159706 -0.08653114 -0.082540736 -0.008640922 0.013898418 0.014427176 -0.00905363 0.006316769 0.017053556 -0.14235589 -0.009409594 -0.027385572 -0.05931976 0.051260423 0.048608717 0.018849777 -0.012946652 0.15269616 0.02115544 -0.09078109 0.105034515 0.060203515 -0.034995098 0.02432899 0.005850944 0.050220564 -0.06068801 0.01987754 -0.05744254 -9.6743046e-05 0.06676929 0.02058975 -0.03276753 -0.04898316 0.018307528 -0.10120239 -0.0025075867 0.020081628 0.019584224 -0.060090024 -0.057552453 0.045108907 -0.12682866 0.08136009 -0.060313556 -0.03494869 -0.08000489 -0.06584738 0.035570398 0.0108915325 -0.057354733 0.079913735 0.062273446 0.020626938 0.060335092 0.036042944 -0.058804832 0.07411379 -0.02994132 -0.013460825 -0.012502377 -0.06165325 0.0010759071 0.019722527 -0.09704006 -0.014778017 0.007964216 -0.07565474 0.08341081 -0.026164401 -0.06315182 0.056398276 0.14995031 -0.08333809 0.04132984 0.02082358 -0.010269213 0.09880611 -0.0140989 0.03899961 -0.07662607 -0.03048496 -0.0015898221 -0.06074413 0.07864965 -0.14116466 -0.09022233 0.077072605 0.021316515 0.032142635 0.13283779 0.013767243 -0.031334028 -0.060933653 0.0026113854 -0.10800304 0.07069482 0.051766533 -0.08821842 0.011221721 -0.014847511 -0.022936003 -0.028289514 0.128791 0.01748487 -0.038728442 0.025105262 -0.0052572167 -0.00700782 0.002012998 -0.10938066 0.0615615 0.058483683 -0.069123425 0.048115816 0.01512985 0.12075721 -0.008906439 -0.002742868 -0.007611305 -0.07058776 -0.00012864686 0.00892059 -0.10992331
一种 -0.05373858 0.08328678 0.07043023 0.023687353 0.084031075 -0.045364644 -0.053313047 -0.02206989 -0.15090902 0.02359776 0.037102696 0.008377898 0.084596805 0.0010582424 0.065168776 0.06745561 -0.010205675 -0.00019475947 0.020103972 -0.06602424 0.14028731 -0.055325467 0.057408247 0.17616415 -0.11965372 -0.0018218325 -0.095532775 -0.027450278 -0.032308076 -0.010516352 -0.07313015 0.0045475685 -0.10999797 0.0720286 0.042775173 -0.017891593 -0.04541071 -0.1326729 0.14534023 0.08356976 0.050594207 -0.014775233 0.07849747 0.00050162355 0.030977836 -0.02333965 -0.010450977 0.062999554 -0.01902827 -0.008593765 -0.01897326 -0.036547348 0.029001636 -0.06885299 -0.0325081 0.027746582 0.01960992 -0.09652993 0.010665143 -0.029217761 0.04615592 0.010880865 -0.120448835 0.034481395 0.112360306 -0.053286977 0.081827156 0.010829633 0.023052398 -0.05854524 -0.041953787 0.04650578 0.022603076 -0.038866464 0.00408074 0.037435696 -0.12229836 -0.079064436 0.043906294 0.0099597 0.058969926 -0.0024046793 -0.024151446 -0.074811354 0.04081312 -0.013977348 -0.029248852 0.026058737 0.048976853 -0.04821099 0.026264312 -0.007689011 0.07347794 0.010411538 0.10175913 -0.02288766 -0.0276193 -0.08415266 -0.0154540045 0.20166883 0.07787571 0.0015310688 0.04689216 0.059507802 0.04478707 -0.0036918689 0.078130186 -0.0740554 0.14951256 -0.11853058 -0.06040984 0.014579747 -0.0473432 0.08742676 0.023610083 0.02611429 -0.07610327 0.0032612882 -0.036512144 -0.019458473 -0.01014099 -0.0047630905 -0.04635165 0.048970662 0.12494364 -0.037364285 -0.117897205 -0.017941406 -0.12149691 -0.12970424 -0.015376515 0.015268475 0.07397525 -0.031056514 0.04196552 -0.034849178 0.020679325 0.046368394 0.08745142 0.0079965135 0.06345122 -0.022570085 -0.073877454 -0.0506459 -0.052607886 0.015472893 -0.20830175 -0.0389047 -0.112568244 0.030908441 0.027336396 -0.036911238 0.017015498 -0.010574806 0.097029194 -0.039858602 0.058376465 -0.03915809 0.017392281 0.038507022 0.02511282 0.005244042 0.05475749 -0.035323344 0.048174437 0.07488149 0.0035833898 0.10090698 -0.011282959 -0.041163824 -0.124630295 0.08450636 -0.03551565 -0.038431656 -0.03341324 0.0007018383 -0.041478556 0.020523082 -0.057109885 -0.102093175 0.056933414 0.046665046 0.0032139595 -0.00749259 0.08439689 -0.07777078 -0.08044411 0.035394214 0.024869485 -0.047358587 -0.033217624 0.0017841486 0.014459373 -0.0042065955 0.023930687 0.10379249 -0.014727318 0.013704939 0.035970464 0.041447293 0.09174872 -0.026978353 0.004438115 0.03322981 -0.0806949 -0.00063258124 0.000865762 -0.107244246 0.06797345 0.08360844 0.059233606 0.008837232 -0.0572435 0.008525669 0.0271363 0.0045360127 -0.029096201 0.045721106 0.006330601 -0.15262347 0.009367 -0.056647003 0.11175958 0.0054668803 0.020342814 0.06920385 0.0675935 -0.0783544 0.025578368 -0.0721209 0.054928206 -0.15993623 0.15027398 -0.039949715 0.06361517 0.13592277 -0.052071527 0.029426442 0.0321834 -0.029753366 -0.088852495 0.054934725 -0.03461992 -0.084059395 0.06151642 0.11875623 -0.08110744 -0.009404761 0.05097849 0.047432557 -0.01448715 0.03844452 -0.12946649 -0.07909359 0.03672425 0.1017538 0.041807223 -0.036324125 -0.0004248931 0.03398437 0.033274945 -0.049514625 -0.028888283 0.011481062 -0.13108589 0.010888797 -0.012937788 0.0052947686 -0.012539603 0.08815117 0.10005592 0.09623035 -0.080076165 0.0316339 -0.042423062 -0.14480765 0.02973294 -0.049953207 0.00044717386 -0.038987003 0.04132029 0.08815368 0.00845851 0.095309846 0.010368778 -0.005525098 0.044929814 -0.09331277 -0.021325141 0.0111038415 0.039563578 0.0768773 0.06692734 -0.031350534 0.0021268278 -0.070895016 0.033142105 -0.058607534 0.025004439 -0.02539597 -0.047373008 -0.13219838 -0.022749316 0.13967462 0.03781166 -0.0026180742 0.044249315 0.08975409 0.122402206 0.1614893 0.07884304 -0.065111816 -0.09830916 0.0902382 0.011316977 -0.09256956 -0.18875787 0.056650322 0.10996444 0.061820988 -0.0021833908 0.018382223 0.17534973 -0.023364363 0.015238921 -0.09840082 -0.025418704 0.045294236 -0.068488516 -0.082476616 0.01792932 -0.037710425 -0.097969264 -0.004547557 0.011518311 0.05763267 0.09212863 0.018292682 -0.015302122 0.005082179 0.0052713384 0.067552395 -0.020351198 0.07220026 -0.03436328 0.05117866 0.023927344 0.029636312 -0.00016685168 0.11733217 -0.015661703 0.0035766137 -0.012232993 -0.043378767 0.07932635 -0.04153415 0.039088823 0.051048707 0.0014791054 0.0035460475 0.00087408343 0.050825763 0.035344593 -0.0382424 0.0040570362 0.06205639 0.05924156 -0.09735234 -0.117714144 0.04689648 -0.15353917 0.068561 -0.007111899 -0.06384301 0.0061057 0.0063953786 -0.07353483 -0.015134125 -0.054755066 -0.09128472 0.02904184 0.011909679 -0.045568544 -0.06573708 0.10675016 0.07550276 0.009844233 -0.095144585 -0.11223741 0.009058976 -0.016031684 0.005753952 0.031882953 0.046967067 -0.051015895 -0.093417466 -0.037031606 0.087271735 -0.0058995956 0.07264483 -0.06607841 -0.070804805 -0.062088426 0.07910172 0.10983569 -0.024467051 0.067874886 0.05360423 -0.0012379837 0.057440795 0.007296342 -0.04582063 -0.029178683 -0.030516688 -0.09290126 -0.08779878 0.03150817 0.11905491 0.083688416 0.029757814 -0.006010152 0.008741376 0.03560922 0.010706656 -0.024486134 -0.039428897 0.024810666 -0.046440765 -0.04153295 -0.015264645 -0.00096406415 0.13552701 -0.009176892 0.03455098 0.023768513 -0.091080286 0.035059016 -0.08947237 0.15345402 -0.07894834 0.04145103 0.0026697672 0.0367496 0.023093889 0.03825067 0.08626055 -0.07685566 0.07563808 -0.07184855 0.026680348 0.016272314 -0.10328733 0.047286186 0.07880609 -0.0034412497 -0.01454982 -0.0038950008 -0.06406285 0.071101725 0.022765022 -0.029288808 -0.056472518 -0.008496278 0.036700968 -0.015719866 0.007590845 0.08459881 -0.007697093 -0.027110014 0.12513652 0.15157549 -0.02375274 0.012606917 0.06501403 -0.06691252 -0.12618302 -0.020027747 -0.056927223 0.04087603 -0.07362507 -0.11872616 0.00037959605 -0.014260294 -0.12247206 -0.02325773 0.037977923 0.039736614 -0.07189886 -0.05428389 0.017087953 0.04645365 -0.004917532 -0.0232411 0.04188676 -0.04158122 -0.06494248 0.06594602 0.0014392209 -0.06085115 -0.071187764 0.08270238 0.0665272 0.034474637 -0.009073311 0.007986036 -0.0268176 0.006902589 -0.044567212 -0.048856754 -0.040346727 -0.049364746 -0.07785658 -0.006087402 0.10353817 0.11017212 0.118383385 0.05032339 -0.04785565 0.063969634 -0.0026009588 0.004404389 -0.12889768 0.069144785 -0.0306959 0.105206355 0.017982222 0.03217621 -0.07773333 -0.040374413 -0.04518836 -0.08102547 0.0064421347 -0.035950333 -0.0035928371 0.072071716 0.032534864 0.0722892 -0.003541641 -0.044669613 0.01869437 0.040708806 0.0073641054 0.011261952 -0.040632386 -0.01930602 0.105815485 -0.04597407 0.022135587 -0.07324599 0.040656008 0.0074570966 0.0067848945 0.12692174 -0.032792836 0.026597463 0.0852477 -0.076403454 -0.074413486 0.073233336 0.015346695 0.004874838 -0.06461384 0.0052196807 -0.14021616 0.02288907 -0.04524653 -0.07711981 0.080958426 0.026679644 0.026614586 -0.11779296 0.006227277 -0.009950311 -0.05211571 0.04626894 -0.0011567874 -0.043466095 -0.031715248 0.002912312 0.08501941 0.07604571 0.11270908 -0.029340541 0.026664568 0.041953288 -0.046114825 0.13667803 -0.015444104 0.031939376 -0.036155574 -0.07495363 -0.11092723 0.023321765 -0.026601292 -0.058780074 0.018729491 0.066664636 -0.024503462 0.032887995 -0.07590743 -0.006448591 -0.012406901 -0.06640558 -0.06310524 0.08683173 -0.040211745 -0.11835961 0.051284768 0.0057219313 -0.044532187 0.05323474 0.021443456 0.044763204 -0.045535397 0.012363833 0.05545494 -0.07736719 -0.074918196 -0.043271884 0.018581308 -0.064185575 0.07680144 -0.035241816 0.121700026 -0.0410149 0.10075936 0.036492817 0.09267718 -0.0053959913 0.022566387 0.06512933 0.012694058 0.046096504 -0.017352484 -0.088807486 0.043731548 -0.06905265 0.0064774314 -0.11467575 -0.10603523 0.031500515 -0.049662393 -0.104450636 -0.017408436 0.032214865 0.003398741 -0.07805974 0.09799899 -0.04801256 0.051990215 0.05820804 -0.024987508 0.0046537733 -0.0044357185 0.015240184 0.026045704 0.057229158 0.14216176 0.10254339 -0.016855715 -0.0047022006 -0.012032275 0.058057103 -0.09179249 -0.058454443 0.05426591 0.0034611986 0.044119637 -0.022416212 0.121867746 -0.027577402 -0.0757591 0.08931855 0.048173033 -0.012131252 0.006831886 0.10331608 -0.0065963636 0.06949697 0.038350135 0.049338046 -0.08758366 -0.07449467 -0.036549136 -0.0077150487 0.1108736 -0.075488985 0.15239473 -0.011981195 -0.017860023 0.050445646 0.078294665 0.005809519 0.06954563 -0.034066167 0.048983406 -0.07203989 0.029804915 0.07360268 -0.06502313 -0.088865325 -0.04668115 0.008886443 -0.015714902 0.04702963 0.070213266 0.037606455 -0.060744 -0.021719275 -0.01580874 -0.08609983 0.03845904 0.023067594 0.053349055 -0.043205608 0.003989647 -0.0432293 0.072082184 0.03926205 -0.07404178 0.013088561 -0.14164056 -0.061628673 -0.05388668 -0.08135956 0.09297787 -0.027035527 0.025877368 0.08796416 -0.14625409 0.013194383 0.026444707 -0.038164154 0.0003316109 0.0021789647 0.053858653 0.1331195 0.05281922 -0.023256099 0.011721745 0.08396693 0.025226122 0.030812787 0.09254972 0.07537875 -0.06791838 -0.010758083 -0.049103975 -0.15202111 0.07806757 -0.119706005 -0.04189688 0.050402764 0.012806354 -0.01907397 0.03612031 0.009283346 0.010336837 -0.017413022 -0.02157219 -0.020341108 0.08740004 0.06953526 -0.033567525 -0.049806826 0.10268956 -0.08640984 0.05369111 0.13774627 0.09452648 -0.036091957 0.06169808 -0.003152696 -0.024120966 0.16709821 0.04120489 0.030230505 -0.0201408 -0.03276217 0.0058036926 0.05654008 -0.0057297912 -0.036661286 0.08935348 0.10984053 -0.0030493462 -0.03980161 -0.14897206 -0.017202294 -0.08543084 -0.010761641 0.0996307 -0.024341399 0.1409947 -0.042227734 -0.03429305 -0.020754544 -0.02602867 0.10583045 0.050680093 -0.03064253 -0.062525 0.06168601 -0.041099295 0.02550431 -0.085231096 0.16194624 0.012638778 -0.025839224 -0.02685731 0.059630692 -0.02644922 0.011844386 -0.047016986 -0.054286096 -0.014830754 -0.09411519 0.03227889 0.026144046 -0.068196975 -0.09498136 -0.02132955 -0.011027709 -0.06310014 0.0047766096 -0.05268144 -0.0874839 0.06589493 0.08392234 -0.112763025 0.04298936 0.05966309 -0.050534613 0.03465584 0.075836256 -0.061805673 -0.04905767 0.030527163 0.05509117 0.09459099 -0.058188666 0.025630586 0.033343352 -0.03760672 0.13881236 0.06454196 -0.04212817 0.0138505595 0.076888055 -0.017790446 0.015925068 0.007931665 0.004387347 0.0012334981 -0.0010484711 -0.16838112 -0.08538133 0.055080075 -0.03966094 0.058799207 0.0005424939 0.120074354 0.07193274 0.1481031 0.11157707 0.054780886 -0.048538897 0.09217889 0.016925398 -0.05569092 -0.027290447 -0.1492233 0.03192385 0.06391412 -0.12144859 -0.016823882 0.037292883 -0.009449543 -0.021612754 -0.12364688 0.008754288 -0.027846701 0.07989753 0.046930354 -0.050669942 -0.051516246 0.094475694 0.036859326 0.005930514 -0.11443371 -0.10363172 -0.024486996 0.027538229 -0.023745518 0.010270234 0.097250514 0.040000275 -0.103622556 0.13760799 0.011686837 -0.03320705 0.027622007 -0.08449069 -0.0802291 -0.0088248765 0.013411726 0.014017953 -0.00865292 0.0061390777 0.016421983 -0.1391462 -0.008857672 -0.027577285 -0.058335494 0.050055224 0.048176374 0.01826905 -0.013129365 0.14932202 0.020360775 -0.08889074 0.10203008 0.05898209 -0.034220435 0.023712786 0.0058887075 0.048324596 -0.05850223 0.020052351 -0.056485474 -0.00096584955 0.06529022 0.0202879 -0.03150922 -0.047469106 0.018339382 -0.09866954 -0.0021169628 0.019779624 0.019793576 -0.059478782 -0.056209035 0.044738475 -0.124159 0.08026191 -0.05926666 -0.03402161 -0.079156846 -0.06406391 0.03539403 0.01064088 -0.056552246 0.0776319 0.06179944 0.020090306 0.05875253 0.03543903 -0.056857478 0.07219756 -0.028750185 -0.013237562 -0.01195917 -0.060407944 0.0006437063 0.019058267 -0.09487126 -0.014980606 0.0072926907 -0.074488685 0.08123554 -0.025516694 -0.062275775 0.05461099 0.14602561 -0.0822289 0.039708506 0.021002 -0.009791869 0.09606313 -0.01350508 0.038791083 -0.075166464 -0.029822841 -0.0015794043 -0.05956943 0.076751955 -0.1381091 -0.087722 0.07486778 0.021008948 0.030864313 0.12922888 0.013693927 -0.031087827 -0.059915062 0.002478055 -0.10563858 0.06880411 0.05076348 -0.08663778 0.011229623 -0.014718724 -0.021820428 -0.027025964 0.12576835 0.016839227 -0.03736989 0.024510533 -0.00542991 -0.0069695776 0.0021926914 -0.10707862 0.060089782 0.057774145 -0.06790309 0.047813162 0.014909852 0.11812941 -0.008726982 -0.0032208248 -0.007585388 -0.06963818 0.00018518261 0.008595966 -0.10779851
一座 -0.058696974 0.090660214 0.07764729 0.025687462 0.091073215 -0.048600443 -0.058084562 -0.023592364 -0.164952 0.025509944 0.04107447 0.009920345 0.09139163 0.0006763707 0.07122306 0.07341193 -0.010968511 -0.0004301777 0.021453938 -0.07197878 0.15269268 -0.060447905 0.06280724 0.19245891 -0.13102274 -0.0018941035 -0.10437923 -0.0293431 -0.035086993 -0.011781503 -0.07939393 0.0043395464 -0.11966651 0.0790525 0.046590976 -0.019586543 -0.048604425 -0.14498112 0.15860417 0.091594085 0.054683644 -0.01648751 0.08527152 0.000973357 0.03320509 -0.025432665 -0.011926636 0.06884499 -0.02103336 -0.00928689 -0.020770852 -0.039463595 0.031701446 -0.07509606 -0.035171673 0.029518692 0.021865366 -0.10500939 0.011469773 -0.032260496 0.05056055 0.012172811 -0.13173756 0.03700597 0.1233696 -0.05877824 0.08916743 0.012083056 0.024971085 -0.063684456 -0.045699198 0.050684758 0.025322948 -0.041602567 0.004751852 0.040859528 -0.13411582 -0.086465 0.048059296 0.010995522 0.064440176 -0.00293835 -0.026374552 -0.081596695 0.04508272 -0.014570746 -0.032576248 0.028413072 0.053467717 -0.052987274 0.027789982 -0.008822871 0.07970662 0.011856748 0.111750774 -0.025711048 -0.030122127 -0.09183568 -0.016445225 0.21979716 0.084849566 0.0012579759 0.050812215 0.06495511 0.048457783 -0.003989809 0.085362025 -0.081054665 0.16316634 -0.1288143 -0.06689532 0.016080959 -0.05182793 0.09555603 0.025415538 0.029252741 -0.08318435 0.003804631 -0.039441165 -0.021104917 -0.010868084 -0.005776594 -0.05122443 0.052865963 0.13540773 -0.04112027 -0.12781906 -0.019868093 -0.13178791 -0.1407631 -0.016409883 0.016488405 0.080035105 -0.03391932 0.046120018 -0.03775473 0.022084724 0.050052393 0.09516793 0.009042946 0.069251925 -0.024622971 -0.07986413 -0.055351306 -0.05688664 0.016901067 -0.22737926 -0.042805016 -0.12355695 0.032997195 0.029317087 -0.04020095 0.01829833 -0.012211807 0.105108924 -0.043147124 0.06414895 -0.04229157 0.01989994 0.041730363 0.027044918 0.0054947017 0.05911301 -0.03848415 0.05316937 0.08142848 0.0035421161 0.111029446 -0.012146395 -0.04557721 -0.13620786 0.092792965 -0.038241178 -0.042285588 -0.036059897 3.5092933e-05 -0.04547455 0.022374284 -0.06260832 -0.11089555 0.06169312 0.050994515 0.0033730837 -0.007556117 0.09140317 -0.0851395 -0.08720358 0.03791305 0.026671033 -0.05211152 -0.035783265 0.0023399359 0.015828557 -0.004109702 0.025799341 0.11273593 -0.016633438 0.015843293 0.039662678 0.044872247 0.100659914 -0.029197626 0.0053778915 0.0355152 -0.08767485 -0.00012792097 0.0013443781 -0.117487915 0.07348025 0.09145715 0.06420286 0.009849239 -0.062475123 0.009792674 0.029628646 0.004342834 -0.03165752 0.04924756 0.007201873 -0.16677995 0.009764276 -0.06207195 0.12192068 0.0051913294 0.022287425 0.07637459 0.073795095 -0.08608463 0.028239243 -0.07771784 0.060859293 -0.17480427 0.16435973 -0.043150917 0.06995125 0.14737129 -0.057189472 0.032158285 0.034451008 -0.031878788 -0.09693172 0.059996475 -0.03836209 -0.091904186 0.06733703 0.1296102 -0.08792154 -0.009994056 0.05543671 0.05093638 -0.015092191 0.04153075 -0.14025573 -0.08567087 0.040161196 0.11085526 0.04555889 -0.039070528 -0.00110622 0.03644317 0.036194924 -0.054556355 -0.031668875 0.012246913 -0.14215676 0.011551063 -0.014726879 0.0049712034 -0.013904908 0.09575609 0.109288335 0.10498001 -0.08660276 0.033879884 -0.046746626 -0.15807463 0.032337733 -0.054053366 0.00026142198 -0.042408723 0.044555273 0.09590079 0.009727456 0.10377277 0.011246827 -0.005271884 0.04860892 -0.10239777 -0.024025287 0.012231648 0.042537063 0.083698854 0.07307475 -0.03326313 0.0019962715 -0.0772293 0.036575787 -0.0630589 0.027259625 -0.027317923 -0.051912274 -0.14386693 -0.025320116 0.15178095 0.040493328 -0.0022963462 0.048119932 0.09736003 0.1335759 0.17512426 0.08596772 -0.07063545 -0.107641034 0.09791536 0.012138002 -0.101015665 -0.20575695 0.061987046 0.11936112 0.06755791 -0.002350713 0.019119713 0.19158642 -0.025670923 0.0174035 -0.10735133 -0.02860562 0.049342465 -0.07416862 -0.090228856 0.019337118 -0.040539727 -0.10709582 -0.00391532 0.011956369 0.0636341 0.10021853 0.019925525 -0.016709402 0.0055596693 0.006325228 0.07366579 -0.022157304 0.078250885 -0.037241954 0.055694368 0.025979815 0.032596156 0.00060380925 0.12811187 -0.017076986 0.0037625711 -0.013173175 -0.047175735 0.08579252 -0.044666026 0.042726707 0.055094693 0.0011907215 0.004545387 0.0007594972 0.05567076 0.0387868 -0.04125688 0.005312437 0.06843557 0.0642169 -0.10680904 -0.12823607 0.051012795 -0.1678627 0.075603135 -0.008072032 -0.07036513 0.0059113326 0.0073503884 -0.08018274 -0.015800178 -0.059067234 -0.09902385 0.03163799 0.013517631 -0.049546495 -0.07153941 0.116225846 0.0823374 0.01095724 -0.10436145 -0.12207545 0.0098770065 -0.01775357 0.0067013567 0.034263805 0.051028006 -0.05582375 -0.102379724 -0.041195408 0.09470003 -0.0062863026 0.078458 -0.07182114 -0.07692924 -0.06739448 0.08602284 0.11946777 -0.027153146 0.07422075 0.05794325 -0.0019116196 0.06298093 0.008167703 -0.049673833 -0.031464264 -0.033450846 -0.10100923 -0.096370235 0.033819854 0.13004056 0.09199433 0.032025296 -0.00682656 0.009680007 0.039383948 0.0116768405 -0.026296968 -0.043235898 0.027438844 -0.05112505 -0.045241944 -0.017504359 -0.0013101147 0.14737621 -0.009939896 0.037443884 0.026140679 -0.0995902 0.03848152 -0.09730645 0.16759263 -0.08687918 0.045386106 0.0027684765 0.040283486 0.025184898 0.041674357 0.09383531 -0.08358454 0.08287739 -0.0785884 0.029696586 0.017790202 -0.11260565 0.0516301 0.08611595 -0.0042810296 -0.015938258 -0.003748904 -0.0693043 0.07663254 0.024847606 -0.032176908 -0.062322114 -0.008514165 0.04035094 -0.01660084 0.007738996 0.091517515 -0.007965892 -0.029900352 0.13651645 0.16569707 -0.026086165 0.013418014 0.070114456 -0.07287835 -0.13686037 -0.021951556 -0.06142132 0.044832323 -0.08001481 -0.12953791 -0.00045287437 -0.015183933 -0.13359456 -0.024816943 0.04163687 0.044187155 -0.07832682 -0.058535203 0.018286133 0.050971735 -0.0052703293 -0.025971279 0.04555818 -0.045755878 -0.071213834 0.07153179 0.0018554924 -0.06686985 -0.077910356 0.08976102 0.0725061 0.037912045 -0.009099739 0.008648992 -0.029508954 0.008158612 -0.048933215 -0.054067202 -0.04468526 -0.05402127 -0.085504934 -0.007437664 0.11217834 0.11953008 0.12859266 0.05512258 -0.05247748 0.07003246 -0.0026575434 0.004697345 -0.14028758 0.074941255 -0.033068694 0.114220105 0.019677704 0.035493366 -0.08508787 -0.044416863 -0.049197007 -0.08896089 0.006554342 -0.03939188 -0.004460245 0.078703515 0.035035472 0.079010695 -0.0041016834 -0.048136193 0.020409377 0.044287972 0.007901875 0.012485242 -0.044544276 -0.021443179 0.116074264 -0.049887855 0.024729228 -0.07951449 0.04419956 0.008028562 0.0077589755 0.13862401 -0.035912897 0.029472467 0.09231323 -0.0826227 -0.081979915 0.07994805 0.016544634 0.004782 -0.07017543 0.005615783 -0.15295997 0.02564927 -0.04934125 -0.08386708 0.088966705 0.02862368 0.028837597 -0.12892652 0.0066986154 -0.0108842375 -0.056860708 0.05018111 -0.0013190843 -0.046906423 -0.03448302 0.0039053836 0.09243663 0.08267783 0.123178646 -0.032047585 0.03001966 0.04643289 -0.050210834 0.14897223 -0.016036266 0.034402084 -0.03966893 -0.08254381 -0.12034979 0.025409423 -0.029123826 -0.06344412 0.0212446 0.073130436 -0.027138524 0.036377553 -0.08287671 -0.0072259023 -0.013066554 -0.07238081 -0.06882232 0.09433797 -0.04429964 -0.12886305 0.05554277 0.0060295397 -0.048745904 0.05797258 0.023735685 0.04940391 -0.049339052 0.013497178 0.060100757 -0.08467923 -0.08221057 -0.04790716 0.02032539 -0.06992515 0.083968215 -0.039071355 0.13251263 -0.044521164 0.10924681 0.03963356 0.101374604 -0.005586309 0.024250971 0.071193196 0.01334211 0.050320327 -0.019269478 -0.0969923 0.04795122 -0.07561737 0.0062109 -0.12474933 -0.116211206 0.03474491 -0.054516938 -0.11380228 -0.018706132 0.034969814 0.0034961232 -0.08465712 0.10701985 -0.052169353 0.056427706 0.063669994 -0.02735171 0.0050656083 -0.0049675195 0.016886363 0.02842139 0.06260809 0.15538685 0.111656725 -0.01796395 -0.0048372583 -0.012984532 0.06298978 -0.09963255 -0.063337974 0.059104852 0.0041659633 0.047450036 -0.025618007 0.13230637 -0.030579437 -0.08222616 0.09828694 0.052851964 -0.012966627 0.006533991 0.113255665 -0.007656613 0.07562075 0.04197799 0.053722996 -0.094821796 -0.08064127 -0.039937828 -0.008567178 0.120067276 -0.08260077 0.16680901 -0.01358118 -0.01873593 0.055596456 0.08536267 0.0068632653 0.07572552 -0.0362929 0.053509805 -0.078253634 0.0331506 0.079835415 -0.070923775 -0.09694996 -0.051231567 0.009887026 -0.017889066 0.050657824 0.075886436 0.04181265 -0.06631693 -0.024541862 -0.01764761 -0.09295747 0.042286616 0.025131134 0.058147456 -0.046336345 0.004238263 -0.046914976 0.078862034 0.042964015 -0.081050254 0.0147032775 -0.1545069 -0.067459695 -0.05837545 -0.08910447 0.10183369 -0.029653106 0.028231602 0.09600644 -0.15866496 0.014507832 0.028894866 -0.042492393 0.0005312255 0.0029538583 0.059054613 0.14525948 0.058329307 -0.02549456 0.012976954 0.09105256 0.027881086 0.034001455 0.100334466 0.082125455 -0.07387352 -0.011642174 -0.05363244 -0.16526896 0.0853523 -0.12991804 -0.045624815 0.05583586 0.014042998 -0.02055761 0.039142456 0.011015852 0.010773575 -0.018861625 -0.023858497 -0.02268376 0.095837675 0.07564338 -0.037359465 -0.053932466 0.1123386 -0.09395381 0.058478203 0.1505408 0.103475966 -0.04011435 0.06722464 -0.0035362202 -0.026131205 0.1825833 0.044726804 0.032630395 -0.021921271 -0.036497023 0.0061467206 0.06175986 -0.0061591277 -0.038985204 0.09823228 0.1200515 -0.0027142405 -0.04362835 -0.16233653 -0.017820098 -0.09315796 -0.011343398 0.10873304 -0.027029812 0.153413 -0.04670288 -0.036885515 -0.022819022 -0.028061874 0.11571306 0.055658635 -0.033836275 -0.06818465 0.0669003 -0.044758834 0.02846515 -0.0929912 0.1769758 0.013195765 -0.028325167 -0.028772838 0.06578635 -0.028763043 0.01335941 -0.050438028 -0.059272155 -0.015947914 -0.10188376 0.035643004 0.028981186 -0.07429252 -0.104318686 -0.022767927 -0.0122529715 -0.06940436 0.0056069586 -0.05727463 -0.095309384 0.07157319 0.0911521 -0.12245833 0.04676697 0.065166 -0.054610316 0.037332073 0.08279334 -0.06691702 -0.05318203 0.03325796 0.05973741 0.10309992 -0.064048566 0.027342549 0.036987357 -0.040945765 0.1518575 0.06992253 -0.045842547 0.015250118 0.08442042 -0.019466273 0.017265772 0.009008199 0.005558891 0.0012946683 -0.0010223932 -0.18361074 -0.09279253 0.06078205 -0.04345492 0.06389992 0.001371074 0.13184573 0.078440614 0.16106616 0.12124693 0.059491057 -0.053054873 0.10128138 0.01771292 -0.06110786 -0.030284751 -0.16278331 0.03437548 0.068851806 -0.13247833 -0.01867404 0.04006386 -0.01053443 -0.023721943 -0.13419165 0.009300839 -0.03082491 0.08659012 0.050712205 -0.05573095 -0.05601879 0.10324694 0.040208455 0.006242089 -0.12406854 -0.11331283 -0.026610812 0.0301546 -0.025074009 0.011384813 0.10626004 0.04394339 -0.11318676 0.14998502 0.01312073 -0.03691338 0.02959083 -0.09196294 -0.087134115 -0.008958025 0.015269112 0.014915465 -0.009192706 0.0065184915 0.017623141 -0.1515316 -0.009696617 -0.02958616 -0.06335025 0.054733746 0.05205249 0.019556843 -0.013599318 0.16254537 0.022267796 -0.09636874 0.11171811 0.06488922 -0.03703556 0.025471674 0.0067436094 0.05300911 -0.06435024 0.021155862 -0.06136479 -0.0006267083 0.071054935 0.02121426 -0.03495115 -0.051435027 0.020311657 -0.108288735 -0.0025803228 0.021768697 0.021101816 -0.064945824 -0.06128382 0.048541073 -0.13555142 0.08726082 -0.06498161 -0.037718005 -0.085597716 -0.06921687 0.038524445 0.011529464 -0.061885532 0.08473254 0.06710554 0.02134003 0.06339944 0.03816345 -0.062463082 0.078959234 -0.03192864 -0.014366641 -0.013260641 -0.065420136 0.0008802897 0.02139578 -0.103245564 -0.01599773 0.008551539 -0.08076597 0.088243976 -0.028227609 -0.06778924 0.059738412 0.15993762 -0.088816784 0.04411258 0.02229625 -0.011043954 0.105749264 -0.014305877 0.042121105 -0.081826314 -0.032739352 -0.0024988276 -0.06422572 0.08373846 -0.15048873 -0.096134946 0.08229857 0.022251962 0.034348298 0.14112474 0.015351674 -0.034129124 -0.064597435 0.0031489318 -0.115334086 0.074760176 0.05523727 -0.09446429 0.011668889 -0.016313342 -0.02391301 -0.029526321 0.13773465 0.017843995 -0.040726326 0.02630026 -0.0062819086 -0.007489579 0.0021283324 -0.11634633 0.065833695 0.063252024 -0.07460867 0.051581476 0.016090197 0.12844306 -0.009629767 -0.0031495355 -0.008541504 -0.07494846 -0.0004820667 0.010194843 -0.116732225
一手 -0.052824218 0.08247381 0.07005208 0.02356093 0.08349105 -0.044842158 -0.052689854 -0.021700721 -0.1503218 0.0235811 0.037318654 0.008543681 0.08322081 0.00048507974 0.06458333 0.06704865 -0.010246647 -0.00071319105 0.020236345 -0.06499303 0.13925609 -0.055045944 0.057156473 0.17526858 -0.11875294 -0.0020443795 -0.09471105 -0.027301265 -0.032311033 -0.010880599 -0.0725018 0.004270316 -0.10977451 0.07175607 0.042318895 -0.01824606 -0.04467833 -0.13211483 0.1438696 0.08273928 0.050289553 -0.0142030995 0.07818013 0.000832426 0.030564556 -0.023260107 -0.010293786 0.061824087 -0.019105757 -0.008440641 -0.019021962 -0.035897717 0.02902464 -0.068573825 -0.03221929 0.027069239 0.019886127 -0.09650878 0.01037131 -0.02923719 0.045603417 0.010826071 -0.120609455 0.033673964 0.112420164 -0.05334301 0.0819804 0.0112766465 0.022419792 -0.058292087 -0.041265327 0.046265554 0.023011554 -0.03868963 0.003992584 0.037987106 -0.12190807 -0.078269325 0.04351433 0.009865109 0.058824185 -0.0022971479 -0.024414608 -0.073531374 0.04085503 -0.014003246 -0.02900756 0.025972802 0.048420798 -0.04767793 0.025473382 -0.007643312 0.072549865 0.010957517 0.101921916 -0.02262225 -0.027599355 -0.0838372 -0.015295417 0.2005606 0.07707931 0.0010414491 0.046602976 0.059034582 0.043690212 -0.0037812886 0.07733563 -0.074285194 0.14886533 -0.11769598 -0.060270227 0.015028651 -0.047142755 0.08674587 0.023896959 0.026093472 -0.07526246 0.002726087 -0.036221463 -0.018873664 -0.009851266 -0.004882376 -0.04678762 0.04813525 0.123894796 -0.037601244 -0.11698884 -0.017698146 -0.120274656 -0.1287715 -0.01494178 0.014460887 0.07264027 -0.030907806 0.042397864 -0.034082603 0.020436835 0.04547891 0.08632866 0.008755791 0.062197417 -0.022017665 -0.07279711 -0.05050886 -0.05244707 0.015232011 -0.20724943 -0.039058052 -0.112493254 0.030664083 0.027124079 -0.037417114 0.016839493 -0.010591335 0.095934704 -0.039305594 0.05825397 -0.038925834 0.017941013 0.03872291 0.025411662 0.005149976 0.05443696 -0.034759138 0.04856791 0.07375539 0.003187738 0.10106702 -0.011155025 -0.041072886 -0.12423414 0.084222466 -0.035535593 -0.03817817 -0.033029173 2.511886e-05 -0.041517224 0.020407172 -0.056380566 -0.100647174 0.056343358 0.046322774 0.0030527206 -0.006860072 0.08321777 -0.077176094 -0.0795531 0.034348343 0.024235925 -0.0467526 -0.033086132 0.0022051597 0.014471093 -0.0043809614 0.02283236 0.10300549 -0.014633981 0.014131993 0.03643208 0.041305173 0.09155511 -0.027139949 0.0045016706 0.03273239 -0.07960123 -0.00023411696 0.000980878 -0.10672702 0.06710964 0.08273973 0.058680616 0.008636619 -0.05708342 0.008735366 0.027142396 0.004390782 -0.028962364 0.04519506 0.006247187 -0.15149643 0.009157144 -0.055776298 0.11151198 0.005308999 0.02053989 0.06913243 0.06691218 -0.07850572 0.02524417 -0.071417876 0.05544971 -0.15856299 0.14964724 -0.039505545 0.06363366 0.13509934 -0.051725473 0.029296339 0.031815466 -0.029951677 -0.087981 0.054599237 -0.034772195 -0.083033815 0.061506733 0.11826049 -0.080107205 -0.009290836 0.05060219 0.04659054 -0.014295143 0.03805464 -0.12771614 -0.07817448 0.036786262 0.10122422 0.041527156 -0.035668634 -0.0012079516 0.033042498 0.03300938 -0.04959378 -0.028923385 0.010872218 -0.13024342 0.010346136 -0.012937453 0.0044780257 -0.01189711 0.08678019 0.09898401 0.095596775 -0.07888552 0.030994073 -0.0426844 -0.14398214 0.029904272 -0.049491163 0.00084694073 -0.038473222 0.040964324 0.08763304 0.008840071 0.094156116 0.00984925 -0.00491762 0.045042027 -0.09283695 -0.021036606 0.011669412 0.039206374 0.076269075 0.06711403 -0.030726068 0.0013478963 -0.07079258 0.03303372 -0.057756502 0.024999542 -0.025164442 -0.046977293 -0.13128309 -0.022670621 0.1387629 0.036798935 -0.002530728 0.044067945 0.08848397 0.12084167 0.15986909 0.0784336 -0.064963564 -0.09798529 0.0890643 0.011151371 -0.09251504 -0.18751787 0.05683623 0.10886574 0.062068686 -0.0017871307 0.01816628 0.17403711 -0.02351605 0.015563444 -0.09780028 -0.025225706 0.044401336 -0.06821092 -0.08177358 0.01754213 -0.037536792 -0.09789345 -0.004236135 0.011243712 0.05703902 0.09166403 0.01790058 -0.015138904 0.005007137 0.0058311415 0.06668331 -0.02005706 0.07137182 -0.0344956 0.050557822 0.02409156 0.029277965 0.0006952205 0.11688396 -0.015536683 0.0036137295 -0.01166205 -0.043153636 0.078259155 -0.040520374 0.03936258 0.050346866 0.0016328685 0.003334743 0.00019346058 0.050255187 0.034945704 -0.037790615 0.0045714206 0.0619237 0.058813535 -0.09710552 -0.11689808 0.046256162 -0.15229376 0.06856727 -0.0074711563 -0.06406722 0.006146236 0.006132271 -0.073270604 -0.014888337 -0.054085787 -0.09084443 0.028354052 0.012084374 -0.04497818 -0.06529507 0.10589733 0.075023144 0.010342905 -0.09445879 -0.111564346 0.008564855 -0.016386677 0.006293372 0.03100907 0.0467075 -0.05088027 -0.09284073 -0.037446022 0.08672627 -0.005902921 0.07205119 -0.065038495 -0.0701264 -0.061491437 0.078605406 0.1087283 -0.024714734 0.068117395 0.053035762 -0.00095736055 0.0570573 0.006541971 -0.044620916 -0.028662521 -0.030418545 -0.09259422 -0.088015534 0.030620577 0.118565276 0.0839335 0.028843872 -0.006984638 0.009093153 0.0358191 0.010336518 -0.024545021 -0.039344512 0.024982281 -0.046321735 -0.041509677 -0.016027411 -0.0010384434 0.13448782 -0.0084417835 0.034074217 0.023530435 -0.09078543 0.034678623 -0.08827915 0.1525837 -0.07922007 0.04109423 0.0024174238 0.036750562 0.023367394 0.038056742 0.085638806 -0.07588805 0.07520549 -0.07111814 0.026501048 0.016215134 -0.10271776 0.04643705 0.078655764 -0.00316215 -0.014045335 -0.0034718078 -0.063228056 0.06988039 0.022957664 -0.02941445 -0.056796342 -0.0073748874 0.0373484 -0.014822797 0.0075835283 0.08345462 -0.0073427525 -0.026686039 0.124261566 0.1512326 -0.024282826 0.01287209 0.0645176 -0.06646862 -0.1253527 -0.020344516 -0.05580507 0.040948983 -0.0729038 -0.117924154 -0.0004258363 -0.013753865 -0.12181806 -0.022325102 0.037623826 0.040049337 -0.070948824 -0.05375792 0.01680518 0.046272345 -0.004907269 -0.022964975 0.04096059 -0.041795686 -0.06507114 0.06535798 0.0010659758 -0.060464524 -0.070466384 0.08195578 0.066423126 0.03391513 -0.008659497 0.008053004 -0.026744643 0.006748846 -0.044274803 -0.049004387 -0.040373415 -0.04958358 -0.07787552 -0.006234295 0.1027471 0.10882557 0.117349006 0.049858566 -0.047250535 0.06397348 -0.002807408 0.004256019 -0.12811118 0.06842851 -0.030546227 0.10364846 0.017271528 0.032131523 -0.07777676 -0.04043878 -0.04565222 -0.080733396 0.005803842 -0.03604062 -0.0039364947 0.07214673 0.032283198 0.07243237 -0.0036975313 -0.043780096 0.018506987 0.040121388 0.0071598343 0.0117295515 -0.04070326 -0.019555615 0.105183035 -0.0457994 0.02218889 -0.07310133 0.040968027 0.0068343417 0.006845849 0.12629505 -0.032660287 0.026204137 0.08490398 -0.07564301 -0.07472205 0.07276987 0.014370374 0.0045865057 -0.06334756 0.004417074 -0.139565 0.02316141 -0.04520156 -0.07591929 0.08039526 0.025524586 0.02680196 -0.117530696 0.0067346385 -0.010067777 -0.051672585 0.045744725 -0.00081272045 -0.043327358 -0.030694038 0.003594268 0.08367079 0.075391985 0.11266849 -0.029660352 0.026869802 0.04173078 -0.045355305 0.13585903 -0.015261681 0.031749375 -0.035629574 -0.074448794 -0.10964459 0.0231188 -0.026575569 -0.057792068 0.01872639 0.06667264 -0.024498476 0.03296757 -0.07538817 -0.007153783 -0.011812089 -0.06590917 -0.06339166 0.08638035 -0.039830677 -0.1170628 0.050649635 0.005298446 -0.04437922 0.052959803 0.021654848 0.044419527 -0.045561977 0.013015016 0.05513298 -0.077181205 -0.0750508 -0.043302856 0.018702867 -0.06396893 0.07675158 -0.03507103 0.12134033 -0.040146735 0.10010856 0.035555996 0.09250887 -0.004870689 0.022346428 0.06409859 0.011873447 0.045114104 -0.017213425 -0.08892692 0.044242512 -0.06875445 0.0056069614 -0.11334422 -0.10593777 0.031127362 -0.04918305 -0.103662886 -0.016924657 0.031403527 0.0032119714 -0.07722237 0.09776167 -0.047754385 0.051343985 0.058078613 -0.025178107 0.0050541973 -0.004692576 0.0154402265 0.02612021 0.057278227 0.14146197 0.100915045 -0.016844206 -0.004109402 -0.01182673 0.057927925 -0.09067992 -0.057856467 0.053303562 0.0036617806 0.043784555 -0.023010029 0.1211567 -0.027629765 -0.0743054 0.08959055 0.047488652 -0.012074589 0.0060526077 0.10267463 -0.0066805184 0.06854996 0.037720703 0.049141966 -0.08714319 -0.07385833 -0.036609907 -0.0070866155 0.10910232 -0.075605296 0.15207046 -0.0124170445 -0.017670121 0.05002543 0.07718437 0.005962456 0.068447985 -0.033539154 0.048742637 -0.07147294 0.030102152 0.072845735 -0.06469003 -0.088142775 -0.046762187 0.008318979 -0.015804857 0.04620714 0.06957723 0.03755959 -0.06087696 -0.02206768 -0.015551088 -0.08542134 0.038754135 0.02245856 0.053072836 -0.04289246 0.0033215582 -0.042812817 0.07199428 0.0390292 -0.07372024 0.013782459 -0.14069854 -0.061228286 -0.052782856 -0.081244886 0.0923239 -0.026966866 0.025091534 0.08737491 -0.14496207 0.013284905 0.025790645 -0.037862744 0.0006590965 0.0024518468 0.05331618 0.13258019 0.052496813 -0.023220891 0.011610452 0.08333489 0.025756102 0.031378444 0.09136737 0.07413502 -0.06795101 -0.011059715 -0.048772965 -0.15071791 0.07742775 -0.118887216 -0.04162741 0.050420675 0.0133403605 -0.018142138 0.03557381 0.009185721 0.010511399 -0.017753968 -0.021252057 -0.020432856 0.08756296 0.069568455 -0.034175206 -0.048488542 0.1027669 -0.085440345 0.052745406 0.13712342 0.09432427 -0.03598685 0.061042957 -0.0028791213 -0.023758242 0.16618033 0.041085 0.029638276 -0.019795267 -0.03279237 0.0063781594 0.056150287 -0.005818373 -0.035808805 0.08960136 0.10869443 -0.0029897806 -0.039659355 -0.14735416 -0.01675686 -0.085053235 -0.010015907 0.09943052 -0.023959948 0.13982321 -0.04216632 -0.033302605 -0.021070933 -0.025894947 0.10547728 0.05056169 -0.031021884 -0.06238053 0.06132022 -0.040619344 0.02590532 -0.084956236 0.16117148 0.012111673 -0.026129222 -0.026586113 0.060165167 -0.026578857 0.012099957 -0.04634825 -0.05383715 -0.014807444 -0.09343821 0.032278582 0.026609492 -0.06782013 -0.094855666 -0.021109171 -0.010976454 -0.06338908 0.0053368155 -0.052551713 -0.08662851 0.065550774 0.08267002 -0.11199679 0.042628046 0.059515953 -0.05025591 0.033789776 0.075496815 -0.06100809 -0.048754085 0.030935995 0.054460812 0.0943829 -0.058393255 0.025243599 0.03388088 -0.036900476 0.13846545 0.06413851 -0.04177578 0.013734494 0.07689577 -0.017088344 0.015760662 0.007864086 0.0047611245 0.0011925875 -0.0016146178 -0.16772541 -0.08499402 0.055120856 -0.03980869 0.058353573 0.0010035807 0.11984113 0.07196536 0.14715007 0.110481046 0.05418126 -0.048647217 0.09215598 0.016738724 -0.05574773 -0.027736956 -0.14829537 0.031208668 0.06287141 -0.120403394 -0.017211424 0.036680426 -0.0091906255 -0.021861155 -0.12261745 0.008280965 -0.028115084 0.079533756 0.04667856 -0.05073827 -0.051337637 0.09323345 0.036228277 0.0058346884 -0.113469735 -0.103853576 -0.024818722 0.02787012 -0.023014246 0.009449988 0.09733162 0.03970544 -0.10296393 0.13665274 0.011626299 -0.033634827 0.027236864 -0.08434814 -0.07974871 -0.007935106 0.013879765 0.014375895 -0.008951375 0.005756173 0.016549904 -0.13848035 -0.009156368 -0.026691688 -0.05801032 0.04997757 0.047395807 0.018325947 -0.012618974 0.14788184 0.020546129 -0.08782446 0.10137089 0.059215777 -0.034279834 0.023782756 0.0055279527 0.048675645 -0.058874585 0.019682499 -0.056121167 -0.0005519848 0.06428202 0.019520007 -0.03165293 -0.04735567 0.018154835 -0.097669065 -0.0019796055 0.019689178 0.018947141 -0.0590901 -0.056056194 0.04399417 -0.123867534 0.079869814 -0.058436014 -0.033926334 -0.07854206 -0.063242406 0.03453881 0.010785637 -0.05585559 0.07774257 0.061059013 0.019163813 0.05873922 0.0348753 -0.057325214 0.07242944 -0.028568072 -0.013707044 -0.01232608 -0.059960984 0.00080425775 0.019204823 -0.09412646 -0.014888422 0.0071804198 -0.073871695 0.08099294 -0.025289658 -0.06178566 0.054621708 0.14597277 -0.08135121 0.03962016 0.021085316 -0.009624965 0.095369756 -0.0133992825 0.03791786 -0.0745077 -0.03024807 -0.0017616862 -0.05886713 0.0763784 -0.1371291 -0.08772588 0.07481378 0.019890716 0.030995274 0.12914166 0.01371146 -0.031221576 -0.059031963 0.002937033 -0.10497049 0.0681308 0.050036624 -0.08557345 0.011159759 -0.014662874 -0.021868927 -0.027048774 0.12574886 0.016994687 -0.03693159 0.024055157 -0.005441888 -0.0069446075 0.0024340525 -0.10573834 0.059691716 0.057646856 -0.067262694 0.047376137 0.014003051 0.1170485 -0.00854139 -0.0030060697 -0.007924525 -0.06911405 -0.00068699196 0.008372994 -0.10689875
一房 -0.04981423 0.077559374 0.066786006 0.021560054 0.078779094 -0.04254871 -0.049927182 -0.019844191 -0.14127272 0.022239316 0.035343494 0.007889743 0.07898171 0.0014044832 0.06107457 0.062466394 -0.009726888 -0.00017981084 0.019189918 -0.06128489 0.13107061 -0.051868152 0.054313984 0.16441053 -0.11154204 -0.0024207197 -0.08922051 -0.025161138 -0.03022066 -0.010397339 -0.067885 0.0045513907 -0.10310951 0.06783317 0.039595455 -0.016940676 -0.042129714 -0.12411675 0.13569584 0.07832858 0.04650903 -0.013428759 0.07360523 0.00034929658 0.02849932 -0.022054197 -0.010548156 0.058743313 -0.018371372 -0.00862329 -0.017258313 -0.033806905 0.02659686 -0.063712545 -0.029632505 0.025258793 0.018691212 -0.09059797 0.009564189 -0.028032571 0.04335774 0.010514621 -0.11319816 0.031994574 0.10518777 -0.049587376 0.07665511 0.010023229 0.0220268 -0.054208938 -0.039039917 0.04316445 0.02179791 -0.03547984 0.0043882383 0.03505984 -0.11499916 -0.07414374 0.041452218 0.009227939 0.05449643 -0.0018389979 -0.022371452 -0.06951224 0.03880688 -0.013147247 -0.027500918 0.02441474 0.045613654 -0.04513638 0.023890115 -0.007393068 0.068236776 0.010701414 0.09576218 -0.021582192 -0.02525956 -0.07858116 -0.01430235 0.18840103 0.07231996 0.00072557264 0.044199202 0.055766232 0.04140094 -0.003639774 0.07321173 -0.06924306 0.1398889 -0.11115802 -0.05716419 0.014154641 -0.04430839 0.08112026 0.021622907 0.025118368 -0.07130307 0.002947278 -0.03349325 -0.017917188 -0.009993228 -0.0049799844 -0.04384884 0.045535672 0.11655456 -0.03449072 -0.10966742 -0.016510194 -0.11311385 -0.12112296 -0.013997054 0.014228307 0.069198795 -0.029153146 0.039412912 -0.032510404 0.018819325 0.042888425 0.080920525 0.007392046 0.059189156 -0.02099681 -0.06858892 -0.047469977 -0.049075574 0.014322655 -0.1945517 -0.03620652 -0.10524433 0.028655551 0.025591208 -0.03480756 0.015903143 -0.009762726 0.09019505 -0.037360564 0.05478363 -0.036338855 0.016371498 0.035823222 0.023762854 0.0042560897 0.050428297 -0.03262468 0.045947056 0.06981941 0.0035670523 0.094456464 -0.009927713 -0.0385059 -0.11660503 0.078679524 -0.033527154 -0.03601043 -0.030830927 -6.907869e-05 -0.039528545 0.018795526 -0.05378235 -0.09525175 0.053220086 0.04427262 0.002338744 -0.0063770036 0.07817945 -0.07300125 -0.07451865 0.03256325 0.022699418 -0.044563983 -0.03103517 0.0017541844 0.014434093 -0.003870976 0.022096334 0.096632585 -0.014479853 0.013121637 0.03382509 0.038149666 0.086339936 -0.02537084 0.0040142615 0.030567376 -0.07504181 -0.0008450299 0.00055028865 -0.100801356 0.063072756 0.078066915 0.05515767 0.008203767 -0.053019393 0.008632769 0.025289908 0.0037367651 -0.027131021 0.04175864 0.005701592 -0.1427683 0.008714473 -0.052774426 0.104650006 0.0042885477 0.01990281 0.06518192 0.063014716 -0.07413691 0.02373742 -0.06666245 0.05121855 -0.1496824 0.14093918 -0.037913896 0.060233463 0.12615053 -0.048974257 0.027773619 0.030094404 -0.027450653 -0.08251409 0.050536968 -0.03231301 -0.078595385 0.05796287 0.111522086 -0.0755061 -0.008745128 0.047301512 0.04429213 -0.0131758815 0.03612599 -0.120399304 -0.073794216 0.03463368 0.09539354 0.03854278 -0.033914264 -0.00049377495 0.031780254 0.031350065 -0.04638274 -0.026920563 0.010522735 -0.121713735 0.00961368 -0.013068491 0.00408824 -0.011551553 0.08185907 0.09357338 0.08963996 -0.07501721 0.029724082 -0.040155407 -0.13464779 0.02786903 -0.04629304 0.0003651962 -0.036064647 0.038354117 0.082716934 0.008733381 0.08921648 0.009359357 -0.0050182333 0.042320512 -0.08748639 -0.020747663 0.010705707 0.0366882 0.071284935 0.063116096 -0.028914716 0.0016878127 -0.06564992 0.03130933 -0.05455976 0.023290241 -0.023184462 -0.0436395 -0.12283582 -0.022079425 0.13019106 0.034835286 -0.001793766 0.041187167 0.083823115 0.11433924 0.15076366 0.073653765 -0.061131056 -0.09158624 0.08350701 0.010383534 -0.0867422 -0.17616604 0.05323308 0.10250099 0.058215674 -0.002208697 0.01673279 0.16359928 -0.021507971 0.014127131 -0.091590926 -0.023618443 0.042190287 -0.063629195 -0.07748293 0.016851252 -0.03493744 -0.09147712 -0.0042362595 0.010390403 0.0545313 0.0857617 0.01706008 -0.014443852 0.0051722997 0.0051961495 0.06299855 -0.018903522 0.06756097 -0.03251734 0.047444303 0.02274512 0.027924428 -0.00016025701 0.10957807 -0.014349431 0.0032213964 -0.011072095 -0.039759304 0.07340835 -0.03867809 0.03643701 0.047249787 0.0015424411 0.00352904 -1.397188e-05 0.04740632 0.03258119 -0.0357829 0.0036487654 0.058110368 0.05571126 -0.0907465 -0.10941608 0.043764833 -0.14343528 0.06485605 -0.0065661804 -0.059545334 0.005684352 0.006104949 -0.06885667 -0.0139115965 -0.050811958 -0.08473882 0.02690581 0.010831336 -0.041909102 -0.06178062 0.099850826 0.07030595 0.009473979 -0.08916742 -0.10439243 0.007779221 -0.015185984 0.005593033 0.029921712 0.04366022 -0.047534026 -0.08680303 -0.03463641 0.08121912 -0.0050203484 0.067898184 -0.061801355 -0.06659265 -0.058194615 0.07382506 0.10300046 -0.02283982 0.064196385 0.050092887 -0.0013102127 0.053209603 0.0062015075 -0.042747214 -0.027202496 -0.029040916 -0.08638464 -0.0825792 0.029009677 0.11125099 0.07871042 0.027764067 -0.006172934 0.007954002 0.03405259 0.009431368 -0.023410471 -0.03754756 0.023354553 -0.043960452 -0.03898877 -0.014234398 -0.0007678988 0.12624618 -0.008262245 0.032086745 0.022884194 -0.085398965 0.032714214 -0.083412856 0.14358512 -0.07460056 0.03830504 0.002654291 0.034257397 0.021522945 0.03608794 0.080108136 -0.07189263 0.07061904 -0.06696036 0.02541719 0.01579449 -0.09651095 0.043802842 0.073764965 -0.003089836 -0.01311648 -0.003849466 -0.05957143 0.06615481 0.021471143 -0.028011698 -0.05271729 -0.007254065 0.034888845 -0.014583549 0.0063339756 0.07886528 -0.0068847374 -0.025612399 0.116658054 0.14150013 -0.023016533 0.012174403 0.060311574 -0.06193714 -0.11775009 -0.019152816 -0.052595004 0.038582265 -0.06897094 -0.11105397 0.00015486435 -0.0130138695 -0.1142932 -0.021671876 0.034997646 0.03786871 -0.06710056 -0.050374944 0.015590613 0.04318646 -0.003968802 -0.021747319 0.03895509 -0.03916545 -0.06054811 0.0619797 0.00078498013 -0.056427486 -0.06600228 0.077389635 0.062281046 0.03260852 -0.007898346 0.007607948 -0.024988532 0.006573095 -0.04211866 -0.046424206 -0.038354434 -0.04584593 -0.072446585 -0.005734228 0.09686838 0.10306211 0.11072127 0.04692793 -0.044441666 0.060108475 -0.0020073566 0.0037973942 -0.11990934 0.06450826 -0.02797917 0.09795175 0.016411342 0.030657085 -0.07343583 -0.037900075 -0.042235207 -0.07585247 0.0055152057 -0.033042606 -0.0040641073 0.067019075 0.030116515 0.06788236 -0.0031002166 -0.041283958 0.017975537 0.03789679 0.006715543 0.010667966 -0.038549114 -0.018346272 0.09935228 -0.042882107 0.021170475 -0.068406396 0.03763444 0.006232965 0.0061491006 0.11853202 -0.03065175 0.025293741 0.079601586 -0.07147297 -0.0695826 0.068888456 0.014123281 0.003900235 -0.060054958 0.005056065 -0.13135603 0.021541018 -0.042038415 -0.07169468 0.07636036 0.02468209 0.025387285 -0.11035175 0.0063143857 -0.009862243 -0.04912333 0.04306496 -0.00083680515 -0.04017955 -0.029245626 0.002913184 0.07922124 0.07072049 0.105085604 -0.027680177 0.02548006 0.039215345 -0.04310275 0.1275509 -0.01378959 0.029858481 -0.033706684 -0.07010581 -0.1026051 0.021477873 -0.025259199 -0.05448822 0.017458612 0.062776394 -0.02302693 0.030678404 -0.07132309 -0.005967468 -0.011478904 -0.061503608 -0.059058566 0.0810989 -0.03759893 -0.110633925 0.047731142 0.0053866575 -0.041811932 0.049721755 0.020294098 0.04200329 -0.042173147 0.012011745 0.051065914 -0.07183837 -0.07072695 -0.041169003 0.016599325 -0.059641592 0.07187848 -0.033301637 0.11357976 -0.038323782 0.09435223 0.033816475 0.08744863 -0.004580129 0.020981949 0.06044128 0.011772455 0.04258578 -0.016657824 -0.08348471 0.040821046 -0.06441279 0.0052068164 -0.10711631 -0.099072345 0.029433856 -0.04657659 -0.098342955 -0.016046321 0.02998243 0.0036957453 -0.0729857 0.09127469 -0.044178687 0.048596818 0.055089243 -0.02318724 0.004403935 -0.004556352 0.0146649415 0.024479093 0.053862333 0.13256429 0.09548847 -0.01625727 -0.0038897737 -0.010788501 0.05392593 -0.085700765 -0.053816453 0.05084312 0.003631181 0.040430818 -0.021164283 0.113626145 -0.025479876 -0.07027956 0.08407423 0.045366183 -0.010884675 0.005871827 0.09755463 -0.0066227424 0.06458496 0.036000397 0.045633275 -0.08180097 -0.06906383 -0.034629807 -0.006978217 0.103626505 -0.07035847 0.14275968 -0.011589838 -0.0165058 0.047491834 0.073346846 0.0056538866 0.064164355 -0.031303883 0.045889303 -0.067043714 0.028572867 0.068277135 -0.060192555 -0.08277109 -0.04397523 0.0079006255 -0.015368607 0.043791547 0.06571558 0.035414398 -0.056489833 -0.020722775 -0.014432696 -0.08020755 0.03567255 0.020809654 0.049483683 -0.04011944 0.0036174678 -0.040059693 0.067883484 0.035988938 -0.06869443 0.012924163 -0.13173024 -0.056876507 -0.050157256 -0.075905055 0.0872977 -0.025914717 0.024083761 0.082218915 -0.13662519 0.012224714 0.023918051 -0.03559573 0.00096494914 0.002522553 0.05053726 0.12512745 0.04996806 -0.02189892 0.010495014 0.07881354 0.023638781 0.02967187 0.08641128 0.069897555 -0.063341804 -0.010362884 -0.046176456 -0.14148498 0.07296394 -0.11148471 -0.039598133 0.047348704 0.0121768145 -0.017985467 0.034316186 0.008778412 0.010004698 -0.016057547 -0.020115513 -0.018766552 0.08149956 0.06479585 -0.03199674 -0.046126302 0.09593754 -0.08004765 0.050189044 0.1284969 0.0879793 -0.03406219 0.057680514 -0.0033659916 -0.021775786 0.15631288 0.03870372 0.027489254 -0.018702505 -0.030581614 0.005570103 0.052791245 -0.0058468785 -0.033463422 0.0837537 0.10232299 -0.0025377998 -0.03784223 -0.1391508 -0.015665544 -0.08018063 -0.009450395 0.092847444 -0.02286067 0.13115296 -0.039460376 -0.03174904 -0.019362953 -0.023828467 0.0984882 0.04746219 -0.029248448 -0.058317274 0.057696026 -0.038870756 0.023784809 -0.07955769 0.15084888 0.01176375 -0.023926498 -0.0251662 0.056109745 -0.025117664 0.010992337 -0.043645594 -0.050362565 -0.01346133 -0.08716275 0.030689294 0.024201298 -0.0628448 -0.08943961 -0.019424815 -0.010601522 -0.05977155 0.0047993525 -0.048774656 -0.081618756 0.06137897 0.07806922 -0.104989 0.03958435 0.055879343 -0.04719827 0.03196902 0.07104582 -0.057523597 -0.0459816 0.028905509 0.051527582 0.08821665 -0.05474408 0.024075223 0.031582467 -0.034858406 0.13037553 0.06028579 -0.039855197 0.013372727 0.071620874 -0.016655505 0.01466518 0.0075904992 0.003977942 0.0013347785 -0.0012172555 -0.15779361 -0.07964082 0.051345434 -0.037810512 0.05448123 0.0008201017 0.11292928 0.067028366 0.13826057 0.10426729 0.050663773 -0.04576472 0.08657769 0.015869886 -0.052099768 -0.025404558 -0.13931279 0.029410284 0.05937296 -0.113566175 -0.016252408 0.034869593 -0.009405128 -0.019976093 -0.11550499 0.008486055 -0.025839431 0.07456726 0.04380927 -0.047541544 -0.04769971 0.08823391 0.034489866 0.005637207 -0.107037894 -0.097416066 -0.022575347 0.026397832 -0.022055203 0.008988011 0.09075561 0.037365295 -0.096648924 0.12849088 0.010942222 -0.03181659 0.025768049 -0.07934607 -0.075404055 -0.008353669 0.01333421 0.012804738 -0.008126409 0.0063135484 0.015191138 -0.13018866 -0.008544098 -0.025725262 -0.054451708 0.04675614 0.044534985 0.017233197 -0.012016013 0.13927522 0.018962556 -0.08266978 0.09510303 0.05565559 -0.032196052 0.021823987 0.0056710313 0.04585524 -0.055013586 0.018842652 -0.052798904 -0.0002463269 0.06067653 0.018586393 -0.029311435 -0.044846646 0.01748759 -0.09187602 -0.0014549767 0.018517638 0.017785016 -0.055617064 -0.052224204 0.041448433 -0.11664613 0.075150944 -0.0554162 -0.031935066 -0.07407425 -0.05967314 0.032377087 0.010465187 -0.05227522 0.07302894 0.056868456 0.018817263 0.05524433 0.03308425 -0.053855192 0.06762454 -0.027326066 -0.012466552 -0.011383518 -0.05659853 0.0006547045 0.018388141 -0.08815764 -0.013818683 0.0066132615 -0.06893074 0.07584802 -0.024168417 -0.057791878 0.05132746 0.13677919 -0.07689803 0.036885638 0.019688701 -0.009224736 0.089650966 -0.012458707 0.035860796 -0.06973813 -0.027876666 -0.0018346572 -0.05563533 0.07178801 -0.12954248 -0.082170464 0.07020028 0.018805603 0.02953156 0.12125016 0.013189313 -0.028676141 -0.055721786 0.0025844944 -0.098342665 0.06398973 0.04693377 -0.080869704 0.010350823 -0.013615227 -0.020468773 -0.025865791 0.11741561 0.01604628 -0.03491442 0.0221769 -0.0049796966 -0.006141636 0.002344742 -0.09933814 0.055844307 0.054138627 -0.0639794 0.043844562 0.013664572 0.11013404 -0.0078001916 -0.0028636504 -0.007047477 -0.06412741 -0.0003957947 0.008086378 -0.1007393
一家 -0.056344554 0.087647386 0.07472426 0.025174597 0.08800542 -0.046972785 -0.056329414 -0.023002556 -0.15898262 0.02457666 0.03897796 0.00937066 0.088775225 0.0011444151 0.06811131 0.07048942 -0.0109149 -0.00020956303 0.021420842 -0.069508076 0.14711425 -0.058886293 0.060718697 0.18601128 -0.12667078 -0.0020914664 -0.10028019 -0.028446577 -0.03428623 -0.011957737 -0.077085696 0.0049625984 -0.11631191 0.07622773 0.045263205 -0.019777453 -0.047588374 -0.1395988 0.1527465 0.08771804 0.053017955 -0.015550923 0.08268206 0.0013397671 0.031842973 -0.02398134 -0.011662188 0.06659054 -0.020612413 -0.009444721 -0.020304086 -0.03836234 0.030743629 -0.072538815 -0.033330377 0.0292572 0.021504639 -0.10200605 0.010635353 -0.031570323 0.048008583 0.011565112 -0.12761565 0.03642389 0.11917296 -0.056779128 0.08682415 0.011119917 0.024018947 -0.061196633 -0.04428599 0.04898865 0.024422327 -0.040304154 0.003742668 0.039228465 -0.1293843 -0.082986385 0.046255406 0.010425979 0.062157102 -0.0027339803 -0.025609856 -0.07821266 0.04363105 -0.013950675 -0.031223185 0.027745545 0.051445037 -0.05027868 0.027455594 -0.008210507 0.07657577 0.011355709 0.1081625 -0.024630101 -0.02921657 -0.088241115 -0.015762962 0.21283846 0.082371406 0.0014293819 0.048984203 0.062294718 0.04687198 -0.0037878614 0.08225693 -0.078185454 0.15792276 -0.12509663 -0.06362842 0.015800882 -0.049863715 0.09246459 0.0248012 0.02784027 -0.07998686 0.0031305437 -0.037700888 -0.020598898 -0.011249332 -0.005770579 -0.049250882 0.05164112 0.13081363 -0.039464626 -0.123245806 -0.018497922 -0.12792668 -0.13598005 -0.016214658 0.01568113 0.077252254 -0.03271899 0.045084823 -0.036859028 0.021750249 0.048215024 0.09190689 0.008762118 0.06586189 -0.022897502 -0.07790319 -0.053960327 -0.055364463 0.01611602 -0.21981376 -0.04083312 -0.11869113 0.031835973 0.029202066 -0.039656643 0.018252322 -0.011893184 0.102504306 -0.04210597 0.062171802 -0.041178655 0.018453646 0.040540565 0.026338557 0.005223548 0.057395436 -0.036875356 0.051272456 0.078507006 0.003968485 0.10649127 -0.011682802 -0.044422768 -0.13119543 0.08880934 -0.03689354 -0.040404715 -0.03474447 0.00058590726 -0.04393706 0.022063764 -0.0602361 -0.107209936 0.05962553 0.0490516 0.0032056693 -0.008132889 0.08891156 -0.081883326 -0.08382609 0.03728414 0.026119718 -0.05017741 -0.034197472 0.0020575412 0.015291021 -0.004337399 0.024972716 0.10915297 -0.01587526 0.01527301 0.038569774 0.043840256 0.09727512 -0.028011758 0.0044793473 0.034381464 -0.084976695 -0.00050223677 0.0014847423 -0.112733126 0.070886 0.088246845 0.06161505 0.00871726 -0.06060618 0.009414969 0.028337704 0.004841871 -0.031422783 0.047890935 0.0069519156 -0.16135941 0.009883616 -0.059025276 0.11736926 0.005389045 0.021426369 0.07299671 0.071224414 -0.08320198 0.027039882 -0.07561023 0.05876326 -0.16831495 0.15899588 -0.041839678 0.06743373 0.14275008 -0.055022266 0.03100622 0.033970147 -0.03135181 -0.09346329 0.05740905 -0.03636363 -0.0883317 0.06537495 0.12522826 -0.08460457 -0.010419081 0.054030646 0.049286272 -0.014771574 0.040342115 -0.13632242 -0.08303143 0.039465245 0.106751874 0.044273794 -0.037688628 -0.0013116768 0.035059985 0.034981698 -0.05231315 -0.029978277 0.011703773 -0.13745175 0.010862197 -0.013970381 0.005028239 -0.0130199995 0.09243385 0.10556559 0.10064892 -0.084307745 0.033355333 -0.045361828 -0.1528259 0.031088829 -0.05292439 0.00021674094 -0.040877055 0.042580094 0.0928833 0.0090090195 0.099816725 0.0108429715 -0.0059781494 0.047614478 -0.098712675 -0.023125932 0.01252698 0.04086932 0.08045516 0.07107717 -0.032532062 0.0019315516 -0.074440606 0.03575352 -0.06111997 0.026884664 -0.026056089 -0.050126176 -0.13934386 -0.02479197 0.14724164 0.039550807 -0.0019331563 0.04629932 0.09403283 0.12897876 0.16964558 0.08284303 -0.068048485 -0.10379778 0.09431068 0.011241643 -0.09823921 -0.19865276 0.060066383 0.11598593 0.06504958 -0.0021797419 0.019337056 0.18441086 -0.02509132 0.016816167 -0.10334103 -0.027576841 0.04754747 -0.07184579 -0.0863983 0.018332668 -0.039279535 -0.10343571 -0.0041663614 0.011541517 0.060785405 0.09761249 0.019450666 -0.016614275 0.006138983 0.0055184164 0.07110957 -0.02189629 0.075326584 -0.03610768 0.05332902 0.025504394 0.031446587 -0.00022453777 0.124066345 -0.016245987 0.0038198377 -0.012611505 -0.0454571 0.08351592 -0.042953078 0.04119106 0.052893057 0.0016597608 0.0039915135 -3.706628e-05 0.05370685 0.036855716 -0.039675254 0.0050818105 0.06589401 0.062240046 -0.10240233 -0.1232182 0.04938669 -0.16245471 0.07231822 -0.007914708 -0.06725374 0.0064562554 0.00671989 -0.076873235 -0.015574193 -0.057556175 -0.09580995 0.03032993 0.012843764 -0.047628753 -0.06959362 0.11226585 0.079734966 0.010536655 -0.09994754 -0.11804927 0.009261004 -0.017418277 0.0066501247 0.032929245 0.050205827 -0.053809635 -0.09864009 -0.039875835 0.09241538 -0.0061454796 0.07649655 -0.06884233 -0.074878655 -0.065579906 0.08284056 0.115835324 -0.026250355 0.071343906 0.056349553 -0.0008466161 0.06076997 0.007975343 -0.048241127 -0.030851528 -0.031846553 -0.09789268 -0.09272666 0.032628987 0.12528148 0.08877633 0.030327717 -0.0068237167 0.009396079 0.038053945 0.011044168 -0.026273387 -0.041641485 0.0257947 -0.04889153 -0.043555938 -0.016983634 -0.0013650013 0.14235047 -0.0094768545 0.035778526 0.02564415 -0.09577043 0.03683166 -0.0935909 0.1621864 -0.08366517 0.0440533 0.002933721 0.038794816 0.024429891 0.0405198 0.09097416 -0.08018269 0.07918835 -0.075189024 0.028500099 0.017264782 -0.10859423 0.049906462 0.08314996 -0.0035867062 -0.015753927 -0.0043566725 -0.06678081 0.07492537 0.024005068 -0.030848656 -0.05956346 -0.00828621 0.038818788 -0.015733087 0.0071656853 0.088601544 -0.007442476 -0.02914629 0.13123848 0.16015391 -0.025669333 0.0131851295 0.06835226 -0.070318766 -0.132851 -0.021071851 -0.05959173 0.043261446 -0.077744015 -0.12466905 -0.00034354042 -0.01507073 -0.12897277 -0.023847528 0.04014425 0.042640377 -0.07530693 -0.056723528 0.01756211 0.049435608 -0.0046457835 -0.02512436 0.04400269 -0.044228714 -0.06888117 0.06906157 0.001478591 -0.06416392 -0.07515655 0.08623337 0.07026644 0.036722172 -0.0092909075 0.0090490775 -0.027816711 0.007992665 -0.04748688 -0.051792115 -0.04316864 -0.052387793 -0.08268144 -0.007405604 0.10869227 0.116238765 0.12450962 0.05376888 -0.05004821 0.06730915 -0.003387346 0.004217982 -0.13526815 0.07311999 -0.032138504 0.11073805 0.018483711 0.03429027 -0.08239895 -0.042572457 -0.047774386 -0.08593972 0.0061727483 -0.038127605 -0.004096936 0.07583338 0.033885486 0.07691559 -0.004159224 -0.047028583 0.020202858 0.04263071 0.007959679 0.012644853 -0.043324042 -0.021175763 0.11204498 -0.047715027 0.024147578 -0.07778183 0.042774513 0.007589673 0.007817993 0.13316429 -0.034845646 0.028649697 0.08921448 -0.08038688 -0.07905465 0.077832736 0.015392549 0.0043952186 -0.067496195 0.005095367 -0.14708574 0.02493369 -0.047633804 -0.08038239 0.08567805 0.027338095 0.028233742 -0.12457341 0.0063312524 -0.010796899 -0.05553449 0.048827887 -0.00070854684 -0.045202672 -0.03316427 0.0038058031 0.08917809 0.07991317 0.11922517 -0.031607796 0.028528249 0.0445663 -0.048797645 0.14339988 -0.015805377 0.033284627 -0.03794084 -0.07990371 -0.11648055 0.024884785 -0.028329287 -0.06121545 0.020674214 0.07036016 -0.025969395 0.035619263 -0.08029397 -0.007322105 -0.012647594 -0.0690556 -0.06693204 0.091570295 -0.042461276 -0.12443978 0.0539283 0.0059900093 -0.04652601 0.055303883 0.022316618 0.047588512 -0.048173353 0.01360235 0.058478326 -0.081927955 -0.07934552 -0.046147004 0.01921582 -0.06698056 0.08200095 -0.03795569 0.1286197 -0.042940427 0.105963916 0.03825313 0.09851813 -0.005136756 0.02289938 0.06867188 0.0132792555 0.04876085 -0.018493265 -0.09393901 0.04678004 -0.07245692 0.005894583 -0.1208383 -0.11190085 0.03296613 -0.052688964 -0.11031951 -0.017763566 0.0338608 0.003789757 -0.08221871 0.10374533 -0.050324164 0.054854896 0.06167169 -0.026398543 0.005157304 -0.0047391746 0.016706446 0.027684908 0.060489777 0.1501629 0.108012505 -0.018052295 -0.0048358017 -0.013044472 0.06058532 -0.0967172 -0.06147008 0.056806087 0.004082983 0.04565274 -0.024133472 0.12756655 -0.029456113 -0.07963555 0.0943641 0.050203465 -0.012755462 0.00666997 0.109854646 -0.0074747624 0.073277615 0.039543446 0.05244901 -0.09215303 -0.078310855 -0.038082264 -0.008370589 0.11608625 -0.08036536 0.16095515 -0.012855802 -0.018460419 0.053174086 0.0822995 0.006190555 0.07319033 -0.035455227 0.051831033 -0.07558192 0.031300314 0.07752374 -0.06847817 -0.0940639 -0.049550276 0.009794607 -0.017167764 0.049680065 0.073892154 0.039942913 -0.06412681 -0.023552086 -0.016206352 -0.09029906 0.040956635 0.024337482 0.05631755 -0.04470483 0.0035465409 -0.04559037 0.076141596 0.040790725 -0.077510186 0.013798518 -0.14941493 -0.0652634 -0.05665116 -0.085712634 0.09818378 -0.028912399 0.026640605 0.092454925 -0.15394226 0.013980143 0.027373027 -0.040837087 7.875352e-05 0.0020710356 0.057135 0.14053437 0.056098282 -0.024796741 0.012264618 0.08850559 0.026946362 0.03296933 0.09707935 0.07874705 -0.07151359 -0.011675279 -0.051836252 -0.16027853 0.08222595 -0.12583038 -0.04384077 0.053242847 0.013836825 -0.020016886 0.038572114 0.009937634 0.010811383 -0.01848957 -0.023283191 -0.021332162 0.09284661 0.07307919 -0.035894033 -0.051862195 0.10842723 -0.090449914 0.0566475 0.14508924 0.09976467 -0.038365062 0.06503014 -0.0035127997 -0.025247334 0.17642681 0.043615118 0.03185056 -0.020775171 -0.03462177 0.0062272404 0.059869874 -0.0066775046 -0.037875365 0.094274566 0.11619915 -0.0031018902 -0.042524934 -0.15663166 -0.017402465 -0.089405715 -0.011336348 0.10544107 -0.026195154 0.14796476 -0.045486733 -0.035354003 -0.021667 -0.027234973 0.11126883 0.05385288 -0.032713804 -0.066271536 0.06496809 -0.0438202 0.02693007 -0.090584435 0.17076474 0.013458214 -0.027327258 -0.02807857 0.06385301 -0.027692597 0.013181461 -0.04906103 -0.056953903 -0.015245668 -0.09840368 0.03384579 0.02799862 -0.07160198 -0.100279786 -0.02284707 -0.011842234 -0.06717831 0.0048566638 -0.05572925 -0.09216779 0.06862249 0.088051684 -0.11873503 0.04525712 0.06254344 -0.05241116 0.03621428 0.079123005 -0.06496386 -0.0509334 0.03239009 0.058346815 0.099373 -0.061463837 0.026684605 0.035862688 -0.03976161 0.1465744 0.06766094 -0.044134364 0.013922107 0.081389375 -0.01850456 0.01641438 0.008655136 0.00503225 0.0018127742 -0.0010574951 -0.17757119 -0.09040992 0.05783001 -0.042117894 0.061653756 0.0014561503 0.12673832 0.07624933 0.15522633 0.1169044 0.05769464 -0.05185869 0.09770583 0.01718045 -0.058245726 -0.029540176 -0.15718688 0.033302154 0.06648821 -0.12815458 -0.018250281 0.038998816 -0.009808479 -0.022940107 -0.12943798 0.0094529055 -0.028940272 0.08348273 0.04955177 -0.053755213 -0.054620072 0.09982835 0.038013116 0.005353716 -0.12015735 -0.1100475 -0.026099386 0.029566443 -0.024054425 0.010283879 0.10280731 0.041840665 -0.10949327 0.14482285 0.012612273 -0.035241313 0.028410185 -0.08839347 -0.08469399 -0.0087331785 0.014516211 0.0150662735 -0.009490408 0.0065307436 0.01740613 -0.14685212 -0.009635097 -0.029212918 -0.061890703 0.05298334 0.050703183 0.018752247 -0.013250547 0.15733066 0.022040244 -0.09367396 0.10745894 0.06231321 -0.035702355 0.024420694 0.0058290567 0.051378664 -0.06189378 0.020479104 -0.05970243 -0.0004503775 0.06829384 0.020910844 -0.033863842 -0.04992695 0.019645771 -0.103963695 -0.001684998 0.020337922 0.02099181 -0.0626666 -0.058908552 0.046394605 -0.13120599 0.08391007 -0.062901795 -0.036325958 -0.08309925 -0.06755771 0.037118755 0.010810781 -0.05903764 0.082354434 0.0641516 0.021102121 0.062069073 0.03646479 -0.06055273 0.07680203 -0.03007715 -0.014485711 -0.013231402 -0.06315788 0.0005364204 0.020172074 -0.099817194 -0.015392946 0.008158613 -0.07867383 0.08552106 -0.026968205 -0.065292366 0.057908405 0.15443212 -0.08557782 0.04213655 0.021566544 -0.010126154 0.101476446 -0.014429992 0.040908135 -0.07829509 -0.03207587 -0.0020445276 -0.06233201 0.080694936 -0.14560208 -0.09270704 0.07939104 0.021416916 0.03279336 0.13628647 0.013899863 -0.032442376 -0.06277639 0.0031093024 -0.11134016 0.072506234 0.0529547 -0.09069563 0.0115726935 -0.014929252 -0.023325732 -0.029000102 0.1334086 0.017863689 -0.03998181 0.025532452 -0.005923716 -0.0076749744 0.0023692974 -0.11252283 0.06360382 0.0605674 -0.072037034 0.049554907 0.015695518 0.12425944 -0.009138819 -0.0029785817 -0.0078007393 -0.07317732 -0.00018155546 0.008958651 -0.1129857
