62 1025
shengzhi 0.072503485 -0.012556615 0.02443549 -0.0064419173 -0.022405177 0.00016494002 0.033071384 0.057077054 0.05464698 0.026860913 -0.029020866 -0.088655576 -0.08912934 0.019089095 0.0063911723 0.003731582 -0.031150425 -0.03300235 -0.034813426 -0.019750679 -0.00804916 -0.0685847 0.08047953 -0.05006515 0.01873378 -0.056150895 -0.0045624217 -0.02137694 0.03571841 0.0420728 -0.045463502 -0.03890953 0.013229253 0.01582835 0.029989703 -0.027693098 0.0072983447 -0.012675272 0.001929419 -0.045890637 0.030527499 -0.031384245 0.05351768 -0.03730598 0.03214583 -0.046457954 0.040778212 -0.048178293 0.0051248474 -0.0066405335 -0.17485997 0.039831914 0.06334633 0.048894573 0.019070148 0.13362098 0.021199744 -0.00465287 -0.0234399 0.01804988 -0.09442522 -0.017767 -0.004902554 0.023747453 0.107463785 0.080168664 0.0905566 0.0152820945 0.03975016 -0.008840338 0.0028460606 -0.0054995464 -0.0360748 0.05497436 0.005229944 -0.050242428 -0.005470939 0.0075234836 -0.0329366 0.041618686 -0.01235524 0.014103032 0.016867561 -0.02294107 0.0413434 -0.039606594 -0.070651546 0.09316775 -0.0069411304 -0.0020962933 -0.013839794 0.008427988 0.012793257 -0.022044247 -0.0014642985 -0.04106007 -0.020566225 0.080435656 0.07168633 0.055905025 0.041250926 0.0011259731 -0.02522521 0.10666983 0.01069814 0.06789901 -0.07595444 -0.06732045 0.04162896 0.028973874 0.059975836 0.048147857 0.042424526 0.060984544 0.025679199 -0.054130193 0.029454425 0.017942574 -0.060099438 -0.045124877 -0.013495193 0.027285056 0.05394803 0.0021429502 0.09209298 -0.0021718105 0.050158143 -0.036806952 0.03898318 0.034494024 -0.022040337 -0.03694072 0.04476465 0.07642803 -0.07389832 -0.062017713 0.010177733 -0.06528733 -0.033313338 -0.0883921 -0.026708612 -0.00028650448 0.116171494 -0.100266635 0.023993438 -0.017603343 -0.007229438 0.02229198 -0.02779312 0.087287195 0.14298522 -0.01939651 0.028927935 -0.10388084 0.013127978 0.038606957 -0.0075892033 0.072002634 -0.029397042 -0.04111615 -0.09650298 0.010238021 -0.007863946 0.0010517732 -0.07372018 -0.028879916 -0.0039735376 0.005911048 0.030176654 -0.026694728 -0.008923722 0.11111343 -0.025997175 0.007415052 -0.0013907695 -0.071222804 -0.02676151 0.051888436 -0.018466903 -0.0450801 0.016656063 0.017667884 -0.056537826 -0.083756715 -0.010614373 -0.05234054 0.041351914 0.022577181 0.0014709402 -0.029437795 0.016195795 0.04019948 -0.009428329 -0.030888172 0.014550134 -0.026394645 0.049438406 0.03060112 0.080249436 -0.08114237 0.029613849 0.06610526 -0.0070819757 -0.018760718 -0.03066546 0.018642172 -0.008143923 -0.06218979 -0.014591174 -0.05071625 0.027185397 0.010903018 0.009969717 -0.032307558 0.046698228 0.041107975 -0.03319054 0.020588482 0.016972525 0.07999034 -0.003896453 -0.02969353 0.00484777 -0.004512034 -0.07876157 0.011942911 0.008601175 0.0061742393 0.053190444 -0.08825204 -0.021741502 -0.037395842 0.014278165 0.04964387 -0.11140589 -0.01858625 -0.01289792 0.037362702 0.029222501 0.037570536 0.032597207 0.029332686 -0.049109437 -0.034488443 -0.07885947 -0.064735666 -0.01839204 -0.036549915 0.0023741773 0.037677966 0.059731416 0.0929011 0.031350188 0.0247336 -0.014771933 0.0774989 -0.0072338833 -0.07332934 -0.055944785 0.0027617442 0.05840466 0.03362173 0.030105827 0.03231611 0.055762265 -0.015435716 -0.091859736 -0.018407224 -0.09689507 -0.008654304 -0.021757673 -0.08245416 0.064286314 0.04521673 -0.13781461 0.022451798 -0.01508076 -0.11875032 0.08911712 0.04918559 0.00864203 0.060139325 0.0073941527 -0.053399738 -0.020121673 -0.07741249 0.014215543 -0.1176163 -0.03385364 -0.032341678 0.04194283 -0.040218353 -0.042770248 -0.008073503 0.12634635 0.005320071 0.11257995 0.06662184 -0.03263266 0.009700948 -0.043598093 -0.046401884 0.00043936213 -0.01048894 0.020654827 0.01530554 0.023640838 -0.008273862 0.0674626 0.06666396 -0.07534113 -0.016902048 0.025131023 -0.0065082535 0.023372343 -0.01727971 -0.054031335 -0.011525643 -0.025225842 0.009497779 0.07208297 0.025953477 -0.025667084 0.078191236 0.020324193 -0.05481856 -0.016649127 -0.05529777 0.079010345 -0.072907574 0.026643226 -0.013421715 -0.0782917 -0.045787554 0.028773813 -0.06726237 -0.019326879 -0.02143454 -0.01570165 0.045478765 1.4512729e-05 0.047873374 0.07347374 -0.039116763 0.035733793 -0.026921902 0.0355086 0.079712816 0.018176915 0.018886615 0.07587208 -0.06543644 -0.036388963 -0.06025169 0.007302271 0.029010957 0.006283925 0.040130455 -0.022662608 -0.019478777 -0.006542221 0.0060428125 -0.0057579326 -0.06344092 -0.016418481 0.08121031 -0.00040890533 -0.0031831514 0.032194693 -0.013901247 -0.047117677 0.09136536 0.033239774 0.018137967 0.049967587 -0.0044295536 -0.051620178 0.05977806 -0.015876211 -0.004994479 -0.06719089 0.07525337 0.0025266882 0.013083778 -0.025706518 -0.053349495 0.05496824 0.07418852 -0.0077428436 0.0051690517 -0.032630708 -0.03816201 -0.07279336 0.104217984 -0.0037749212 -0.01166205 0.014005918 -0.036934804 -0.06923251 0.020340329 0.012346486 -0.018065708 0.05180312 0.03818269 0.03633585 0.07563533 -0.03306076 0.05489216 -0.044157274 -0.018291833 0.1378632 0.05278299 -0.09216306 -0.018309789 -0.069374196 -0.093449384 0.0729184 0.07462902 -0.007675469 -0.007600675 -0.08307453 0.01623815 -0.08962461 0.02902086 0.049829286 0.03451198 0.07563917 -0.03195777 0.04779576 -0.0067092297 0.059870854 0.05102314 -0.003267315 0.057528954 -0.06822362 0.00017087159 -0.017075684 0.016225344 -0.0026266298 -0.0089138 0.015541626 -0.04333517 0.034862764 0.021553306 -0.05936975 -0.11471396 0.024196483 0.007385816 -0.006141036 -0.018603543 0.015225186 0.0007366367 0.08556933 0.033666924 0.039854836 -0.0034270445 0.023805048 0.046456408 0.10175282 -0.0015398263 -0.042781293 -0.006730747 -0.009027136 -0.01771301 0.04359296 -0.11466867 0.0090983715 -0.057984132 -0.06491695 0.03778768 0.08149946 -0.05625248 0.095837474 -0.046542205 0.16131994 0.013821862 0.03223758 0.062083565 -0.0017097533 0.023191892 0.03746464 0.08835494 -0.0405729 -0.038506348 -0.051997352 0.04220464 -0.026174165 0.03212933 -0.10339814 -0.08569186 -0.06300651 0.039810423 0.07692592 0.036584113 -0.107689 -0.050590158 -0.021875566 -0.03378258 -0.0757455 0.05615064 -0.04246231 0.0056335293 -0.012862733 0.048472848 0.028212622 0.0034925926 -0.08174499 0.015142912 0.042373177 -0.014890692 -0.024647547 -0.038930297 0.022901632 -0.007226882 0.020811718 -0.0010295546 -0.031881634 0.019166654 -0.015089962 -0.03990051 -0.014490856 0.03993135 0.018961381 -0.015019613 0.00011518224 0.032255027 -0.008161741 -0.039821196 -0.018164543 0.01781451 0.009830832 -0.017625855 0.012013378 0.08372187 0.035631813 0.045394145 -0.04784253 0.010451971 0.069159746 -0.023463642 -0.017632453 0.012758292 0.003150359 0.012360733 -0.048021633 -0.014356889 0.04583354 -0.046179026 -0.032887284 -0.008974892 0.026556632 -0.026450345 0.030836066 0.07370045 -0.0018365632 0.110614076 -0.0853227 0.05137613 -0.042088956 -0.019403594 0.019105934 -0.048306305 0.070804425 -0.023172714 -0.027497146 -0.08017231 -0.057094987 -0.0006693023 -0.028437786 -0.005968591 -0.04845301 0.0018912705 -0.0015971407 0.08631895 0.04914982 0.0016163667 -0.020630836 0.05364792 0.07575717 0.085450314 0.00051134714 -0.02402466 -0.0051774383 -0.13309062 0.055839088 -0.02620022 -0.084924035 0.049666446 0.07121447 -0.044818856 0.11535947 0.039956547 -0.022261817 0.04863624 0.09159737 -0.0099285 -0.010913281 0.073093124 0.021875257 -0.007583459 -0.001929362 -0.012932949 -0.022575814 0.05588646 -0.037832756 0.034703795 0.055968154 -0.011293063 0.009509674 -0.04057448 0.053171497 -0.012020392 -0.026407883 -0.030719055 -0.042027455 0.062820956 0.02561314 0.037047382 -0.054642078 -0.023279 0.045482095 0.04354393 -0.14296855 -0.020792145 0.08764901 0.044302978 0.00028529728 -0.0055837044 -0.0634913 0.10165181 -0.06041915 -0.045338854 -0.014401392 0.12502313 0.008893656 -0.001239654 -0.0026644445 -0.0026671307 -0.010468005 0.0076460503 0.013122375 0.07373712 0.110157296 -0.028476259 -0.07527413 0.056490466 0.033110823 0.035897426 -0.09134544 -0.06464849 -0.034757175 0.039811388 -0.02375882 0.0705343 0.048062623 0.03745119 0.060975753 -0.05288875 0.045106992 0.041577045 0.017717063 -0.0041478323 0.055740844 0.015176583 -0.00076039735 0.061530575 -0.08568084 -0.013011174 -0.048382636 0.004702776 0.010105252 0.06365665 0.07525755 -0.0707386 0.048804104 0.03930803 0.11008768 -0.02432728 -0.10061197 -0.077196054 0.02512021 0.027766088 0.078914896 -0.0009537191 -0.017046228 -0.031779487 -0.026469374 -0.021525577 -0.085403055 0.0028554166 -0.04952495 0.05077493 -0.034263194 0.035652902 0.0030450588 -0.08363687 -0.018036405 0.031494677 -0.052672394 -0.016785985 -0.042014405 0.008806481 -0.027123848 -0.035377547 -0.026397785 -0.021468995 -0.018014904 -0.066600025 -0.09352681 0.040702887 -0.06369903 -0.0074002077 -0.0051018014 -0.04125701 0.0055314153 -0.03234746 -0.08208999 0.024185754 -0.045302406 -0.034771025 -0.07803889 -0.011520292 -0.018278208 0.017701114 -0.037541978 -0.03445658 -0.08532838 0.042754337 0.03446817 -0.079999626 0.010062087 0.039726216 0.014480248 0.0070196916 0.04333738 -0.04316885 0.039925765 -0.04223918 0.06923049 0.0042737075 0.02659614 -0.04672422 0.05075681 -0.008276313 0.025523806 0.018842654 -0.026424129 0.0034482835 -0.051780093 0.05823346 0.024328472 0.058882296 -0.034521576 0.031748768 0.11382622 0.021891516 -0.05044944 -0.031524137 -0.018801691 0.04343991 -0.01279447 -0.032570697 -0.035663165 0.042704787 -0.057759043 -0.09037538 -0.042543273 0.064667314 -0.03742302 -0.011047785 0.011429126 -0.00013080955 0.0047729798 0.02441533 -0.003897179 0.0058458117 0.046728346 0.070749976 -0.037275296 0.00856289 -0.085055925 -0.08667509 0.03582245 0.03627999 0.02349383 0.010845625 -0.0023819462 0.031864263 0.06099147 0.07580548 -0.06589693 -0.06922578 0.09282624 0.07440232 0.07878462 -0.05735591 -0.048916113 -0.029211834 -0.029544879 -0.0113097085 -0.013769603 -0.08109313 -0.039763883 -0.052287214 -0.056942124 -0.018847851 -0.09417251 0.0046033203 -0.037722636 0.076913565 -0.077434875 -0.051389746 -0.00069840474 0.02887954 0.0151538495 0.012449354 0.00836406 0.01543712 0.07182078 -0.052751392 -0.07894477 0.027415324 0.09940379 0.040496267 0.11286556 0.00069496996 0.015468991 -0.055904683 -0.01693648 0.044638187 0.048365008 -0.023561664 -0.001171856 -0.013479484 0.038094204 -0.06339585 -0.06661573 -0.059245497 -0.028228916 0.002989244 0.02993724 -0.03300635 0.020613363 0.03154088 -0.057501912 0.0011598379 -0.048796065 -0.00015530628 0.047594845 -0.0547644 -0.08784165 -0.039440766 0.02711882 -0.0012988391 -0.08106949 -0.05597586 -0.039461836 0.0658216 -0.03949248 0.011035696 -0.049335644 0.07702366 0.099513836 -0.013587899 0.014343714 -0.018113032 -0.018782433 -0.01505034 0.027115935 0.042986978 0.04947753 0.0051468667 0.02159874 -0.018492367 0.015769467 -0.025998605 0.041943047 0.020651909 -0.074209884 -0.02425939 0.00038225774 0.0041577807 -0.078933366 0.031563047 -0.01888777 0.042673957 -0.107604966 0.0120214475 -0.014701898 0.018086337 -0.0070729563 0.051642317 0.10007088 -0.04584436 0.022850104 0.06320184 0.029691925 -0.0012833715 -0.054663576 -0.065208614 -0.045270685 -0.06262192 -0.069448546 -0.04539895 -0.02202095 0.0039624153 -0.023402544 0.04786765 -0.057839923 -0.02550872 0.0170842 -0.029933276 -0.0002420485 0.033250775 0.044376552 -0.013137903 0.055450786 -0.054844182 0.006124534 0.012229234 0.09361913 0.017704427 0.031025097 -0.018060073 0.023738777 -0.0052807378 -0.018685812 0.03892936 0.014633623 0.015044848 0.009286536 0.020744804 0.049487047 0.05675627 -0.048428223 0.046203393 0.029025005 -0.037976973 0.022842716 0.07306592 0.0038573267 -0.059269633 0.037186924 0.045500666 0.05992046 -0.015852498 0.027057216 -0.04280748 0.021020666 0.061613806 0.063115 -0.04363168 -0.020691814 0.037501268 0.036437668 -0.029824432 -0.0062195705 0.120140776 0.031819094 -0.065009944 -0.012577569 0.044858966 -0.0012642422 -0.04502778 0.047967415 0.045283236 -0.024171274 0.03881418 -0.059057318 -0.030181086 -0.01438497 -0.0168809 -0.017319007 -0.073322654 0.0076284083 0.11333028 -0.071153596 0.07156785 -0.08206956 0.018921716 0.0562126 -0.049889013 -0.0028551223 0.023117252 0.019079996 0.046451986 -0.011074733 0.015688451 0.08531055 0.10171666 -0.14152017 0.024225343 0.05420723 -0.018720953 -0.055971265 -0.015121551 -0.062113095 -0.05182163 -0.040133916 -0.041900158 0.05106282 -0.018148705 0.03378687 0.03475128 -0.041739203 -0.025458897 0.011311215 0.03401739 0.017158758 -0.022246348 -0.06499929 0.025806498 0.046452932 -0.027553875 0.0014869056 -0.06955174 -0.09998256 -0.0027967233 0.016452217 -0.014652438 -0.048298135 -0.077166244 -0.027705777 0.083335735 -0.066539824
一套 0.068658955 -0.012378817 0.023561256 -0.0067300126 -0.019963844 9.3341376e-05 0.031252738 0.054369 0.051335447 0.02551704 -0.026456648 -0.08385473 -0.084272675 0.017995616 0.006369684 0.004121738 -0.029311303 -0.0307574 -0.032375343 -0.017266551 -0.0066265115 -0.06368757 0.07581408 -0.04577788 0.017008774 -0.05277044 -0.0053434297 -0.021068802 0.03345239 0.0411748 -0.043028682 -0.03738516 0.013005142 0.015085565 0.02814498 -0.026784034 0.0074093775 -0.012425976 0.0005101203 -0.043483622 0.027773773 -0.029813059 0.05094224 -0.035979714 0.030817805 -0.045037434 0.039740853 -0.046380613 0.005018027 -0.0056740586 -0.17062806 0.039304584 0.062157992 0.048360296 0.019256735 0.13292466 0.021358512 -0.0048702112 -0.023498334 0.018608982 -0.092702106 -0.018039666 -0.0051844437 0.023733536 0.10527208 0.07917292 0.09040102 0.016034108 0.04043113 -0.008346487 0.0024610206 -0.0065484024 -0.03664454 0.054470662 0.0051873685 -0.050517067 -0.0059218104 0.0077605485 -0.033104077 0.041312292 -0.011691882 0.0132491 0.016528647 -0.023515444 0.04086592 -0.03978482 -0.06942651 0.09168511 -0.006955228 -0.0030797168 -0.012634729 0.008217408 0.012003393 -0.021854477 -0.0011626581 -0.03975192 -0.021479681 0.079109125 0.06934424 0.05426035 0.040851105 0.0009677892 -0.023842372 0.10399516 0.009867948 0.066343136 -0.074038304 -0.06592966 0.040117405 0.028791938 0.059248626 0.047028795 0.042052995 0.059493426 0.02480201 -0.05276246 0.02858756 0.017480925 -0.059458666 -0.043916184 -0.013315671 0.027096767 0.05284193 0.0029515568 0.09067897 -0.0029123828 0.049689762 -0.035530128 0.038041275 0.03457471 -0.021041444 -0.0367025 0.04404704 0.075987555 -0.072707005 -0.060143143 0.010545251 -0.06454092 -0.033310022 -0.08710547 -0.027690861 0.0008690815 0.11483415 -0.099061795 0.023679325 -0.017146897 -0.0068343305 0.024035905 -0.027173333 0.08650487 0.14049345 -0.01890707 0.028716505 -0.10206108 0.012830642 0.037887204 -0.008582134 0.07150198 -0.029540654 -0.04090614 -0.094645545 0.010859589 -0.0077161714 0.00090794463 -0.07379966 -0.02842078 -0.0032706228 0.00531442 0.029343616 -0.0260701 -0.008045199 0.10974456 -0.025959376 0.0066417023 -0.0008129344 -0.07079047 -0.02717896 0.050129328 -0.017546186 -0.044530828 0.016480338 0.016311163 -0.056322575 -0.08146635 -0.012562344 -0.05073622 0.04103505 0.022658804 0.00254841 -0.029704249 0.015165365 0.03953247 -0.008794521 -0.02976452 0.013926242 -0.026338473 0.048959844 0.02932445 0.07899927 -0.081925936 0.029797658 0.06686514 -0.0061423033 -0.018451069 -0.030883921 0.019846285 -0.008914673 -0.061665434 -0.015527033 -0.04972862 0.027554337 0.010360773 0.0090070665 -0.032613304 0.04640278 0.041416727 -0.03301569 0.020143911 0.017704228 0.07981086 -0.004541763 -0.029892735 0.0038602531 -0.0041659814 -0.07826119 0.011961765 0.008225253 0.0060825883 0.05192886 -0.087485775 -0.022095537 -0.0372707 0.014396044 0.050064687 -0.111543715 -0.019237706 -0.012771731 0.03845986 0.030019736 0.03718402 0.032826874 0.029258272 -0.04864362 -0.034560982 -0.078271516 -0.063831046 -0.018605396 -0.03743608 0.003827484 0.0366678 0.05851349 0.09240378 0.030896913 0.023716241 -0.014158012 0.07668476 -0.0077507724 -0.072110124 -0.055231944 0.0023929314 0.058617447 0.033349644 0.029740818 0.03225817 0.056006253 -0.014328164 -0.09155264 -0.019086627 -0.09618426 -0.009715217 -0.020862576 -0.08132078 0.0637829 0.044478383 -0.13813196 0.022530172 -0.015728671 -0.117544554 0.08738918 0.048916746 0.008288549 0.060382202 0.007941366 -0.05373623 -0.020828135 -0.07805517 0.014214265 -0.11785899 -0.032960556 -0.03309477 0.042113572 -0.04047858 -0.042339507 -0.007979226 0.124909036 0.0046725795 0.11075493 0.06735052 -0.032764886 0.009580341 -0.043101683 -0.04622704 -0.00019283597 -0.010840778 0.02125405 0.015343177 0.024497796 -0.008254794 0.068368435 0.06678334 -0.07411785 -0.017513 0.024162441 -0.0066638445 0.02246791 -0.018254047 -0.05387304 -0.012255576 -0.025316339 0.010039493 0.07139913 0.025845708 -0.025410205 0.07756104 0.020039244 -0.054906216 -0.0166832 -0.055181593 0.07939425 -0.071937144 0.025845004 -0.0131902825 -0.078307696 -0.046088386 0.029356107 -0.06727226 -0.019385092 -0.021898646 -0.015513777 0.04544026 0.0002877792 0.04859497 0.07292351 -0.039155237 0.035589263 -0.02756373 0.034163542 0.07979014 0.018835887 0.018768102 0.07616604 -0.06423605 -0.036713906 -0.060260173 0.007940356 0.029970191 0.0054198084 0.040883075 -0.02238846 -0.01857621 -0.0067308075 0.006111425 -0.0057842555 -0.06236829 -0.01591707 0.08033033 -0.0010300669 -0.0029083283 0.03289349 -0.014411609 -0.04612187 0.089936376 0.03259238 0.017815433 0.047846396 -0.0046939817 -0.04997365 0.05777201 -0.016010445 -0.0041513545 -0.067753226 0.074973114 0.0019311011 0.012516359 -0.024930812 -0.052094843 0.055181526 0.07434456 -0.00682363 0.0056869746 -0.033183422 -0.03888826 -0.07415635 0.1063617 -0.004746722 -0.011779154 0.012854585 -0.036823682 -0.070177376 0.021874014 0.0130712325 -0.017725889 0.053136647 0.038588356 0.036772974 0.075287625 -0.034339707 0.05539944 -0.04397007 -0.017791344 0.13943534 0.05292953 -0.09312272 -0.019053973 -0.070505455 -0.09558958 0.07366622 0.074879095 -0.0066340854 -0.008818655 -0.085021846 0.015912754 -0.09069838 0.02961183 0.04991235 0.03528494 0.075663425 -0.031796154 0.04795781 -0.0062853377 0.060963843 0.051606152 -0.003043775 0.05742153 -0.06940368 -4.5793648e-05 -0.017245254 0.01707349 -0.00315821 -0.009172632 0.015065485 -0.043037124 0.035278738 0.021500584 -0.061109286 -0.116112866 0.024570338 0.006744754 -0.0065829027 -0.01873214 0.015081734 -0.00020415954 0.08569734 0.032871116 0.041204263 -0.004570821 0.024634518 0.046527173 0.10228177 -0.0001826687 -0.043694943 -0.0060167518 -0.010145958 -0.017102912 0.044475663 -0.114816934 0.009144873 -0.05904225 -0.0664673 0.037598588 0.08124056 -0.055508684 0.09629675 -0.046978887 0.16196337 0.014930981 0.031967532 0.0629828 -0.0012299375 0.024025632 0.037619684 0.089355394 -0.040377818 -0.03899833 -0.05229102 0.04287443 -0.027118655 0.031785656 -0.10375302 -0.08481388 -0.062469047 0.04078537 0.077495545 0.03597501 -0.10892127 -0.051990207 -0.021413682 -0.034261312 -0.07628897 0.055923358 -0.042313658 0.005173482 -0.013874885 0.049146745 0.028318545 0.0037486833 -0.08163621 0.014645374 0.0410263 -0.014659722 -0.024627361 -0.038470697 0.02325932 -0.0068403697 0.02071428 -0.00021111389 -0.03210921 0.01896204 -0.015312977 -0.04073232 -0.014808938 0.04105725 0.019086132 -0.013622547 0.00028670073 0.033305 -0.0087741325 -0.041280657 -0.019418487 0.017319726 0.010041406 -0.018282752 0.01206973 0.08493539 0.035235506 0.04578474 -0.047625825 0.009808372 0.06964476 -0.023262445 -0.01849641 0.012882832 0.0032479737 0.011453563 -0.04809021 -0.015014658 0.04647955 -0.04623135 -0.032491226 -0.010165829 0.026961781 -0.026855884 0.030264625 0.074579015 -0.0013500965 0.11115123 -0.08699408 0.050906297 -0.04262671 -0.019402731 0.019683054 -0.04779803 0.07240139 -0.023099931 -0.02701772 -0.081158556 -0.057149783 -0.0007320945 -0.02842489 -0.006446744 -0.049227707 0.0012170589 -0.0010568913 0.087373465 0.049547665 0.0021816574 -0.02128479 0.053997252 0.07618453 0.08617544 0.0008581291 -0.024773339 -0.005378452 -0.13343821 0.05637209 -0.026430776 -0.085375525 0.048975807 0.071242414 -0.045241974 0.11476793 0.040139638 -0.022042276 0.049003687 0.0913398 -0.010406412 -0.010737627 0.07356298 0.022293627 -0.008344344 -0.0023702106 -0.012470871 -0.022266818 0.055040024 -0.038000535 0.034268484 0.056476284 -0.010470744 0.009733379 -0.04072256 0.05421809 -0.012209064 -0.026034508 -0.03199596 -0.04247092 0.064151585 0.025918083 0.03596479 -0.05434916 -0.023595026 0.046297234 0.043748297 -0.14311072 -0.020953182 0.088635206 0.046193216 -0.00092948123 -0.005246564 -0.063211925 0.1019977 -0.061515845 -0.04582424 -0.015196015 0.12471374 0.008368709 -0.0015835926 -0.0021490604 -0.0029918656 -0.01092608 0.007976865 0.012822812 0.07315669 0.11029196 -0.027814837 -0.07554888 0.056156553 0.03231888 0.03612275 -0.09146577 -0.06395711 -0.034593236 0.040184226 -0.024797237 0.07081512 0.048412457 0.037247337 0.061601385 -0.05217679 0.04532462 0.041046508 0.01796261 -0.0048520127 0.056633912 0.015359914 -0.0005082662 0.061755825 -0.08672135 -0.013856043 -0.04882198 0.0052931444 0.009923309 0.064048775 0.076540425 -0.07185085 0.04926813 0.039161522 0.10953718 -0.023787698 -0.101147935 -0.077089205 0.02492603 0.028173454 0.07926836 -0.0017530108 -0.018029857 -0.03231144 -0.025706112 -0.021455225 -0.08604899 0.0018742763 -0.050195437 0.051239055 -0.03466213 0.034660082 0.002126942 -0.08276562 -0.018632527 0.030634481 -0.05285966 -0.015935615 -0.041864425 0.008788697 -0.027436228 -0.035078865 -0.025569262 -0.02168374 -0.017331272 -0.066735126 -0.09277425 0.04030987 -0.06269155 -0.007546679 -0.0058114906 -0.04221756 0.0044697025 -0.03351961 -0.080695756 0.022709852 -0.044657025 -0.03336088 -0.07883292 -0.011157426 -0.018370936 0.019238414 -0.035595898 -0.034617927 -0.08376474 0.042272516 0.033799894 -0.07857179 0.009828517 0.03908236 0.013475105 0.0071210093 0.042833623 -0.04306421 0.039887927 -0.041128606 0.06879396 0.0039041147 0.025601042 -0.045707934 0.050141595 -0.008704819 0.025026677 0.019371575 -0.026280243 0.0023748141 -0.050917126 0.056383345 0.02453753 0.05715481 -0.034854755 0.032089733 0.11326469 0.021762412 -0.0499913 -0.032364897 -0.017789597 0.04422931 -0.013173851 -0.033630647 -0.035996333 0.043456346 -0.05838489 -0.091648884 -0.043165933 0.064992435 -0.03686712 -0.0104171885 0.011031573 -0.0012666205 0.0055087814 0.025021426 -0.0041057435 0.005944207 0.045989096 0.06975783 -0.036735065 0.0085021285 -0.08576679 -0.08624654 0.035715744 0.036773864 0.023878945 0.011562575 -0.0032058912 0.032728087 0.061176445 0.07516038 -0.06628462 -0.06822457 0.09316832 0.07431514 0.07830295 -0.056718808 -0.04965194 -0.029731033 -0.02961399 -0.010819946 -0.0139941955 -0.08065473 -0.03956234 -0.051921517 -0.056899324 -0.020291502 -0.09317007 0.004744392 -0.037451815 0.07710945 -0.07821442 -0.05199448 -0.0013176574 0.02940956 0.014389549 0.013867879 0.008731144 0.015064334 0.07264595 -0.053301133 -0.0802574 0.027075706 0.09879152 0.039648116 0.11285826 0.0016430333 0.015009608 -0.05630146 -0.016785715 0.044619963 0.048993204 -0.02273332 -0.0002606476 -0.014197524 0.038501844 -0.06509359 -0.066560216 -0.05860167 -0.02746379 0.0042737015 0.03035773 -0.032945693 0.02158068 0.031347886 -0.057692483 0.00093705254 -0.04874969 0.0002394215 0.048538793 -0.055120394 -0.08826701 -0.03993894 0.027036784 -0.0006725043 -0.08200208 -0.054507505 -0.039589863 0.06655259 -0.039720416 0.011057869 -0.049177866 0.0770566 0.09939306 -0.013668959 0.014301597 -0.018196488 -0.019773057 -0.015025863 0.028158357 0.04232467 0.04933282 0.0054614847 0.021463454 -0.018662501 0.015637219 -0.024755597 0.043373864 0.020270152 -0.074557945 -0.0234369 0.00011835342 0.004017396 -0.07900775 0.030946223 -0.01828513 0.041801095 -0.106702276 0.012479223 -0.014634969 0.01776516 -0.0066174967 0.051874645 0.10078563 -0.046754487 0.022475157 0.06405993 0.02927518 -0.0011305182 -0.054631118 -0.06612232 -0.04661091 -0.06379244 -0.070134334 -0.046532936 -0.02176444 0.004191224 -0.022968004 0.049331263 -0.059549894 -0.025293881 0.018390432 -0.03054051 -0.0005750157 0.033416677 0.044267785 -0.011810722 0.055716176 -0.05458537 0.006663069 0.012134891 0.09425414 0.018106999 0.032556016 -0.01716723 0.024304895 -0.005920608 -0.01915756 0.039825663 0.014854337 0.014793707 0.010402699 0.02041213 0.049730353 0.05735098 -0.049758654 0.046754993 0.02852797 -0.037500292 0.022094175 0.07313703 0.0045148046 -0.06023477 0.03803083 0.045265347 0.05969242 -0.016392045 0.027283225 -0.04292066 0.02161811 0.06211028 0.06360391 -0.04354532 -0.020500973 0.037597638 0.03646582 -0.028664855 -0.005832461 0.12110727 0.032280307 -0.06598748 -0.011783476 0.045644023 -0.0010607316 -0.044965304 0.048002876 0.04593271 -0.025262313 0.038090024 -0.05927884 -0.03042031 -0.014131495 -0.01737903 -0.017312232 -0.07347489 0.0069839237 0.11334191 -0.071429186 0.0717247 -0.082355306 0.018515222 0.056912128 -0.050013773 -0.0028750228 0.023054268 0.019352155 0.046859257 -0.01192356 0.01569464 0.08580253 0.10181852 -0.14197445 0.023678677 0.053423222 -0.017785436 -0.056449816 -0.01503272 -0.063601434 -0.052074976 -0.040542953 -0.04111308 0.051609088 -0.018105252 0.034131624 0.03494654 -0.040949628 -0.024235915 0.011891772 0.034324426 0.018013833 -0.022872735 -0.064862326 0.026919013 0.04663919 -0.027736194 0.0007426876 -0.069780245 -0.10099122 -0.0030169943 0.016615748 -0.014678857 -0.048911404 -0.07855056 -0.028011104 0.08421631 -0.06802987
一房 0.07359064 -0.014105111 0.025443751 -0.007548841 -0.022238368 0.0010113623 0.03357222 0.055613875 0.055800088 0.026520222 -0.028334536 -0.09102801 -0.09217775 0.018944109 0.0063862633 0.005331881 -0.031344518 -0.033167858 -0.035830893 -0.019020287 -0.007807433 -0.06671854 0.07998881 -0.047889825 0.01937655 -0.05492963 -0.0064715743 -0.022692645 0.03703825 0.043600462 -0.04715793 -0.039071634 0.014352766 0.016517518 0.030494548 -0.026530389 0.008788781 -0.0129263215 0.0014787996 -0.04596493 0.02981696 -0.031368658 0.051205255 -0.036547963 0.030238295 -0.043264758 0.040323414 -0.047245268 0.0041258736 -0.005616236 -0.16963506 0.039033916 0.06416733 0.04876683 0.019915387 0.13429019 0.0203139 -0.0047267275 -0.024087343 0.017549133 -0.093240224 -0.018004745 -0.0059163957 0.025244055 0.105505235 0.08095354 0.09100824 0.016047955 0.041003257 -0.0077754497 0.0027496351 -0.006383611 -0.03749882 0.056322664 0.005996908 -0.0519238 -0.0042664036 0.0064339926 -0.0331863 0.042809214 -0.013220563 0.013773676 0.016281564 -0.023845028 0.04013455 -0.039718248 -0.07004622 0.09270785 -0.008760095 -0.003625178 -0.01226012 0.0078057 0.012366234 -0.022568444 -0.000519323 -0.04143669 -0.020919615 0.07983746 0.07016798 0.05593383 0.041828174 0.0012439156 -0.023317989 0.10595981 0.009696338 0.06831937 -0.075330555 -0.068119876 0.04176955 0.028461033 0.06008973 0.049427517 0.04204071 0.061913762 0.02474069 -0.05334764 0.030974904 0.0182091 -0.059759896 -0.04502221 -0.015000594 0.028277667 0.053078968 0.0031920953 0.094296485 -0.001502904 0.05191694 -0.037305437 0.040492266 0.03497464 -0.023222573 -0.036986712 0.04544942 0.079426594 -0.07489809 -0.062226895 0.011791175 -0.06453439 -0.03452543 -0.08919432 -0.028419834 0.00037402284 0.11802217 -0.10130592 0.024036214 -0.017291032 -0.007705959 0.02321231 -0.028029097 0.08881373 0.14438513 -0.018188767 0.02939803 -0.10346868 0.013017095 0.0388461 -0.0087243365 0.07313552 -0.02901209 -0.042956334 -0.09656342 0.011484161 -0.009136768 0.0007247811 -0.07465626 -0.030311475 -0.0046047745 0.0056223157 0.028915184 -0.026985211 -0.007441264 0.11204201 -0.027065484 0.008079132 -0.00048097305 -0.07135487 -0.027658615 0.05116774 -0.018082328 -0.045099765 0.016490389 0.01809153 -0.058314383 -0.08436654 -0.013305862 -0.05144665 0.041940372 0.022211509 0.001948688 -0.029859126 0.01683262 0.039898228 -0.009804726 -0.03190432 0.014867112 -0.024832701 0.050341893 0.028726567 0.08116123 -0.08345218 0.030236866 0.068357036 -0.0063066995 -0.018032264 -0.031121185 0.020191563 -0.007464737 -0.06345996 -0.014566211 -0.05192745 0.028521815 0.011343474 0.0086317435 -0.032990936 0.047048096 0.042422425 -0.03434591 0.019187903 0.01795146 0.08154948 -0.0043303315 -0.03040912 0.0038999822 -0.0056314333 -0.080454916 0.012859095 0.0072425106 0.0073215743 0.05400415 -0.09002732 -0.02325308 -0.036722984 0.013945567 0.049835127 -0.11279316 -0.019778542 -0.013797749 0.0384392 0.029647045 0.03959338 0.033839334 0.030136269 -0.05050254 -0.035503678 -0.079902746 -0.06514137 -0.019156208 -0.037870836 0.0032786608 0.037201647 0.060832456 0.09437281 0.031283606 0.025590446 -0.015466024 0.07961025 -0.006668419 -0.0748829 -0.057753492 0.002314357 0.060279187 0.033764254 0.030756071 0.03219417 0.057643205 -0.014843136 -0.09330867 -0.018844096 -0.09731346 -0.0094665075 -0.021295106 -0.08297852 0.06584598 0.04587061 -0.14152016 0.02211962 -0.015824538 -0.12032675 0.09002053 0.048833333 0.009619838 0.06240298 0.007865861 -0.05444885 -0.021297796 -0.081018224 0.014431465 -0.121260256 -0.033401836 -0.03412901 0.044577822 -0.04058257 -0.04209531 -0.008665185 0.12840863 0.0045897895 0.114589214 0.069199935 -0.035709366 0.008598669 -0.043705788 -0.047375493 0.00013762832 -0.011747081 0.022010686 0.015037127 0.025298867 -0.009230946 0.0709439 0.068000756 -0.07778388 -0.018207835 0.024848383 -0.0066317464 0.023566993 -0.01770661 -0.05425582 -0.012257762 -0.026699979 0.008039777 0.07347027 0.02676502 -0.026785526 0.07889732 0.020885559 -0.056572318 -0.016775705 -0.055696636 0.08295689 -0.07459679 0.026665855 -0.01444945 -0.079447605 -0.047248773 0.030817373 -0.06823954 -0.019458506 -0.022036685 -0.016068015 0.046846665 9.799135e-05 0.0493868 0.076152764 -0.03908264 0.036489118 -0.026737262 0.0364805 0.082408205 0.019341405 0.018163852 0.076968685 -0.067120485 -0.036850132 -0.06360902 0.00692699 0.029778313 0.005851995 0.040766735 -0.023200851 -0.01835897 -0.007287232 0.0067492723 -0.0056191403 -0.06460089 -0.017254101 0.08244017 0.00013667527 -0.003805314 0.033077486 -0.014881122 -0.047468837 0.09070656 0.03452115 0.018199949 0.048878375 -0.0051376955 -0.0518255 0.058246832 -0.016537406 -0.004543532 -0.070723355 0.07905223 0.0036087353 0.013199132 -0.025406474 -0.055745106 0.05663532 0.076070525 -0.007887764 0.0056836526 -0.034353595 -0.039344225 -0.0757002 0.1070085 -0.0046754535 -0.011342954 0.013389186 -0.03801114 -0.07096725 0.021671778 0.012223297 -0.017101267 0.053260673 0.040615045 0.03702662 0.076316305 -0.033883564 0.05533777 -0.043791633 -0.017281117 0.14146315 0.05416185 -0.09406962 -0.01960021 -0.07159132 -0.09581045 0.07245632 0.07567977 -0.0066908407 -0.009984869 -0.08435043 0.017757092 -0.091653556 0.02951795 0.051337928 0.034553718 0.07652723 -0.033499274 0.049486443 -0.0061489474 0.06048477 0.052933935 -0.0017813717 0.05725285 -0.06978746 0.0005911539 -0.018016214 0.017811785 -0.0031704684 -0.008453003 0.015226976 -0.043151855 0.034501344 0.022004586 -0.06012737 -0.11733081 0.025125377 0.008118507 -0.0051762927 -0.017445661 0.014563131 -0.0007426762 0.08728335 0.032955393 0.041949756 -0.0039841644 0.025038345 0.04643396 0.103373185 -0.0008912905 -0.04413206 -0.0065968544 -0.008845679 -0.016807588 0.04462709 -0.11633173 0.007888922 -0.059710808 -0.068109296 0.039568894 0.08386477 -0.05553604 0.09619526 -0.046252914 0.1639941 0.01400882 0.033096492 0.06269831 -0.0013708726 0.023190474 0.038479887 0.09000932 -0.040410977 -0.039448764 -0.053377602 0.044230778 -0.026867006 0.031759787 -0.1050874 -0.0865666 -0.063613504 0.041278772 0.07785417 0.036414456 -0.11020773 -0.053024992 -0.020537283 -0.033425566 -0.07712029 0.058060795 -0.042501837 0.005695918 -0.013509094 0.049674753 0.030159788 0.0036304877 -0.082119696 0.013701855 0.042364463 -0.016055474 -0.023718296 -0.038991395 0.023409776 -0.008334944 0.020552143 -0.00041075927 -0.031498414 0.020655146 -0.015915237 -0.041885875 -0.014940671 0.041005485 0.019748388 -0.014561659 5.6132398e-05 0.03331444 -0.007776562 -0.041215576 -0.017536022 0.017832275 0.009875603 -0.019691383 0.012798864 0.086450785 0.034994457 0.0455978 -0.04835419 0.009831723 0.0696764 -0.024931708 -0.017605318 0.013396066 0.003981968 0.010269574 -0.048043735 -0.015092563 0.046172477 -0.045679163 -0.03247834 -0.009739182 0.026867412 -0.026611384 0.030092882 0.076787755 -0.003552158 0.11393067 -0.086454585 0.05196878 -0.043597516 -0.020520084 0.019277 -0.04919847 0.07403784 -0.024125338 -0.026361313 -0.08152795 -0.05797275 -0.0015609001 -0.028097358 -0.0084257815 -0.05054345 0.00094703294 -0.0016331366 0.08803426 0.050110683 0.0024414044 -0.022999573 0.055268966 0.076895274 0.08681088 0.00040667568 -0.024858413 -0.004330871 -0.13555084 0.05803185 -0.026797537 -0.08723739 0.050476473 0.073013924 -0.045651123 0.11766009 0.039451804 -0.023582563 0.050647117 0.091318525 -0.010985162 -0.011808539 0.07550283 0.023094436 -0.009116358 -0.0036869915 -0.012645282 -0.022641115 0.05502265 -0.040921275 0.03554823 0.05725673 -0.011201672 0.007885441 -0.042848576 0.05547633 -0.012953656 -0.026541695 -0.031664554 -0.041902225 0.0652496 0.02624645 0.03808956 -0.054811005 -0.022610322 0.045906514 0.04358389 -0.14590186 -0.021155924 0.09049954 0.045613073 -0.00085420115 -0.0052870624 -0.06393084 0.10366275 -0.061255522 -0.04549219 -0.01643101 0.12757798 0.0069129975 -0.0015751218 -0.0032714098 -0.0035434738 -0.013010102 0.007770067 0.012790101 0.07310354 0.11117982 -0.027211877 -0.076330364 0.05673777 0.03315004 0.035308212 -0.09212989 -0.06656204 -0.03506122 0.040012263 -0.024489429 0.07050524 0.048052076 0.039376624 0.063227735 -0.05260774 0.045885816 0.041675434 0.018128736 -0.005973158 0.058304373 0.014992023 5.501746e-06 0.061901927 -0.08974267 -0.013650573 -0.04907091 0.0036455942 0.010867841 0.06460879 0.077253535 -0.07138219 0.050498616 0.04032192 0.111586794 -0.024208369 -0.102101915 -0.07962629 0.025567887 0.02845693 0.080495566 0.000654486 -0.019737594 -0.031692773 -0.025960699 -0.022191301 -0.08875372 0.0011488978 -0.049560424 0.049835764 -0.03581856 0.03574721 0.0023307037 -0.084054865 -0.019057732 0.032521043 -0.054715626 -0.015627358 -0.04240727 0.009407264 -0.02808955 -0.03612986 -0.026364464 -0.021454247 -0.018287659 -0.06722251 -0.094904535 0.040326197 -0.06597355 -0.006952041 -0.005778041 -0.040952984 0.0053082993 -0.03394717 -0.082369074 0.024186533 -0.046924718 -0.035004385 -0.0807141 -0.013215447 -0.017503085 0.01998958 -0.037353046 -0.03447964 -0.08753919 0.041244503 0.036063135 -0.0806655 0.009341324 0.038727246 0.012947262 0.008141617 0.044035707 -0.04356715 0.040040288 -0.041773617 0.06744595 0.004610616 0.026051002 -0.04524358 0.04842572 -0.0072583775 0.023222167 0.018560782 -0.02726496 0.0015501481 -0.051922698 0.058049206 0.026302807 0.05966187 -0.034761846 0.032682296 0.11504624 0.021006044 -0.05165599 -0.0328972 -0.019324668 0.045059964 -0.013423575 -0.035203356 -0.035536744 0.043068886 -0.057799406 -0.09329028 -0.04412019 0.0646621 -0.03775163 -0.011299795 0.011334041 -0.0009666011 0.0057480554 0.025003538 -0.003928396 0.0060192873 0.045934934 0.0725955 -0.038297914 0.0067812465 -0.08567979 -0.08870415 0.036904823 0.037931032 0.024313904 0.011759666 -0.0012738822 0.032110397 0.06307553 0.07756389 -0.06654443 -0.069552764 0.09533491 0.07456084 0.08027983 -0.058285534 -0.049193725 -0.029128945 -0.029887276 -0.0114027895 -0.013701356 -0.08342964 -0.038626935 -0.053260416 -0.05925059 -0.02160023 -0.09600729 0.005255686 -0.037470058 0.07828363 -0.08017817 -0.052650064 8.92912e-05 0.029429127 0.016753584 0.0138166305 0.008556312 0.016002774 0.0755805 -0.054682914 -0.08312227 0.0279315 0.102488756 0.041523363 0.117283635 0.002022936 0.015439626 -0.058581892 -0.0155229205 0.04734427 0.04998025 -0.024017438 -0.0013660387 -0.014621189 0.03917296 -0.0669004 -0.06904909 -0.060859572 -0.029268341 0.0044206567 0.030738397 -0.032571103 0.022262163 0.032907266 -0.0602716 0.0006790712 -0.051005878 -0.0018510666 0.048734993 -0.058113694 -0.09197874 -0.040221706 0.028219474 -0.0014481858 -0.084892124 -0.057501078 -0.039059144 0.06824711 -0.042474836 0.012867588 -0.05064349 0.08025559 0.10253863 -0.014629389 0.016085837 -0.020677194 -0.019770036 -0.016139952 0.030199906 0.042765595 0.050493084 0.006215698 0.021952981 -0.019411452 0.015647555 -0.026146572 0.04422685 0.020341892 -0.07788955 -0.024995105 0.0010217035 0.0038249437 -0.08236984 0.030576227 -0.018927766 0.04260217 -0.11037721 0.012935974 -0.014755857 0.01852207 -0.0073203524 0.05306943 0.10399186 -0.04802291 0.022775654 0.066456154 0.02922692 -0.00076131255 -0.057116315 -0.06875105 -0.046161912 -0.065213114 -0.071327545 -0.049072746 -0.020771232 0.0048116706 -0.02285931 0.050066553 -0.059647474 -0.026433067 0.017332604 -0.032646265 -0.0010282535 0.035370912 0.04556893 -0.012839137 0.05834825 -0.056022547 0.006052969 0.011281024 0.09840093 0.019234728 0.032601684 -0.017305275 0.025609573 -0.005882536 -0.018544279 0.040214702 0.01643685 0.016226532 0.009935815 0.019332057 0.050396897 0.057257082 -0.05088613 0.047361534 0.028491797 -0.038278673 0.024464577 0.07677468 0.003616756 -0.06190913 0.038526896 0.04615348 0.061440784 -0.016404036 0.02668911 -0.044834252 0.023428129 0.06441389 0.065247945 -0.043340582 -0.021054162 0.03938603 0.03707831 -0.029228937 -0.0051489254 0.12398465 0.032429293 -0.06788613 -0.01189063 0.048541576 -0.0025213708 -0.04647198 0.04875638 0.045735996 -0.025717514 0.04055595 -0.06166472 -0.030721294 -0.015769683 -0.016696464 -0.018648602 -0.07679005 0.0077790786 0.11643864 -0.07451182 0.07421271 -0.08411592 0.018985381 0.056436427 -0.05003724 -0.0028162755 0.02501344 0.019786842 0.048459694 -0.011416018 0.01698012 0.08834715 0.10501772 -0.14526552 0.025021687 0.055888034 -0.01724025 -0.058055148 -0.014740587 -0.064507246 -0.051997993 -0.04240512 -0.0439401 0.05274571 -0.017861055 0.03607425 0.036367547 -0.043458708 -0.024417447 0.012325289 0.034172174 0.016295953 -0.022269128 -0.06767025 0.027904006 0.046820674 -0.02834085 0.0003861342 -0.07015599 -0.10424753 -0.0017788677 0.01728191 -0.016055932 -0.051003277 -0.08106146 -0.029802188 0.08722812 -0.0682067
一间 0.07001778 -0.0134996455 0.02406652 -0.0055429325 -0.021197973 -0.0005034247 0.033694733 0.054717526 0.052761953 0.024795877 -0.027254272 -0.085166365 -0.08702795 0.01998625 0.007256347 0.0052396758 -0.030182108 -0.031792905 -0.03357373 -0.017507749 -0.006997299 -0.06677164 0.077264376 -0.046885166 0.01816488 -0.054281197 -0.004906202 -0.021051636 0.035475917 0.04155172 -0.045429774 -0.038998794 0.014328011 0.015188643 0.029523253 -0.02702212 0.008526583 -0.012440633 0.0009535482 -0.04362988 0.028399106 -0.031316932 0.053477123 -0.03500062 0.032347366 -0.046424348 0.041091993 -0.04744978 0.004340929 -0.0066775647 -0.17098452 0.040274918 0.06279595 0.048360217 0.018289924 0.13316537 0.021496866 -0.0051084557 -0.022595385 0.01825431 -0.09310052 -0.017477829 -0.0052729635 0.023438402 0.10576387 0.07950497 0.09001309 0.014961878 0.039243363 -0.0091785705 0.0025188972 -0.0053754393 -0.035171732 0.05412401 0.004672031 -0.050849326 -0.004648026 0.008276112 -0.03254029 0.041956466 -0.011330592 0.013986331 0.017326958 -0.023452474 0.04030589 -0.039236188 -0.06964155 0.09127258 -0.008252357 -0.0022488232 -0.011751746 0.0074867904 0.011947921 -0.021748902 -0.0011668813 -0.04041672 -0.021651935 0.07712236 0.068918414 0.053002954 0.041218065 0.0012315164 -0.024572268 0.10308644 0.009973971 0.06519635 -0.07289326 -0.0652103 0.038918298 0.02781559 0.05917923 0.046585858 0.040834695 0.059621174 0.024921536 -0.05172135 0.028269093 0.017418649 -0.059276395 -0.042805728 -0.014359987 0.026268773 0.05223236 0.0030292436 0.0888615 -0.0014792283 0.04983554 -0.035647795 0.037102383 0.035128824 -0.022604113 -0.037332166 0.04374728 0.07459452 -0.07134961 -0.058833547 0.0105693685 -0.062223308 -0.032091565 -0.085335575 -0.025707405 0.0008334287 0.11246228 -0.09706841 0.023867875 -0.01765944 -0.007909133 0.022390716 -0.026492218 0.087086156 0.14059299 -0.018381272 0.028442888 -0.10173825 0.013340345 0.037272856 -0.008209036 0.06906051 -0.028839596 -0.039355848 -0.0938334 0.009686751 -0.007567944 0.0013167952 -0.07080673 -0.027520284 -0.0027226296 0.0043116384 0.028869964 -0.026032602 -0.008182921 0.10763417 -0.026792683 0.005948618 -0.0018760435 -0.06942728 -0.025820741 0.050067686 -0.018273884 -0.044019636 0.016335519 0.015223865 -0.055767268 -0.08049405 -0.009602813 -0.04969415 0.04012268 0.022128126 0.0007440557 -0.027930753 0.016755596 0.038490456 -0.009361731 -0.030196995 0.013132237 -0.026280047 0.047316905 0.028925799 0.076299205 -0.07980648 0.029127024 0.06579288 -0.0065490375 -0.017306007 -0.030284833 0.020239739 -0.007901696 -0.06233376 -0.014760105 -0.04787427 0.026157383 0.011508337 0.008977112 -0.032564882 0.044393066 0.039305676 -0.031657606 0.01983366 0.017583018 0.07823888 -0.0055940575 -0.02981789 0.005539597 -0.004546236 -0.07605013 0.011030861 0.008820698 0.005009144 0.05271296 -0.08581173 -0.022172138 -0.0353297 0.013785899 0.049706437 -0.1089148 -0.018450717 -0.011386892 0.036193542 0.030100815 0.03765829 0.031029647 0.028042577 -0.04777094 -0.03508239 -0.07874568 -0.062425368 -0.018525412 -0.036832664 0.0030753906 0.034756944 0.059249006 0.090224646 0.030161815 0.02401294 -0.014250077 0.07654577 -0.0072539556 -0.071929455 -0.05479989 0.0036233026 0.057184998 0.032338064 0.029820459 0.030688893 0.05521259 -0.01529613 -0.09094247 -0.017374467 -0.09536984 -0.01032027 -0.020763762 -0.08031049 0.061518125 0.044606466 -0.13581605 0.022324167 -0.01621886 -0.116058804 0.08731092 0.04884654 0.0069581596 0.059918366 0.0063347463 -0.053143457 -0.020108886 -0.076608315 0.014262899 -0.115589894 -0.031721715 -0.032718625 0.04126919 -0.039435193 -0.04226008 -0.008937396 0.124141976 0.0039878264 0.10939061 0.06712017 -0.03263863 0.008460317 -0.04193865 -0.04491253 0.00076597516 -0.010005861 0.02004954 0.014216002 0.023900105 -0.0074094827 0.06703526 0.06398262 -0.0743255 -0.01673887 0.023998665 -0.0062087714 0.022239845 -0.01767222 -0.051489856 -0.012498768 -0.025609242 0.008524293 0.06996348 0.02417472 -0.025584826 0.07625792 0.019253248 -0.052683365 -0.016704412 -0.054420017 0.077386156 -0.071150064 0.025825113 -0.01270283 -0.07565424 -0.044514325 0.028268756 -0.06658987 -0.019299816 -0.019462893 -0.015025227 0.043841194 -0.00029009854 0.048014134 0.071797475 -0.03693646 0.03539748 -0.027851228 0.034416292 0.07838137 0.019664861 0.019646175 0.0745504 -0.06369355 -0.03637185 -0.05887676 0.007974154 0.029120505 0.0058475737 0.039232817 -0.023078606 -0.019105049 -0.0059249015 0.0064995047 -0.0067768176 -0.061899487 -0.017645413 0.079078145 -0.00030778904 -0.0037724585 0.03141593 -0.014565698 -0.04571038 0.08996658 0.03373992 0.016542746 0.04852278 -0.00442375 -0.049928136 0.057808127 -0.01593274 -0.004351336 -0.06745481 0.075914025 0.002300464 0.013124822 -0.024989408 -0.052594505 0.056882348 0.07423001 -0.0074295634 0.0051281215 -0.032988977 -0.038107395 -0.07313507 0.106412806 -0.005413198 -0.010795678 0.013396709 -0.035343222 -0.07044065 0.022160908 0.01403543 -0.017124265 0.051548876 0.040024877 0.036501873 0.07555216 -0.03368125 0.055660095 -0.04450406 -0.017985815 0.13855417 0.05387037 -0.09391435 -0.01964538 -0.07162943 -0.09561813 0.07334049 0.07450685 -0.0072313147 -0.007501508 -0.08491053 0.016524788 -0.090128176 0.029413056 0.049488917 0.033805266 0.075522855 -0.032535944 0.049043674 -0.0052629192 0.06022698 0.05282929 -0.0017053423 0.057587776 -0.06965712 0.0009013955 -0.016907303 0.016502388 -0.0028881663 -0.007542524 0.014745916 -0.043338124 0.036229055 0.021371804 -0.06061798 -0.116516404 0.02478245 0.006594294 -0.006058954 -0.018844178 0.01531076 -0.00036919984 0.08766818 0.034606844 0.040504772 -0.003190612 0.024007615 0.04748113 0.103047 -0.00045418748 -0.0426619 -0.0070081977 -0.009650336 -0.016703658 0.043765582 -0.11529868 0.00871448 -0.059362832 -0.06771216 0.038136587 0.08137732 -0.056048483 0.09773312 -0.048101895 0.16419543 0.015395893 0.032479163 0.062693566 -0.00040243458 0.024560807 0.039378013 0.0903968 -0.040059213 -0.039425276 -0.05308119 0.04349112 -0.026420515 0.03360381 -0.10513839 -0.086388335 -0.06350319 0.040229585 0.077726044 0.03517799 -0.108243614 -0.051153347 -0.02306019 -0.033309326 -0.07703089 0.056553308 -0.04286856 0.0065009855 -0.013780728 0.04990699 0.027534543 0.002625346 -0.082440294 0.014336092 0.04337692 -0.016407153 -0.023726579 -0.039862767 0.023976779 -0.0068636374 0.020912038 -0.0024979452 -0.032480933 0.019379845 -0.014425862 -0.04164925 -0.013789344 0.04229089 0.019051982 -0.015437977 0.00047624458 0.033637166 -0.009491375 -0.040607616 -0.019514075 0.019480456 0.0093823 -0.019529145 0.011841745 0.08573363 0.035619926 0.047431942 -0.04979689 0.009584497 0.071054146 -0.023364712 -0.017666796 0.013414456 0.004055929 0.0116236685 -0.049248546 -0.014682163 0.047883518 -0.046299804 -0.03222716 -0.008888684 0.027239207 -0.028377555 0.032075673 0.07537356 -0.001176779 0.113056965 -0.0865486 0.05109516 -0.043103993 -0.020380873 0.019740142 -0.048256565 0.073077925 -0.024004437 -0.026530765 -0.081656285 -0.05842374 -0.0003977358 -0.030133989 -0.0065955985 -0.04955488 0.00032341178 -0.00053088745 0.08982597 0.051317986 0.0024012837 -0.021220649 0.05528885 0.079840645 0.08855917 0.0009032575 -0.023599992 -0.0047882097 -0.1369262 0.05782103 -0.025622185 -0.08725487 0.050497513 0.07303527 -0.046653777 0.11814057 0.04195034 -0.023311352 0.05088905 0.09452064 -0.01066201 -0.012137744 0.07465896 0.022783136 -0.009606863 -0.0014879592 -0.01376039 -0.023915805 0.05630477 -0.040045332 0.034765508 0.05725957 -0.011058253 0.009491061 -0.042894386 0.05450637 -0.011162275 -0.026302902 -0.03277666 -0.04378188 0.06414634 0.025811194 0.03775747 -0.05526912 -0.023423925 0.04751476 0.04492507 -0.14699346 -0.02061766 0.0902533 0.046930287 -0.0002805169 -0.00481639 -0.066424794 0.10607107 -0.061101634 -0.04578122 -0.014440411 0.12793592 0.008068504 -0.002196082 -0.0011660167 -0.0021440503 -0.01242079 0.007876988 0.012709074 0.07612846 0.11177008 -0.029893097 -0.078202784 0.05645328 0.034003742 0.036421563 -0.0922444 -0.06693642 -0.03400318 0.041125406 -0.024241744 0.07240497 0.04941778 0.03849972 0.06372377 -0.05392324 0.04659347 0.04230078 0.01723326 -0.0047974596 0.056798328 0.015210632 -0.0021854192 0.06210268 -0.08766466 -0.014723917 -0.049677223 0.0042250915 0.011553934 0.06534835 0.07775755 -0.07166595 0.051034473 0.03905631 0.1116492 -0.024388483 -0.10242536 -0.078890316 0.024506839 0.029196305 0.08181636 -0.0010829387 -0.019061238 -0.031808984 -0.026557483 -0.022547074 -0.08852776 0.001371936 -0.049929623 0.051379405 -0.03479823 0.03622884 0.0022635502 -0.08369459 -0.017881101 0.032700993 -0.055432018 -0.01569882 -0.042699505 0.008233144 -0.028255448 -0.035684034 -0.0265767 -0.02300541 -0.01852548 -0.068840295 -0.09504783 0.041870568 -0.06494234 -0.006865809 -0.005021683 -0.042079914 0.0050356393 -0.03309664 -0.08254334 0.024799628 -0.04497404 -0.035256498 -0.07872436 -0.013394594 -0.019916536 0.01849551 -0.03648539 -0.036466293 -0.0877014 0.04390347 0.03318834 -0.08110444 0.009746356 0.039487194 0.013009003 0.008819309 0.044819836 -0.043117262 0.04018336 -0.042529453 0.070824794 0.0050132433 0.026251826 -0.046680104 0.05236583 -0.009945827 0.025945198 0.019439306 -0.02699413 0.0034622287 -0.054476835 0.057857823 0.025248917 0.060175974 -0.03612249 0.033270147 0.11582827 0.02118745 -0.052366283 -0.033171795 -0.019611945 0.04617028 -0.014092699 -0.034076955 -0.03710414 0.043496344 -0.05967647 -0.09274563 -0.044985894 0.06715416 -0.03744973 -0.011168088 0.010572674 -0.0016350657 0.0047981287 0.025855172 -0.003099063 0.0069685755 0.047050536 0.0737151 -0.03933471 0.007907311 -0.08868281 -0.089544795 0.037725896 0.039060764 0.025332592 0.0133694345 -0.0026492986 0.0318525 0.061342698 0.07873691 -0.068079874 -0.07007686 0.09572028 0.07708707 0.08075995 -0.05993163 -0.05016804 -0.030710157 -0.0314296 -0.012955785 -0.015147507 -0.08348922 -0.04129974 -0.053332653 -0.058414504 -0.021367317 -0.096874475 0.003435104 -0.03795929 0.07908446 -0.08081208 -0.053479124 -0.0003805996 0.029795144 0.017237552 0.013374232 0.009463266 0.014734266 0.07380646 -0.05459404 -0.08243321 0.028577916 0.101701036 0.041640837 0.1172983 0.0013520046 0.014743452 -0.0580505 -0.016396483 0.046475876 0.05008803 -0.024010653 -0.00031766028 -0.01476072 0.03960245 -0.06759315 -0.0687825 -0.0613509 -0.029755095 0.0030291562 0.03054936 -0.033623584 0.022431586 0.033320125 -0.059046727 0.0008252587 -0.049443725 -0.0010630429 0.049688358 -0.056844197 -0.091398224 -0.04123694 0.028288411 -0.0024686733 -0.08367472 -0.056015868 -0.039128073 0.06810724 -0.041019306 0.011125229 -0.049799405 0.08042633 0.10396305 -0.013347854 0.015383919 -0.019247422 -0.020190984 -0.015775854 0.028047236 0.044924583 0.051064435 0.00498588 0.02350781 -0.019710058 0.015033524 -0.026106678 0.04298026 0.021796027 -0.07831575 -0.024024462 0.0014997389 0.0025396566 -0.082123764 0.0319453 -0.020249564 0.044019695 -0.11068719 0.011757561 -0.01580923 0.019344255 -0.0062558004 0.054407418 0.10334042 -0.0474589 0.024064759 0.065912224 0.031219833 -0.00021696684 -0.055821326 -0.066295914 -0.048218235 -0.06539214 -0.0724212 -0.047760665 -0.022950914 0.004248668 -0.02402916 0.04932755 -0.06051937 -0.025027215 0.01736311 -0.031322926 -0.0015440854 0.034046985 0.045628015 -0.012161622 0.057905626 -0.057193417 0.0068867602 0.012790012 0.09823695 0.019419502 0.032942902 -0.016996153 0.024803095 -0.006372922 -0.020414546 0.041225728 0.01654394 0.016049664 0.010202121 0.021439316 0.051829215 0.05839961 -0.05037837 0.048167348 0.030579416 -0.040227428 0.023454493 0.076549046 0.004391409 -0.06151445 0.039016638 0.047774173 0.062297773 -0.0168053 0.028956912 -0.0438138 0.022203224 0.064366885 0.064909525 -0.045135856 -0.021092137 0.03798619 0.037966244 -0.03040415 -0.005473436 0.123695605 0.032090317 -0.06626282 -0.012512801 0.04763086 -0.001601294 -0.04536455 0.05010651 0.04702485 -0.024903353 0.04042613 -0.060982414 -0.030634865 -0.01635262 -0.017111795 -0.018402787 -0.075480714 0.008215806 0.1166415 -0.07374876 0.074345976 -0.084739864 0.019377474 0.05873243 -0.053176247 -0.0034565693 0.023495527 0.019348238 0.046929665 -0.0126341535 0.017035237 0.08850046 0.105053335 -0.1473312 0.025878688 0.056392495 -0.018152047 -0.057619542 -0.015593438 -0.065495744 -0.053524233 -0.042175125 -0.04219037 0.053264014 -0.01787745 0.034777384 0.036015663 -0.04239065 -0.025439855 0.012036155 0.034867354 0.017953057 -0.023681508 -0.06606984 0.02801443 0.048603777 -0.028095122 0.00021233286 -0.071552835 -0.10229222 -0.0026510889 0.01730123 -0.015338958 -0.049463257 -0.080508746 -0.030031284 0.08726504 -0.068690725
万叠 0.07137938 -0.012255396 0.0232665 -0.005011333 -0.020574879 0.0001263706 0.03285791 0.055201657 0.052816726 0.02349599 -0.028416084 -0.083378546 -0.083568394 0.018243112 0.0066042794 0.004642736 -0.028815845 -0.030347044 -0.03131782 -0.018129611 -0.00623411 -0.06475624 0.07706111 -0.045893006 0.016776541 -0.05129944 -0.005253124 -0.020572271 0.03425821 0.037955582 -0.042434353 -0.03728961 0.012366139 0.01455647 0.026365325 -0.026069928 0.008041633 -0.013025344 -7.1367824e-05 -0.042507432 0.026998935 -0.029143786 0.051513284 -0.037338898 0.0323502 -0.0496358 0.040398847 -0.051370583 0.0051172087 -0.007667238 -0.1818421 0.041357018 0.06551296 0.04987898 0.019079057 0.1409056 0.023479907 -0.0035160028 -0.023490965 0.01825921 -0.09859322 -0.019319283 -0.00546592 0.023926506 0.11126488 0.08226867 0.09262354 0.016803067 0.04249186 -0.008580945 0.0026804812 -0.0056544296 -0.038361277 0.05668008 0.0057296366 -0.053158868 -0.0057391184 0.0069499128 -0.035627477 0.044034183 -0.012739101 0.014378725 0.017119557 -0.024613349 0.042448703 -0.039971728 -0.07224317 0.09497202 -0.008117343 -0.0029271827 -0.012627741 0.0075803064 0.012031699 -0.023062652 -0.0014722435 -0.041649546 -0.021551333 0.08093087 0.07120772 0.055819396 0.042109575 0.0018695316 -0.026059123 0.10603687 0.009722107 0.06721297 -0.07731857 -0.06655587 0.04088607 0.030228013 0.06070071 0.04912185 0.04413362 0.06232715 0.026249949 -0.053915516 0.029772157 0.016626554 -0.06250276 -0.04612277 -0.013804513 0.028088598 0.053380717 0.0014944163 0.09195133 -0.0030626794 0.049944375 -0.036123414 0.039085813 0.034609288 -0.023118231 -0.039632574 0.046561677 0.07822876 -0.07401324 -0.0626193 0.010148424 -0.06606292 -0.035270993 -0.09001535 -0.028668942 0.00045222737 0.11784633 -0.10090535 0.024748394 -0.0164956 -0.007081306 0.024538793 -0.027626568 0.08978222 0.14639004 -0.019441664 0.030502642 -0.105405875 0.01172706 0.04072992 -0.008936985 0.07302612 -0.029238578 -0.04264761 -0.09579841 0.011374983 -0.00793378 0.0005315924 -0.07459825 -0.028512618 -0.004721404 0.0042945375 0.031343225 -0.028370827 -0.008391148 0.112522766 -0.02679112 0.006814232 -0.00068049453 -0.07204658 -0.026706131 0.051031362 -0.019530013 -0.044914167 0.016253278 0.0159079 -0.056789253 -0.08342499 -0.012154566 -0.053073205 0.040917225 0.021197999 0.0020845986 -0.029472621 0.017534811 0.04020269 -0.010883395 -0.029836264 0.014248896 -0.027664864 0.049760394 0.02905563 0.07950583 -0.08398365 0.030497992 0.0672082 -0.008014971 -0.01814525 -0.029598657 0.019457389 -0.009649963 -0.06343802 -0.01647158 -0.05081744 0.026847895 0.011064602 0.009488678 -0.034181852 0.046875507 0.042226855 -0.034723133 0.020802572 0.017771186 0.0808063 -0.005073468 -0.031034287 0.004593526 -0.0032243957 -0.07902768 0.0119499415 0.00935027 0.006015649 0.053450003 -0.08749329 -0.024373565 -0.038295075 0.012655564 0.04928426 -0.11070457 -0.018529389 -0.011327982 0.038695328 0.030955188 0.037713792 0.031330638 0.02853825 -0.050158277 -0.037052043 -0.07960671 -0.06336308 -0.018635333 -0.03783808 0.0033304712 0.03715277 0.060937494 0.09215562 0.03153678 0.02268534 -0.0156229185 0.079248406 -0.006520503 -0.07357838 -0.056623664 0.0021885438 0.05943195 0.0346263 0.028274402 0.03277134 0.055777546 -0.015218042 -0.093136445 -0.018504346 -0.097788334 -0.010067314 -0.022059562 -0.081359826 0.06381057 0.04662999 -0.13995056 0.02326851 -0.016426401 -0.11917616 0.08994029 0.05059138 0.0070311343 0.060754094 0.007323499 -0.053491242 -0.019465005 -0.077658296 0.015714804 -0.118721105 -0.034461852 -0.032945603 0.04286531 -0.03988396 -0.04282372 -0.00753309 0.12701087 0.0053752423 0.1129804 0.06855785 -0.03412123 0.009082338 -0.04375438 -0.04805028 -0.00048174843 -0.010435408 0.020069672 0.016307788 0.02512859 -0.007333184 0.06997721 0.06773147 -0.075915925 -0.016364042 0.026073992 -0.007046694 0.023782047 -0.017507847 -0.053041924 -0.012493433 -0.026356418 0.009828713 0.07190807 0.024925102 -0.02751668 0.07915127 0.020837462 -0.053395923 -0.016772866 -0.05523336 0.08024128 -0.07393152 0.025652906 -0.01472123 -0.07902201 -0.045798305 0.029400444 -0.06666706 -0.01948757 -0.021118304 -0.015522983 0.04464262 -0.00023055814 0.050274625 0.07395056 -0.037909705 0.037067156 -0.028207203 0.035053387 0.078808546 0.020722723 0.019215543 0.075905114 -0.06567504 -0.036769487 -0.060681954 0.007821391 0.030403236 0.006023881 0.041945666 -0.024323728 -0.018552277 -0.007706114 0.0047170874 -0.0072317855 -0.061866317 -0.017898679 0.08267574 -3.0184929e-05 -0.0033241862 0.034227964 -0.015422333 -0.047668885 0.09244085 0.033888794 0.01656383 0.051350825 -0.005483682 -0.05152554 0.059498765 -0.016611269 -0.004611192 -0.07089637 0.07711885 0.00014962864 0.012819844 -0.026165163 -0.053509187 0.058410835 0.07480603 -0.008060916 0.004897434 -0.033513963 -0.039612517 -0.07700078 0.108895555 -0.0038585388 -0.012041142 0.014631436 -0.038139526 -0.071509875 0.022117164 0.01280668 -0.018850807 0.054525908 0.040990166 0.03702217 0.07596575 -0.035616208 0.05616217 -0.04440938 -0.018955441 0.14335927 0.05585462 -0.09567465 -0.019323574 -0.072501004 -0.0981145 0.07615832 0.07560901 -0.0069088032 -0.007924088 -0.08753311 0.015945995 -0.092800155 0.029505666 0.049572058 0.03420675 0.078705326 -0.03181986 0.048466217 -0.0062315715 0.06264434 0.053707086 -0.002828306 0.059919223 -0.06987368 0.0017295572 -0.017442422 0.017418602 -0.0031415392 -0.007906367 0.015575679 -0.044865653 0.03668299 0.02038843 -0.06386202 -0.11856452 0.025445411 0.0058121635 -0.0064751594 -0.019698203 0.015399435 -0.00025284942 0.089126304 0.035195272 0.04228096 -0.0033804688 0.025225477 0.049145162 0.10490737 -0.00073824695 -0.043597043 -0.0069608265 -0.011042124 -0.01735688 0.04436109 -0.11724235 0.009338437 -0.06119577 -0.067798354 0.04019303 0.08236523 -0.056496963 0.09972456 -0.049621277 0.16579887 0.016243936 0.031527653 0.06396622 -0.0008088742 0.023798687 0.039224327 0.08986496 -0.040539563 -0.040814877 -0.053341787 0.043139536 -0.027481548 0.033367127 -0.10697443 -0.08732513 -0.065106414 0.041602667 0.07892175 0.036660884 -0.111379296 -0.05360343 -0.021640448 -0.035556145 -0.07687996 0.05751213 -0.045480717 0.0055090315 -0.0143834865 0.048755154 0.029238367 0.0028315177 -0.0853633 0.014363187 0.044785734 -0.016114747 -0.025677867 -0.03993117 0.023637805 -0.007450276 0.01941459 -0.0007261882 -0.035264373 0.021916855 -0.014393834 -0.041783813 -0.015015165 0.04243219 0.019219577 -0.013392831 -0.00097530615 0.033754013 -0.008138041 -0.041085415 -0.019702077 0.018416371 0.010547583 -0.01787253 0.0130309565 0.087925635 0.037342235 0.048086226 -0.049732603 0.01003628 0.07103639 -0.02338051 -0.019158075 0.014421225 0.002475962 0.012515641 -0.04971053 -0.015881393 0.04799272 -0.04723098 -0.032418296 -0.009531618 0.027149366 -0.028609276 0.03237434 0.07700777 -0.000548076 0.11753307 -0.08980563 0.05369672 -0.043686613 -0.02025702 0.019763665 -0.04880223 0.07362353 -0.025083331 -0.027285216 -0.084329285 -0.05943998 -0.0007855269 -0.030968694 -0.0057976646 -0.049818296 0.0025727882 -0.00208916 0.09121367 0.0511837 0.002230147 -0.022128018 0.05646023 0.08096439 0.09052845 0.00025538882 -0.024500888 -0.0048914654 -0.13966444 0.058153745 -0.025893476 -0.08925969 0.050754406 0.07289286 -0.048071638 0.11994401 0.042033482 -0.023560226 0.049775023 0.094746746 -0.011269104 -0.010817903 0.0749425 0.021489317 -0.009639941 -0.0022047276 -0.013739172 -0.02340615 0.057425424 -0.03957815 0.03535516 0.058117975 -0.011061188 0.009459735 -0.042414226 0.055049386 -0.011461416 -0.026819194 -0.031948235 -0.04412656 0.0662077 0.025994275 0.039108723 -0.056516573 -0.024109837 0.047845297 0.0449825 -0.14853191 -0.023282662 0.092645206 0.047539957 0.00033973914 -0.0070102145 -0.06661833 0.10798768 -0.06391492 -0.048603334 -0.015326774 0.13017301 0.009322262 -0.0014817308 -0.0020033196 -0.0007247577 -0.011562131 0.008764426 0.013264017 0.07618613 0.11555419 -0.03174782 -0.07887582 0.05943904 0.034641143 0.038308285 -0.09423858 -0.06672346 -0.03593205 0.043070484 -0.024915406 0.07429103 0.04854239 0.0382617 0.06390857 -0.055402152 0.04664296 0.042424433 0.017250724 -0.0037262326 0.05665828 0.015195377 -0.0023742274 0.06493041 -0.09055937 -0.0146422945 -0.052765053 0.0060458425 0.009706573 0.06661188 0.08053089 -0.073520064 0.051492725 0.040666185 0.115699954 -0.024249977 -0.10359043 -0.08079842 0.025417166 0.030268366 0.082294114 -0.002085213 -0.018386807 -0.034145966 -0.025771085 -0.022299303 -0.09012875 0.0030156039 -0.052121 0.054365493 -0.03489125 0.035469778 0.0010724422 -0.08567967 -0.019094083 0.030817749 -0.055708416 -0.016213315 -0.044149537 0.010093444 -0.02795465 -0.035509594 -0.027684672 -0.022254191 -0.018095458 -0.06872792 -0.096735835 0.041226108 -0.064881094 -0.007061946 -0.0047044125 -0.04290474 0.004898554 -0.033351835 -0.08442531 0.025521612 -0.047166836 -0.035216767 -0.080525875 -0.0120746335 -0.017880332 0.01857559 -0.03753163 -0.03606311 -0.088230446 0.043206457 0.033887833 -0.080852866 0.010213499 0.038724836 0.013834481 0.008787689 0.045045905 -0.04584031 0.042315103 -0.042611435 0.07146928 0.0050731613 0.02665818 -0.047397096 0.052349195 -0.009484331 0.025339963 0.021007007 -0.026578415 0.0034484775 -0.055418115 0.059844464 0.023516687 0.058116388 -0.03532002 0.034225453 0.11634095 0.021042552 -0.053224437 -0.032472376 -0.019344294 0.047100626 -0.013408864 -0.03425766 -0.03723275 0.0447041 -0.061993234 -0.09379084 -0.043990664 0.06736205 -0.03992801 -0.009382083 0.011867187 -9.949081e-05 0.0051406384 0.026787195 -0.003003212 0.0073961094 0.048686046 0.07270731 -0.038090877 0.008196753 -0.08765011 -0.089209184 0.038210843 0.03912661 0.024416221 0.012851379 -0.0029787214 0.033235244 0.0630399 0.07864947 -0.066910274 -0.07240129 0.09647398 0.07866037 0.080238655 -0.0594356 -0.052427318 -0.029722048 -0.030468112 -0.011931638 -0.015741007 -0.08523722 -0.04144594 -0.054208167 -0.059227373 -0.0205497 -0.09541706 0.0053476663 -0.037241276 0.08027216 -0.081141934 -0.054022465 -0.0011380838 0.029582776 0.016910784 0.015291626 0.008887602 0.014620959 0.07382247 -0.054702934 -0.083168745 0.027413111 0.10406232 0.04215059 0.11694896 0.0014653788 0.015304259 -0.05904597 -0.018357312 0.046198968 0.050344083 -0.02447252 -0.0012491865 -0.013637862 0.041359417 -0.06725338 -0.070275515 -0.060369182 -0.030446636 0.0026794465 0.031823043 -0.03318827 0.023323853 0.032395985 -0.059982426 0.001237196 -0.05000291 0.00046889315 0.051302616 -0.05832335 -0.09088613 -0.04224851 0.027050309 -3.0423853e-05 -0.08398026 -0.055712447 -0.041532315 0.06858129 -0.04127431 0.011062022 -0.05214949 0.081550986 0.104613684 -0.014148758 0.015041103 -0.01815933 -0.02137959 -0.014661142 0.02847063 0.044091027 0.051013913 0.004603728 0.021987513 -0.019204725 0.015325123 -0.026635034 0.04575008 0.02336445 -0.07940129 -0.0235911 5.875256e-05 0.0040634177 -0.08263347 0.03406765 -0.02036804 0.0434391 -0.11176426 0.011488811 -0.014610956 0.01752519 -0.0066933264 0.053333804 0.10286465 -0.047752082 0.024591228 0.0666184 0.031284187 -0.000999185 -0.05629417 -0.06820773 -0.0487132 -0.06662139 -0.07259005 -0.047997743 -0.021467652 0.00439844 -0.024012491 0.050298177 -0.06107595 -0.026823299 0.01711723 -0.03164633 -0.0019140178 0.034872893 0.046672754 -0.012820782 0.058613814 -0.056559186 0.006545323 0.012400355 0.097028404 0.018068602 0.03427853 -0.018722808 0.025634 -0.0059681986 -0.019914053 0.041444194 0.014988862 0.015202469 0.010594639 0.022254374 0.050482642 0.057994768 -0.051415853 0.048551444 0.030289683 -0.040541876 0.023368696 0.07542884 0.005428248 -0.06312377 0.040559087 0.048520427 0.061220992 -0.015399523 0.029441884 -0.045210786 0.021438612 0.064548545 0.06591359 -0.045579128 -0.019990074 0.03852994 0.036862344 -0.031531863 -0.0054000965 0.12540412 0.033307575 -0.06756734 -0.012782984 0.047664538 -0.00083550444 -0.04576712 0.050674625 0.047096256 -0.025012588 0.03983214 -0.061320487 -0.030617945 -0.01418664 -0.01651007 -0.017703975 -0.07727866 0.008437304 0.11720187 -0.07285959 0.07487262 -0.085735865 0.019749986 0.059831783 -0.053275205 -0.0028900944 0.024074506 0.020947011 0.048605435 -0.012806827 0.01852867 0.088105276 0.10625143 -0.14916877 0.025528297 0.05542937 -0.018009262 -0.05681569 -0.013905994 -0.06628401 -0.055325873 -0.0433956 -0.043341488 0.05250268 -0.019155933 0.034661777 0.034982115 -0.0435754 -0.02482817 0.012325189 0.035419602 0.019008083 -0.02427624 -0.0685851 0.027355565 0.048967347 -0.027748365 0.0011196291 -0.07153422 -0.104544 -0.0034275802 0.016962662 -0.013937536 -0.050637033 -0.082007095 -0.027894368 0.08659303 -0.071266495
一二 0.06914172 -0.013054722 0.023892904 -0.0076481155 -0.0207908 0.0007158484 0.032433916 0.054631945 0.053577162 0.024583802 -0.027474405 -0.086004116 -0.08692763 0.018350068 0.0071499543 0.004667979 -0.029279612 -0.03175086 -0.033380784 -0.01798557 -0.0077195875 -0.06496555 0.076842606 -0.047048964 0.018676385 -0.053429544 -0.005745427 -0.02186158 0.035460718 0.041954048 -0.04434711 -0.03822659 0.013310328 0.014862065 0.02862094 -0.027012166 0.008510179 -0.012587181 0.00027769996 -0.044268895 0.029034903 -0.030982228 0.053339433 -0.036885303 0.03138043 -0.046173435 0.040716838 -0.048705406 0.0045481585 -0.006167133 -0.17391479 0.039760843 0.06356851 0.049077757 0.019215142 0.13511197 0.021936692 -0.0051632905 -0.024023104 0.01800116 -0.0943888 -0.017571587 -0.0046730465 0.024172775 0.10768637 0.081671655 0.09228124 0.015547123 0.039235804 -0.008646272 0.0029445614 -0.0060994956 -0.037182312 0.055333935 0.005581774 -0.05147645 -0.005600378 0.008037064 -0.033383183 0.042788092 -0.011924489 0.014082358 0.015986886 -0.023184603 0.03992112 -0.03999539 -0.069902726 0.09242963 -0.0074235797 -0.0034850168 -0.012583176 0.0074304612 0.012210538 -0.022566814 -0.0010399171 -0.041043714 -0.021656688 0.079508014 0.07070975 0.055532202 0.041096956 0.00064837374 -0.023701651 0.10586044 0.009320204 0.068213314 -0.075049326 -0.06601232 0.041232437 0.028711684 0.059656277 0.0476815 0.041617174 0.061310437 0.025240147 -0.05340522 0.029501174 0.01726704 -0.060548026 -0.044614993 -0.013801448 0.027135922 0.052765444 0.002947706 0.09141568 -0.002302005 0.050354563 -0.036667738 0.039217386 0.034332313 -0.021657364 -0.037338775 0.044319775 0.07667746 -0.0737511 -0.061216354 0.010294519 -0.06452033 -0.034164175 -0.087880075 -0.027330881 -0.00059197453 0.11581015 -0.09931674 0.024192812 -0.016988931 -0.0073104575 0.023723962 -0.027789997 0.08704995 0.14245044 -0.01944382 0.029520454 -0.1025255 0.011780368 0.037984386 -0.009231951 0.07097441 -0.029552253 -0.04076503 -0.09544093 0.010754456 -0.008841069 0.0020178359 -0.07384191 -0.02821987 -0.0036740866 0.0047429292 0.029604793 -0.026540447 -0.008327734 0.10982041 -0.026008122 0.0076159164 -0.00061150605 -0.07028051 -0.026988478 0.05084574 -0.018069848 -0.045395702 0.016294215 0.01689488 -0.055998154 -0.08268031 -0.011626917 -0.05038258 0.04175628 0.022449305 0.0012742637 -0.028896106 0.016074449 0.03965912 -0.0098842075 -0.030070202 0.013633158 -0.02611916 0.04856168 0.029076321 0.080572374 -0.08185598 0.028731382 0.066924535 -0.0066247378 -0.017691744 -0.029854657 0.019556874 -0.008866828 -0.062162798 -0.015455294 -0.050319687 0.027925014 0.010304276 0.009717656 -0.03251273 0.04598106 0.040534653 -0.034719083 0.020339174 0.017231865 0.08060617 -0.004564895 -0.03043571 0.003943435 -0.0049012415 -0.0783248 0.012113035 0.007540924 0.0066003376 0.05308549 -0.08800462 -0.02238637 -0.03747916 0.01450022 0.050619677 -0.11190448 -0.019798864 -0.0132370265 0.03720131 0.030115752 0.03749609 0.03260618 0.029247168 -0.049517747 -0.03555287 -0.07852971 -0.06439409 -0.019958239 -0.037812248 0.0031804643 0.037923418 0.05927701 0.091632895 0.031211905 0.024367161 -0.015158843 0.07682302 -0.006993448 -0.07310912 -0.055866692 0.0026431258 0.0591592 0.033761904 0.030439615 0.03198078 0.05635306 -0.014940839 -0.09168106 -0.018770559 -0.0956395 -0.009713053 -0.0215522 -0.08244054 0.06364665 0.045142993 -0.13903378 0.022591617 -0.015953228 -0.11821024 0.088665396 0.048430398 0.008983519 0.06014264 0.007995392 -0.053208377 -0.021085814 -0.07908763 0.014561878 -0.11780277 -0.032693595 -0.033743072 0.043278832 -0.039609477 -0.04231482 -0.008293855 0.12656355 0.0052044317 0.112656325 0.06757001 -0.03386516 0.008919186 -0.043395616 -0.047088325 0.0009070272 -0.009784078 0.021407574 0.015130628 0.023894697 -0.008678312 0.068493165 0.06729907 -0.07486523 -0.016825702 0.02516268 -0.006355413 0.022391306 -0.01830137 -0.054276332 -0.0125007015 -0.026141638 0.009625164 0.07198674 0.025041804 -0.02615907 0.07686112 0.02051981 -0.05506867 -0.017217262 -0.054518368 0.07967241 -0.07223223 0.026468884 -0.01367526 -0.07831549 -0.04563875 0.028863158 -0.06626582 -0.018689113 -0.0209536 -0.015775636 0.04512874 0.00022089452 0.048751812 0.07378132 -0.039604083 0.036279205 -0.026996914 0.03467007 0.07944723 0.018671945 0.019156834 0.07711817 -0.064776294 -0.036375187 -0.06102692 0.008219702 0.029054515 0.0061826264 0.040300827 -0.023208737 -0.018661445 -0.006601968 0.0058536087 -0.0055793766 -0.06293918 -0.01673075 0.08041322 -0.00065189775 -0.0028481358 0.03234296 -0.014506143 -0.045476362 0.08909633 0.0334013 0.017440712 0.04891348 -0.0050372807 -0.050699778 0.057507742 -0.015778616 -0.004106602 -0.067320295 0.076661184 0.0025406037 0.013082948 -0.025362425 -0.053074002 0.055008736 0.07460463 -0.0078008957 0.0057184882 -0.03244149 -0.038892243 -0.07438054 0.1050175 -0.003987911 -0.011825306 0.0124178305 -0.03690294 -0.06934083 0.021423597 0.012431335 -0.017670605 0.052747443 0.039782595 0.036537904 0.07622875 -0.033596464 0.055426285 -0.04404997 -0.018413048 0.13880962 0.05355537 -0.09374316 -0.018017821 -0.07062235 -0.09496925 0.0736022 0.074950986 -0.007084427 -0.00817821 -0.08474036 0.015618807 -0.089842774 0.02892411 0.049734425 0.03468905 0.07593341 -0.03255399 0.0481815 -0.0066574826 0.060687263 0.051269673 -0.0030551073 0.057987418 -0.06827896 0.00021734217 -0.017770747 0.01674966 -0.0022759559 -0.008650373 0.015471085 -0.043328322 0.035048135 0.021532936 -0.06062106 -0.11513217 0.0251433 0.0065751807 -0.006727726 -0.018494897 0.015329294 0.00026541486 0.08602237 0.033291213 0.04093591 -0.004094281 0.024696983 0.046140663 0.1028394 -0.000790502 -0.04325218 -0.005897152 -0.009142728 -0.016844815 0.044642784 -0.11522669 0.008940136 -0.058657527 -0.06684048 0.03901639 0.08160729 -0.05609485 0.09707641 -0.046811026 0.1626258 0.014747653 0.03289401 0.06283695 -0.0020359736 0.02337399 0.037651792 0.08897976 -0.040609647 -0.03969516 -0.052359834 0.043619547 -0.026605759 0.03192742 -0.10456452 -0.08476181 -0.06198664 0.040488973 0.0784107 0.035934795 -0.10882099 -0.051503494 -0.021938665 -0.034754407 -0.0758714 0.056751437 -0.04342321 0.0058398307 -0.014141398 0.049683858 0.028747708 0.004024477 -0.08200795 0.015007539 0.042656574 -0.015597478 -0.025000991 -0.0389377 0.022987688 -0.0068502366 0.019770391 -0.0011098748 -0.032442827 0.020469747 -0.015389388 -0.040315833 -0.014584108 0.041619774 0.01919706 -0.014861334 0.00031057931 0.033337392 -0.007632163 -0.041300185 -0.018859383 0.01748627 0.00962099 -0.018720493 0.012787026 0.08488401 0.03479934 0.045864612 -0.047942724 0.00969146 0.07084345 -0.023353959 -0.017110502 0.013529187 0.0027580415 0.012875217 -0.049325798 -0.014424004 0.047597326 -0.046326287 -0.03277287 -0.009845068 0.025914285 -0.027693894 0.029551677 0.076120265 -0.0025626796 0.1127012 -0.08678115 0.051721565 -0.042649064 -0.020418486 0.01948675 -0.048577525 0.07261137 -0.022909783 -0.027235355 -0.08201111 -0.05731558 -0.0006589313 -0.028308062 -0.0073539997 -0.049086116 0.0022546048 -0.0014848247 0.08695542 0.050280012 0.0020772782 -0.02084206 0.054020498 0.077617005 0.08716541 0.000997852 -0.024787959 -0.0047494876 -0.13498245 0.056414273 -0.0263954 -0.08611687 0.0491674 0.07339776 -0.04520017 0.11531592 0.040718764 -0.021770988 0.049768344 0.09263291 -0.010687024 -0.010644718 0.07411901 0.021926116 -0.008923557 -0.0030111293 -0.01305763 -0.02331413 0.05578291 -0.0395991 0.03417892 0.056491915 -0.010549459 0.009084935 -0.041914865 0.054278523 -0.012021342 -0.02655991 -0.032156657 -0.042833872 0.063954085 0.026183512 0.037096333 -0.05436506 -0.024014464 0.04614835 0.044221558 -0.14373255 -0.020682307 0.08969659 0.046123408 -0.0013283108 -0.005303025 -0.0640497 0.10381003 -0.060995627 -0.045305192 -0.015874255 0.12661465 0.008570306 -0.0020915107 -0.0024221784 -0.002870647 -0.011397645 0.008029475 0.0130469045 0.07366554 0.11093946 -0.028617123 -0.07567667 0.055933498 0.032132387 0.036617905 -0.09197339 -0.06474599 -0.03498501 0.040393945 -0.024426693 0.071273424 0.048189256 0.037901286 0.061393864 -0.05250123 0.04563798 0.042078607 0.017774114 -0.0050955014 0.055966713 0.015097903 -0.00073506334 0.062237356 -0.08772651 -0.013698572 -0.049481 0.0042907456 0.0102609135 0.064275004 0.076253705 -0.0718592 0.048686795 0.03881408 0.11035831 -0.024451168 -0.101063505 -0.07820851 0.025365675 0.02899407 0.0786394 -0.0013177217 -0.018298207 -0.031479593 -0.025750639 -0.021310661 -0.087057665 0.0020876839 -0.049480435 0.05032337 -0.034623336 0.034519468 0.0024935217 -0.0825967 -0.018109014 0.03160585 -0.05297297 -0.015042593 -0.041668966 0.009460616 -0.02832676 -0.03467328 -0.02594174 -0.021608723 -0.018275343 -0.066455916 -0.092156716 0.040701218 -0.063491814 -0.00756895 -0.0061657843 -0.041176975 0.004361598 -0.0330835 -0.08117118 0.023093339 -0.044068445 -0.034236252 -0.07790952 -0.0118756145 -0.017476905 0.018113766 -0.03684792 -0.03469204 -0.08464492 0.04210937 0.03472158 -0.07949174 0.01033298 0.03838261 0.014580193 0.0071383254 0.043634936 -0.043158792 0.039731476 -0.042123545 0.067980014 0.0034372942 0.026651183 -0.045474153 0.049279094 -0.008854901 0.024767151 0.019722408 -0.025606355 0.0018092113 -0.051659103 0.057068042 0.023851996 0.057462785 -0.03410776 0.031478588 0.113111496 0.021762542 -0.051440414 -0.031765226 -0.018242128 0.044377226 -0.0131127555 -0.033671487 -0.03582979 0.04254935 -0.059945278 -0.09227543 -0.04333467 0.065334864 -0.037989523 -0.01032301 0.011821849 -0.0015839615 0.0058401097 0.025069611 -0.004379595 0.0062586516 0.04759592 0.07151147 -0.037935287 0.008275263 -0.08691531 -0.08818809 0.036391493 0.038246773 0.024252454 0.011945019 -0.0026716613 0.032601073 0.0621807 0.077656776 -0.06737807 -0.06900936 0.09465615 0.075637124 0.07914107 -0.05870187 -0.04966406 -0.02906898 -0.030236645 -0.011667739 -0.014359658 -0.08161222 -0.03987578 -0.05303581 -0.057182204 -0.019953445 -0.0944364 0.0057196133 -0.03757674 0.0771961 -0.079223596 -0.05326863 -0.0006176827 0.029370332 0.015722826 0.013727757 0.009483553 0.015059279 0.07354661 -0.05349101 -0.081716396 0.026990721 0.10157504 0.041115236 0.1149495 0.0006205336 0.014888528 -0.05790796 -0.017257446 0.045873586 0.049862303 -0.023480378 -0.00089144876 -0.014578469 0.040022433 -0.06652514 -0.06776094 -0.059788097 -0.028716706 0.0031752093 0.03101408 -0.033454664 0.021728972 0.032758996 -0.058792897 0.0015268984 -0.04973172 -3.452731e-06 0.048884135 -0.05660788 -0.08980006 -0.040382016 0.027047405 -0.0014254434 -0.08311513 -0.056124575 -0.04020582 0.06792313 -0.041363202 0.011183634 -0.049874533 0.07868338 0.10163434 -0.013390201 0.014832333 -0.018648548 -0.019072564 -0.015191204 0.028640812 0.043800525 0.050732415 0.006118669 0.02199245 -0.019391295 0.015434645 -0.02580315 0.043452214 0.02108658 -0.07704251 -0.023976984 0.00035900407 0.0039469716 -0.08040799 0.0319485 -0.019113373 0.042752918 -0.10893224 0.012244708 -0.015103622 0.016884042 -0.007390784 0.05210457 0.10225435 -0.04742508 0.022808166 0.06407171 0.029276496 -0.0021672032 -0.05518757 -0.06622087 -0.0471882 -0.064807706 -0.07128284 -0.04865089 -0.021559825 0.005153146 -0.023415491 0.0501439 -0.06087784 -0.025826065 0.018542578 -0.030746667 -0.0007005891 0.033187807 0.045119517 -0.012249395 0.057360165 -0.055959146 0.005562447 0.0120441085 0.09702536 0.01840737 0.033122677 -0.017826427 0.025728142 -0.005663604 -0.019115468 0.03973893 0.014727304 0.01465143 0.0104238 0.020267462 0.05067539 0.05801624 -0.05037387 0.04778305 0.029627105 -0.038865495 0.022549624 0.07502167 0.0035443818 -0.06148685 0.039235666 0.046825208 0.061120663 -0.015438612 0.02745062 -0.044732213 0.022306679 0.06397892 0.064589806 -0.04429935 -0.01998516 0.038558938 0.03742399 -0.029636217 -0.0058609415 0.123935215 0.03216878 -0.06633145 -0.012377336 0.047022935 -0.002564292 -0.046073325 0.048878957 0.04672564 -0.024448823 0.039468583 -0.06106018 -0.030947722 -0.014442369 -0.017854545 -0.01750248 -0.07551851 0.0071464567 0.116957664 -0.072704464 0.073567845 -0.08426719 0.019362325 0.057767905 -0.050534643 -0.0026342866 0.023683257 0.019779714 0.04827405 -0.011949365 0.016617203 0.08812511 0.105152704 -0.14631605 0.025671965 0.05453935 -0.018839939 -0.0573543 -0.0144310165 -0.0643874 -0.052699145 -0.04212939 -0.04304515 0.051658336 -0.018338252 0.034833074 0.035526514 -0.042636055 -0.02484335 0.011435307 0.034359906 0.017438231 -0.022968147 -0.066749275 0.026760759 0.047447737 -0.027625604 0.00040091394 -0.07127706 -0.10350683 -0.0026435356 0.017235141 -0.0142812645 -0.049968213 -0.08018128 -0.029078264 0.08645835 -0.0693307
一家人 0.06883123 -0.013441817 0.02440555 -0.0067049707 -0.020917606 -0.00041708077 0.033794314 0.05685061 0.0560407 0.026660819 -0.028240649 -0.08963069 -0.090058304 0.018509502 0.005753155 0.005858931 -0.030393548 -0.031669356 -0.0349204 -0.017910017 -0.007768202 -0.067307 0.07968808 -0.04740506 0.019356174 -0.055356804 -0.0051090815 -0.023071198 0.036749516 0.043177407 -0.046300445 -0.03926482 0.0136505775 0.015886342 0.030506251 -0.028464908 0.00910116 -0.013889503 0.00037699944 -0.045442753 0.029276907 -0.032129187 0.053158384 -0.037363704 0.03143332 -0.044762503 0.041058753 -0.047476806 0.0044897622 -0.0058659487 -0.17381631 0.040873673 0.06398447 0.04867833 0.019137831 0.13556646 0.020918075 -0.0045789788 -0.024852049 0.019014455 -0.09446286 -0.017289652 -0.005900758 0.024880469 0.10708006 0.081070386 0.09130253 0.015596663 0.041193884 -0.008242295 0.0033272083 -0.0055847485 -0.037881374 0.055214334 0.0058362563 -0.05185729 -0.0055206264 0.0069265673 -0.03437301 0.04264461 -0.012011534 0.01465783 0.016128922 -0.02364534 0.040093265 -0.039605614 -0.07037872 0.09128978 -0.0070627606 -0.0039408696 -0.012147048 0.007582958 0.0117672905 -0.021521747 -0.0009966397 -0.041195035 -0.021346893 0.07899885 0.06961981 0.05475702 0.042200744 0.002183045 -0.022942014 0.10437978 0.0099492315 0.066634364 -0.07509115 -0.06657323 0.04155788 0.027848732 0.059221566 0.04843246 0.042277016 0.06127167 0.025187466 -0.05278263 0.02923068 0.016797777 -0.059378352 -0.045254838 -0.014620323 0.027245976 0.05191872 0.0020654087 0.092118114 -0.002215875 0.050231006 -0.03686881 0.038759064 0.03407263 -0.021776153 -0.037578795 0.0448857 0.078234345 -0.07328398 -0.061160803 0.011238331 -0.06435077 -0.034460664 -0.087360054 -0.02753204 0.00034338524 0.11529335 -0.09924671 0.023719111 -0.016821278 -0.008314425 0.023732357 -0.0274037 0.08666415 0.14062838 -0.01943648 0.029285323 -0.10052186 0.012367427 0.03885406 -0.007685479 0.07114306 -0.02842291 -0.04199251 -0.094679944 0.010720405 -0.009133038 0.0010793982 -0.07342745 -0.02868566 -0.003935872 0.0044706883 0.029851783 -0.026448574 -0.007948011 0.11008742 -0.0258402 0.0069429935 0.000279407 -0.06931683 -0.026342005 0.05032196 -0.018449694 -0.04495239 0.015977893 0.01728012 -0.05664279 -0.0819184 -0.0132093625 -0.051094048 0.040994357 0.021156263 0.0027591884 -0.029689424 0.015844308 0.04012169 -0.010471042 -0.03087654 0.014457357 -0.024814459 0.048155554 0.027753372 0.07974379 -0.08174005 0.028830605 0.06590545 -0.007375385 -0.017842827 -0.029667463 0.019457892 -0.008090824 -0.062440544 -0.014901506 -0.049636878 0.027574247 0.010784472 0.008795922 -0.033639386 0.04530146 0.041202113 -0.033978757 0.018925399 0.017107803 0.079721026 -0.0038506011 -0.029840585 0.0047320426 -0.00486371 -0.07900723 0.012144317 0.008545944 0.0069415597 0.05281976 -0.08782357 -0.02327231 -0.036245443 0.012839371 0.049664557 -0.11122009 -0.020260036 -0.012783237 0.039027408 0.0290427 0.03885635 0.03329469 0.028784955 -0.04958948 -0.03522367 -0.07792682 -0.06468886 -0.019335223 -0.036047462 0.003771237 0.03764563 0.060095754 0.09193726 0.031217298 0.024847923 -0.014263467 0.07770826 -0.006733319 -0.07310796 -0.05615626 0.0031554417 0.059837718 0.034137063 0.029952362 0.032631192 0.05708075 -0.0138706835 -0.09346791 -0.018120678 -0.09567182 -0.009727975 -0.021069229 -0.081289984 0.06484297 0.04433259 -0.13956799 0.022889264 -0.016546296 -0.11819389 0.088108994 0.04928776 0.009926922 0.060887873 0.008334005 -0.053943217 -0.020020472 -0.07866312 0.014386718 -0.11904367 -0.033948198 -0.033107046 0.044244528 -0.040623236 -0.041792706 -0.008671644 0.12679853 0.0038142428 0.113135375 0.0676956 -0.03516114 0.009423 -0.042747974 -0.047060493 -0.00045631005 -0.010946581 0.021191686 0.014283477 0.023634272 -0.009139594 0.070026584 0.067492485 -0.07685205 -0.017756408 0.025571799 -0.006079047 0.022189807 -0.017623829 -0.053672746 -0.011597059 -0.026312249 0.0083073275 0.07230211 0.02521461 -0.027171517 0.07823456 0.020732239 -0.054759696 -0.017265052 -0.055334844 0.08011497 -0.073266804 0.02643746 -0.014884333 -0.078652896 -0.046062578 0.031233173 -0.06771989 -0.019478552 -0.022079244 -0.016412864 0.046747163 -6.7979665e-05 0.04829266 0.074706405 -0.039277818 0.035871617 -0.026504159 0.03506914 0.081289545 0.019333396 0.019191545 0.07595226 -0.06469325 -0.035774153 -0.062252156 0.0076479786 0.028631635 0.0055898577 0.04160568 -0.022807732 -0.017868547 -0.007471938 0.0059579113 -0.0051129693 -0.06393717 -0.015941909 0.08201004 -0.00021297744 -0.0038609998 0.033414055 -0.015135227 -0.04680513 0.089064874 0.03364521 0.017697109 0.047285564 -0.0038846058 -0.050539766 0.05735204 -0.015069746 -0.0037622645 -0.0685571 0.07678452 0.0025731174 0.012380464 -0.02541826 -0.05330093 0.055520643 0.073304184 -0.0074434904 0.005356385 -0.033387348 -0.039770246 -0.07454377 0.10714343 -0.004307629 -0.012402454 0.0127926525 -0.037697073 -0.07092425 0.0214838 0.012740074 -0.017418223 0.052661225 0.039055288 0.03702724 0.0758103 -0.034002066 0.0551498 -0.044573624 -0.017306363 0.14144169 0.054146796 -0.092918746 -0.018599741 -0.071239784 -0.09619017 0.072953224 0.07547429 -0.0061958064 -0.009563147 -0.08442327 0.016786573 -0.09019476 0.029901255 0.050233547 0.036114413 0.07619064 -0.031883456 0.048232675 -0.006236164 0.05969035 0.05101161 -0.0015385168 0.05723024 -0.06902496 0.00085357315 -0.018387673 0.017687466 -0.0026644394 -0.007977033 0.015573749 -0.0430768 0.035427067 0.021452542 -0.06104308 -0.11626838 0.023968115 0.006990856 -0.00561662 -0.01868721 0.015170703 -0.0007852046 0.08631732 0.03281011 0.04158861 -0.0032433865 0.025039822 0.046338785 0.10167458 0.00066894677 -0.043101255 -0.006577528 -0.010327321 -0.01686214 0.044587623 -0.11543299 0.00854382 -0.05917719 -0.06617302 0.038003962 0.082201704 -0.055600885 0.09590312 -0.046867114 0.16262181 0.015512169 0.03223428 0.06292276 -0.0012699987 0.022721097 0.037940767 0.088450104 -0.040588338 -0.039393507 -0.052614663 0.043412678 -0.027160699 0.031417392 -0.1034096 -0.08523892 -0.062383927 0.0408938 0.07757626 0.03473323 -0.10826123 -0.05181673 -0.021082662 -0.034341954 -0.0760848 0.05649602 -0.042010553 0.0054957084 -0.013929923 0.048490718 0.030214557 0.00408203 -0.08069535 0.013587807 0.041361805 -0.014783676 -0.023663133 -0.03870877 0.023296077 -0.008201183 0.020161953 -0.0015595027 -0.031720754 0.02076582 -0.015795551 -0.04054063 -0.01425721 0.040573757 0.018858083 -0.01360128 0.00019209318 0.0332679 -0.00879196 -0.040312972 -0.017957153 0.018385202 0.010290606 -0.018582579 0.012905888 0.08407299 0.033932984 0.046094794 -0.04751229 0.010178935 0.068837106 -0.024408618 -0.017211223 0.012384832 0.0027604816 0.012331895 -0.048057072 -0.014250512 0.04688675 -0.046386726 -0.03269629 -0.009225206 0.02767504 -0.02639716 0.02912615 0.07597224 -0.002264033 0.112553954 -0.086759105 0.050529968 -0.04173895 -0.019465035 0.019391933 -0.048419118 0.0720564 -0.02318976 -0.026053658 -0.08056995 -0.057023674 -0.0010645933 -0.028891327 -0.007342047 -0.04978663 0.002469503 -0.0021039827 0.08695852 0.049766507 0.0012152432 -0.022516945 0.054226127 0.07701228 0.08569449 0.0005160356 -0.023909636 -0.0040790285 -0.13372605 0.05692386 -0.027417379 -0.08576132 0.049774904 0.07122963 -0.044453874 0.11546426 0.039532375 -0.022672635 0.049212925 0.09064231 -0.01085675 -0.011088881 0.07387785 0.022765273 -0.008345182 -0.0033421568 -0.012217907 -0.022787796 0.053862847 -0.040065978 0.035094738 0.05632937 -0.011327897 0.0078368625 -0.041045755 0.0540789 -0.011661227 -0.025108712 -0.032478966 -0.041055907 0.06309016 0.026738469 0.036886778 -0.054545198 -0.022968344 0.04559163 0.04299219 -0.14356178 -0.021328604 0.08879055 0.045461338 -0.00073272875 -0.0062312465 -0.062655516 0.10270298 -0.06158108 -0.045901556 -0.015572111 0.1251187 0.0077053406 -0.0019255403 -0.0024488112 -0.0026389149 -0.011562659 0.007699883 0.012142155 0.07237051 0.10892161 -0.027035093 -0.07549244 0.055389695 0.03310585 0.035550565 -0.09084651 -0.064674556 -0.034586523 0.04002327 -0.023807393 0.071227886 0.048165374 0.03829466 0.061872277 -0.052115988 0.045672365 0.04177265 0.017378718 -0.004687528 0.056295812 0.015242079 -0.0005278116 0.061451625 -0.086905606 -0.013456046 -0.04909795 0.003898654 0.01018996 0.06325757 0.07548928 -0.07102605 0.04912998 0.038569015 0.10814219 -0.0229232 -0.09902341 -0.07778408 0.025325896 0.028651658 0.07859303 -0.00020055122 -0.01904808 -0.031177472 -0.024940489 -0.020436006 -0.08546373 0.0018295135 -0.048872355 0.04938017 -0.03412471 0.035301086 0.0029077122 -0.08183977 -0.018385725 0.030984478 -0.05174323 -0.015624168 -0.0413998 0.00964039 -0.026907675 -0.034011528 -0.025059959 -0.02104903 -0.017318483 -0.06600535 -0.09090939 0.03838096 -0.06303175 -0.006492833 -0.0054324227 -0.04036952 0.0043065203 -0.03229187 -0.08030995 0.023355292 -0.045169905 -0.032969937 -0.07766116 -0.011501295 -0.01705811 0.01888882 -0.03587026 -0.033645466 -0.083222 0.039678086 0.034063097 -0.07713511 0.009587765 0.038677745 0.012502759 0.0071762563 0.04171674 -0.04296673 0.03997749 -0.04137257 0.06619557 0.0045851115 0.02582666 -0.045721382 0.048938986 -0.0076882183 0.024357717 0.019640042 -0.026468689 0.0013563765 -0.051483266 0.05711489 0.025079736 0.056523256 -0.034256633 0.030640734 0.11143699 0.020378044 -0.050963502 -0.03167358 -0.017754572 0.043992814 -0.012953825 -0.03402835 -0.034478337 0.04253658 -0.0571276 -0.09083427 -0.041724358 0.0633997 -0.037328616 -0.009631874 0.0106786415 -0.0019427593 0.0057533225 0.025324835 -0.003877651 0.007116064 0.046534456 0.07132857 -0.03666866 0.0070962063 -0.08536852 -0.0867679 0.03576015 0.03628038 0.024052693 0.0127777485 -0.0021537445 0.03268245 0.061095007 0.076532975 -0.06570372 -0.068288125 0.09258978 0.074175924 0.07968883 -0.05704731 -0.049175955 -0.029436069 -0.029737918 -0.011402965 -0.013166838 -0.081394374 -0.03918059 -0.052520886 -0.057392377 -0.021375256 -0.094071515 0.005509951 -0.036024272 0.077221885 -0.077987015 -0.051923357 0.00038578035 0.029948337 0.01613597 0.013502805 0.009130273 0.016112288 0.07239848 -0.053773392 -0.08036689 0.026387192 0.10038779 0.04095318 0.114765495 0.0015629394 0.01486849 -0.056902926 -0.015548336 0.045823526 0.04838021 -0.022703266 -0.0014100486 -0.014028819 0.039233983 -0.06539347 -0.06751389 -0.058495108 -0.028877323 0.0048306724 0.031613193 -0.032493297 0.022681251 0.03166203 -0.05771769 0.00096130377 -0.04984341 -0.0012472891 0.047903933 -0.056096602 -0.08842165 -0.039467085 0.026589403 -0.0018508066 -0.082865216 -0.054968413 -0.039750524 0.067070864 -0.040618807 0.012767074 -0.05005579 0.07817066 0.09934408 -0.0141753955 0.0153993 -0.019455286 -0.020192968 -0.016179662 0.029787652 0.04199085 0.050178077 0.0054894877 0.020355845 -0.019484842 0.014945539 -0.02607922 0.044062436 0.020690255 -0.0769291 -0.024450101 0.0008678076 0.0041724015 -0.08030159 0.030565169 -0.019197932 0.041899484 -0.10772583 0.012951914 -0.014864433 0.01716535 -0.007549963 0.051783487 0.10192312 -0.047651347 0.022296656 0.06481976 0.029888842 -0.0012234998 -0.054755967 -0.06656789 -0.04644462 -0.06408618 -0.070569366 -0.047455326 -0.02093844 0.005618392 -0.022893066 0.04995416 -0.059298247 -0.025568804 0.01849488 -0.03173149 -0.00077713304 0.03456912 0.04396498 -0.0119663505 0.05714858 -0.055565894 0.0068645887 0.010617195 0.09648885 0.019090313 0.033393867 -0.01696493 0.025886066 -0.0058735893 -0.018442625 0.039545015 0.016181136 0.015106553 0.010395548 0.020380348 0.05084274 0.058629606 -0.049835324 0.047104385 0.028879296 -0.039310113 0.023834603 0.075159065 0.0038283186 -0.061111283 0.038519744 0.04558555 0.061395835 -0.015417229 0.026862206 -0.043444876 0.022612182 0.06397234 0.06467532 -0.04366268 -0.019460656 0.039115474 0.036395196 -0.02915953 -0.0056874775 0.12362826 0.031958878 -0.067372784 -0.012118549 0.046602204 -0.0020953517 -0.046412647 0.04893291 0.04605364 -0.02479711 0.03987153 -0.06103867 -0.03140074 -0.014263431 -0.01661167 -0.018306937 -0.07640866 0.006903258 0.1160119 -0.07371941 0.07374994 -0.08328249 0.019369917 0.05779174 -0.050219905 -0.002713524 0.02476638 0.019407066 0.047547124 -0.01221076 0.016786102 0.08801148 0.10502506 -0.14643192 0.02381108 0.05603813 -0.01776421 -0.058012787 -0.015529379 -0.06486223 -0.05347883 -0.04281548 -0.042699415 0.05162546 -0.017059239 0.035116207 0.035094578 -0.04265928 -0.024320934 0.011749065 0.034608405 0.016958997 -0.022873525 -0.06793624 0.026597306 0.046534445 -0.028347421 0.00030254436 -0.07004051 -0.10332481 -0.0017255449 0.017068498 -0.016351612 -0.050193768 -0.08002172 -0.029395463 0.086269684 -0.06814262
