899 300
革命 -0.004572237 0.01327487 0.0036634472 -0.0057351524 0.008195606 0.0066537373 0.0037357572 0.0098677 0.0018422275 -0.00043056815 -0.008903585 0.0007393217 -0.0087832175 -0.020612964 -0.004444293 -0.010490886 0.0076472983 0.0022906014 0.011638187 -0.012959569 -0.00047231306 -0.0145978555 -0.010132876 -0.005131729 -0.018202728 0.0074756905 -0.0045008077 0.012774677 0.006464222 -0.0013582595 -0.0011710565 -0.0013667191 0.009789334 0.00089480664 -0.004071568 -0.012029218 0.011187154 0.00082922244 -0.015021494 0.009796253 0.008833111 -0.004883811 -0.0055777566 -0.0026247313 0.014705159 0.012707481 0.018497532 -0.007155528 -0.013322486 -0.0043242467 -0.009236893 0.0026612605 0.0013910355 -0.003976102 0.014133112 -0.018350866 -0.005436356 -0.005089359 0.015105783 0.0068399915 0.004590637 0.0013914534 0.02828935 -0.0044527734 -0.013883187 0.004997844 0.0067570996 0.0058102696 -0.010626564 -0.0048363768 -0.016396886 0.0056132 -0.006611923 -0.011671446 0.0060823527 0.0012962637 -0.0017816455 0.025082992 0.0023216591 -0.010591645 -0.009288569 -0.009921909 0.005660593 -0.0018653256 0.004626483 -0.010972546 -0.0027261137 -0.00525474 0.007445414 -0.0014690064 0.0030040615 -0.0024338167 0.016189937 -0.011205299 -0.007901601 0.023519378 0.0040878565 0.0139016695 -0.006266561 0.0070884516 0.0074730692 0.006582523 -0.010029885 -0.0005905283 -0.017574951 -0.0119199995 -0.005045496 0.0026040412 0.0012831254 -0.001993597 0.0037932168 0.021124557 -0.010538348 -0.0027138654 -0.010976808 0.017397689 -0.0017252956 -0.015193051 -0.0049319845 -0.0033902908 0.010209328 -0.0040480443 0.0043149735 -0.004245967 0.0052876417 -0.016660668 -0.0075200745 -0.0050118016 0.007932791 0.00676522 -0.006122841 0.0018522078 0.009652742 -0.012482884 0.007928881 0.006982481 -0.003941436 -0.012136897 -0.0067763044 0.0159091 0.013506429 0.006748556 0.004529468 0.008449201 -0.0018635005 -0.0046895896 0.0010172009 -0.0016693175 -0.007535948 0.010022809 -0.004302913 0.0073908586 -0.0062025124 -0.0049101426 0.004812178 0.0017739275 -0.011071307 0.013530941 -0.02066244 -0.006313562 0.003141423 0.0067374757 0.005473516 -0.017195683 0.010248685 0.023870364 0.010580505 0.0016382405 0.012896671 -0.0014704763 0.010908268 0.019629993 -0.0050825775 -0.0011996554 0.014019535 0.01616232 -0.0026944103 0.006962643 -0.0037845331 -0.006824339 0.0106231775 -0.00089765294 -0.01348697 0.00041790534 -0.013468127 -0.0068465467 -0.0041110497 -2.2114116e-05 -0.0059195664 -0.0003341188 0.0035713676 -0.0135818245 0.004180047 -0.016840426 0.0044823596 -0.0015295405 -0.0067972313 -0.006513265 0.00021927725 -0.009124383 -0.004609402 -0.0007207145 -0.016591772 0.0011885843 0.005742565 0.00018055698 -0.013601468 0.025877725 -0.014859598 -0.0074413344 0.015197344 -0.0032381658 0.0011299337 -0.010832637 -0.024855535 0.0023400711 0.014000637 0.0014011818 -0.0018183583 -0.008988376 -0.00380038 0.009821438 0.0075401105 0.0117599545 0.0031909563 0.00014630092 -0.002074051 -0.006912037 -0.0006075371 -0.00024519008 0.0054401136 0.010149913 -0.005602541 -0.0036509058 0.007414589 0.011494897 -0.0018454423 0.0028292409 0.011440906 0.0027908408 0.009250269 -0.0024151409 0.013426104 -0.0038048653 0.0140046105 -0.010207953 0.010190314 -0.003997534 -0.014687002 0.00057741965 0.023521928 0.0011052113 -0.008742323 0.006332479 0.00020670594 0.00082028174 -0.0028912972 0.0030874705 -0.007833575 0.0008848927 -0.002461629 -0.0060972204 -0.00484686 -0.0009035901 -0.010692581 0.019262072 -0.0053080805 -0.006819212 0.006669171 -0.004644428 -0.005756726 -0.011227713 0.0020424863 -0.0009381686 0.0044288645 0.004553066 -0.014020997 -0.0051960293 0.00088223146 -0.0015419235 0.009882307 -0.016190099 0.008273028 0.009657009 -0.006202547 0.0030296375 -0.005169119 -0.008600577 0.0078928275 -0.0058833617 0.01077293 0.010765563 0.012720195 -0.00091003685 0.0099474145 0.01305098 -0.0064312895 -0.010409757 -0.0058171484 0.0031041242
工作 -0.0050119017 0.015055593 0.0026903693 -0.0073615317 0.009604105 0.009865817 0.0036710417 0.013853157 0.0024028602 0.0008847693 -0.011614524 0.0036123386 -0.010309981 -0.026301207 -0.00750993 -0.01009997 0.009960054 0.005030551 0.013059843 -0.016117167 -9.885338e-05 -0.019746771 -0.012641619 -0.009277856 -0.022685396 0.010763255 -0.004355549 0.014316817 0.008296616 -0.0025463034 -0.0029742855 -0.0054762918 0.013690085 0.0031536438 -0.004445507 -0.014922788 0.0136052435 0.0024707252 -0.021404969 0.012470307 0.013250497 -0.0071518864 -0.0044070655 -0.0048010927 0.018024057 0.018418258 0.025249438 -0.00949194 -0.017749289 -0.00808875 -0.014657729 0.0052951407 0.0026797913 -0.0022135342 0.01823295 -0.022957278 -0.009606938 -0.0062352973 0.019709177 0.01039228 0.00742969 0.0005464127 0.036960803 -0.007088406 -0.017748691 0.0069714924 0.0082963435 0.009089869 -0.013648824 -0.005628229 -0.020555401 0.008635738 -0.010150831 -0.014145522 0.009775742 0.002884552 -0.0059737912 0.032382146 0.0029923688 -0.010159308 -0.012934735 -0.01127411 0.011275685 -0.0047989762 0.0058619105 -0.014373045 -0.00070064736 -0.005143444 0.00890563 -0.0057296115 0.0035275426 -0.004535161 0.020209135 -0.0127573265 -0.0087753385 0.033028964 0.0046276157 0.020170163 -0.008698936 0.008347091 0.008825586 0.007890404 -0.014061148 0.0025091856 -0.022029154 -0.01646466 -0.009533624 0.004451298 0.0009122065 -0.005359268 0.0023400404 0.025806516 -0.012782769 -0.0026107046 -0.012272457 0.023993272 -0.0011068084 -0.018440483 -0.0050942716 -0.0048988373 0.011174668 -0.005354751 0.007569227 -0.0042899107 0.0066579003 -0.023199169 -0.010255245 -0.008175507 0.008908426 0.008140205 -0.00609761 -0.000324674 0.010975457 -0.019916363 0.012236688 0.0076010055 -0.007858935 -0.016647562 -0.009161745 0.020434948 0.019403266 0.008553893 0.007938231 0.0082684485 -0.0022871944 -0.0060081854 3.219245e-05 -0.004496402 -0.010036873 0.014747362 -0.006385049 0.010150904 -0.0078546135 -0.00825872 0.00731638 0.0028740563 -0.014194312 0.018983092 -0.02683051 -0.008593855 0.0044555557 0.008754433 0.008265693 -0.020342277 0.0146480175 0.032157496 0.013564154 0.0042371526 0.017037982 -0.0020695853 0.012201849 0.023170602 -0.006612142 -0.0022111163 0.014915015 0.020893726 1.224492e-05 0.0057912287 -0.0061508897 -0.007712325 0.012468744 -0.0002443185 -0.014924048 0.0011047842 -0.020206543 -0.011330025 -0.003488223 -0.00012861865 -0.009919167 0.00023709274 0.006119475 -0.018005256 0.005319636 -0.022329407 0.0039246343 -0.0017227816 -0.00735509 -0.01113939 -0.00263399 -0.0121169025 -0.0058828625 0.001599289 -0.02076523 0.0051175556 0.008088748 0.0023098937 -0.01674665 0.03159436 -0.021759339 -0.01025168 0.017495785 -0.0014372095 -0.0008804307 -0.01699717 -0.032561466 0.0055146874 0.018603552 0.00082659186 -0.003075464 -0.010148191 -0.0059936265 0.011058309 0.0066697346 0.017659841 0.0037470874 0.0026782963 -0.0033182902 -0.009710095 7.900941e-05 0.0020862638 0.0053195455 0.014677457 -0.0064082486 -0.0037732525 0.008159041 0.012109124 -0.000623492 0.0058125556 0.0118392985 0.0010597106 0.00915711 -0.0036466978 0.017898919 -0.008295634 0.021354707 -0.01209434 0.012563876 -0.0048197927 -0.017766653 0.0022162742 0.030752027 0.0025082803 -0.011392052 0.010590156 0.0011282515 0.0014697021 -0.0027153222 0.005697064 -0.010160989 0.0004471097 -0.0018678167 -0.009206356 -0.006235766 -0.001808921 -0.015179948 0.0271816 -0.0070023052 -0.00805467 0.010375449 -0.00930258 -0.007632041 -0.01817964 0.0046421043 -0.0027646734 0.0033129791 0.006518019 -0.018198574 -0.0060508763 0.0009418423 -0.0026551965 0.013075299 -0.019909471 0.013233351 0.0119280005 -0.0076442496 0.005217861 -0.0059520886 -0.014502381 0.011815898 -0.009920247 0.014719313 0.012972223 0.016376201 1.27904805e-05 0.01173383 0.016924232 -0.011051391 -0.012999627 -0.007942005 0.004841324
群众 -0.006609287 0.014348823 0.0016995164 -0.006829614 0.008321311 0.009984714 0.004919117 0.012817819 0.0018430438 -0.0003648639 -0.011331582 0.0035569698 -0.010905049 -0.023474788 -0.0062034377 -0.012515465 0.010776518 0.0034796759 0.013932343 -0.0159565 5.2736752e-05 -0.019658178 -0.01438853 -0.007910645 -0.023931047 0.010667062 -0.00549895 0.014195966 0.006527166 -0.003042598 -0.0006727027 -0.0027162696 0.014191562 3.0691714e-05 -0.002590759 -0.01358267 0.014378574 0.002809151 -0.021370975 0.012369927 0.011737556 -0.005973108 -0.0075210906 -0.0042270487 0.01926226 0.01598155 0.025019031 -0.007876487 -0.017303724 -0.007282867 -0.014065626 0.0040556537 0.0016553397 -0.0018697995 0.0203205 -0.021659475 -0.0073029 -0.0038118572 0.017481033 0.010980943 0.00864335 0.002043925 0.038852584 -0.008299866 -0.019628104 0.006493657 0.0067456113 0.010703521 -0.011757832 -0.0052754115 -0.01871151 0.00864633 -0.009521221 -0.014973415 0.0068661054 0.0027059428 -0.0056117056 0.03356782 0.003068555 -0.010998954 -0.014001342 -0.012811512 0.011062483 -0.0019856514 0.006165362 -0.012974011 -0.001386511 -0.0034951665 0.010146967 -0.0030784637 0.0019670813 -0.004427287 0.020261262 -0.011661403 -0.008564302 0.03330313 0.0042150402 0.01918338 -0.010306613 0.0063182814 0.00885856 0.008137434 -0.012338395 0.00018744395 -0.02123802 -0.015029834 -0.008119187 0.0042812997 0.00054152386 -0.004184727 0.0031784181 0.02887635 -0.012221028 -0.0033316 -0.011997364 0.021186603 -0.0016437585 -0.01910363 -0.0044127074 -0.008120046 0.012019035 -0.0036362223 0.008294824 -0.0042155455 0.006745677 -0.02116917 -0.007333289 -0.0058720047 0.009414118 0.007961178 -0.006169566 0.0021264951 0.011442686 -0.018353773 0.011064927 0.0075439992 -0.005622497 -0.014085762 -0.009122308 0.020256408 0.018664442 0.007282782 0.0072716116 0.01006789 -0.0013791118 -0.0033839445 0.0010228767 -0.003617518 -0.01108296 0.013023938 -0.0040078433 0.010227887 -0.0064304187 -0.008955178 0.007969292 0.003341766 -0.013677036 0.01604912 -0.026357142 -0.0076894495 0.002406112 0.0095830755 0.009426075 -0.01993937 0.013716407 0.032978628 0.012717627 0.00283596 0.01640094 0.00026487705 0.011978003 0.024804685 -0.0062998184 -0.0020251824 0.017298661 0.021598622 -0.0022242165 0.007859517 -0.0049809595 -0.0067961877 0.013868822 -0.0027033556 -0.014158219 0.0016404868 -0.020619318 -0.009044356 -0.0056873322 -0.00135844 -0.009577508 -0.0016656814 0.004973861 -0.017453274 0.0053677396 -0.02228359 0.0049991496 -0.0026844053 -0.008247095 -0.009363097 -0.0031465737 -0.014842013 -0.0042969836 0.0022261804 -0.02143282 0.0027381727 0.010888853 0.0014580884 -0.015894344 0.03125063 -0.018826973 -0.01181273 0.018998343 -0.0032357334 -0.00043157177 -0.016368661 -0.031350438 0.0026568694 0.01915729 4.605791e-05 -0.0021879035 -0.010212373 -0.0048135133 0.01067835 0.008531074 0.014954187 0.0033365723 0.0012779025 -0.0016545383 -0.009913165 -0.00017154594 0.0012805373 0.008318587 0.015060605 -0.0075856345 -0.0034631537 0.0072374875 0.012893691 7.730936e-05 0.0056244694 0.014544324 0.0019978834 0.011530987 -0.0025447619 0.01939056 -0.0070254835 0.019491835 -0.013321625 0.010567704 -0.0074754446 -0.01737839 0.0015717244 0.031812515 0.002952566 -0.010235584 0.009539937 -0.00094162935 -7.508172e-05 -0.0026067684 0.003078875 -0.011497436 0.0021090175 -0.0025880048 -0.010269426 -0.004909369 -0.0015524968 -0.014768116 0.02558133 -0.0053255497 -0.008463213 0.008587867 -0.00945901 -0.004861344 -0.017672952 0.0033986748 -0.0026434646 0.005277943 0.007908272 -0.01958981 -0.0049544843 0.0033036433 -0.0016314586 0.013317725 -0.017900586 0.012028719 0.01117572 -0.0074299714 0.0046761474 -0.0036178136 -0.013976927 0.013043761 -0.010901497 0.0149338 0.01304278 0.015807826 -0.00053632696 0.013823365 0.018363485 -0.010290568 -0.012906902 -0.0064385976 0.003739948
中 -0.0038605367 0.011753992 0.0016768175 -0.006538313 0.008146926 0.00870228 0.0016021833 0.012262579 0.0030840645 -0.0004082492 -0.009439095 0.0009889676 -0.009366494 -0.022140894 -0.005063903 -0.010018664 0.009458725 0.0038690425 0.009779473 -0.014767376 0.00061992445 -0.014792053 -0.011826255 -0.00861364 -0.020445967 0.007702446 -0.0028289827 0.012444431 0.006136207 -0.0006901542 -0.00217125 -0.0021145009 0.01011618 0.003091447 -0.0016155349 -0.010501803 0.009470462 0.0015638694 -0.017812712 0.01052771 0.009236317 -0.0065326374 -0.006085552 -0.003280377 0.014077545 0.015097919 0.018281931 -0.0073108175 -0.011988412 -0.0068910117 -0.010714058 0.0032364875 0.0006546618 -0.0011076872 0.015177724 -0.019642595 -0.008234821 -0.0044266465 0.014354999 0.009416149 0.006567585 0.0030333532 0.029446851 -0.007046231 -0.015804512 0.0063207764 0.008007474 0.00845173 -0.012199125 -0.003471212 -0.014519109 0.005193651 -0.0058109397 -0.014004866 0.0072361985 0.0009970723 -0.0023623947 0.02791836 0.0013857762 -0.008033253 -0.011651284 -0.008765992 0.008875894 -0.0016832082 0.0060954974 -0.010436275 -0.0020952336 -0.0049069254 0.009311295 -0.0022801484 0.0004236151 -0.002345927 0.0152434185 -0.011655684 -0.0071181506 0.028618893 0.0035539367 0.015815476 -0.009167026 0.005145818 0.008367194 0.006880247 -0.010927031 0.0004004993 -0.015969811 -0.0116333505 -0.0057737897 0.0034658627 -0.0012314678 -0.005350247 0.0020095983 0.020822994 -0.011330603 -0.0026516896 -0.012398447 0.018168997 -0.0016429592 -0.014128398 -0.0031360153 -0.006027127 0.010972036 -0.0030077482 0.0062411614 -0.0048622554 0.006157717 -0.017535208 -0.0074943886 -0.0051848455 0.0077586523 0.0077380477 -0.0051141707 0.00070429867 0.01040827 -0.016533695 0.0110975625 0.0067000217 -0.006416007 -0.013320607 -0.00965285 0.017298456 0.015902001 0.0074901297 0.006182804 0.0082882 -0.0028331846 -0.0043522734 0.0022295886 -0.004500356 -0.007947316 0.011851584 -0.005780899 0.008025242 -0.007295513 -0.0075246957 0.005619807 0.002955486 -0.012030969 0.013723247 -0.024528755 -0.0059246873 0.0035539079 0.006945493 0.0069821654 -0.017824173 0.011339523 0.027221648 0.010964498 0.001656143 0.013860537 0.00033857717 0.010997984 0.018212268 -0.007007803 -0.0021851314 0.013348672 0.018782765 -0.002464418 0.006688444 -0.0033427817 -0.0058268313 0.011071164 -0.002729512 -0.013673914 0.00059080124 -0.016015401 -0.007698649 -0.0052651986 -0.0011854622 -0.0060900277 -0.0023105599 0.004317687 -0.01344202 0.005034269 -0.016319303 0.0043867654 -0.003128104 -0.0051795817 -0.009377317 0.00030080954 -0.012131052 -0.003410569 -0.00050303456 -0.015566759 0.0032464855 0.0074073984 0.0022195585 -0.013909483 0.027471248 -0.017369006 -0.009358643 0.016102692 -0.001324093 0.0017874377 -0.012436999 -0.026964717 0.0033415877 0.015613833 0.00022996569 -0.0010171646 -0.0088588325 -0.0040326873 0.00962272 0.005847417 0.013171714 0.0023254843 0.0028633017 -0.0017768791 -0.009689498 0.0004979629 0.00027478035 0.0067623192 0.012375382 -0.0044026226 -0.0027803837 0.00563528 0.0106923925 -0.001594851 0.002382768 0.010703234 0.0024343936 0.0078105773 -0.0032017548 0.013858506 -0.0065023145 0.016696922 -0.010625394 0.008660435 -0.0062378235 -0.015509081 0.001857672 0.024486698 0.0014503249 -0.009243287 0.009640419 0.0016058391 0.0017241854 -0.0033286037 0.003107385 -0.00782968 0.00084026274 -0.0035380549 -0.0075528705 -0.00292616 -0.0015737519 -0.011542039 0.022166798 -0.0042920206 -0.0063377596 0.007214875 -0.0068770163 -0.0031831285 -0.012042238 0.004228622 -0.0036145705 0.0021404643 0.0043570604 -0.015131564 -0.0025912903 0.0030077293 -0.0024709841 0.012257503 -0.016557338 0.009113611 0.008846871 -0.004896231 0.0027749469 -0.0036579666 -0.009129788 0.010912823 -0.009107193 0.013652559 0.009929946 0.014688769 0.001481193 0.011363993 0.015493174 -0.006573649 -0.01036582 -0.0051158 0.002709326
中国 -0.0055643143 0.01259598 0.0016428415 -0.004062261 0.006782729 0.0069227717 0.0022752527 0.007851123 0.0027455061 -0.0009625246 -0.0070460853 0.00038776585 -0.005816093 -0.018576935 -0.004446906 -0.007313287 0.0074623786 0.0037495426 0.011213677 -0.011888947 0.0006315879 -0.013746203 -0.011024307 -0.0076770787 -0.016121618 0.0071041873 -0.0043009804 0.011392477 0.004779731 -0.0028944672 -0.0009344555 -0.0017212573 0.007517675 0.0016317316 -0.0016570408 -0.011080041 0.010541632 0.0036905666 -0.015350256 0.008822888 0.008013677 -0.006462106 -0.0031316988 -0.0020441685 0.012046282 0.012649412 0.015946064 -0.0053915265 -0.010783708 -0.0056580417 -0.009886176 0.0016765703 0.0013404015 -0.00226684 0.0123900585 -0.016987517 -0.006176916 -0.0040800357 0.0125999525 0.0058364887 0.007006883 0.0027194528 0.027220435 -0.006494061 -0.01312181 0.003981358 0.006565371 0.007936944 -0.009338084 -0.0024102614 -0.013601064 0.005449587 -0.004844486 -0.011919552 0.005270881 0.0018103231 -0.004489001 0.02327623 0.00026985604 -0.008645157 -0.0084575005 -0.010113713 0.0072253468 -0.002928867 0.005919353 -0.011542368 -0.0009600699 -0.0028912819 0.0052421773 -0.002380094 0.0011368782 -0.002400769 0.015090604 -0.009231639 -0.0048067123 0.02410604 0.0015251557 0.0145507725 -0.006427127 0.0057732975 0.004593549 0.0056752143 -0.009708116 0.0015178517 -0.01655767 -0.011325905 -0.0068733497 0.004043796 0.0017333769 -0.004697126 0.004126262 0.020635799 -0.010336774 0.00025609572 -0.010689345 0.016307438 0.0009163463 -0.011366455 -0.004474551 -0.004844723 0.008089242 -0.0012768122 0.004125216 -0.0028792715 0.0053672395 -0.01460661 -0.0056691677 -0.0056466223 0.0064561334 0.0046272874 -0.0062010693 -0.00030843803 0.006655372 -0.011706039 0.009464661 0.0050595533 -0.005432256 -0.009448811 -0.00772335 0.014965232 0.011807972 0.0044030123 0.0033793463 0.0052558766 -0.0025254101 -0.0020835367 0.00013308984 -0.0046113255 -0.0064639198 0.010545923 -0.0027184132 0.0075903824 -0.004094251 -0.0051215715 0.0049980055 0.0038693582 -0.008719422 0.01189423 -0.020390544 -0.0041053025 0.0014084216 0.0061982176 0.0081396885 -0.015204419 0.010925822 0.021987416 0.010840235 0.0026675495 0.012385834 -4.0610223e-05 0.0075673936 0.018216211 -0.005256422 -0.00093074684 0.010065261 0.015427156 -0.0006637264 0.0061151376 -0.003531168 -0.00655469 0.008517085 6.7357185e-05 -0.012299381 0.0023637891 -0.013173865 -0.0072005526 -0.0045828745 -0.0009672833 -0.005668486 -0.0015500134 0.0020815397 -0.012294791 0.00446331 -0.014530051 0.0017960205 -0.0032638842 -0.0055129984 -0.00727645 -0.0013547624 -0.011234135 -0.004886226 -5.4542717e-05 -0.013030338 0.0010951771 0.0048991223 0.0024702672 -0.0131784165 0.023488356 -0.013626952 -0.0081747845 0.012960933 -0.0028733155 -0.000792341 -0.011144516 -0.021273522 0.0016156259 0.01310667 -0.0009696159 -0.000671829 -0.008514036 -0.0027247514 0.0065870695 0.005806934 0.011605738 0.0015433197 0.0026618876 -0.0025413462 -0.006970462 0.00017122296 0.0014207063 0.0053649824 0.010527076 -0.0060466193 -0.0027260948 0.0050342693 0.010714202 -0.002117827 0.0024170137 0.009816107 0.00237678 0.0091816 -0.0032723835 0.014224937 -0.005286024 0.013465998 -0.006758678 0.009005435 -0.0054937964 -0.011778696 -0.00039145723 0.023116656 0.0030300946 -0.0059730173 0.005675865 -0.00010916873 0.0025245685 -0.00070599583 0.004641596 -0.005850182 -0.00071958435 -0.002492307 -0.006106182 -0.004483702 -0.0036528232 -0.010413022 0.018478075 -0.0054304027 -0.0034911607 0.0053241397 -0.005577038 -0.0057332222 -0.012589951 0.0036376738 -0.002724481 0.0024666714 0.0042324974 -0.01475841 -0.0019575753 0.00080200634 -0.0018137546 0.008500031 -0.013676884 0.009540848 0.0076882327 -0.0054807924 0.0021142815 -0.0038766672 -0.007844164 0.006769525 -0.0066993404 0.01172687 0.0086152125 0.012453438 0.0011596147 0.009987595 0.011505204 -0.0076809917 -0.007800097 -0.005882752 0.004165829
矛盾 -0.0038972392 0.010616585 0.0016781703 -0.0033536567 0.0075045098 0.007817107 0.0037163412 0.009143114 0.003795384 -0.0010506114 -0.00767153 -0.0004959076 -0.00827128 -0.01815205 -0.006605528 -0.007670332 0.005302532 0.0021849694 0.009154273 -0.009619768 0.00053853967 -0.010817253 -0.010596506 -0.0052535194 -0.014674188 0.008063996 -0.0029879333 0.010971566 0.0045663132 6.660475e-05 0.00043755525 -0.0019350719 0.009948812 0.0023486274 -0.0017631515 -0.009413084 0.010554795 0.0010242544 -0.012218521 0.005961955 0.008472961 -0.0064850724 -0.0032454613 -0.0028136417 0.0126685705 0.013269362 0.01645227 -0.005335746 -0.009789408 -0.0049710944 -0.008360638 0.0023715307 0.00035528553 -0.00063995394 0.01307761 -0.014607275 -0.0060278284 -0.0036050295 0.0138264485 0.008289598 0.006387275 0.0012913381 0.024516871 -0.0034869418 -0.013488634 0.00484272 0.004762937 0.007764341 -0.007615386 -0.0033580838 -0.013054034 0.005636121 -0.007677319 -0.0102274185 0.0042788996 0.0005792342 -0.0044744518 0.022932399 0.0011820632 -0.00946268 -0.007925716 -0.008741827 0.005210993 -0.0016685196 0.0059093214 -0.011181803 -0.000734365 -0.0018647435 0.00525154 -0.0033371004 0.0022289467 -0.0021017226 0.01487225 -0.0073201116 -0.007118991 0.02228929 0.0029821561 0.013043555 -0.007896237 0.0041964795 0.0050124917 0.0066246674 -0.008049296 0.00059793406 -0.01405584 -0.011751281 -0.0059865443 0.0015361093 0.0014328824 -0.0038151494 0.0036680328 0.017871687 -0.009675489 -4.842277e-05 -0.009619926 0.014800385 -0.00016246828 -0.011673291 -0.0026693959 -0.005891093 0.007795906 -0.0042362334 0.0044351513 -0.0028985706 0.0056308606 -0.015167947 -0.0066975127 -0.0050798384 0.006832437 0.006250769 -0.003460679 0.001992034 0.008400525 -0.012709086 0.0087706875 0.005150994 -0.00597863 -0.008648091 -0.007074402 0.014081709 0.0130070755 0.0063288333 0.0043322514 0.0067438525 -0.0024003256 -0.0022898507 0.001549752 -0.0040299445 -0.0063761105 0.009644306 -0.0034243173 0.009025309 -0.0069673997 -0.0050067645 0.005687564 0.001349536 -0.008243466 0.011165758 -0.019917145 -0.004392843 0.002166138 0.0057086837 0.0070004966 -0.012880409 0.011112611 0.022930885 0.008416669 0.0027701857 0.009533274 0.00065460475 0.007686883 0.014329743 -0.003780814 -0.00032959564 0.011798591 0.0133682685 -0.0012730173 0.0063959067 -0.002632109 -0.004549671 0.00941871 -0.001735795 -0.010042411 0.0008974965 -0.013856119 -0.0056088776 -0.0033157312 -0.00091511884 -0.0075778374 0.00032705997 0.0021379772 -0.009662865 0.004354305 -0.014086482 0.0024978633 -0.0024940309 -0.0036363686 -0.0049281744 -0.00081874995 -0.0074561536 -0.0022277723 0.00033928975 -0.015347351 0.003024447 0.0071997913 0.0016599637 -0.012348931 0.021176528 -0.013916491 -0.007840949 0.011884604 -0.00082322926 -0.0010389038 -0.0095795635 -0.021202303 0.0032416282 0.013209769 0.0016759941 -0.0033712643 -0.0061787385 -0.001969533 0.0059777363 0.0048730946 0.009645385 0.0042167064 0.0006718564 -0.003297732 -0.0068659033 -0.0010685154 0.0018548861 0.0047912407 0.007822492 -0.0025151211 -0.0019436834 0.0048028543 0.008005212 -0.0005136116 0.004580214 0.0070353923 -0.0008800402 0.006866091 -0.0022557566 0.013849188 -0.0026546512 0.015280733 -0.008205101 0.006474304 -0.005185539 -0.0116127385 0.0024524836 0.022501832 0.0026150113 -0.006016852 0.00721978 0.0016739739 -0.0003025765 -0.003747129 0.0018734338 -0.0077522267 -0.0008641544 -0.0021547477 -0.005724847 -0.0035073364 -0.0030398562 -0.011250207 0.016220197 -0.005534783 -0.0040858514 0.006593685 -0.004275543 -0.0030687968 -0.012133009 0.0020868233 -0.0028970197 0.004366481 0.0046882257 -0.011383513 -0.004124023 0.0014489606 -0.00089270103 0.0073755365 -0.013010898 0.0067979037 0.008828694 -0.0029706485 0.0015772982 -0.0050072283 -0.007851097 0.0080353925 -0.005634778 0.008830902 0.009155267 0.011234353 0.00012099658 0.0101525765 0.012821336 -0.007042023 -0.0069374926 -0.0063765543 0.0028267747
政治 -0.0056691966 0.012685762 0.0019875243 -0.005124255 0.0069516418 0.005409044 0.0014940983 0.008159451 0.0019338543 -0.0010082864 -0.007089307 0.0005639867 -0.006197395 -0.018206596 -0.006513737 -0.00920192 0.005328076 0.0041754046 0.008497093 -0.011330343 0.00085596007 -0.015160522 -0.0102191325 -0.0052590235 -0.017256618 0.0068010697 -0.0014431651 0.011199674 0.006694926 -0.00028189062 -0.002153873 -0.003942965 0.010015649 0.0024932474 -0.000644574 -0.009810812 0.00942147 0.0010104732 -0.0153704155 0.009352216 0.009836203 -0.0046657957 -0.0032941771 -0.0034341025 0.013286824 0.0144595355 0.016039522 -0.0077122943 -0.011190058 -0.0040367944 -0.010816318 0.0017517078 0.0021128235 -0.0012725997 0.013717138 -0.015474786 -0.0073154415 -0.00450726 0.012159949 0.007909322 0.003768352 0.00061621715 0.026795054 -0.0065932735 -0.012840615 0.0037582293 0.0046095434 0.007959208 -0.009588318 -0.004689685 -0.013107244 0.0069229705 -0.008179184 -0.01277136 0.0075410167 0.0030978995 -0.0030291164 0.023031944 0.0005387624 -0.008535786 -0.009375935 -0.009509659 0.007774326 -0.00207067 0.0032408875 -0.011881337 -0.0017589002 -0.0029727602 0.0072013694 -0.004287075 0.0006251288 -0.0036479519 0.01609396 -0.009909011 -0.006984429 0.023913765 0.0023596685 0.013659309 -0.007261438 0.005443569 0.006060045 0.0061435048 -0.010019674 0.0022407486 -0.014911385 -0.0124276625 -0.006924972 0.0013091152 0.00054150436 -0.0033419346 0.0015806981 0.021109318 -0.009115661 -0.0019268787 -0.008990428 0.017791783 -0.00081191334 -0.014467011 -0.0041337605 -0.004792072 0.00734699 -0.0039090496 0.005912715 -0.0053653372 0.0037714508 -0.016992478 -0.0051747854 -0.004633472 0.005068847 0.0064186007 -0.004273499 0.0016201292 0.008524945 -0.014467951 0.0070914864 0.007349925 -0.0049431906 -0.010465504 -0.008245646 0.016575187 0.0139475 0.0051880325 0.004565214 0.00811966 -0.0012884749 -0.0042709922 2.2921868e-05 -0.0046706414 -0.008564808 0.00982428 -0.0026685474 0.009228771 -0.004819319 -0.007785026 0.0065394286 0.0028875053 -0.011623271 0.014062357 -0.019673761 -0.005185766 0.0017055983 0.0043736664 0.0075051324 -0.01584481 0.011486514 0.022489747 0.00994931 0.00030293726 0.012859712 -0.0020710588 0.009093267 0.018888988 -0.0065560224 0.00093694875 0.013188768 0.015361576 -0.0026653155 0.0058936197 -0.004256122 -0.004627984 0.011194648 -0.0025461756 -0.010224835 -0.0001950364 -0.01338156 -0.008225315 -0.0041542 -0.0012228023 -0.007989597 -0.0012894424 0.0031808729 -0.012123534 0.0032998605 -0.016189337 0.0021474191 -0.0019914666 -0.004136347 -0.008066686 -0.0025075325 -0.009061267 -0.0031158628 -0.00011795985 -0.014159816 0.0027280017 0.006994605 0.0013850132 -0.012270912 0.02475594 -0.014329838 -0.006952923 0.014812203 -0.0014889612 0.00014601852 -0.010155127 -0.024721315 0.0035842212 0.014289079 -0.0010515251 -0.0029063795 -0.0068376097 -0.0044280766 0.009709904 0.005545812 0.010228311 0.002274653 0.0018245297 -0.002667244 -0.008016347 0.0006090786 0.00051354885 0.0034367065 0.009364874 -0.003016496 -0.0024934143 0.0070660543 0.011262734 0.0008552854 0.0050575174 0.009871095 0.0015125307 0.0073203216 -0.002584725 0.013480448 -0.006151334 0.015146263 -0.008378298 0.00777961 -0.0036325336 -0.012455936 0.00064223906 0.02202172 0.002274327 -0.007430784 0.0073719267 -0.0003539454 0.00051571795 -0.0021122405 0.0019843092 -0.0071017016 -0.0005289838 -0.00041961708 -0.006121552 -0.0054877335 -0.0017674246 -0.011693088 0.017551655 -0.005001248 -0.004187351 0.0067969146 -0.0059917183 -0.00405567 -0.012925755 0.0015291165 -0.003366834 0.0033851245 0.004120958 -0.01399355 -0.0023650813 0.0023484335 -0.0012040634 0.008300698 -0.013228569 0.008807267 0.009560265 -0.0038285358 0.0033646768 -0.0041065696 -0.007924861 0.006825451 -0.007593163 0.010480383 0.009540642 0.013306552 0.0013885932 0.008601876 0.012567958 -0.008008832 -0.010620025 -0.0062235147 0.0019735973
敌人 -0.0028898893 0.009867353 0.0013523032 -0.003042336 0.0061099012 0.007233815 0.003729105 0.00799675 0.0015153135 0.0020618069 -0.006138795 0.002280896 -0.005280094 -0.01597184 -0.006432106 -0.007090159 0.006944258 0.004550895 0.009383553 -0.012188911 -0.0010375606 -0.013508377 -0.010557268 -0.0074145505 -0.0144846225 0.0060915723 -0.0026579143 0.010840163 0.005028455 -0.001193176 -0.0013330441 -0.003123753 0.008988308 0.00022099685 -0.0014959417 -0.009595989 0.0077294656 0.0021808522 -0.012632933 0.007636984 0.008595923 -0.0062386133 -0.005502378 -0.0034691717 0.012774397 0.01296966 0.017622778 -0.004976893 -0.012017993 -0.006245078 -0.009935838 0.003546374 0.0024459346 -0.0016643655 0.012328769 -0.0153719485 -0.0051965676 -0.0049202135 0.010859955 0.0052402033 0.0063909586 0.0014101566 0.026356576 -0.0044185487 -0.011256235 0.0052584545 0.0052206013 0.0053939554 -0.009959697 -0.0018497229 -0.0117147565 0.004534426 -0.0074534826 -0.010422915 0.0069570118 0.0035377068 -0.004533746 0.024070257 0.00026333614 -0.008671398 -0.009903394 -0.008152684 0.007863401 -0.0042330422 0.005551047 -0.008788779 -0.000814796 -0.004395257 0.008148516 -0.0042269826 0.0018581961 -0.0021565894 0.013997501 -0.007872067 -0.007255936 0.02411759 0.000520742 0.0125758825 -0.006628203 0.005693445 0.0052783447 0.0055946438 -0.008083505 -0.00072422746 -0.016213711 -0.01247131 -0.0065086437 0.0026106338 9.975708e-05 -0.0030369496 0.0013558231 0.019756371 -0.009475746 -0.0023746537 -0.0099335285 0.016716627 0.0002759501 -0.011410126 -0.0046960292 -0.005085484 0.009402759 -0.0028905722 0.0063822633 -0.0046132193 0.0036084184 -0.015880844 -0.007178717 -0.0056498493 0.007110394 0.006213692 -0.006204293 0.0005890846 0.009179537 -0.013856131 0.0065862453 0.0072965357 -0.0058394265 -0.010174654 -0.0066468003 0.014804389 0.013012991 0.004936875 0.005891996 0.0059186337 -0.0017818135 -0.003630131 0.0015900201 -0.004113878 -0.0071783927 0.009876935 -0.004457948 0.007937381 -0.0056629875 -0.0045266487 0.006390991 0.004214038 -0.008889021 0.011934613 -0.020628214 -0.0056757205 0.0023498156 0.005019316 0.0077773994 -0.013769002 0.009916036 0.022874916 0.009025901 0.0032035783 0.011550393 -0.00038046934 0.0070367274 0.015344812 -0.007013749 0.0012465136 0.012527398 0.014958727 -0.0019896938 0.005420409 -0.00464951 -0.0058451346 0.009812618 -0.00040964948 -0.0116111655 2.5899988e-05 -0.014348039 -0.0060955263 -0.004078928 0.0008647198 -0.007192813 -0.0007865513 0.004613752 -0.012118841 0.006179636 -0.014572556 0.004606207 -0.00080912496 -0.005679532 -0.0053580147 -0.0015781522 -0.010283694 -0.0037351067 -0.00060134166 -0.013652251 0.0018157873 0.007606498 0.0024144433 -0.011568377 0.023361411 -0.014286924 -0.007946768 0.014409417 -0.0028290867 0.00072134915 -0.010720609 -0.020366276 0.0021893422 0.01354851 0.00017831252 -0.0014261007 -0.0067047384 -0.0025698566 0.006917257 0.0048155403 0.0098888725 0.0038946334 5.8766804e-05 -0.0033462483 -0.0063675614 -0.0006406864 0.00010145077 0.004773554 0.008741876 -0.005070404 -0.0035639736 0.006288133 0.009328926 -0.0015151969 0.004517237 0.009093057 -0.0007159525 0.008362526 -0.0018964157 0.013165997 -0.005053705 0.013528675 -0.007869636 0.008945918 -0.004807799 -0.011068737 -0.00015571159 0.019850116 0.00039588788 -0.008073187 0.0081716785 0.0006331054 3.1644926e-05 -0.0026389016 0.0034425925 -0.0071890904 -0.0006065152 -0.0033181298 -0.0068451 -0.0053416686 -0.0037127899 -0.010302759 0.018023245 -0.0040423456 -0.0042622285 0.0056753135 -0.0063466234 -0.002775207 -0.009459732 0.0026762302 -0.0005169619 0.0018543968 0.0043532457 -0.013328849 -0.0032025273 0.0023005824 -0.0022209801 0.010482487 -0.013111579 0.008663619 0.008845985 -0.004805041 0.0039535644 -0.0020688178 -0.010509451 0.008423221 -0.0078016003 0.011355676 0.009420402 0.012377897 -8.19649e-05 0.009540026 0.012856151 -0.007892162 -0.008668527 -0.0038270631 0.0043467884
战争 -0.005321961 0.012962655 0.0045 -0.004937113 0.005987447 0.0070349337 0.0018275313 0.009995587 0.0033377763 -0.00020798392 -0.007996647 0.001551681 -0.007765023 -0.0210234 -0.0041629192 -0.009649569 0.0075061596 0.0044804052 0.012487097 -0.01193766 0.00029007348 -0.016666321 -0.011801713 -0.006569653 -0.020266129 0.0067964513 -0.0021951073 0.010393613 0.007410681 -0.0011790261 -0.0025641853 -0.0042303125 0.0120122675 0.002784312 -0.0021399637 -0.010175966 0.0105448775 0.00289927 -0.016166406 0.008572145 0.009699908 -0.0052929698 -0.004558668 -0.0045885067 0.014248771 0.015981626 0.020934321 -0.006949737 -0.013566363 -0.0044772974 -0.01214386 0.0028651636 0.0025490862 -0.002610925 0.016014934 -0.019291604 -0.006961518 -0.0025627255 0.016120717 0.00677683 0.0049692257 0.0008213721 0.029064585 -0.007807575 -0.015048587 0.005420536 0.0047254865 0.009317573 -0.0111690555 -0.004789223 -0.0173917 0.0059968196 -0.008129673 -0.013746456 0.0074018245 0.0020440747 -0.0019852852 0.028627219 0.0007071813 -0.011356343 -0.009784422 -0.010735906 0.008591142 -0.0044956338 0.0037630487 -0.011730328 0.00046701025 -0.0057789073 0.008286263 -0.005080303 0.0021428175 -0.0034725196 0.017296853 -0.011498523 -0.005444532 0.026321208 0.0026791254 0.016796067 -0.0075177676 0.0065448647 0.008610707 0.0077147237 -0.0098247025 0.002629638 -0.017814826 -0.012497094 -0.008360129 0.0012142562 0.0014223569 -0.003508509 0.0034181585 0.02348256 -0.010739165 -0.00015903568 -0.013128097 0.017688781 0.00027423163 -0.015677324 -0.0054166205 -0.00455619 0.010815351 -0.0045946995 0.006461902 -0.0026873855 0.005673016 -0.018436851 -0.0051306025 -0.004091602 0.005001228 0.005575624 -0.004899686 0.0017534824 0.007299225 -0.014395425 0.011002887 0.007964279 -0.0035567633 -0.014269228 -0.008568684 0.014957512 0.015353052 0.0069808746 0.004802859 0.0096769985 -0.0017706846 -0.0045386176 4.140388e-05 -0.004703257 -0.009385884 0.012232808 -0.0040504327 0.010686154 -0.00483738 -0.007959815 0.0071535427 0.003895449 -0.011320427 0.014167922 -0.024211945 -0.0054757926 0.0031363924 0.0068574897 0.006233766 -0.017989727 0.010387007 0.027051495 0.012513651 0.0025589946 0.014208223 -0.0020083636 0.011236538 0.021182496 -0.005152074 -0.00080329983 0.012021774 0.017848762 -0.0008668538 0.005677962 -0.0035994144 -0.0081421 0.01073204 -0.003004139 -0.011544526 0.0006983862 -0.015428792 -0.008574661 -0.0026526747 -0.0015311275 -0.008315101 0.000112072514 0.0032118114 -0.015048573 0.004641247 -0.018968567 0.0039816224 -0.0039928947 -0.0062383376 -0.009588623 -0.00212887 -0.012215969 -0.005246771 0.0012530843 -0.018238587 0.0015122916 0.00906468 0.0023011658 -0.01194633 0.026790176 -0.018114297 -0.007827018 0.01679079 -0.004201022 0.00052448065 -0.012868539 -0.027046854 0.004984947 0.015210824 0.00075003534 -0.0018180793 -0.006405061 -0.0027989284 0.009163499 0.0054820874 0.014556872 0.0034924613 -0.0003803296 -0.0040493174 -0.008323707 0.00071551726 0.00093242235 0.007491031 0.012373737 -0.005208764 -0.0037786844 0.0064452672 0.010968303 -0.0019938282 0.00339616 0.011408791 -0.00048621316 0.0073109805 -0.0020009393 0.015429278 -0.0069334987 0.018278081 -0.01121926 0.0088570295 -0.005152663 -0.015338121 0.0029725006 0.026736815 0.0021956726 -0.00943758 0.009949379 -0.0008302527 0.00042571744 -0.001701564 0.0022931197 -0.0079581905 0.0015575573 -0.001089141 -0.0057832506 -0.005951477 -0.0037572782 -0.012777024 0.021140877 -0.004466217 -0.0055663134 0.007191934 -0.0050727106 -0.004705129 -0.012044998 0.004488485 -0.0013439171 0.0040305015 0.005952679 -0.014129935 -0.0027438044 0.0028632607 -0.0009531843 0.011182518 -0.016772635 0.009725271 0.010736173 -0.003836874 0.0024069871 -0.0041164677 -0.011454594 0.008007143 -0.0061224154 0.01138212 0.012909285 0.014807118 -0.0009904079 0.009564558 0.014922609 -0.007904623 -0.011295061 -0.0076880953 0.0026414618
方法 -0.0041430304 0.011061893 0.003274857 -0.0056803175 0.006302681 0.006357884 0.002120838 0.009547229 0.004232776 -0.00022272133 -0.009057145 0.002873195 -0.007414653 -0.020378627 -0.0062046214 -0.010290408 0.008499798 0.0034792153 0.010046975 -0.011072941 0.0013367794 -0.013992369 -0.010787549 -0.0054211575 -0.017298618 0.0065146913 -0.0024415376 0.009734685 0.006203057 -0.0015018275 -0.0010569947 -0.0038454563 0.011010209 0.0018653803 -0.0028692882 -0.010638816 0.010715902 0.0014426992 -0.014873332 0.00735361 0.010211653 -0.007118041 -0.0051758788 -0.0039097467 0.013292631 0.0139360465 0.018966552 -0.005794199 -0.0122395605 -0.0063022072 -0.008526424 0.0013295334 6.116678e-05 -0.0016244361 0.01531289 -0.015484952 -0.007888172 -0.0033394014 0.013675395 0.007878774 0.005344467 0.0016574488 0.02896761 -0.0058401064 -0.014077054 0.0046750684 0.005436741 0.006012035 -0.011585283 -0.0026975623 -0.01434223 0.0064969664 -0.007461304 -0.0107562905 0.0052570035 0.0027854096 -0.0035535828 0.023897516 0.0012968169 -0.0093468 -0.0092788255 -0.009664624 0.0073376326 -0.0042397343 0.004352362 -0.011105407 -0.0021941937 -0.0039975755 0.0067426693 -0.0017777804 0.0030014815 -0.0017685194 0.017104432 -0.008535485 -0.007586058 0.025734564 0.0012203285 0.014826622 -0.005474364 0.00655808 0.006174392 0.0068899347 -0.008216838 0.0019125326 -0.017574748 -0.012732317 -0.007047928 0.002819518 -0.0010276936 -0.0050230296 0.0014624576 0.019627705 -0.011844565 -0.0005141592 -0.011373631 0.017465314 0.00073698704 -0.0144191375 -0.0036684498 -0.004788953 0.010334027 -0.0019123938 0.005228256 -0.003273881 0.0037487026 -0.015563782 -0.0060612042 -0.00645583 0.0063960426 0.008001951 -0.003324265 -2.0919964e-05 0.007748173 -0.014204774 0.007122841 0.008024464 -0.0038123033 -0.012112805 -0.00622774 0.014569295 0.013003413 0.004185852 0.0061560916 0.008896184 -0.00076595315 -0.0017191538 0.0009808125 -0.0038043477 -0.0064079287 0.010505569 -0.0026717663 0.0068119313 -0.0072328304 -0.006929081 0.0069822837 0.0029093302 -0.009792598 0.011208568 -0.02035936 -0.0051393295 0.004110787 0.0062860665 0.005917001 -0.015931062 0.011103702 0.02407844 0.011169723 0.0010513912 0.012989518 -8.288995e-05 0.009206211 0.017339787 -0.005292128 -0.00082855823 0.0106249275 0.015860835 0.00040336038 0.0038640222 -0.0021085797 -0.0064098174 0.009832208 -0.0007747164 -0.011084606 0.0005150321 -0.014926428 -0.0071558566 -0.0033758124 -0.0023056585 -0.0068850396 -0.0012414001 0.0030494267 -0.010895269 0.004282074 -0.016795408 0.0039898087 -0.002545957 -0.00357193 -0.008078156 -0.0017292344 -0.009052206 -0.0053254585 0.0011826236 -0.015699929 0.0010685349 0.007016322 0.00060906383 -0.011346465 0.02446726 -0.013757998 -0.009449172 0.012501751 -0.0024846597 0.0014589222 -0.011048505 -0.024926163 0.0026004382 0.013439503 0.00016401014 -0.0032292588 -0.0076177516 -0.0034764467 0.009297021 0.007179129 0.013414371 0.0015387515 0.0018783248 -0.002985637 -0.00872227 -0.0005705138 0.00250221 0.005227563 0.0086109685 -0.0035645384 -0.0027189662 0.005315053 0.009224956 0.0008469785 0.0046804664 0.008060723 0.0004981014 0.009263189 -0.0021389492 0.015595501 -0.0038246699 0.016221663 -0.008393561 0.009595175 -0.0058281166 -0.012486771 0.0021298688 0.023997089 0.001149778 -0.0073745376 0.008904396 -9.2116185e-05 0.0015766234 -0.0042062304 0.004836817 -0.006753854 0.00033416276 -0.00021023213 -0.008406047 -0.0035899724 -0.0029017492 -0.010270276 0.019877788 -0.005016193 -0.0053295647 0.007658334 -0.00741953 -0.004471859 -0.012865968 0.0041782386 -0.0022035816 0.0045791087 0.006590979 -0.01261579 -0.0036014186 -0.00011887198 -0.0026054208 0.009285166 -0.014102634 0.008363128 0.009823379 -0.004798699 0.0031873563 -0.0029856781 -0.008732465 0.007484416 -0.008326347 0.012386457 0.009419555 0.011931808 -0.00070202095 0.011351183 0.014832924 -0.00875473 -0.010855569 -0.004491871 0.0023674113
斗争 -0.00569535 0.013029801 0.003628767 -0.0039735707 0.0050671506 0.007255245 0.0018702397 0.0099200355 0.004268563 -0.00091041584 -0.009118384 0.0014551405 -0.006415875 -0.017605301 -0.0071988585 -0.0071657533 0.005790032 0.0023891549 0.011867304 -0.011860912 0.0009348992 -0.013528404 -0.011451545 -0.007453228 -0.017323054 0.0061357757 -0.0025912675 0.011520073 0.006508939 -0.0017160259 -0.0018016563 -0.0025405074 0.009705029 -0.0002569128 -0.0033983414 -0.008887124 0.009435543 0.004130208 -0.01642772 0.00815866 0.008491162 -0.0060255 -0.004609655 -0.0037801268 0.01576699 0.014406661 0.01819577 -0.0072860946 -0.013148533 -0.0063084844 -0.008728576 0.0032527612 0.0019505806 -0.0033894004 0.012969855 -0.017470274 -0.0051527442 -0.00430267 0.012704747 0.008113662 0.005408594 0.0024583517 0.028242799 -0.007150771 -0.01417199 0.004628424 0.006008072 0.0071628084 -0.010126065 -0.0030220717 -0.015317261 0.0051387395 -0.0065722056 -0.011444181 0.008054078 0.0032464538 -0.004733252 0.026044268 0.0019956073 -0.0082246885 -0.010714838 -0.009012433 0.006374737 -0.0034365144 0.004683472 -0.011049622 0.00044004517 -0.0039536403 0.00734481 -0.0032396484 0.00020687698 -0.0022097393 0.014502039 -0.009753268 -0.0074732513 0.024896147 0.0029806534 0.013340387 -0.008499168 0.006593053 0.0069175465 0.007387085 -0.010924517 0.0025376906 -0.017378855 -0.011794789 -0.006469984 0.002495819 0.00053092994 -0.0025642815 0.001455126 0.019636214 -0.011494626 -0.0022248472 -0.011280824 0.017981173 -0.001382133 -0.01466979 -0.0054882695 -0.0041461373 0.007481421 -0.0023761934 0.006733958 -0.0047382396 0.005928383 -0.016939899 -0.0067361025 -0.0064180563 0.0075237043 0.008107012 -0.0034447236 0.0024013077 0.006780296 -0.014630886 0.010256864 0.005616127 -0.0045664967 -0.012749481 -0.008308617 0.014066394 0.0147634605 0.006478387 0.006688648 0.008155131 -0.002889467 -0.0050379746 0.0014433896 -0.0038333198 -0.006171103 0.011056941 -0.0037975512 0.008045224 -0.00455152 -0.007744623 0.006672049 0.0027582776 -0.011117464 0.01218565 -0.019649772 -0.0050508147 0.0018452886 0.006849831 0.0066652484 -0.015496992 0.01152588 0.023428835 0.010602976 0.0030955845 0.012053524 -0.0020080905 0.00999461 0.018839775 -0.0060395566 -0.00059560133 0.010855626 0.015254679 -0.0008702774 0.0054019163 -0.0037575404 -0.006592065 0.010339364 -0.002079464 -0.010072321 0.0015939121 -0.015057082 -0.0069880453 -0.001674316 0.0005356619 -0.0056622406 -0.0019444115 0.002661652 -0.01117259 0.006778619 -0.01394408 0.003337732 -0.0017927114 -0.005327434 -0.0071618133 0.00031765195 -0.009988058 -0.0029489724 0.001079622 -0.01552667 0.0022245368 0.0054963627 0.001939851 -0.012089944 0.022872811 -0.014704109 -0.008942595 0.015080746 -0.0010193916 -0.00038216962 -0.012758192 -0.022159575 0.002632923 0.014299929 -0.00082148483 -0.00066254154 -0.006528988 -0.0028456063 0.0077036396 0.0068219225 0.013234211 0.0028186324 0.0020846408 -0.00093624333 -0.009343042 0.0011083116 0.00020516243 0.0036031655 0.011776384 -0.0047069103 -0.0013264237 0.005091993 0.0103799 -0.0015711755 0.0050147735 0.010967659 -0.00017591954 0.009112635 -0.003629159 0.014912691 -0.004280997 0.016769521 -0.009323928 0.0070780884 -0.004626197 -0.012094395 0.0005266603 0.021768866 0.0013748499 -0.007516839 0.006588801 -0.0006563914 0.0020434633 -0.0012558732 0.0018979106 -0.008787315 0.001067018 -0.0026640622 -0.0079481285 -0.005387461 -0.00069909345 -0.012518697 0.018254077 -0.0047204993 -0.006034289 0.008300818 -0.007179612 -0.005398574 -0.012571678 0.00302085 -0.0034615046 0.004884888 0.0042146514 -0.014446694 -0.0018694006 0.0014255036 -0.0025439488 0.009239824 -0.015852079 0.007375721 0.008988166 -0.003942765 0.0031869798 -0.005596486 -0.008765412 0.008842243 -0.0068161045 0.012347925 0.009549551 0.01315551 0.0016427358 0.008382803 0.012672646 -0.0058600395 -0.008721628 -0.0067853183 0.001874665
领导 -0.0037666238 0.011607547 0.0024283975 -0.0027440921 0.007283793 0.00694826 0.0025850683 0.009859617 0.0013622374 0.00050202647 -0.006695046 0.00047992586 -0.0050299754 -0.016501935 -0.00501518 -0.006781384 0.0077301254 0.0022188502 0.010193266 -0.011454003 0.001996477 -0.013110012 -0.00948944 -0.0042531695 -0.014570347 0.0053835306 -0.0036283536 0.010747529 0.004921978 -0.002925683 0.00025755947 -0.0030044422 0.007536964 0.00053689943 -0.0038037146 -0.009170854 0.009355075 0.002690688 -0.012615499 0.007693577 0.009051825 -0.0049446127 -0.005231053 -0.003857737 0.012229181 0.010190597 0.016544214 -0.0065477192 -0.01017186 -0.0056871097 -0.008376121 0.0040569487 0.00014780433 -0.0033832488 0.011589656 -0.015606997 -0.007360407 -0.0029622028 0.012135089 0.007885284 0.005972493 0.0006821362 0.025889046 -0.006484972 -0.0113543365 0.0052180085 0.0064395857 0.006076162 -0.010373357 -0.0039239344 -0.013225888 0.003892466 -0.0052746255 -0.010517679 0.004073877 0.0018819734 -0.0023020094 0.021545198 0.0008616497 -0.006194352 -0.009509038 -0.00941485 0.006893691 -0.0029377248 0.005065858 -0.009219892 -0.0023153434 -0.0036599915 0.007898623 -0.0041405996 0.0026376962 -0.002286841 0.014137557 -0.0084683 -0.0069654947 0.02239242 0.0018943821 0.0112772845 -0.0071153836 0.0035280208 0.004828053 0.006240981 -0.009626901 0.0021586674 -0.0154094305 -0.0111044375 -0.0038728204 0.0039764773 0.0013171813 -0.0016223463 0.0034724893 0.017329033 -0.008435697 -0.002323495 -0.008767455 0.015448772 -0.002163565 -0.012625726 -0.004592646 -0.0029876123 0.008227294 -0.004184155 0.0055825175 -0.005230274 0.003776596 -0.013750375 -0.006807111 -0.0052308524 0.005912112 0.007090866 -0.004519075 0.0003548742 0.0064049647 -0.012801035 0.008178203 0.007058092 -0.003460223 -0.009366716 -0.006905376 0.0119062355 0.010317027 0.003989578 0.0044087903 0.0046818643 -0.0014634886 -0.0027588801 0.0013981882 -0.0035617 -0.005330438 0.009566093 -0.0040014884 0.00858577 -0.006471483 -0.0040762364 0.004629286 0.0026251054 -0.0084341625 0.011667461 -0.018025959 -0.004982462 0.0018957905 0.006832512 0.004727898 -0.013593208 0.008736646 0.021473551 0.010372849 0.00199244 0.0090539 0.0002170296 0.009232414 0.015753256 -0.0053938385 -0.0018353632 0.011179778 0.014433577 -0.0016164229 0.006110137 -0.002891864 -0.006831278 0.009853067 7.9811514e-05 -0.010667917 0.0010152324 -0.011334707 -0.0075325025 -0.0018066071 -0.00038894586 -0.0048885336 -0.00036190054 0.0039495183 -0.010649818 0.006196371 -0.013322112 0.004774115 -6.655938e-05 -0.006117441 -0.0057991706 -0.0007657304 -0.008859871 -0.004083628 -0.00022858226 -0.0126547795 0.001196853 0.0049151042 0.0029426091 -0.012364988 0.0211685 -0.0117590735 -0.0060501536 0.012034567 -0.0025472094 0.001613334 -0.008320471 -0.02100204 0.003109947 0.011430306 0.0010815134 -0.00029629006 -0.0053359745 -0.002138976 0.0068295593 0.005346774 0.011077542 0.0037315502 -0.00013021087 -0.0028293496 -0.0052994844 0.000907191 0.0014009422 0.0045005786 0.010035323 -0.004577551 -0.0008603453 0.003919743 0.010323118 -2.2907843e-05 0.004190056 0.0076437243 -0.00010610342 0.0070279804 -0.0024329172 0.012101543 -0.0035397084 0.013914735 -0.008627069 0.0075735515 -0.004284061 -0.012304048 -0.00024654972 0.019504791 0.0030709465 -0.006811215 0.0079716155 -0.0008946433 0.0010549014 -0.0032922553 0.0016559773 -0.0075426833 0.0019889253 -0.0006174724 -0.0077026687 -0.0022636463 -0.0020840322 -0.008945211 0.0164193 -0.002838254 -0.0051860833 0.007274182 -0.0059551178 -0.0043565165 -0.011195522 0.0031227032 -0.000103710496 0.0025101108 0.0064750034 -0.012666269 -0.0040494003 0.0015015807 -0.0013018838 0.009608727 -0.011566929 0.0071919383 0.0062025893 -0.0028465278 0.003776395 -0.0041867113 -0.009710047 0.009015786 -0.0067886496 0.010783393 0.010534677 0.010671247 0.00024063658 0.009303387 0.0132488 -0.0060650543 -0.007161655 -0.005765112 0.0026912978
军队 -0.004183486 0.011879413 0.0031779923 -0.005276944 0.0061427522 0.0065051448 0.0012533069 0.0113230925 0.0035054085 -0.00018876062 -0.009152375 0.00042233084 -0.009201904 -0.01863971 -0.005809159 -0.009488555 0.007048728 0.0035084605 0.009956634 -0.01357434 0.00035388727 -0.014554232 -0.008903244 -0.008530949 -0.018633446 0.007426227 -0.0046341107 0.01101906 0.0051403274 -0.0031866664 -0.0022940417 -0.0041289963 0.009514252 0.001146945 -0.0023035945 -0.009754773 0.010574217 0.001671829 -0.016550576 0.0073078196 0.010276765 -0.0064825057 -0.004995324 -0.0042248745 0.014446645 0.015177792 0.018095028 -0.007156281 -0.013469431 -0.005558758 -0.00904105 0.004888148 0.00091993954 -0.0014211424 0.016396299 -0.018602652 -0.006781412 -0.0055770148 0.014510102 0.0088228285 0.0044838144 0.0010979795 0.030575486 -0.0058765416 -0.016117036 0.002952794 0.0072001675 0.008364834 -0.010603709 -0.0041065686 -0.015035376 0.007477395 -0.008252577 -0.0108544985 0.008574299 0.0013454293 -0.0031864136 0.026299337 0.0023900717 -0.008060959 -0.011807221 -0.010934015 0.008143096 -0.0019859558 0.00596111 -0.011065555 -0.002946754 -0.003569862 0.007844949 -0.003970722 0.002862465 -0.0019186472 0.016252207 -0.009875872 -0.005242046 0.026141772 0.0028514494 0.013084879 -0.00925877 0.007569153 0.0058273287 0.0069939825 -0.01099206 -0.00018906852 -0.017209133 -0.014080259 -0.005386531 0.0035808599 -0.0008413811 -0.0036407472 0.0031915235 0.021216324 -0.010499773 -0.0015054544 -0.01086498 0.01885605 -0.000168615 -0.015797513 -0.005699017 -0.005505414 0.010594412 -0.0031953156 0.0041276854 -0.0046948255 0.0044351607 -0.016754113 -0.0076887053 -0.0059158895 0.007982397 0.0077698883 -0.0042441254 -0.0007673982 0.0091987625 -0.014427983 0.009508518 0.006765926 -0.0051140464 -0.01372348 -0.009253972 0.016190983 0.013736621 0.005337807 0.0045700143 0.007313687 -0.0026465005 -0.005111856 -0.00044919795 -0.0044561876 -0.008429034 0.010513116 -0.0049514873 0.010030673 -0.0056605055 -0.0070506437 0.005467734 0.0044946014 -0.012860223 0.014965887 -0.021961482 -0.005714997 0.0028960772 0.004981095 0.0075951065 -0.016046863 0.011951234 0.023896923 0.009360896 0.0019508087 0.0111577865 0.00068939757 0.011015847 0.020481946 -0.0065030362 -0.0015855707 0.012327923 0.017244134 8.679161e-05 0.0038455997 -0.0022021467 -0.005926171 0.010546785 -0.00061094144 -0.01242245 0.002360386 -0.01633336 -0.009447958 -0.003690196 -0.0024430165 -0.006856868 -0.0025675609 0.0053437785 -0.013951787 0.00707751 -0.016157944 0.0033602621 -0.0027424726 -0.0058642463 -0.008961998 -0.0011989248 -0.00919438 -0.0057358495 -0.0003296388 -0.01447139 0.0013169119 0.00629109 0.001800753 -0.012298018 0.025791006 -0.015160941 -0.0072900304 0.01573484 -0.0019771953 -0.00050635386 -0.013723999 -0.023882892 0.0038128218 0.013204791 0.00066496996 -0.0019931456 -0.006977961 -0.0038347864 0.007463111 0.0070579443 0.011782814 0.0021320998 9.3153765e-05 -0.0031353827 -0.009578294 -0.00038928905 6.196006e-05 0.0043655285 0.011484179 -0.006229554 -0.0039089182 0.0056487047 0.010649324 6.137409e-05 0.002925869 0.01060179 -0.00039860522 0.008482704 -0.0035171835 0.016005706 -0.005966955 0.017574253 -0.008476091 0.009301619 -0.0048323493 -0.0137368385 0.0030100336 0.025815489 0.00029984722 -0.00704169 0.008222061 -0.00056419877 0.002508162 -0.002316208 0.0042887605 -0.006761556 -3.4414905e-05 -0.001494826 -0.005598421 -0.005708862 -0.0022132345 -0.013125959 0.019396426 -0.004459453 -0.005490812 0.008591796 -0.007096733 -0.005079161 -0.013647604 0.001967672 -0.0018352645 0.0035447255 0.0052554584 -0.015829427 -0.0036932945 0.0028141928 -0.0015162239 0.009449659 -0.015441565 0.009123333 0.009968506 -0.0061647436 0.0048911823 -0.004759506 -0.010133203 0.008720292 -0.007760964 0.013268724 0.011111295 0.013390233 0.00065300084 0.009213889 0.015577715 -0.008961338 -0.008762882 -0.00707245 0.0036665613
党 -0.002871728 0.0088696135 0.002771321 -0.0058110007 0.006008482 0.0058205137 0.0013567483 0.006882259 0.0021510744 -0.0008393196 -0.007605809 -0.00020540635 -0.0069508962 -0.016982904 -0.0064325463 -0.0077952156 0.0064881635 0.0016378048 0.007617971 -0.010915811 0.00051242876 -0.0125325 -0.0084082 -0.0058012144 -0.013822972 0.0060535828 -0.0030892552 0.010793996 0.005932936 -0.00064154365 -0.0026919846 -0.0024897086 0.008501732 0.00012740323 -0.003495086 -0.010705787 0.007887672 0.0028511013 -0.0128497565 0.005836855 0.0083592255 -0.003874123 -0.0045077116 -0.004614539 0.013551859 0.010401782 0.01693376 -0.006014788 -0.011825842 -0.0035056944 -0.008167838 0.003496774 0.00290168 -0.001612015 0.01347274 -0.015202252 -0.0068607656 -0.0034942266 0.013173159 0.004954876 0.0044999183 0.0014584233 0.023896703 -0.0047211754 -0.013399709 0.005095454 0.00627594 0.0077738557 -0.010309221 -0.0032886064 -0.013041272 0.004722339 -0.0056059603 -0.009693331 0.0058427374 0.0026981176 -0.0032649843 0.02334498 0.00017290573 -0.007924129 -0.009935922 -0.0077551845 0.0066562346 -0.003106852 0.0056292643 -0.009959523 0.00017111028 -0.004169276 0.0076190736 -0.0032700466 0.0016563856 -0.003568122 0.013760972 -0.007149016 -0.00400526 0.020244537 0.0021589873 0.011695963 -0.00767559 0.005514137 0.004819784 0.0036991667 -0.008432323 0.0023675635 -0.0128877135 -0.009062213 -0.00533972 0.0019487605 -0.00011312563 -0.0017460813 0.0041761207 0.018320117 -0.009953221 -0.001267445 -0.010532281 0.014377583 -0.0012820872 -0.0115224505 -0.0022059868 -0.0059108795 0.0064666425 -0.0037471966 0.00438101 -0.0044722278 0.004416285 -0.01311913 -0.0072162226 -0.005148013 0.006456976 0.00687295 -0.0059711165 -0.0005168302 0.008164961 -0.012745528 0.008287161 0.0065395976 -0.0036189512 -0.009191933 -0.00788594 0.012070507 0.01309787 0.0036846192 0.005146661 0.0051137903 -0.0024487728 -0.0015603513 -0.00038411946 -0.0020757988 -0.006153623 0.0091261985 -0.0037699302 0.00687515 -0.005649368 -0.003956854 0.0046003014 0.0040942547 -0.0099619385 0.011490728 -0.019830294 -0.005935764 0.0042720363 0.0042109103 0.007127493 -0.013931797 0.00808885 0.020652507 0.008448243 0.0011149673 0.00896722 -0.0014693089 0.009245902 0.01624774 -0.0044404157 -0.00028284983 0.010973732 0.013390382 -9.725404e-05 0.005068562 -0.002687902 -0.0053334236 0.008905328 -0.00023117129 -0.011412883 0.0015306039 -0.011791497 -0.0069801174 -0.0043724766 0.0005936071 -0.0043800604 -0.0017607356 0.0039799237 -0.011288369 0.005790596 -0.014242283 0.0028491209 -0.0008960996 -0.0044806013 -0.0056038755 -0.0007543494 -0.008943003 -0.003040635 0.0007444364 -0.01444107 0.002603833 0.007847087 0.0020218177 -0.012610087 0.020864919 -0.01436297 -0.007252041 0.01322985 -0.00053308654 0.0016419321 -0.009417609 -0.021909025 0.0022787624 0.012585693 -0.00043365185 -0.0004955411 -0.004787037 -0.0028847577 0.0077700266 0.0035457686 0.009013475 0.003717212 0.0012137755 -0.0017113298 -0.0061141555 0.0003856183 -0.00045328797 0.0042671156 0.00880249 -0.0025354212 -0.000935392 0.0061773676 0.008794935 -0.001963476 0.0033296864 0.009233846 4.3421514e-05 0.0066652624 -0.0029338174 0.012684707 -0.0046201744 0.012971472 -0.007097199 0.006842487 -0.0040779705 -0.012726036 -1.9108942e-05 0.021472456 0.00043452636 -0.00560887 0.005720568 -0.00032048422 -0.00057111145 -0.003468507 0.002938914 -0.007722188 -0.0002295181 -0.001883863 -0.00616879 -0.004107906 -0.0031299698 -0.010880389 0.01714298 -0.003657767 -0.005971161 0.004945693 -0.006024638 -0.002797258 -0.012190482 0.00062761735 -0.003199904 0.0026983474 0.0043766503 -0.013819488 -0.0020485166 0.0023164894 -0.0010382998 0.009567659 -0.0130929295 0.007371022 0.008969528 -0.0051044207 0.0032186727 -0.0047749653 -0.0073655588 0.0073247994 -0.006015144 0.010056309 0.0076470757 0.011329746 0.0011567237 0.008726908 0.013074417 -0.0047693276 -0.008360158 -0.0038493539 0.0017654495
错误 -0.0047102068 0.014142145 0.0026208865 -0.004232435 0.0082195895 0.0078376485 0.0030953821 0.011044723 0.0029970536 0.0015072707 -0.008266262 0.00041647707 -0.008580157 -0.020042025 -0.0065177535 -0.009056746 0.006132867 0.004169784 0.012754478 -0.011282455 -0.00046135933 -0.013372607 -0.009470363 -0.007945602 -0.018571727 0.0062048496 -0.002505336 0.01063586 0.0060442244 -0.0006905216 -0.0011936636 -0.0023313412 0.010880536 0.0003252552 -0.0026628012 -0.010879387 0.011008211 0.0026465633 -0.014692092 0.00771409 0.01036823 -0.0045945956 -0.0057348255 -0.004712109 0.014108979 0.015098842 0.019273171 -0.007960605 -0.014349144 -0.006550354 -0.010265897 0.002522991 0.0031993338 -0.0026285297 0.016483748 -0.019515855 -0.0066052647 -0.0032157397 0.014837622 0.008169117 0.0071645994 0.00075753755 0.029423699 -0.0055229296 -0.014059187 0.0040838327 0.006656807 0.0062431637 -0.010473359 -0.0051681683 -0.014984463 0.0052543823 -0.008529284 -0.011470614 0.006817936 0.00094518624 -0.0019159236 0.027753277 0.0014133876 -0.009315687 -0.011930013 -0.009206244 0.008925524 -0.0016456887 0.005551842 -0.011510633 -0.001777187 -0.0029416706 0.008182051 -0.0050552296 0.000899932 -0.001809991 0.017432129 -0.009726621 -0.0069190008 0.026150245 0.003023771 0.0140729705 -0.0069111595 0.007722864 0.007278512 0.006605604 -0.010609092 -0.000346773 -0.018526042 -0.011508547 -0.0063722814 0.0044299527 -6.8861984e-05 -0.00434071 0.0018076284 0.023024896 -0.009671298 -0.0032365115 -0.009531544 0.018183779 2.5331558e-06 -0.015563729 -0.004562252 -0.004341794 0.010300762 -0.0040424145 0.007399222 -0.004743612 0.004402504 -0.01886653 -0.005711275 -0.0043768836 0.006208306 0.0060424292 -0.0063108234 0.00030857383 0.0101311905 -0.014419041 0.0079916855 0.007766335 -0.0053512948 -0.012862796 -0.0072426545 0.015037824 0.013470026 0.005728604 0.005893648 0.0074666324 -0.0013454182 -0.0031044611 0.0016023408 -0.004912794 -0.008713598 0.010463735 -0.0054551475 0.010051303 -0.006563907 -0.0072077517 0.0048993113 0.0042613344 -0.010445027 0.013796415 -0.0218634 -0.0072703566 0.0027403468 0.0064831693 0.007898926 -0.017067285 0.011846877 0.025252366 0.01174034 0.0016584035 0.013219892 -0.0010563928 0.010063545 0.01950089 -0.007202624 0.00089861924 0.012758551 0.01696526 -0.0010654548 0.0041794856 -0.003803829 -0.0065302197 0.00956084 -0.0024737867 -0.010668417 -0.0002934581 -0.016913394 -0.0067484933 -0.004801691 -0.0009230809 -0.008045334 -0.00011046415 0.0037848027 -0.012117113 0.004996664 -0.0156111885 0.0047416934 -0.00038027327 -0.0046712123 -0.008281224 -0.0018352516 -0.011756553 -0.004821338 -0.0008202681 -0.015834343 0.0030503715 0.008292063 0.0010802363 -0.011609196 0.024866637 -0.016384637 -0.009631706 0.015188133 -0.0011744056 0.0011703307 -0.0112409275 -0.026400173 0.0029946752 0.015510232 0.0011845476 -0.0016376207 -0.0076864474 -0.0041276887 0.009193524 0.005316751 0.014052013 0.0018676227 -0.00019491385 -0.003651782 -0.008389221 0.0015510812 0.0008179038 0.0054156207 0.012323697 -0.004959839 -0.0010841105 0.005752287 0.009431469 -0.001344606 0.0039002425 0.008603175 0.00255786 0.007642076 -0.0021132748 0.015516442 -0.004224652 0.017239528 -0.00990912 0.008786265 -0.0042381403 -0.0142813 0.0026185976 0.02508363 0.0020024371 -0.008858339 0.009161118 -0.0013497642 0.00135148 -0.0034880415 0.004689229 -0.006467946 0.0015399031 -0.0014902027 -0.008676466 -0.0049388614 -0.001376821 -0.011796152 0.020909214 -0.003387943 -0.004986153 0.0065702987 -0.0069052796 -0.006060399 -0.011644149 0.004038506 -0.0015906969 0.002824454 0.0044817454 -0.016403526 -0.0051629753 0.00092064217 -0.0013006147 0.011816321 -0.01387361 0.0109510925 0.010267844 -0.004670149 0.0051777917 -0.004455876 -0.009725836 0.008003341 -0.008867651 0.011186765 0.012055071 0.011571286 0.0015007979 0.01152403 0.015781581 -0.0094005065 -0.00998005 -0.004827504 0.0038600208
思想 -0.004831041 0.012290997 0.0027740395 -0.0057364656 0.0060230815 0.0077466015 0.0021717679 0.010243168 0.0036341262 -0.0012673868 -0.0094202 0.0021431162 -0.0060911775 -0.01923782 -0.006482035 -0.007079663 0.0052881613 0.0021003466 0.00816466 -0.0124061145 -0.00015990612 -0.012882965 -0.008778254 -0.007090734 -0.018111158 0.0051794713 -0.002501083 0.009624904 0.0057255905 1.454618e-05 -0.0019959654 -0.003168964 0.008074841 0.0025610393 -0.003132543 -0.010757766 0.0096972985 0.003506034 -0.015398601 0.006937003 0.009049795 -0.0054994095 -0.004370065 -0.0023856866 0.014529667 0.01258138 0.01766565 -0.0076414533 -0.010265685 -0.0064669233 -0.009579477 0.0026808872 0.000836906 -0.0018825227 0.012750462 -0.01528008 -0.0064099682 -0.0046790685 0.011762337 0.0062944116 0.0054104347 0.0021210616 0.027358236 -0.00518832 -0.012289496 0.002802726 0.0064701303 0.005870874 -0.01048675 -0.0027448654 -0.014290062 0.006653651 -0.0080837635 -0.011880566 0.004605321 0.00075440586 -0.0028361354 0.02367478 0.0010885083 -0.008819216 -0.009238505 -0.009533969 0.006053325 -0.0034172647 0.0049239886 -0.01154121 -0.0021312984 -0.0040064882 0.007721922 -0.0043574367 0.001305135 -0.0017936433 0.014956059 -0.01065542 -0.006896334 0.024963597 0.0035291587 0.013429363 -0.007112585 0.004651208 0.0047975443 0.0044748373 -0.0073376256 0.0003501155 -0.0142310625 -0.011263722 -0.0058781314 0.004144546 -0.00030720138 -0.0020121357 0.001415122 0.017984906 -0.010251206 -0.0027970648 -0.01083747 0.015097172 -0.0003714474 -0.012968936 -0.0053090136 -0.0031456016 0.008721725 -0.0026856847 0.0056146937 -0.005208792 0.0034792277 -0.016315503 -0.0076635513 -0.005506526 0.00583663 0.006165622 -0.006186988 0.0005888256 0.006328952 -0.0122997705 0.009874249 0.0067606927 -0.002911807 -0.011759317 -0.0066755563 0.015403114 0.010934539 0.0059017017 0.0045296443 0.007970202 -0.0003386252 -0.0044128546 -0.0005272283 -0.0041355873 -0.0068257214 0.010937835 -0.004469847 0.0072273635 -0.0063577103 -0.004593329 0.006218342 0.0024206275 -0.0113291005 0.01230341 -0.019054402 -0.005516053 0.00443042 0.0072850874 0.006305067 -0.015789164 0.010169634 0.022305718 0.010576845 0.0034146076 0.0097648585 0.00042886953 0.009960885 0.016979177 -0.0039415862 -0.00066043524 0.01296452 0.015476767 -0.0009982074 0.004370054 -0.0034669328 -0.004467372 0.010876266 4.975077e-06 -0.012255896 0.001617495 -0.011994883 -0.005664416 -0.002912581 -0.0011597509 -0.0063225576 -0.0002289501 0.0040698475 -0.012578745 0.005844837 -0.016042314 0.0025382356 -0.0034105254 -0.00435001 -0.0073083383 0.00015603965 -0.008521031 -0.0035703764 0.0011669681 -0.012934372 0.0029990617 0.006920345 -0.00015965075 -0.01033626 0.023506133 -0.014199339 -0.0077977176 0.012979762 -0.0015144936 -0.00033240134 -0.012511885 -0.023683922 0.0031585186 0.014321682 -0.00038418814 -0.003051381 -0.00587487 -0.0020633747 0.009008835 0.0048980806 0.010838436 0.0030511182 4.6272617e-05 -0.0020508752 -0.0059308843 0.0007856228 0.0014323757 0.005663753 0.009372075 -0.0048159193 -0.002430592 0.005977934 0.008499157 -0.0007317436 0.0040845275 0.0104562845 -7.991192e-05 0.0072424896 -0.002723639 0.013888757 -0.004720263 0.014447298 -0.0072028553 0.007848501 -0.006037169 -0.0117220385 0.001610828 0.020629842 0.0008871566 -0.00694636 0.00872924 0.0017048162 0.0014602835 -0.0019753096 0.0025160378 -0.0055640717 0.0007858638 -0.0031579763 -0.005551942 -0.004737072 -0.0010465486 -0.011549622 0.018199975 -0.0040977444 -0.0044490565 0.0071169995 -0.005440748 -0.0027904306 -0.0120263025 0.003607217 -0.0022034727 0.0031533807 0.0048767747 -0.012033138 -0.0021827428 0.0016608784 -0.003007452 0.009871744 -0.014710178 0.009837945 0.007357751 -0.003243984 0.0047639017 -0.005062651 -0.008334203 0.007295819 -0.0069516213 0.010399012 0.009825779 0.010775193 0.0019770702 0.009264069 0.012016543 -0.006511064 -0.00907538 -0.004546231 0.0013706418
这是 -0.0029547012 0.009714804 0.0018426324 -0.006055054 0.006591419 0.008132623 0.0020648509 0.009450689 0.0029985409 0.00073167577 -0.0076983282 0.0011445524 -0.008348426 -0.019152138 -0.0059435666 -0.0080347555 0.0076225144 0.0032620246 0.0111446325 -0.009931843 -0.00025245934 -0.012461633 -0.010250107 -0.006388712 -0.016974092 0.0067276997 -0.001694616 0.009216878 0.004718863 -0.0005601391 -0.003145431 -0.003429192 0.0095341 0.0027648702 -0.0034176805 -0.011034609 0.0085552195 0.0032934505 -0.015569665 0.006595124 0.010085679 -0.005892589 -0.0052689337 -0.0041203788 0.012657632 0.01131198 0.01832003 -0.0068502435 -0.010440456 -0.0063134474 -0.00957562 0.0037717645 0.00037775363 -0.003348656 0.012473733 -0.017418379 -0.0060651484 -0.0040327967 0.013128833 0.007836126 0.0054441197 0.0017537429 0.026335582 -0.004373679 -0.0129638715 0.0031242995 0.0070586894 0.008021602 -0.00917079 -0.0016321668 -0.013881961 0.006700961 -0.00634056 -0.011759355 0.0047053485 0.0020427823 -0.0037527343 0.024046239 0.0031548962 -0.008533219 -0.010118298 -0.008671086 0.0063679544 -0.0025988326 0.004972268 -0.010065989 -0.0012733707 -0.0019951332 0.006366393 -0.004433739 0.0016088196 -0.0013258164 0.013663146 -0.009078503 -0.005411644 0.024023151 0.00089924404 0.013364249 -0.00803881 0.0065059927 0.006753218 0.0053730635 -0.0095488895 0.00075722457 -0.016571304 -0.011791079 -0.005230975 0.0035991308 0.0013559494 -0.0034222214 0.002796935 0.018656295 -0.011010772 0.00019632693 -0.011032366 0.015191445 -0.001626685 -0.014205414 -0.0047216425 -0.0060496605 0.0074386336 -0.0039995946 0.006120224 -0.0034015498 0.0047625187 -0.015540489 -0.005027487 -0.0058448096 0.0055198385 0.0056639514 -0.004611255 0.0006721273 0.00932904 -0.013445991 0.0070291986 0.0072773034 -0.005567515 -0.01253216 -0.0065552397 0.013724483 0.01307751 0.005867711 0.0040411362 0.0066964338 -0.0011270206 -0.0031299428 0.0016602672 -0.0040507633 -0.0064570354 0.010257567 -0.0049177497 0.00915372 -0.005245397 -0.00472917 0.004607105 0.003987915 -0.011381726 0.01403197 -0.02031561 -0.006816657 0.0033760965 0.0056501995 0.005738524 -0.01592108 0.011328622 0.023318304 0.009750984 0.0034300913 0.010854102 -0.0017903764 0.008727445 0.016609674 -0.0048369193 -0.0022268342 0.012667678 0.015870772 0.00012709826 0.005600877 -0.0021058444 -0.0053275786 0.007978393 -0.00031847865 -0.011817733 0.0007896105 -0.014176137 -0.007675156 -0.0029700866 -0.00045610112 -0.0078866035 0.00031268632 0.0053081526 -0.011256331 0.0063060555 -0.016263692 0.0041273055 -0.0033748427 -0.0035328572 -0.007975223 -3.4655437e-05 -0.009624384 -0.0041914443 0.0016189197 -0.013334976 0.0019405116 0.0064648315 0.0025614174 -0.013119769 0.0245644 -0.015222738 -0.007530366 0.014293863 -0.0014557531 0.0006657789 -0.012267476 -0.024210652 0.003675183 0.013135204 0.0013868692 -0.0017514448 -0.0062462646 -0.0025305515 0.008216192 0.004538562 0.012737244 0.0041207713 0.00030844432 -0.0018571096 -0.0061039976 0.0002700703 0.0010057691 0.0064046425 0.008732968 -0.0043151164 -0.0006786699 0.0053095473 0.01017864 -0.0015932721 0.0046463534 0.00998406 0.00243963 0.008180199 -0.0034600263 0.012835201 -0.0032154655 0.01563445 -0.007778134 0.007298914 -0.0056497823 -0.011103327 0.0025032395 0.02144678 0.0027922236 -0.0066961073 0.0066842535 -0.00088972616 -0.0007012433 -0.0034099577 0.0043812054 -0.00787561 0.0013751123 -0.0018237255 -0.007872646 -0.002686671 -0.002378132 -0.011051916 0.017752906 -0.0054787975 -0.0046375426 0.0048506022 -0.0066418345 -0.004252382 -0.011548312 0.0031910485 -0.00041306132 0.0036032184 0.006276621 -0.013630465 -0.0044536074 0.0023113778 -0.0016093242 0.0085952375 -0.015019948 0.00983073 0.0071409787 -0.0032424186 0.003380445 -0.0035603237 -0.008861191 0.007051007 -0.005148317 0.012280195 0.011374367 0.012111235 -0.00082238694 0.009583806 0.014045348 -0.00601819 -0.007874893 -0.004017113 0.0040102387
团结 -0.004080603 0.010104097 0.0036273308 -0.0059114657 0.0054724966 0.005408562 0.0028309564 0.007381703 0.003674256 0.00059298764 -0.005971439 0.0017664917 -0.006555376 -0.015568888 -0.0032376428 -0.006967192 0.0059691635 0.0033130664 0.008180237 -0.010019876 0.0020964127 -0.011108492 -0.0083059175 -0.004067818 -0.01668813 0.006808592 -0.0028312302 0.007941314 0.0034931384 -0.001760701 -0.0025791563 -0.003471185 0.008129753 0.0011846843 -0.0035418363 -0.010589446 0.0075073317 0.003115382 -0.01143697 0.0056437263 0.0075495197 -0.0034252536 -0.0024975485 -0.004327618 0.013361576 0.01008313 0.01647975 -0.0044396278 -0.010111916 -0.00422585 -0.007390507 0.0025843706 0.000981285 -0.0035661818 0.013840997 -0.015988076 -0.0049447548 -0.003702423 0.0118483165 0.0075312424 0.004177763 0.0027279565 0.025744706 -0.0032006192 -0.012230578 0.0035210762 0.006289067 0.0068621035 -0.00831642 -0.0021910819 -0.013914174 0.0040855566 -0.0059139985 -0.01091069 0.0049346443 0.0033341288 -0.0015823538 0.01981896 0.00075808004 -0.0069742906 -0.010183442 -0.008295032 0.00654934 -0.0016465529 0.0034051542 -0.0106367795 -0.0020391312 -0.002376206 0.0062874076 -0.0012105122 0.001053647 -0.0007264324 0.013404757 -0.008886227 -0.00488739 0.021420585 0.0014029889 0.012699375 -0.0045951316 0.006146398 0.0067824707 0.006408566 -0.00961161 0.0018325825 -0.014411977 -0.01049985 -0.004780171 0.0028813868 0.001337005 -0.0029729127 0.0030775745 0.01767514 -0.009925639 -0.0018028469 -0.010366197 0.013948093 0.00011081584 -0.0108141685 -0.0029597748 -0.003453631 0.005928117 -0.0015717341 0.0035243374 -0.0037933772 0.0033301278 -0.013195839 -0.005774982 -0.005338597 0.006495931 0.0070823254 -0.0029312521 -0.0006333448 0.006377453 -0.0121527035 0.008916806 0.0047373082 -0.004453085 -0.008236547 -0.0075030336 0.014803642 0.011329391 0.006035838 0.00411414 0.006303142 0.0001478687 -0.0017968699 -0.00010864532 -0.0016752393 -0.0048200823 0.010816022 -0.0031830147 0.0069396165 -0.006060003 -0.0054409723 0.00542406 0.0009376302 -0.008460597 0.011799852 -0.019145649 -0.0042791315 0.0037464898 0.0045876806 0.0073185316 -0.01501866 0.010994881 0.022150911 0.007891749 0.0027185562 0.008489091 -0.0015456786 0.006761206 0.01620194 -0.0046379175 -0.0014992999 0.011823259 0.015287226 -0.00017388615 0.0036137921 -0.002636017 -0.0044873273 0.007906253 -0.00014241747 -0.009036938 0.002610702 -0.013415097 -0.007137924 -0.0021628481 0.00017598321 -0.0060235364 0.00075635925 0.0034681412 -0.0125361765 0.0034147976 -0.014645273 0.004710125 -0.0026550621 -0.0040611145 -0.006428149 0.0005665171 -0.008145787 -0.0017492557 0.00021123113 -0.0126263285 0.003231057 0.004795147 0.00054719707 -0.012435301 0.019899936 -0.0146843875 -0.007455536 0.013569214 -0.0009193725 -0.0015145085 -0.009322282 -0.021075414 0.003862448 0.013547357 -0.0007716163 -0.0014626408 -0.0062519764 -0.0033612938 0.009121239 0.004893365 0.008773421 0.0029895313 0.0008985207 -0.00021457177 -0.007076341 0.0011671095 0.0005773348 0.0055237347 0.010628965 -0.002208978 -0.0020962511 0.0054738945 0.009810726 -0.0006335853 0.0027921707 0.007292909 0.0017358864 0.00854759 -0.00023727404 0.012339911 -0.0041358066 0.013611839 -0.0071756127 0.006400457 -0.004078049 -0.012351122 0.00050606043 0.021270275 0.0027829097 -0.0054950626 0.0058073653 0.00013948041 0.0015310964 -0.00059306185 0.0043330775 -0.005268648 0.0004575878 2.4695619e-05 -0.0067112218 -0.0049643884 -0.001450248 -0.009276688 0.016600845 -0.0043263426 -0.0058915396 0.004746888 -0.0068808007 -0.0048685153 -0.011622283 0.0038079675 -0.0005191026 0.004556636 0.0034084022 -0.012224609 -0.0031506256 0.0024644928 -0.0012972114 0.007840738 -0.012689313 0.008435817 0.005633277 -0.005376264 0.0032212553 -0.0042563537 -0.008066173 0.008192205 -0.0070150313 0.010216183 0.009274517 0.009763245 -0.000108197135 0.0068539954 0.011172763 -0.0056591816 -0.00728407 -0.005845461 0.004113158
正确 -0.0033481552 0.011046414 0.0017668386 -0.0040356754 0.0074003 0.0078422595 0.0034998953 0.00991979 0.0037779713 0.0019160681 -0.00836869 0.0014531686 -0.0073553934 -0.017651306 -0.0033941718 -0.0069644875 0.006757625 0.0021572511 0.009225213 -0.009977304 0.0019554773 -0.012147395 -0.009315639 -0.005612912 -0.016152466 0.0049685603 -0.004244428 0.008648272 0.0045108898 -0.0006208046 -0.001687741 -0.0025712661 0.007125325 0.0018489202 -0.0025719546 -0.01016209 0.009507122 0.0017615239 -0.012925398 0.006602832 0.0065616397 -0.005011742 -0.004364807 -0.003692559 0.011152566 0.011729381 0.015824256 -0.0042785625 -0.010951292 -0.005016236 -0.009718478 0.001006546 9.910395e-05 -0.0028711336 0.012104773 -0.015162821 -0.0074237646 -0.001967648 0.013191585 0.0058447854 0.0034764383 0.0020706945 0.024863515 -0.0056397785 -0.012517867 0.0035543803 0.003937687 0.005436362 -0.010132028 -0.004061527 -0.012594099 0.0061367243 -0.004643322 -0.00910531 0.006143735 0.0011428766 -0.00166364 0.021378072 0.0011057976 -0.0073203985 -0.009941286 -0.008204732 0.006066164 -0.003196923 0.0043297745 -0.0109141115 0.00033154656 -0.0040669004 0.005996156 -0.003946756 0.0011730721 -0.0014381346 0.014433563 -0.008164033 -0.0064751063 0.021630589 0.0015603255 0.011096993 -0.00511575 0.0041327607 0.0051112245 0.0056113997 -0.008663176 0.00096566265 -0.012621727 -0.010142149 -0.0043493877 0.003982127 -0.0014245557 -0.0032540832 0.00077634666 0.01761852 -0.009653906 -0.002576052 -0.009314278 0.016250305 -0.0006457985 -0.011965515 -0.0044417656 -0.0038616173 0.007349244 -0.00079994026 0.0061433376 -0.004751109 0.0046165907 -0.01463803 -0.0064932033 -0.004883264 0.005474725 0.0070395656 -0.0031173476 0.002281212 0.005722623 -0.011355848 0.006605378 0.0062322435 -0.005525271 -0.008907508 -0.0075832773 0.013246734 0.01160811 0.004625141 0.0061188084 0.0055517275 -0.0010692435 -0.0014267344 0.00027209832 -0.0016283188 -0.0060151303 0.009545558 -0.004121413 0.008710614 -0.005216666 -0.00539065 0.0036697257 0.003185308 -0.009749199 0.011099022 -0.018215809 -0.004264048 0.00392907 0.004274123 0.0055768923 -0.012646341 0.008763146 0.019806853 0.009979063 0.0030111726 0.010676106 -0.00039705058 0.00942389 0.01524807 -0.0035409713 0.00043431306 0.011209781 0.015175961 -0.0013860867 0.0034198149 -0.0048803636 -0.0069206995 0.009528923 -0.0006968394 -0.010167547 0.00031430228 -0.013575576 -0.0071688243 -0.0034106877 0.0005870614 -0.004593639 -0.0022094394 0.003641489 -0.012203727 0.0027920015 -0.014977147 0.0035383874 -0.002996502 -0.004271335 -0.006596213 -0.0023766048 -0.009756684 -0.0037527757 0.0021084896 -0.014254744 0.0035200785 0.0059811193 0.0018682699 -0.010112253 0.020383185 -0.013513982 -0.0065967925 0.012282057 -0.002306811 0.0015760565 -0.010023909 -0.02167385 0.00233753 0.012611803 0.00141092 -0.0011881156 -0.0058404733 -0.0049481597 0.0077080512 0.004463957 0.011586871 0.001907609 -0.00048745406 -0.0033574416 -0.00717321 0.0014936111 0.00046244878 0.0045953277 0.008530376 -0.0050152275 -0.0023673882 0.004996841 0.009364108 -0.00088318856 0.003992849 0.0077035604 7.587925e-06 0.007351812 -0.0003814698 0.011352495 -0.006040723 0.01301273 -0.0071421647 0.0076830597 -0.002565789 -0.009790956 0.0006431722 0.021360395 0.0023691684 -0.0076877293 0.006879064 0.0008426169 0.0020849647 -0.0026551802 0.0019440968 -0.006644966 -0.0006787101 -4.9310118e-05 -0.006730111 -0.003397051 -0.0010944355 -0.009356036 0.018341633 -0.0031465073 -0.0038563916 0.006264768 -0.0067130844 -0.004679661 -0.011180748 0.0026473776 -0.000104446044 0.0033758616 0.0062836325 -0.010946645 -0.0026144143 0.00041962432 -0.0022392317 0.010109735 -0.0141803445 0.006129538 0.006364444 -0.0035749057 0.0033595513 -0.0042910916 -0.009085102 0.00677922 -0.004865026 0.010712375 0.008090779 0.0109785665 0.0009841195 0.008385485 0.011507299 -0.005683343 -0.008798019 -0.0066018663 0.00426129
国家 -0.0032612788 0.010630895 0.0027510389 -0.004832598 0.0039080186 0.005850561 0.0016103707 0.008701202 0.00073612534 0.00010827358 -0.0072302874 0.0011743393 -0.004702397 -0.015778854 -0.004247747 -0.0068355356 0.004579866 0.0026374236 0.008734391 -0.011114267 0.00038986883 -0.009877801 -0.0069324663 -0.0042668 -0.014095184 0.006090104 -0.00079996657 0.010387377 0.0030383235 -0.0014718467 -0.0001294043 -0.0014917874 0.0076269675 0.002419446 -0.0035454512 -0.008868408 0.008070803 0.0032708067 -0.012448853 0.005689591 0.0066035865 -0.002905287 -0.00444422 -0.0023882848 0.009814732 0.010510554 0.015839681 -0.005716443 -0.010640959 -0.0055300505 -0.008164861 0.0019940524 0.001380693 -0.0029216076 0.012463607 -0.014384356 -0.004065156 -0.004009603 0.009619472 0.0053987456 0.005850344 -0.00014060603 0.020961383 -0.005010295 -0.009472916 0.0043511377 0.006188674 0.00501865 -0.007219842 -0.004410122 -0.012759986 0.0044063036 -0.006681327 -0.009799116 0.0051810984 0.002195762 -0.0029024852 0.020990048 0.0012180565 -0.008280641 -0.007402021 -0.008069292 0.0071502617 -0.0037141945 0.0030670546 -0.0077301324 -0.0004462872 -0.002270171 0.0063304477 -0.0020489367 8.778712e-05 -0.002003443 0.013951952 -0.008530291 -0.006146788 0.021124214 0.002866757 0.012795184 -0.007233421 0.0053167962 0.006062996 0.0060568075 -0.006137616 0.0010661586 -0.014220961 -0.009581319 -0.005584743 0.001260478 -4.5515982e-05 -0.0017770639 0.0037517846 0.016208144 -0.008780553 -0.0025162273 -0.006519367 0.014295825 0.00023288227 -0.011366318 -0.0014898011 -0.0028989818 0.005272434 -0.0016258844 0.0046247304 -0.0038253732 0.004143156 -0.014631513 -0.0059017753 -0.0032526385 0.0066254865 0.0056874296 -0.0033783421 0.0017891764 0.007908216 -0.0104416 0.0063277846 0.0041844286 -0.0043708934 -0.008112637 -0.006758821 0.012118227 0.009484635 0.0035792144 0.005412656 0.00752246 -0.00050517055 -0.0017737361 -0.00054138014 -0.0028521037 -0.0042425687 0.00733125 -0.0013542713 0.007206228 -0.005146947 -0.0051563187 0.0063894973 0.0012593532 -0.008717464 0.00892423 -0.017522305 -0.0029217363 0.0011984681 0.006235962 0.0050073303 -0.011789882 0.008767184 0.01822716 0.008418698 0.001770423 0.010672157 0.001142069 0.007007455 0.015142664 -0.0037377612 -0.0014828687 0.011423594 0.012509778 0.00028475453 0.0033975157 -0.003233027 -0.0051949164 0.0089347465 -0.002588343 -0.0076522785 0.002312247 -0.01147294 -0.0074580465 -0.0022893078 -0.0007376367 -0.0040636742 -0.00022358599 0.0029707109 -0.011605928 0.0031809602 -0.011160348 0.0015412163 -0.0021219049 -0.0032073718 -0.0067145033 0.00058326306 -0.009727245 -0.0047964053 -0.0003553775 -0.013452548 0.00035296215 0.0063558714 0.0009812078 -0.008781769 0.018934198 -0.0105100395 -0.005417898 0.011966179 -0.0032867116 0.00079380715 -0.0102306735 -0.020431714 0.0020804792 0.009602354 0.00019181044 -0.0028778398 -0.0070700864 -0.0020421245 0.0051761847 0.003596185 0.0104104625 0.0023624094 0.002195825 -0.00050200406 -0.0070562596 0.0012666438 0.0006429575 0.0041146553 0.008205803 -0.0033872903 -0.001442299 0.004678644 0.008342505 -0.0004617832 0.0035407858 0.007219696 0.00090643135 0.0072749346 -0.001620892 0.01128218 -0.0036933876 0.010687645 -0.006143591 0.005801948 -0.0032914851 -0.010448445 0.0010022215 0.019856932 0.00094807794 -0.004915692 0.004518702 -0.00049552583 0.00010072241 -0.0030151804 0.002322159 -0.005698605 -0.0012416677 -0.0011356547 -0.0061125853 -0.0032179588 -0.002903869 -0.007921822 0.014254103 -0.002814701 -0.004051267 0.0069679595 -0.0054298164 -0.0053444398 -0.008623565 0.0027670988 -0.0025316111 0.0037947563 0.0048080306 -0.012866973 -0.0037759491 0.0028697457 -0.0029968952 0.007680152 -0.011350854 0.007376477 0.0075085154 -0.0054920823 0.0039159954 -0.0026508588 -0.006963259 0.0057192747 -0.0060744337 0.008937892 0.007461355 0.011662986 2.545475e-05 0.009239989 0.009517056 -0.0046163807 -0.008391725 -0.0048321276 0.0025792194
社会 -0.0047886013 0.0097878985 0.0017223645 -0.0054562995 0.006296768 0.0061742803 0.003786815 0.0098712975 0.0011855243 0.0015512393 -0.005764273 0.0003561473 -0.006468516 -0.017066048 -0.0044159917 -0.00785931 0.0073930016 0.003224644 0.008609408 -0.0098730195 0.00049339584 -0.01106326 -0.009475988 -0.0051915133 -0.015943507 0.0051833037 -0.0015258713 0.009076051 0.005184577 -0.0011877327 -0.0007832109 -0.0021594288 0.0069688833 -0.00030611517 -0.0017473744 -0.009889882 0.008407941 0.0034192745 -0.012513994 0.00810216 0.006118731 -0.0032183346 -0.0028515619 -0.0018079282 0.013861192 0.00978198 0.01500249 -0.0073343543 -0.01003884 -0.0050253365 -0.0077614696 0.0022212751 0.00041523937 -0.00196327 0.011920127 -0.014115741 -0.0067007113 -0.0038586843 0.013350878 0.0049503366 0.0061863777 0.00064858387 0.024499157 -0.003847533 -0.0118224425 0.002780864 0.005336962 0.0053754468 -0.009136721 -0.0036697108 -0.012528244 0.004822245 -0.004328678 -0.011080367 0.0059626284 0.0011183216 -0.0022351036 0.023178976 0.0018520365 -0.0067157345 -0.007749007 -0.007038209 0.0046202973 -0.0013449229 0.0041502477 -0.008081819 0.0005613589 -0.00398967 0.0076249163 -0.0013116761 3.711645e-05 -0.00028268588 0.013363772 -0.007598901 -0.0069139926 0.020738963 0.0019411406 0.0122984415 -0.007641847 0.0057803756 0.0065415883 0.0048139966 -0.008897212 0.0014240188 -0.01517428 -0.008943654 -0.005547265 0.0013665106 0.0010226906 -0.0041277246 0.0037579555 0.017585611 -0.009808429 -0.0021398156 -0.009314059 0.013454151 0.00013270583 -0.012751018 -0.0044802874 -0.0033845145 0.008791962 -0.0036194108 0.00623582 -0.0044169845 0.005762707 -0.013210228 -0.0048003043 -0.0047959695 0.0056753773 0.0060280864 -0.0055655804 0.0011380088 0.007969105 -0.01296202 0.007859238 0.0059753787 -0.0042738426 -0.008908499 -0.0065690987 0.014361459 0.010491093 0.0054544453 0.0042317864 0.0074048415 -0.0018464157 -0.0022398622 -0.00016565295 -0.0038438651 -0.0059479023 0.009004265 -0.003568869 0.007015183 -0.0041632084 -0.0060440586 0.0059668417 0.0039171027 -0.009751773 0.010862634 -0.01828512 -0.0051126857 0.0017793288 0.0037505063 0.00474207 -0.012908565 0.009798586 0.020335833 0.0077797663 0.00071996823 0.00907771 -0.00076998805 0.008549492 0.016198235 -0.0048100646 0.0010881977 0.012139597 0.013784307 -0.00067294104 0.0044787666 -0.0018379652 -0.006105922 0.007319294 -0.0025555512 -0.009233237 0.00032760255 -0.013544968 -0.0054597897 -0.001881705 0.000513768 -0.0051346105 -0.00203174 0.0043489276 -0.011852414 0.004758958 -0.012065483 0.0037995146 -0.0032068486 -0.0051966375 -0.005909805 -0.0016947831 -0.0077334214 -0.0034718022 -5.9328926e-05 -0.011735728 0.0035377503 0.0077482997 0.0018803928 -0.009998386 0.019968482 -0.012748826 -0.007705203 0.011229349 -0.0029516304 -0.001232067 -0.011003572 -0.01987532 0.0030811015 0.0132828895 0.0017545894 -0.0035372912 -0.005850653 -0.0041886116 0.007862097 0.006399997 0.010624505 0.003441968 0.000909041 -0.0013928723 -0.008253377 -0.00024161972 0.0013275748 0.004962497 0.009187854 -0.002797701 -0.001867338 0.006279563 0.00785914 -0.0021762368 0.0020604003 0.009676806 0.00085335196 0.007864796 -0.002637553 0.0122903455 -0.0050581098 0.012443213 -0.007022503 0.008618249 -0.0058877883 -0.0115851015 -0.00034230258 0.019267019 0.0022292926 -0.008085334 0.00789593 -0.0003868744 -0.00020013111 -0.0037531157 0.003297086 -0.0059481673 0.0016035045 -0.0028521272 -0.005954032 -0.0032811018 -0.0035167811 -0.010191121 0.017593514 -0.005513148 -0.0045477413 0.0065539144 -0.0066714184 -0.0048765927 -0.010443404 0.002706918 -0.002343646 0.0042631803 0.005518072 -0.01326331 -0.0037113235 0.0015095993 -0.0017487032 0.009831485 -0.0121001 0.009298698 0.0072438093 -0.004108549 0.0016108131 -0.0049033123 -0.009647132 0.007946175 -0.0060510733 0.009607343 0.009851537 0.0113645205 0.00079458574 0.006950766 0.012393677 -0.005983648 -0.008125338 -0.0032841964 0.001673452
同志 -0.0023168921 0.011186113 0.0014922098 -0.0039517186 0.0041442285 0.005706037 0.0038525085 0.007800279 0.002808208 0.0016146179 -0.007709224 0.0014429112 -0.0050205807 -0.017538248 -0.0057668816 -0.008090691 0.0063713626 0.003769142 0.008989242 -0.010088061 0.0021832609 -0.010937415 -0.0097688725 -0.006778123 -0.013995072 0.0068756845 -0.0030762746 0.009854041 0.006319129 -0.0017143949 -0.0008173674 -0.0031208696 0.009550965 0.0021785663 -0.0017201744 -0.008188079 0.009873187 0.0031789765 -0.014793428 0.00767547 0.0076720645 -0.0055440734 -0.0026272493 -0.0034656164 0.013493777 0.011669225 0.016513925 -0.007202061 -0.011201396 -0.0052645663 -0.009465119 0.0043195826 0.0024328895 -0.0010627263 0.011730656 -0.014904791 -0.0045780833 -0.0033114334 0.012739954 0.005327256 0.006487308 0.0019546354 0.02619578 -0.0038589537 -0.013766969 0.002450468 0.005167954 0.008171181 -0.009042162 -0.0017518731 -0.012807595 0.004360748 -0.0069780047 -0.009000916 0.0053902315 0.0028934856 -0.0038851537 0.022471005 0.0012745073 -0.00823201 -0.008764212 -0.0065241233 0.00564475 -0.0021423916 0.0044205235 -0.00808542 -0.0013609127 -0.0035802305 0.005834843 -0.0020209546 0.0007584866 -0.0027961563 0.014822884 -0.00829463 -0.0044101044 0.020926649 0.0038624376 0.011844803 -0.0077048927 0.006002218 0.004728979 0.005399897 -0.0074189105 -0.0003057536 -0.014881179 -0.010612068 -0.0064352807 0.0014032855 0.00021487453 -0.0015500954 0.0021017836 0.01864235 -0.010560424 -0.0019407113 -0.007822194 0.015172272 -0.00082560704 -0.012659065 -0.002352998 -0.0032626756 0.008150829 -0.0034238633 0.004005358 -0.0043729274 0.0033232912 -0.015830982 -0.0047060996 -0.0045608673 0.0041137883 0.0062295008 -0.0055846972 0.00018389808 0.008291746 -0.013161484 0.0067805075 0.004905273 -0.0026958308 -0.008544561 -0.0067754905 0.012071664 0.012581276 0.0050565875 0.0058487756 0.006962112 -0.0015712284 -0.0025680847 0.0010126045 -0.0039338158 -0.0059982873 0.007873087 -0.0042015775 0.0066696736 -0.00673587 -0.0054231575 0.0067100865 0.0020110449 -0.010963959 0.012721815 -0.01871696 -0.004488358 0.0027361137 0.007018025 0.007683024 -0.012302828 0.008857242 0.020134188 0.00835304 0.0030813946 0.010376389 -0.0004213718 0.008953409 0.017356 -0.0044441675 -0.002078657 0.010786429 0.013002625 0.0004533337 0.005545261 -0.0020287537 -0.005978155 0.0077188616 -0.001461424 -0.00838205 0.0011062087 -0.013434685 -0.0050959233 -0.0025852276 0.00060949544 -0.007534587 -0.00058088853 0.0035457015 -0.010294553 0.004265548 -0.013761465 0.0047104796 -0.0012756381 -0.0038044685 -0.0067511946 -0.0007653764 -0.009007406 -0.003982631 0.0021147209 -0.01415196 0.0024626579 0.0059831906 0.00033019055 -0.011508871 0.019926237 -0.012637952 -0.006646869 0.013507142 -0.00056123344 -0.0014340929 -0.009184373 -0.021317022 0.0024152494 0.0112614315 -0.0015337184 -0.0013151236 -0.0075572706 -0.0039880616 0.00815774 0.006261802 0.011176481 0.0012136124 -5.02048e-05 -0.0025505393 -0.0072891517 0.0005358981 0.00076172483 0.003908564 0.008147695 -0.0053896224 -0.0034019975 0.005622539 0.0078337295 -0.0019169176 0.0030394343 0.00907048 0.0011983066 0.007398131 -0.00077896664 0.0133489 -0.0041356375 0.012380122 -0.009197158 0.006076408 -0.0037392988 -0.01184198 0.0012187848 0.020704545 0.002210537 -0.0074845594 0.0070319884 0.00031947528 0.0006799896 -0.003434821 0.0025213074 -0.007911786 0.0010036628 -0.0010456643 -0.0045819576 -0.0024110426 -0.0001137502 -0.010336529 0.018266937 -0.004082336 -0.005308852 0.0067103095 -0.003647177 -0.0039178543 -0.011777918 0.00086740963 -3.167959e-05 0.002144161 0.0033591592 -0.012638589 -0.002677321 7.243953e-05 0.00017825175 0.01024884 -0.014382047 0.009046134 0.008053256 -0.002887061 0.0020377818 -0.004198752 -0.008701248 0.007812719 -0.0052065323 0.009707009 0.010296799 0.01051545 -5.3291984e-05 0.009818921 0.013458764 -0.007558246 -0.008898861 -0.0040951706 0.0021036034
做 -0.0030028194 0.012385427 0.0015894937 -0.0058500445 0.0054626144 0.006809832 0.0018015426 0.011122321 0.0028810133 -2.0380648e-05 -0.00940142 0.00068877643 -0.006346211 -0.017204812 -0.0053966152 -0.009990323 0.005852314 0.0022388853 0.010342851 -0.013287594 0.0007376705 -0.013677304 -0.010476701 -0.0074486397 -0.016302481 0.0076522203 -0.004553902 0.010779421 0.0040298444 -0.002240994 -0.0019021985 -0.0017442236 0.010491567 -0.00018698857 -0.0016238459 -0.008966874 0.009026024 0.0029822185 -0.014111031 0.009414161 0.007647728 -0.0055954256 -0.0047769346 -0.004276973 0.013765003 0.014183289 0.018671645 -0.004903402 -0.01149927 -0.0064561754 -0.009217889 0.0017792708 0.000848549 -0.0036226707 0.01584121 -0.017725138 -0.0054459027 -0.003866097 0.014453582 0.007841385 0.0072976165 0.0012792348 0.028026031 -0.005265497 -0.0148160085 0.004786153 0.0058337017 0.008455614 -0.009277439 -0.0024540196 -0.015505023 0.006631431 -0.008358392 -0.013240424 0.005358741 0.0037226558 -0.0046129823 0.02488674 0.0027229271 -0.009114927 -0.010763758 -0.0074511827 0.0070047155 -0.0012680007 0.0033491303 -0.0114941085 -0.00094943447 -0.0046182764 0.0061392426 -0.0025791863 0.0017397053 -0.0020466617 0.014043206 -0.01037882 -0.0066413726 0.024545401 0.002538553 0.015316348 -0.0059639085 0.005363094 0.00615786 0.0041028834 -0.009796619 0.0014950455 -0.015496577 -0.012726854 -0.0065971618 0.0012940923 -0.0013722946 -0.005072471 0.0037971204 0.018784456 -0.010545962 0.0001758556 -0.011367656 0.017414497 -0.0013250113 -0.014220208 -0.0030676925 -0.0064037866 0.009797128 -0.0027556766 0.004881817 -0.003214522 0.003417775 -0.018192071 -0.0068695955 -0.005795194 0.0074693398 0.0074513364 -0.0057373685 0.0022068368 0.009751329 -0.013492183 0.00702668 0.008080351 -0.004171005 -0.012331936 -0.008906495 0.016181244 0.012832358 0.0063112746 0.004189065 0.008800602 0.00010820484 -0.004846356 -0.00071521656 -0.0046957117 -0.008449724 0.010403024 -0.004585075 0.008908005 -0.006813032 -0.0071531674 0.006404539 0.0025945045 -0.010596273 0.01456663 -0.020032596 -0.0059827906 0.0023331183 0.0063735535 0.0070608 -0.016557876 0.010472202 0.025484785 0.008870891 0.00045059138 0.012149406 -0.0012840627 0.00799346 0.017205069 -0.0065518855 0.0010311749 0.012323024 0.015576385 -0.00046576856 0.0044454546 -0.0050424044 -0.007025457 0.009935446 -0.0012562362 -0.0107347565 0.002632683 -0.015289938 -0.005938168 -0.0044969423 -0.0002479023 -0.007504311 -0.0013134484 0.004704814 -0.01378691 0.0054043806 -0.0155928265 0.003074068 -0.0030342715 -0.0048498074 -0.006592753 -1.4942175e-05 -0.010490323 -0.0043373886 0.00044710064 -0.014292363 0.0037200828 0.006644105 0.0014736755 -0.013022176 0.023542164 -0.015489096 -0.007144379 0.014498504 -0.002764059 7.296095e-05 -0.011261217 -0.02204587 0.0023027174 0.012725745 -0.0006079941 -0.0036613168 -0.0074286633 -0.002815127 0.009102142 0.0069274283 0.010905247 0.0042484757 0.00051935314 -0.0007988615 -0.0082660755 0.002077851 -0.00010944756 0.0062991395 0.011649403 -0.003270197 -0.003725588 0.006982605 0.008360432 -0.00014404437 0.0023613255 0.008804139 -0.00025369128 0.008620247 -0.0003963594 0.014437544 -0.0047613475 0.0154614635 -0.0074571446 0.007302635 -0.0037846721 -0.014299147 0.00030690985 0.02151865 0.0014601239 -0.007690017 0.0072423285 -0.0014664136 0.00070576393 -0.001810956 0.0026244796 -0.0060282145 4.6924913e-05 -0.0024638714 -0.007973129 -0.0026763633 -0.0007507153 -0.010411882 0.017849362 -0.0030196346 -0.005667505 0.0060609877 -0.0059486963 -0.0032456235 -0.0119528845 0.003323946 -0.0010284545 0.003765188 0.006553915 -0.014617022 -0.0018837441 0.0020133217 -0.0009343618 0.00969937 -0.015825568 0.00851196 0.0098278625 -0.0061599477 0.0022759968 -0.002446914 -0.0089402525 0.009954666 -0.0061240727 0.012437403 0.0098643415 0.011274738 7.400812e-05 0.008767419 0.013973153 -0.0061578257 -0.011140003 -0.0058312407 0.0036436627
解决 -0.00410262 0.010164881 0.0028790485 -0.0046595526 0.004245368 0.007780082 0.0027771834 0.00923147 0.001233577 -0.001174883 -0.0061577247 0.0025904654 -0.006099342 -0.014596589 -0.0036260784 -0.008509597 0.0070229564 0.00136801 0.008584841 -0.010315844 0.0012048228 -0.010281201 -0.0099020805 -0.0056487 -0.01597513 0.005311989 -0.00277753 0.009222536 0.0052531073 -0.00017858148 0.00024900798 -0.003924632 0.008635861 -0.00039263628 -0.0035475378 -0.009835332 0.009574136 0.000695305 -0.014420288 0.005654915 0.0071880436 -0.0059714406 -0.002323909 -0.004423651 0.012000716 0.010928288 0.01475407 -0.005435337 -0.010106262 -0.004738738 -0.007032558 0.003431837 0.0016232104 -0.003013531 0.0117954 -0.014078769 -0.00396076 -0.0045637735 0.01191737 0.006261694 0.0058682007 0.00012506529 0.02537933 -0.0046540652 -0.013136321 0.0034529625 0.004361138 0.005549715 -0.008505408 -0.0024860871 -0.011418724 0.004569455 -0.0068179225 -0.011383359 0.006775375 0.0020357491 -0.0042321095 0.020948747 0.00019249598 -0.0063010277 -0.007901468 -0.0070958203 0.0056614922 -0.0019110742 0.004981306 -0.010381818 -0.0016388261 -0.0027281595 0.004573284 -0.0013029224 0.001256368 -0.0019813755 0.014123026 -0.009754153 -0.0046577477 0.020818707 0.0018365342 0.011858215 -0.0069587883 0.0060321693 0.0052099344 0.0041805403 -0.0065958933 0.00032392697 -0.014950182 -0.010059821 -0.0037501089 0.004142112 0.0011502423 -0.0018589953 0.00076858595 0.015608712 -0.010024701 0.00047299868 -0.010296541 0.013305595 -7.457466e-05 -0.012619693 -0.0033160802 -0.0042270836 0.008170966 -0.0013017291 0.004110605 -0.0024876453 0.0047076847 -0.012634285 -0.0049913274 -0.0036474566 0.00651281 0.004007389 -0.0031993426 -0.0004970545 0.007750437 -0.012923136 0.0068264226 0.0040097535 -0.0057808296 -0.010916785 -0.0078240875 0.012596298 0.010221793 0.004328356 0.006049988 0.0072788317 -0.0006126122 -0.0032173297 0.0015565201 -0.0021569538 -0.0045625386 0.01023892 -0.0035945016 0.0055401986 -0.0037147813 -0.0041635274 0.0054662023 0.003671847 -0.0071894634 0.009356987 -0.017506892 -0.0051049567 0.001105214 0.0062177135 0.0057456098 -0.012698661 0.009839543 0.02168767 0.0073994026 0.00024896304 0.010338088 0.00050389493 0.0066030556 0.015990797 -0.004063701 0.000112147885 0.011147151 0.014849674 -0.0019398436 0.005720719 -0.0018454767 -0.0041193604 0.008219625 0.0005035077 -0.011552529 -0.00071596797 -0.011743073 -0.004847048 -0.003407092 -0.0020154153 -0.004650638 0.00023813147 0.003281801 -0.012250144 0.004689466 -0.012248838 0.0031596555 -0.0030292352 -0.0035321289 -0.0057930043 -0.0006127674 -0.010025499 -0.004987884 0.0010901875 -0.013383624 0.0029507645 0.007163442 0.00069266185 -0.011682423 0.018891428 -0.012076438 -0.0073643345 0.01367299 -0.0017817883 0.0007647763 -0.011230523 -0.020951018 0.0033454376 0.011223577 -0.00029266407 -0.0020164368 -0.0058306623 -0.003301135 0.008166718 0.005176219 0.009411733 0.0041924897 0.002613998 -0.0022757552 -0.008303669 0.0015750568 0.001462096 0.005061101 0.0086838 -0.003499053 -0.002572195 0.0064258333 0.009637638 0.0002846351 0.0037452152 0.008072003 -0.0003163677 0.007958797 -0.0031253346 0.0127585735 -0.005246019 0.01230814 -0.0076608225 0.0069448436 -0.0034285062 -0.01245464 0.0011742772 0.018218864 0.002687713 -0.0074309953 0.005990647 -0.0013552366 0.00047598462 -0.0023521965 0.0028048006 -0.0077642146 0.0018951055 6.360534e-05 -0.0055318726 -0.0025283913 -0.0033788662 -0.010849203 0.017726028 -0.004135429 -0.0036530308 0.004751405 -0.0047133816 -0.0042579165 -0.011230083 0.0013340677 -0.00019932793 0.0034703899 0.00535551 -0.012366765 -0.0019490841 0.002929008 -0.0021702228 0.008828341 -0.01081724 0.0073185177 0.007488776 -0.0029789528 0.0040909136 -0.004019535 -0.0085117305 0.008573779 -0.00693518 0.01150273 0.009917007 0.011243734 0.0009009315 0.007501746 0.01309718 -0.0058334605 -0.008219927 -0.004422292 0.0032372116
发展 -0.005170923 0.010787063 0.0011138895 -0.0045630196 0.0060872035 0.005519713 0.0010320806 0.00924555 0.001045377 0.0009415232 -0.0063983602 0.0022370946 -0.0064525274 -0.01578015 -0.00546236 -0.007387988 0.00621618 0.0022155102 0.009949777 -0.011139038 -0.0005060865 -0.012516524 -0.0070960517 -0.0073353895 -0.01650719 0.00655678 -0.003175438 0.009447322 0.0061210175 -0.003017112 -0.0013346566 -0.00400019 0.010066754 -0.0004218264 -0.0033821994 -0.010179847 0.007971579 0.0011906773 -0.013214711 0.008170299 0.008495472 -0.006328426 -0.0038183974 -0.0037362494 0.013173736 0.01258181 0.0148855345 -0.005782421 -0.010760841 -0.0060669607 -0.007997712 0.0031136654 0.00075952546 -0.0014059783 0.013100362 -0.015767943 -0.0071767317 -0.0047651837 0.011229783 0.0076617156 0.0056020715 0.002472655 0.025733689 -0.0039748666 -0.01282969 0.0052126213 0.006290873 0.007440133 -0.009465046 -0.0044455198 -0.011294645 0.003694529 -0.005321143 -0.010342236 0.004444947 0.0016855705 -0.0018738183 0.021010436 0.0027570154 -0.0077791 -0.00832703 -0.007786421 0.006804568 -0.002805562 0.0035455343 -0.010415576 -0.0015699583 -0.003112738 0.007800597 -0.0017369495 0.0018104865 -0.0007133882 0.013743212 -0.009171522 -0.006156413 0.023348292 0.0010678115 0.013686253 -0.005187801 0.006535919 0.0063667786 0.0061747865 -0.009020935 0.00092696375 -0.0153261805 -0.009942023 -0.0054383725 0.0013262469 0.0005906617 -0.001409651 0.002028481 0.016765203 -0.007710591 -0.0010253616 -0.009935701 0.014576558 -0.002360356 -0.010921585 -0.004989535 -0.005131063 0.009204897 -0.0021123735 0.0042500542 -0.0027096844 0.004117308 -0.01458116 -0.0047165863 -0.004381919 0.0044896007 0.0056231944 -0.003920728 0.00040439545 0.0077652587 -0.012787344 0.008829612 0.006207885 -0.0026055842 -0.0098459525 -0.007642134 0.012021021 0.013039754 0.0035322185 0.005353237 0.005679294 -0.002417473 -0.00471619 0.002135922 -0.001367101 -0.007318808 0.010033385 -0.003066074 0.0064810244 -0.0034250775 -0.005146182 0.0035697562 0.0027072355 -0.008966962 0.011505518 -0.020046208 -0.0060851797 0.0042287535 0.004594967 0.0059786495 -0.013504643 0.008890629 0.021716043 0.00744261 0.0023696055 0.009213091 0.0008893105 0.00934448 0.0143731525 -0.0061523905 0.0005428495 0.010551848 0.015493957 -0.0019721356 0.0059347963 -0.0035157597 -0.0056607886 0.007315322 0.0002850433 -0.011039228 0.0016401149 -0.012711104 -0.0056336373 -0.0025695332 0.00028538113 -0.004887701 -0.00035324998 0.0035795374 -0.01222406 0.0057419203 -0.01252441 0.0021202476 -0.0015887856 -0.004319579 -0.0066211456 -0.0025730375 -0.01047523 -0.003167811 -0.001112889 -0.013915051 0.0022361411 0.0058241477 6.27054e-05 -0.009991174 0.02239841 -0.01193886 -0.008272677 0.01268527 -0.0029367232 0.00025344142 -0.010203129 -0.02149968 0.0011065353 0.0114907175 0.0004664101 -0.0020144733 -0.0065365406 -0.004405604 0.0063487156 0.004182321 0.00955156 0.0011814333 9.700757e-05 -0.0010371213 -0.005522206 -3.128932e-05 0.00052919984 0.006171715 0.008113584 -0.0043255896 -0.0006474619 0.0047634663 0.0089684315 0.00052697794 0.002405898 0.008038451 0.0005987117 0.005396481 -0.0008659649 0.011200872 -0.0059818192 0.014643634 -0.007927629 0.009053685 -0.0037430942 -0.011426176 0.0025357665 0.019971877 0.0027378707 -0.0074299052 0.007835098 0.00045161715 0.0010542355 -0.002515716 0.0033834693 -0.0075130267 0.0006011478 -6.0052254e-05 -0.0052499417 -0.004804009 -0.002917017 -0.009851394 0.015666103 -0.003974734 -0.0039554047 0.005671406 -0.0035589333 -0.005450036 -0.01146015 0.0011358918 -0.0013701033 0.004026302 0.0058417227 -0.013404639 -0.00258369 0.0027271814 -0.0021687679 0.007237666 -0.013604567 0.009176503 0.005730228 -0.003602421 0.0041080774 -0.00244663 -0.009411785 0.006029256 -0.0070539843 0.010977679 0.008344833 0.012541093 0.0011546444 0.0069998796 0.010690077 -0.005716724 -0.009779386 -0.0040124124 0.0010947365
