135 300
革命 -8.706233e-05 -0.0006280066 0.00018588072 -0.00033440653 0.0011355331 0.00017198233 -0.0012335283 0.001601596 -0.0007094034 0.00047410093 0.00084067596 0.00100554 -0.00065639033 -0.00088091305 0.000652088 -0.00032677883 0.0009940361 0.00088808266 0.000851786 -0.001568475 0.0015779928 0.0010800398 -0.00057073345 -4.3493805e-05 -0.00087204867 0.00046844195 -0.0016455653 6.9747206e-05 -0.001307417 -0.0007325136 -0.00019946214 -5.8133624e-05 -0.00030054487 0.00024530946 -0.0013952245 0.0010286416 0.0002847182 0.00020833171 0.0005922834 -0.0011569904 -0.0007492159 -0.00031294464 -0.00079607515 0.00095623644 0.0012121686 -0.0014664794 -0.00040746 -0.00024114098 0.0011256486 -0.0009338883 -0.0012129968 0.0012650476 0.0011163767 0.0011163388 -0.0015150831 0.0004339473 0.0007415555 0.00020400723 -0.0015889884 0.0008988346 0.00040922067 -0.00095966546 -0.0005419613 -0.00053734146 0.0015867521 0.000551392 -0.0016692854 -0.0012839978 0.00092296186 -0.0010502157 -6.3495594e-05 -9.165352e-05 0.00053069554 -0.0013426903 -0.001319568 -0.0016252119 0.0005316384 -0.0009107273 0.0014744289 0.0011974995 6.485804e-05 -0.00042571969 0.0013544086 -0.0012444968 0.0010972036 -0.0014295384 -0.00080032443 0.00086774473 9.341015e-05 -0.00019896917 0.0013237662 0.00019251293 0.0016382345 -0.0012414459 -0.0013421127 6.2293184e-05 0.0011205911 -0.0011450894 -0.0007758307 -0.00043264637 -0.000109883964 0.00129018 -0.00086857623 0.00064715487 0.0010076638 0.00054227636 0.0015792019 -0.0010849078 -0.0013253356 0.0012612584 -0.001255048 -0.0007573394 -0.0007377651 0.0011561094 -0.0015545136 -0.0003764405 0.0012013575 0.0004920909 0.00017800124 -0.00013451657 -7.7164295e-05 -0.0011947111 0.00048565443 0.00018098213 0.001114673 0.0013478937 0.00019129994 -0.0006638914 -0.00050371443 0.00023704687 0.00085295254 -0.0012693756 0.00010391385 0.0005180984 0.0011882478 -0.00061467953 0.00064207695 -0.0007658886 -0.0010375577 -0.0008587134 -0.0003593001 -0.0015369022 -0.001009671 0.00090593897 0.0008223769 0.0004885903 -0.0013934264 0.00074684975 0.00027883684 0.0014801522 0.00041333758 0.0010999605 5.6890076e-05 0.0005430526 0.0013488716 0.00035713 -0.0014181323 -0.0014769541 -0.0013904183 0.00026822247 0.00035300327 0.0010220141 -0.00025959947 -0.0015976417 0.00043463547 -0.0011969825 -0.00047840533 0.0016321723 -0.0006433915 -2.0882182e-05 -0.0004333358 -9.7259166e-05 0.0011386069 -0.00022619884 0.00036630998 -0.0015486984 0.0014646748 0.0007617402 -0.0013389084 -0.001075148 6.668138e-05 -6.621548e-05 -0.00025211708 9.985543e-05 -0.0016853457 -0.00093486405 -0.00017864248 0.00016690057 0.0012928729 0.0013800527 -0.00019726466 -3.4530978e-05 0.0014945499 0.00059721794 -0.00085666706 -0.0002310094 0.0014753088 0.00014035245 -0.00075511064 -0.00073799683 -0.0009706072 -0.001486262 0.0015960119 -0.0013448043 -0.0007021598 -0.00068534794 -0.00076446164 0.0007184423 0.0012774927 6.966957e-05 -0.00061559794 -0.0012169365 0.0010436106 8.985993e-05 0.00014191102 0.0014247044 0.0012706011 0.0005464808 0.0013426772 0.0012275913 -0.001052149 0.0006484946 -0.0007382262 0.0010657975 0.00026490126 -9.286935e-05 0.0013611813 -0.0014852548 0.0013967134 0.0012782826 -0.00059413456 -0.001145103 -0.0005396035 0.00053874875 0.0007291532 0.0009804806 0.0008153413 0.0009862982 0.0010854111 0.00090273004 0.00016481186 0.0008970196 -0.0006012225 -0.00035517063 8.4830564e-05 -0.0012880743 0.00083754386 0.0013940713 -0.0013001584 -0.0013561752 -0.00010291939 0.0006753187 0.0012231873 7.334063e-05 0.0013638729 -0.0001379615 -0.00060383143 0.00082326727 0.0009462408 -0.00010524807 0.0008473382 -0.0005443082 0.0013563308 0.00020844802 0.000986361 7.669881e-05 -0.0008781175 -0.0012927238 0.0004994189 -0.0012071817 -0.00060288823 0.0016668512 -0.0007112648 -3.0836305e-05 0.0015706221 0.0006721858 0.001437595 0.0011934409 -0.0010564444 0.0004866671 0.00091344194 0.0011430205 0.0003040528 4.435592e-06 0.0006542025 -0.00020204566 -0.00018152504 0.0016206376 -0.0008820137 -0.000871112 -0.0011115712 -0.001218779 0.0010335308 0.00066482485 0.00013964302 0.000993002 -0.00024640164 0.00033521556 -0.00023108843 -0.00051950617
矛盾 5.9814487e-05 -0.0003275128 0.001253708 -0.00063971337 -0.00071301236 0.0012549671 -0.0010465058 -0.00083840004 -0.0007081677 0.001808584 -3.242595e-05 0.001045646 0.0011855825 0.0008471447 0.0015827352 0.000934206 -0.0013616681 4.686737e-05 -0.0009393969 -0.001326418 -0.00079437654 -0.0007979735 -0.0014629818 -0.00052373036 -0.00085394806 -0.0009621422 0.00023541732 -0.0012480834 -0.00048404044 -0.0015505964 -0.0012705005 -0.0013354103 -0.00093127956 -0.0012016845 -0.0014133374 -0.0006087438 0.0009831272 0.0014367927 0.0010889274 -3.956097e-05 -0.001132853 -0.00053012505 -0.0006472066 -0.0012022682 -0.00038670865 -0.0005738106 -0.0014959166 -0.0012194373 -0.0016260821 -0.0005528348 -0.0008202185 -0.0009141491 0.0005525345 -0.0011678088 -0.0010530195 0.0011150218 -0.0013190993 -3.2476324e-05 -0.0015351409 -0.001052407 0.0016119818 0.0009172565 0.000115139264 0.0012755315 -0.00091449876 -0.00047818484 -0.00084586104 0.0008586476 0.0006365743 0.0010594529 0.0012472597 6.500512e-05 0.00043602168 0.0008417086 -0.00088143535 0.0012158729 -0.0010882806 -0.0015159558 -0.00013265312 0.00018669965 -0.00038831972 0.00042702025 2.3630733e-05 -0.0010684029 -0.0010163153 -0.0005462368 -0.0003390648 0.0009856065 -0.0013011609 0.00031452658 0.0011396969 0.0014679397 0.0017309904 -0.0008299503 -0.000727811 0.0003038027 -0.00026317118 -0.00012993928 0.0009500995 0.0007799171 0.000230341 -0.0011225468 -0.00022607866 0.00056109705 -0.0012397595 -6.5466884e-05 -0.00049202464 0.00027777243 0.0013820379 -0.00045044607 0.0008750057 0.00084602623 6.224816e-05 -0.00020857117 0.0011242006 -0.0011654947 -9.701764e-05 -0.0016457177 -0.0011751108 -0.0015424765 0.0007391228 -0.0009239016 -0.0010888716 -0.00075567333 -6.50639e-05 -0.0013652677 -6.2430656e-05 -0.00063669274 -0.0014724821 0.0013583339 -0.00013903974 -0.0005041959 0.0014702869 -0.0012925257 0.0009869942 -0.00096559495 0.0014821541 -5.523199e-05 0.0012640811 0.0015555058 -0.0013678056 -0.00041679599 0.0011765744 0.0009770831 0.0004254657 0.00022914911 0.0009549584 0.0002636751 0.001270675 -0.0007668002 -0.0008985661 0.0014352613 -0.0009954122 0.0009967823 -0.000694316 -0.0014946319 -0.0013095265 -0.0013650763 -0.0006394097 0.0015597105 0.000537606 0.0016096061 0.0012034688 0.00049789436 -0.0002641448 0.0012266843 -3.0443027e-05 -0.0016365238 -0.00064696226 0.0010605128 0.0016145245 0.0010254135 0.00092766824 0.0014862097 -0.00019416622 -0.00048034568 -0.00039780757 0.0017447358 -0.00052718865 -0.0006046324 -0.0013501463 -0.00066852436 0.00073353853 0.0013244214 -0.0003475973 0.00095348177 0.00083788735 -0.00029199643 -8.111056e-05 0.0015812605 -0.0015374885 -0.000337151 -0.00055634364 0.0012794178 0.00067815185 -0.0016188857 -0.0010774116 0.00046026288 -0.0015018607 -0.0017169878 -0.0008748439 0.0016827466 -0.00048581796 -0.0006732618 0.0005203767 -0.000719316 0.0010129955 0.00035589313 0.00023178806 -5.078212e-05 -0.001081858 -0.0014117697 0.00013746711 -0.00089296035 -0.0016288979 0.0015047396 0.0010325685 -0.0016347931 -0.0010482331 0.00078600465 -0.0004778461 -0.00025167436 9.954408e-06 0.000720292 -0.0010994566 -0.00046756535 -1.4341751e-05 -0.00086792995 -0.00035106036 -0.0015701206 0.0016113236 -0.00059296004 0.00094169506 0.0004575709 0.0007301668 -0.00019558975 -0.00088752375 -0.00046659342 -0.00055749953 0.00015110704 0.00012846003 -0.0014168109 0.0010874879 -0.000490642 0.00084345863 0.00029524122 -0.0015066011 0.00023618048 -0.0011315129 0.0009831463 0.0012757988 0.0010137183 -0.000712178 0.00043398785 0.00017362997 0.00083990494 -0.00050585234 -0.00012079416 -0.00013716749 0.0010230324 -0.0009810443 -0.00028223533 0.00058745523 0.0008361239 0.000626165 -0.0003659091 0.00075126474 -0.0011919533 0.001170827 0.0016303394 -0.00028491105 -0.0013994558 -0.0016095993 0.0010517627 -6.4327745e-05 0.00014575076 -0.0003956479 -0.0015645219 -0.00031871544 0.001595828 0.0010234952 0.00137538 -0.0012836256 -0.00012008645 -0.00062504556 0.001067052 0.0015153304 0.0014953068 0.0011236853 2.2649307e-05 0.0014967152 -0.0014021774 -0.0010180648 -0.0008713445 -0.0008909401 -0.0005100086 -0.0010778611 0.00026406097 0.0009369795 0.00029811406
群众 -0.0012144756 0.0012991246 -0.00028269461 0.00028665742 -0.00047532638 0.0009205808 0.0014748502 -0.0010680031 -0.00085839303 0.0010487784 -0.001159552 -0.0009815837 -0.00083650515 0.0007955764 -0.00094710814 -0.0012782478 0.001480149 -0.0012687754 -0.00056762155 -0.0005535833 -0.0012160279 -3.261715e-05 0.0016484064 -0.0015794826 0.0014559134 -0.0010981015 -0.001021058 0.0009041869 -0.00073786255 0.00055333483 -0.0013445418 -0.0010608138 -0.00081496243 0.00096478534 -0.0016075601 0.0005770606 0.0009340507 -0.00025717076 -0.000949567 0.0012041084 4.7441372e-05 -0.0015245655 0.0012902538 0.0011090549 0.0011824345 0.00012490519 -0.0013967549 0.0011285112 0.0014279345 -0.0002936311 0.0013684093 -0.00035809533 -0.0011908847 0.001721568 -0.000845922 0.00013319444 0.0010850915 -0.00035613598 0.0012054697 0.00047725238 0.0010186615 -0.0015198172 0.00070854777 0.0006738817 -0.00028956938 0.0010898458 0.0011032498 -0.0006655736 0.0010675797 0.00076053134 0.00031429634 0.00022498591 -0.00034342834 -0.0011771504 0.0012068865 -0.0002939398 0.0013086494 0.00037012473 0.0011821934 0.00039792433 -0.001562404 -0.0011859444 -0.0014704871 0.0006678155 0.0016150619 0.00029808533 0.00028729264 -0.0012362311 0.0013923456 -0.0010918542 0.0015160356 0.00027394644 0.0006534447 0.0007225538 -0.00084556843 0.0007922624 -0.00045469517 0.00063695 -0.000285424 -0.0009522485 0.0007475255 -0.0010143332 -0.000784927 7.3103314e-05 -0.00064330833 -0.0012191203 -0.00035642626 0.0011345339 -0.00094000524 -0.00024961834 0.0004587587 0.0012880025 -7.9488505e-05 -0.001396408 0.0013452936 0.00023623851 -0.0013104428 -0.00030076533 -0.0004360199 -0.0013997039 -0.0013970511 0.0008764293 0.00026672345 0.00040633412 0.0004143 -0.0016268652 5.897826e-05 0.0015859979 -0.0015637423 -0.00028643955 -0.000688279 -0.00013910679 -0.000110450295 -0.0010550428 0.0016968707 7.900102e-05 -0.0014498697 -0.00078401563 0.00041775568 0.00030278027 6.679061e-05 -0.0009291444 0.001607279 0.0012461417 0.0011590732 0.0011396429 -0.00051618664 0.00040141927 8.116919e-06 7.62035e-05 0.0011916023 -0.0012270891 0.0005687578 0.0011212683 -0.0005741108 -0.0001692659 0.00087185693 -0.00045130853 0.00028205116 -0.00016323673 -0.000300434 -0.0015898654 0.001314466 -0.0016516985 0.00076123205 -0.0013634844 0.00094903156 0.0003913722 0.0015370754 0.0003640829 0.00073227595 0.00033533323 -0.0011388647 0.0015587686 -0.0004736125 0.00042227845 -0.00016310795 0.0014916615 0.0004282003 0.0005045463 7.674473e-05 -0.00017280465 -0.0012161087 6.919829e-05 -0.00032005343 0.00054245436 -0.0012995541 0.00094519183 -0.0011109514 -0.0010054832 -0.00114477 -0.00022376541 6.80685e-05 -0.0003543626 0.0004697603 0.00019067612 -0.001257635 0.0012367537 0.0008208515 0.00040981744 0.0005583641 -0.00014501267 -0.0012434147 -5.761877e-05 0.0013134703 -0.0005925842 -6.30878e-05 -0.0013109744 0.0015201457 -0.0013307406 -0.00035383878 0.00069397036 -0.0006646122 -0.0002016825 -0.00023838686 0.00013284555 -0.0015037615 -0.0010059807 -0.000119626435 0.00034260584 0.00031759575 0.0005733332 -0.0002592697 0.000360322 0.00088756677 0.00078515755 0.001255596 -0.00078743265 -0.00096703554 0.0007110889 0.0005307395 0.0013682198 0.0003038695 0.0013342901 -0.0002277 0.0008025957 -0.00022686235 -0.0005932563 0.001391539 -0.000114371476 -0.0014374561 -0.0006008241 0.00044885746 0.0002947847 0.0011828444 0.0009741817 -0.0002363153 0.00013700922 -0.0010958666 -0.00055805757 -0.00023430491 -0.0003549781 0.0009587415 -0.001053545 -0.0002560207 0.00040464388 0.00095150195 0.00043769032 -0.0009258057 -0.00078051427 -0.0010068817 0.00061817473 -4.664658e-05 -0.0015568439 -0.00018566272 -0.0012471984 0.0016258736 0.0014458745 -0.0013383166 0.00048215134 0.001085466 0.0013129138 0.0009873473 -0.00073070324 -0.0003009278 0.0016157246 -0.0009433092 -0.001390083 -0.0004932489 -0.00095908553 0.0006463419 -0.00045540728 0.0011309889 -0.00069828064 -0.0009387418 -0.00015527986 0.0010309165 -0.0014636178 0.00045573062 0.00084612047 -0.0012129958 0.0012872902 0.0012411667 0.00023088907 0.0014729156 -0.0012869219 0.0010092488 -0.0010744095 0.0003361028 -0.0014393647
战争 0.0012776509 -0.0016735723 -0.00013971241 -0.00086066115 0.0009170657 0.0002854664 -0.00044476075 0.0014755306 -0.0002769976 -0.00066361314 0.0013033169 -0.0015672746 0.0013867927 0.00077492127 0.0014225387 0.001057625 0.0015603605 0.0016344592 -0.0008955759 -0.0011290013 -0.00094901526 0.00075731287 -0.0009137341 4.3013923e-05 -0.0004433283 -0.0008467687 0.0012094794 0.0009969863 -0.00093899923 0.0012503621 -0.00031202452 -0.00045299687 0.001631544 0.00060173013 -0.00071970915 -0.0005730051 3.8884737e-05 0.0007334313 0.0009071533 -0.0012390893 4.5036915e-05 -0.0016342181 -0.0015982819 0.0006741051 -0.001492547 -5.584586e-05 -0.001175532 -0.00041065016 -0.0013076523 0.00018569338 0.00011716949 -0.00038698138 -0.00029630656 0.0012464726 0.00018876814 0.0006334638 -0.0012789337 -0.00036709226 -0.00072109455 0.000889654 0.0004554103 -0.000798899 0.0010079531 0.0011897275 -0.0016272423 -0.00033051352 0.00014244179 0.00035239215 -0.00076649507 0.0010841 -0.001131621 0.0006178681 0.0011460317 0.0009088974 -7.245841e-05 0.00046790548 -0.0009842953 1.0471516e-05 -0.0011812838 -0.0010612083 0.00013665734 -0.0012184236 0.0015454533 -0.0013640116 0.00063476 -0.000213379 -0.0004427931 -0.0011264614 -0.0013872109 -0.0011783486 0.0012867986 0.000657575 0.00013149258 -0.00092062855 0.000473411 0.0013642164 5.786508e-05 -0.00017549415 -2.4426934e-05 -1.1522735e-05 0.0011858835 0.00019744081 -0.0014005973 0.00054379227 0.0015633221 -0.00022862176 0.0014099219 9.2127986e-05 -0.0006768512 -0.0012627733 0.00023215332 -0.00015238812 -0.000649265 -0.00026911605 0.00053173065 -0.0005518861 0.0009959643 -0.00018363015 0.0003354223 -0.0007195171 0.0010910102 -0.0006528033 -0.00089675304 0.0011351387 0.001587177 0.0008260704 0.0016222446 0.001288669 0.0010659192 -0.0011382764 -0.00043137334 -0.00093031727 -0.00026928744 -0.0005528857 0.0011332099 0.00029941124 0.0005133189 0.0015053474 -0.00070795184 0.0001266395 -0.0004765039 -0.0012112282 0.0008306745 -0.0010848894 0.00082613237 -0.0013048988 -0.0012962002 -0.00035304797 0.0007479901 0.00046040627 -0.00040441295 -0.00022216019 2.7575468e-05 -0.0015200558 0.00077200594 0.0015943694 0.0015283546 -0.00047990875 6.740083e-05 0.00040044158 -0.0013586218 -2.6160003e-05 -0.0009847914 -0.0013610125 1.4173489e-05 0.00024991584 -0.00071142736 -0.0005681931 0.0005520753 -0.0015290816 -0.00045515975 0.0016627174 -0.0010783959 0.0007458628 -8.857116e-05 -0.00010013956 0.0013782536 0.0012028812 0.0009834811 0.00021488784 -0.0017389558 -0.00081897835 0.00016193511 -0.0015694296 0.0015552868 -0.0006099425 0.00077255786 -0.0014122966 0.0013038423 -0.0009094546 0.0002898327 -0.000814723 -0.0006206728 0.0007092011 0.0011415294 -0.00043258784 -0.00042847075 -0.0002735562 -0.00029543592 -0.0015781358 -0.00090716727 0.0015961078 -0.0003881962 -0.0012477487 0.00036246507 -0.0009221936 0.0017283804 -0.0010877531 -0.0009886702 -0.0012150736 -0.00093377935 0.0002951238 0.00017397935 -0.0005154479 -0.0014778447 0.0011911507 0.00027421894 0.0010455055 0.0013621716 -0.0004801587 -0.0011811424 -0.0011314099 0.00020413661 0.0013789204 -0.0007354304 0.0007228411 0.0009008024 0.0011495935 -0.00022752446 0.0008398576 -0.0011067879 0.0012816051 -0.0008697483 0.0008357045 -0.0011135283 -0.000546327 -0.0010304645 -0.0010204398 2.9297844e-05 -0.00073461194 0.0013441354 0.0001290575 0.00060217007 -0.0006162928 -0.0010096651 9.232235e-06 0.0013822048 0.00055698934 0.00046737186 -0.0005509175 -0.001631108 5.4770197e-08 0.0005919645 -0.00038227768 0.0013019838 0.00021494288 -0.0014503901 0.001694042 -0.0011488051 -0.00024315044 -1.1129981e-05 -0.0011354707 -0.0008383914 -0.0010821271 0.00014424098 5.2864056e-05 -0.00018409808 0.0013408824 0.00057265884 -4.5165933e-05 -0.0002843904 0.0015555078 -0.00046995652 0.00042729607 0.0004248156 0.00094833 -0.000106204025 0.00061508385 -0.00044722596 0.00030325298 -0.0007337355 -0.0011245568 0.0016531276 -0.0009997874 0.00049960596 -0.0003388804 0.000434338 0.0007753333 0.00028200913 -0.00045146066 0.0010636917 -0.0003289915 0.00022248647 0.0009044518 -0.000108583525 -0.00021470872 0.0012602158 0.0012509053 0.00061509444 -0.0011256298
工作 0.00012464137 0.001329137 0.0015939659 -0.0008145567 0.001366289 -0.0015183482 -0.0013135357 -0.0008473012 -0.0013020621 0.0017578796 -0.0014647788 0.0012929114 -0.00088562455 -0.0007020001 0.0003502791 0.0016104723 0.0014746512 -0.0015190111 0.00028393746 -0.0012408296 -8.438721e-05 -0.0013735691 0.00097452675 0.0005805165 -0.0006301261 0.0013279999 0.00061128597 -0.000632189 0.001435815 -0.0015764156 -0.00012847834 -0.0012667796 0.0014356234 -0.00027211534 -0.0007727123 -0.0011557739 0.00066895055 0.0009661204 0.00023960638 -9.4361974e-05 -0.00047220755 0.00069567683 0.00021409435 0.0013336447 0.0015980314 0.000342334 0.001425638 -0.0014603599 0.0014305149 0.001554128 -0.00018373558 -0.0007504416 -0.0013443525 0.0013392234 -0.0013194828 0.0009757771 0.00029334245 -0.00044064666 0.0011193079 -0.00014868044 0.0010533662 -0.00016911855 0.0008500526 0.0014486975 0.0006223594 0.0014708916 0.00030548524 0.00058680447 0.00019142704 -0.0015905438 -0.00022382037 -0.0014218821 0.00011731758 0.0011920823 0.00044062032 -0.0006938249 -0.001346088 -0.00052854477 0.0016510267 0.0015473128 0.0017136424 -0.0006058024 -9.2151175e-05 0.0016819234 0.00090034015 0.0005558759 -0.0006893615 5.5032313e-05 0.00015786171 0.00048819164 -0.00085188064 0.0013962357 -0.0013053014 -0.00057979615 0.00028367818 0.0014135792 -0.00078029 -0.0004817186 -0.0003042456 0.0006485432 -0.00032432066 -0.000979633 -0.0008375416 -0.00018174856 0.00016170739 0.0014127893 -0.00085804984 0.0002835765 -0.0013429357 0.000648757 -0.0009925554 -0.0006693203 -0.00078301784 0.0013560449 0.0013196534 0.0011941585 0.0005369309 -0.0014989272 0.0014122995 -0.0009939154 -0.00030229642 0.00090001005 0.00090919575 0.0012181579 -0.00055476744 -0.0008578689 6.174206e-05 0.0014412244 0.0007723378 0.00024009406 -0.00013227355 0.00070545246 0.0001386809 0.0013325039 0.0016499179 -0.0006274681 -0.0015440608 -0.0005599584 0.0016370647 0.0013537029 0.0014779301 0.0013240332 -0.0014159892 -0.0015126504 -0.0014445491 0.00091452256 5.910208e-05 0.0011212615 -0.0004303706 -0.0002853372 0.0012714787 0.001320797 0.000956223 0.0010475497 -0.00015586932 0.0015253946 -0.0011824319 -0.0016197786 0.0011507291 0.0011247392 0.0015209457 -0.0005570802 -0.00046790414 6.524069e-05 -0.0017155125 0.0016716346 0.0008980243 -0.00076721 0.00064620876 -0.001296986 0.00063317304 0.00019756546 0.00047748548 -0.0006028279 0.0014302243 -0.0010672774 0.0011826704 -7.030184e-05 0.00032912113 0.00096334703 0.00044744706 -0.0014791528 0.0010076677 0.0009331758 -0.00021485853 -0.0006835838 -0.0003782444 0.00054300315 0.0014186727 -0.0007974139 -0.0017248237 0.00038186103 5.4836844e-05 -0.0015692326 -0.00019878935 -0.00077081856 0.00028971114 0.0008677405 -0.0011754486 0.0008782428 0.0005925922 0.000115121875 0.00024059224 0.00070959766 0.001180539 -0.00051186536 0.0011462282 -0.0015626968 0.00039802975 -0.0009402682 0.001499347 0.0013280223 -0.0011941588 -0.0014484508 -0.00047780477 -0.0012742686 -0.0015315803 0.0008707529 0.0004245654 -0.0015545622 -0.00082460773 0.0006454808 -0.0009893029 0.00037369638 -3.7404854e-05 0.000116683004 0.00083106 -0.0008419345 -0.0014844735 -0.00047897812 0.00029827977 -0.0013665761 0.0011826778 -0.00071314425 2.4104838e-05 0.0016009151 0.00018187513 -0.00077626837 -0.00091819954 -0.00015074675 9.2864066e-05 -0.0015861117 0.0014144221 0.001024194 -0.00077159633 -0.0014852579 -0.00028256667 -0.0011414653 -0.0010476273 -0.0004407832 0.0012839212 0.0013503473 0.0010262856 0.0009925566 -0.0013483757 0.00035351905 0.00096540054 -0.0013981008 0.00072227314 0.00085722294 0.00041915968 0.001367843 -0.0011735552 0.0011815435 0.0008916732 -0.0004979266 -0.0014875116 -0.0008326643 -0.0010019444 -0.0012482586 0.001603546 -0.00032503123 -0.0014590645 0.00059978693 0.0012900787 -8.3542014e-05 -0.0012160533 -0.00018067993 -0.00039412113 0.00020462724 0.0009005314 -0.00016765822 0.0004043132 -0.0012764634 -0.0012728433 -0.00046407475 -0.00032621835 0.0008537483 -0.0012206992 -0.0014752535 1.695551e-05 -0.0006165074 0.00031183206 -0.00053184485 0.00047397998 -0.0006004361 -0.001429873 -0.0013346839 0.0013970842 0.0002456056
敌人 -0.00056166755 -0.00084252434 0.0012419717 0.000113736955 0.0014248452 0.001432714 -0.00073182106 -0.0009152835 -0.0007181854 0.0018293337 -0.0014634171 0.0001007556 -3.4498255e-05 0.00072510546 0.0016435415 0.0010231689 0.00054401765 0.000463106 0.00013311261 -2.8993018e-05 0.00091603026 -0.00016902684 0.00012986702 -0.001605709 8.6948065e-05 9.034391e-05 0.00010976372 -0.0014807339 0.00094836287 6.1647894e-05 0.00057064806 -0.00018840929 0.00040167477 -0.0015112108 0.0014314079 -0.0011992498 -0.0009714275 0.0011126746 -0.0004279206 -0.00051446375 -0.0013168012 -8.1625425e-05 0.0014664141 -0.0011328998 0.00082913483 0.0012996226 0.0012997413 0.0014031592 0.0010767075 0.0013706295 -0.0015053706 0.0013282101 0.0002771088 8.347054e-05 -9.5664334e-05 0.0009639242 0.00023779446 0.0007628208 -0.0007092512 0.00020212638 0.0010475188 -0.0013286639 -0.00021230847 0.0011584994 0.0007106815 -0.00015949787 -0.0011544224 0.0015726883 0.00024086924 0.00076273695 -0.00047239912 -0.0014622973 0.0010959381 0.0015768668 -0.0008720391 5.6414763e-05 0.0005155129 -0.00039100047 -0.00050707994 -0.0013338074 0.0014789496 -0.0004052673 0.00034498182 0.0011424769 0.00012341485 0.00018007302 0.00012705046 -0.0012575068 -0.0016208049 -0.0011935281 0.00172321 -0.0013681109 -0.0010652638 0.0002841804 -0.0004918002 -0.0013093879 0.00037941788 5.167889e-05 -0.0011909871 -0.0008510609 0.0002862545 -0.0012178423 0.00038704372 0.00122294 0.00046453753 -0.00018730131 0.0007371298 -0.0015868325 0.00072848797 -0.00072963827 -0.0014575802 0.0006456441 -0.0003812813 0.001336582 0.0002811425 -0.00061439996 -1.4019219e-05 0.0015462292 0.00022341267 0.00036949347 -0.001411218 -0.0008759029 -0.00016497138 0.00064933626 0.0005949528 0.00024324274 0.00024499945 0.00069759437 0.0010244519 -7.4273325e-05 0.0012625916 -0.0007277087 8.428513e-05 0.00037667353 0.00022303592 0.0012486861 0.0013575578 -0.0015700831 -0.00022294122 -0.0010063535 0.00033747553 -2.6622272e-05 0.0017042811 -0.0009201581 0.0002237569 -0.000680839 -0.0010531124 -0.00078140205 -0.001214724 0.000471605 0.00050958 0.00066516775 0.000792922 -0.00020925397 0.001053437 -0.0006435858 -0.00010286212 -0.0006536925 -0.0012725545 0.00025357294 -0.00081738026 -0.0013860051 -0.001591578 0.00034631268 -0.00030889097 0.0013615567 -0.0014586718 0.001537497 -0.0010902929 -0.00073254044 -0.0010531661 -0.00044170767 -0.0011091117 0.0016322434 -0.0011973733 0.0014734052 0.0012268958 -0.0015256928 -0.0008422116 -8.146676e-05 -0.00036514027 -0.00061707856 0.0016929392 -0.0010799336 0.00014098841 0.0010327554 0.00013703798 0.00057782175 4.0429524e-05 0.0015507041 0.0007529402 -0.00015418326 0.0011171084 -0.0012332308 0.0009936568 0.0012156769 0.0001151956 0.00079305196 -0.00049413845 0.00021690268 -0.00012153528 0.0012716926 -0.00028275137 0.0011910184 0.0011173087 -9.672759e-05 -0.00042963424 -0.0005359725 0.00089647126 0.00018091031 -0.0007856371 -7.848342e-05 -0.0016579826 -0.00088963995 0.00096664 0.0013000284 0.0005930992 0.0011044984 0.0013694388 -0.0007085831 0.00020119401 0.0013766076 0.00026026365 -0.0005587232 0.0013823713 -0.0008461545 -0.0009503482 0.00061815383 0.00074307673 -0.00090520724 0.001016967 0.0014121284 -0.0016833387 0.0015786865 -0.0012342917 -0.000141963 -0.00015263818 0.0012115331 0.0014256561 0.0010499837 -0.0008332948 0.00162547 0.00078175945 -0.0006360455 -0.00037019036 -0.001184501 -0.0006702858 0.00091587356 0.0011141687 -0.00046358956 -0.0016500123 -0.0007763306 0.0010271383 -0.00057005463 0.0001868671 0.00016136775 -0.00074558967 -0.00148463 -0.0007364462 -0.00056168594 0.000702953 0.00087627716 0.0015363788 0.0009784289 -0.00071783614 -0.000648015 0.0010016419 -0.0010805626 0.0008345135 -1.5591982e-05 -0.0011717348 0.0014607988 -0.0008701574 -0.00086576614 -0.0009205379 -4.2136577e-05 6.583964e-05 -0.00015979183 -3.0603012e-05 0.001077881 0.0002840668 0.0005558382 0.0014009479 -0.0011244756 0.0010170233 -0.0008372414 -0.0015672229 -0.0010458457 0.0012564051 0.0013588876 0.00015049324 -0.0012265379 -0.0012689256 7.70884e-05 6.8874455e-05 -0.00021985178 0.00082202203 -4.5790002e-05 -0.0005272477 0.0015372125
解决 0.0014432941 -0.00071689143 0.0010536419 -0.00087811926 -0.0005074626 -0.0014613493 0.0013586096 0.00059276115 -0.00123712 -4.828819e-05 0.0015166202 0.00011694823 1.6917877e-05 0.0016149672 0.00013382235 2.5859725e-05 -0.0013590141 -0.00053886045 -0.0003133245 0.0011140595 -0.00052984484 0.0009676004 -0.0014800333 -0.001328575 0.0011747136 0.00032015383 -0.001805662 0.00041804113 -0.00052549894 0.0008530554 -0.0001110641 0.0013980028 0.0014246604 0.0015121909 8.0943664e-08 -0.0010476086 -0.0005840822 -0.00039588928 -1.3575406e-05 -0.0004751716 -1.4378562e-05 0.0003068112 0.0012687152 0.0008604053 -0.0013999837 -0.0013024716 -0.00030472953 0.00078671373 -0.0008283155 -0.0015304342 -0.00020163412 0.00022166915 3.2731976e-05 -0.00031080577 -0.00038318618 0.00023926991 0.00069109915 0.0005244833 -0.0009166654 1.550387e-05 -0.00049620174 0.0011626135 0.00059501996 0.0012536559 -0.00077768805 -0.0006556539 0.0012068751 0.0009070836 0.0003695419 0.0015833322 -0.0013160445 -0.00092012295 -0.0015152759 -0.00054753746 -0.00021373828 -1.5322741e-05 0.00054029375 0.0003233436 7.516532e-05 0.000808607 0.0013719767 0.0010298566 -0.0006659624 -0.0014426534 0.0010718924 -0.0014444329 -0.0015598135 0.0013333764 -0.0008257102 -1.9064084e-05 0.0016493544 0.0010651868 -0.001285374 -0.0015665188 0.00024857506 7.349745e-05 -4.1791016e-05 0.0008062732 -0.0015008723 0.0009165065 -0.0012932398 -0.0012005126 0.0010120848 -0.00073037576 -0.0006331977 -0.00020826253 0.001280062 -0.0010553017 -0.0012162143 -0.0011326807 -0.0013756163 0.0012454897 0.0007457503 0.0008557586 0.00061080826 -0.001564455 -0.0014384397 -0.00039994667 0.0014747103 -0.00058905734 -0.0001644375 0.00075400464 -5.9942413e-05 0.0017170404 0.0010174884 -0.0005000748 0.00070748536 -0.0014371197 -0.00017219674 0.00093576097 0.0012290827 -0.00069939106 -0.00083889463 7.7448196e-05 0.00066014973 -0.0005224119 0.0012227993 0.00061321585 -0.0007839481 7.975302e-06 -0.0014286265 -0.00089031976 -0.00026290506 0.0009935066 -0.00018551039 -0.0016451576 0.001517222 0.0013100858 0.0007428318 -0.0006882897 0.0012335223 0.001403141 -0.00053740083 0.0004338409 -0.00066506973 0.0013270121 0.00083770615 -0.0017225597 0.0010048423 0.00069558405 -0.0015494337 0.00097114645 0.0010244512 0.0015887325 0.0006618981 -0.0015064888 0.00026123167 -0.00035837197 0.00031392567 -0.00082520914 -0.00054097944 -0.0015288554 -0.0006227704 0.00030964485 -0.000550605 -0.00037134593 0.0009161115 0.00047397698 0.00022494627 0.001678176 -0.0017768695 0.0005309737 0.0008465959 0.00062463427 -0.00048707568 0.0012111071 -0.00081566797 -0.00010544005 -0.0011917227 -0.0015833058 -0.0001818941 0.001306692 0.0010157737 -0.0009761931 0.0008868806 -0.0011842229 0.0007710462 0.0003082622 0.0006100022 -0.001242315 0.0009116781 -0.0012703941 -6.0391653e-06 0.0014627395 0.0015355912 0.00089911185 0.001143791 7.391081e-05 -0.0010427285 -0.0012546761 0.00019918852 0.00077585253 -0.0012031846 3.3374865e-05 -0.00073980115 -7.59724e-05 -0.0011629798 -0.0014711199 0.000587459 -0.0012695139 -4.4659897e-05 -0.001163354 0.0010436389 0.00047817564 -0.0006769542 -0.0013977764 -0.0010697319 0.0016205746 0.0011071203 -0.0009798836 0.00093291444 0.0016072788 -0.00015276336 -3.403621e-05 0.001043588 0.0003414563 -0.0001725134 0.0010854146 0.0007036364 0.0005621461 0.001221967 0.0005265544 -0.00024255774 -0.0009298212 -0.0013443845 0.0012613968 0.00071272184 -0.0009776398 4.044513e-05 0.00018054098 -0.001234634 -0.0015634055 -0.0014704 0.0010193429 0.00084398093 -0.00038973658 -0.00023277955 0.00088405056 -0.0014211829 0.0009090474 0.0007409987 0.00012898701 -0.0013778822 0.0015237207 0.0015921992 -0.00037806423 0.0012089738 -0.0010808292 -0.0016660173 6.1989966e-05 -0.0008484187 0.0008319354 -0.0015988011 -0.001588419 -0.0003931473 -0.0008158375 -0.00059117377 -0.00033924307 0.0002924649 -0.0006387096 -0.0005738241 -0.0012193206 0.0013158493 -0.0012750503 0.0007876321 -0.0013862983 -0.0002890666 -0.0015669811 -0.0016886336 -0.0005809917 -0.00029065114 -0.0010844399 0.0016083594 0.0012799972 0.00069452496 -0.0016927829 0.0009642118 -0.0010058566 -0.00023432149 -0.0013322599
军队 -8.726069e-05 -0.001078365 -0.0008447265 -0.0011673425 -0.0014727156 0.001333016 -0.0006191726 -0.00041342384 0.0013953857 0.0012742501 0.0015169458 -0.0012178705 0.0011815846 0.0015695966 0.0008869475 0.0007850384 -0.0005948469 0.00049167615 0.0013697805 0.0013681978 -0.0012448756 -0.00097017916 -0.0003671881 0.001080109 -0.0005423913 0.0014750756 -0.0009285623 0.00033272282 -0.001638931 -0.0012233192 8.033098e-05 -0.0010719987 0.0015048978 -0.0013256783 0.0011975297 -0.0013889804 -0.0009723286 0.0012069108 0.00072590454 -0.0016397681 0.001170222 0.00035531234 0.00026506276 0.0001780023 0.00063212524 -0.00081718026 -0.00054494553 -0.0015240064 0.0011225677 0.0006244125 0.00045444717 -0.0009691632 0.0005953639 0.00093259127 -0.00020147818 -0.0011979647 -0.00029893828 -0.00055298355 -0.0015646302 0.0007099748 -0.0005943395 0.00094937393 -0.0008677271 0.0014223775 -0.0010819888 0.0012767025 -0.0015612313 -3.441448e-05 0.0007171944 0.0012460946 -0.0007670088 0.00051495153 -0.00082456315 -0.0013347992 0.0008326014 -0.0010922579 0.0009942412 -0.0015214941 0.0005035924 -0.0011516358 -0.00077073276 -0.0013392942 -0.001707038 0.0008571438 0.0007293323 -0.0014058406 -0.001556495 0.00080999464 -0.00032276803 0.0010352115 -0.00052137964 -0.0011307474 -2.7887776e-05 -0.0015614282 -1.0311337e-05 0.0010755731 -0.00028149475 -0.0008069068 0.00044050752 0.00016283346 0.0012634251 -0.0010717867 -0.0006464912 0.0016373965 0.0002910967 0.0011885922 0.00096235215 -0.0015572062 -0.0015304527 -0.0002745813 0.0008748146 -0.0004112085 0.0008011266 -0.0015459438 -0.0011644416 0.000967041 -0.0006240456 -0.00097279437 -0.0016645513 -0.0017587927 0.0005005397 -0.0003941326 0.0015841792 0.00071341026 0.0005145515 0.0012055165 -0.0008116289 -0.0011224009 9.6074284e-05 0.0016081474 -0.0013533868 0.00076876406 0.0011071392 0.0014162825 0.0015747274 0.00052913727 0.0016838073 0.0012116212 0.00051821617 0.0011295428 0.0010692369 0.00022622258 -0.0009795144 -0.0017498701 -0.0012137202 -0.0014498772 0.0012535754 -0.00066520093 0.00073721266 0.00069727626 -0.0014682497 0.0003653482 0.0012564141 0.0010133752 0.00013851361 -0.00054981955 0.0013052815 -0.00034705392 0.00010118918 -0.0012526736 -0.0011299493 0.00089883886 0.0008474347 -0.00021712601 -0.0007511895 0.00092188996 -0.0012177305 0.00034957394 0.0013909866 0.0016205641 0.0014822013 -0.00045384432 0.00024588293 0.00032317513 0.00010307612 -0.00027587631 -0.0006215226 -0.0002600962 -0.00022362934 0.00033719765 -0.00018276784 -0.00054996385 -0.00022917437 -0.00058981084 -0.0013700126 -0.0014257536 -0.0015386727 -0.0007034675 0.00108303 7.902302e-05 -0.0009809402 0.0015791034 0.0015169074 -0.0012754988 -0.0008968266 -0.00075339084 -0.0016426548 -0.0014437583 0.0010839136 0.00090189936 -0.0006047173 0.0009779234 -0.00090267987 -0.00037782636 -0.000614503 -0.0005628678 -0.0015321814 9.83525e-05 0.0016272734 -0.00073185365 -0.0014378442 -0.0011623374 -0.000521292 -0.00044246996 -0.00073820405 0.0012817059 0.00045512116 0.0013135242 0.00012800469 -0.0015269883 -0.0012112668 -0.00018884672 -0.0005758527 0.00073123846 -1.7445405e-05 0.00023357982 -0.0012190874 -0.0005708522 0.0013421306 -0.000611898 0.00042083088 0.0011949798 0.0007376874 0.00015775385 -0.0009123673 0.0015746858 0.00012210367 -0.0011135197 -0.00030128722 0.0008699799 0.00031884038 -0.00012362587 -0.0012142502 0.0013835717 0.0005745372 0.00088073337 -0.00042281332 0.0009527249 0.0007330818 -0.0010517094 -0.00044927423 0.00015908088 0.0009704713 0.0013157766 -0.0012835747 -0.000105254185 -0.0012073861 0.00050733704 -0.0007615511 0.00055985805 -0.0015106933 0.00020041532 -0.0012841272 -0.0006751823 0.00037802733 0.0008463036 0.0006384152 -0.0010576594 -0.0010557553 1.39532685e-05 -0.0009816212 0.00041688437 -0.0013285934 -0.00025510567 -0.0006383464 0.0006463673 -0.00047666757 0.0011874164 0.0008938601 0.0013154772 -0.0012034209 -0.0011030575 0.0002652802 -0.00020482724 0.0014319604 0.0016005737 -0.0006266539 0.00132111 -0.0007209595 0.0013658128 0.0015541211 0.00043241284 -0.00074307626 -0.00043256997 -0.00024199848 0.0010368896 -0.001034676 -0.0010105437 -0.0013630616 -0.00026966215
意见 0.0015139676 4.8576938e-05 -0.0007988904 -0.0014050358 0.00034805603 0.00025119333 0.001591615 -0.0001193741 -0.0015065143 -0.0008956856 0.0009222171 0.0013484674 -0.0014499876 -0.0011582291 -0.0002115474 -0.00020357764 -0.00090969546 -0.00036289444 0.00048573661 0.00033958707 -0.001074311 0.0013426038 0.00041272084 -3.0431962e-05 -0.00015971955 -0.0013024011 -0.001230961 0.0014538466 0.00023867842 -0.0004954611 3.1577147e-05 -0.0001192409 -0.0013166808 -0.00035755846 -0.0004312185 -0.0013652332 0.0015840426 0.0005269872 -0.0014021217 0.0003885235 -0.00080570934 0.000247142 -0.0010804508 -0.000921215 0.00068351126 -4.3622447e-05 -0.00060503243 8.048965e-06 0.00065810076 -0.00064462936 0.001128489 0.0001760581 -0.00034564486 0.0011792872 0.0011738304 -0.0015663253 0.0014657363 0.001338681 0.00040953502 0.0010486877 0.00034124625 -0.00049559854 6.784941e-06 -0.0014189547 0.00031093956 -0.00051452115 0.0009827479 -0.000588744 0.0006524159 4.353212e-05 -0.00056002446 2.047143e-05 -0.00094713195 0.00015322404 -0.0016352824 0.00118387 0.00017573648 0.0015127963 0.00030535416 0.0014417203 0.0015481253 0.00056215184 -0.00042590566 -0.00069796003 -0.0013928044 -0.0008405861 -0.0016238623 0.0012920462 0.0016557589 0.00082345 -0.0003795526 0.0007700259 -0.0006147044 5.853022e-05 0.00032191412 -0.0009112505 -0.0015046969 0.001557367 0.0012841703 0.00018952947 0.00011382549 -0.0005022417 -0.001520525 0.0008997222 0.00015935668 -0.0014879702 0.00017566422 -0.00018925456 -0.00017354336 -0.0005472862 -0.0014329648 0.00023585763 -0.00059281 -0.00041631603 0.00035824665 8.989712e-05 -0.0015942511 -0.0010106933 -0.0012297955 0.00037117337 -0.0015433913 -0.0008038055 -0.001425249 -0.0005085562 0.0007318533 0.00028020836 0.0012825333 -3.9148214e-05 0.00016896454 0.0010504946 0.0015938326 0.0006296383 0.00074862933 -0.0012313446 0.00027616858 0.00086902437 0.00052427483 0.0010534406 -0.00038278656 -0.00044642846 -0.00064707274 0.0011104747 -0.0003382721 3.507863e-05 0.00075195805 0.00038915186 -0.00049692433 0.0011432781 0.0001707752 0.000442209 -0.00059662235 0.00079192716 0.00059898663 -0.0010597168 0.00054936204 0.00040741 0.00031123593 -0.00012511646 -0.0006988935 0.00116711 -0.001029292 0.0008749902 -0.0008988849 9.752295e-05 0.00046287483 0.0016618012 0.001533418 -0.0014572976 -0.0012212205 0.0014429078 -0.000606139 0.0016170365 0.0010486598 -0.00089345436 -0.0011371685 -0.00047283477 2.6757061e-05 0.0001650173 -0.0011350744 0.0013947813 -0.00035426952 0.00035401536 -0.00040303677 -0.000281774 0.0010052852 -0.0006655105 0.0005118371 -0.001483242 0.00059716165 0.0016983758 0.0001316344 0.00026474035 -0.0008943388 0.0011099528 0.00046674468 -2.9178678e-05 -2.4582436e-05 -0.0010837486 0.0008252783 0.0015419187 -0.00018633243 -0.0014773483 -0.00084770826 -0.00034924105 -6.0400707e-05 0.00056291814 0.00061155926 -0.0015054006 0.0009596569 0.0011195458 -7.084065e-05 -0.0009349692 -0.0006450531 -0.00047481037 0.00011937633 -0.00048231162 0.0012726187 0.0011189694 0.0012713233 0.001411949 0.0015863525 6.3123436e-05 -0.00014370464 0.00058924174 0.0011364308 -0.0012923344 0.0013397775 0.0011842519 0.0016585725 -0.00077068113 0.00060466205 -0.0002465743 0.0015656467 -0.0010815633 0.0010440049 0.0010530452 -0.00052090763 -0.00013192496 -0.00070175476 0.00028766136 -0.00063972594 0.0013480224 -0.0005429073 -0.0014488981 -0.0015983876 -0.0009870984 0.0010768094 0.00096546905 -0.0002551489 0.0005357845 -0.0008939099 -0.00032289722 -0.0007835365 0.00079052674 0.0005612773 0.0010689553 0.00064926833 0.0007157565 0.0005555462 0.00033881 -0.0009758901 0.0011100537 0.0015768674 -7.555131e-05 -5.3317453e-05 0.000653901 0.001079994 -0.0003454258 -0.0001312956 -0.00044617834 0.001080351 -0.00050200743 0.00056512567 -0.00040732874 0.001399601 0.0006222222 0.0016055193 -0.0009654337 0.0002821204 -0.0012300378 0.001361048 0.0010415731 0.00045564203 0.00045013937 -0.00025296345 0.00067855977 0.0016148523 0.00080188457 0.0012925775 0.0013869448 -0.0006770451 0.0007496001 -5.6838355e-05 -4.0142022e-05 0.001419925 -0.00034400838 -0.0012915465 0.0015480309 -0.0011438449 -0.0005604855
态度 -0.00039941704 -0.0012939305 0.00064918253 0.00065487204 0.0011528647 -0.0013843492 0.0006788163 -0.00087142247 -0.0003090806 0.0009960501 0.00035105998 -0.001432041 -0.0012762694 -0.0012813031 -0.0010998988 -0.0013957345 0.0014210202 0.00028113346 -0.0011239463 -0.0009023868 0.0008693346 -0.0004857421 -7.700422e-05 0.001614895 -0.0003806239 -8.238033e-05 0.0007558277 0.0010505796 0.0013755666 -0.0013331093 5.368916e-06 0.001624931 -0.0009952926 -0.00025128922 -0.0015805252 0.00032960094 4.3863958e-05 -0.00013418203 -0.00048787764 0.0013185849 -0.00021205432 0.0008633864 -0.0014765112 0.00016834392 0.0005658513 -7.0840724e-05 0.0012678984 0.00012379295 -0.00030673895 3.5010464e-05 -0.0015596709 0.0014083185 -0.00043537724 0.0011349379 -0.0005164356 -0.00069598644 -0.0015971537 0.0014470239 5.7858935e-05 0.0002605741 0.00031385839 0.0008264031 0.001659056 -0.0009168927 -0.0011614378 0.0011696424 -0.0015471652 -9.259654e-05 -0.0013342553 0.00075903797 -0.001365175 -0.00077423436 -0.0006474599 -0.0012458203 -0.0015928058 0.0011419494 0.0013059733 -0.0008687166 -0.00057472294 0.0010145478 0.0012503065 -0.0011657884 -0.0015860627 0.0009761808 -0.0015916767 -0.0011946154 -0.0002972883 -0.00051540765 -0.0010808212 -0.00036314037 0.00048506595 -0.001615178 0.0005468031 0.0016761872 -0.0008752598 -0.0012999247 0.0015766234 0.0006449388 -0.0011022871 -0.0012715708 0.00167438 0.0013120859 -0.00051405485 0.001087995 0.0016595132 0.0005713924 0.0013535973 -0.000888654 0.00045211794 -0.00070289517 0.0006814973 -0.0004668679 0.0005573765 0.001321562 0.00092378166 -0.0013425758 0.00017120711 0.0010491516 0.00033503718 -0.0010527644 0.0009850708 -0.0006964249 0.0005087966 0.00011942003 -0.0007813514 0.00063533115 -0.00070035143 -7.5705095e-05 -0.00023801265 0.0009406647 0.00088730664 0.0013810513 0.00090178533 0.0014772641 8.249038e-05 -0.0010029465 0.0010971079 0.00097034965 0.0008899608 0.0011565808 -0.0012333157 -0.0015245077 -0.00037999614 -0.00040392013 -0.0013980607 -0.00083191297 0.00069428846 0.000840303 -0.00042501223 0.0012400697 6.6593944e-05 1.2738876e-05 -0.00020157822 0.0006609875 0.001247773 0.0011472604 0.0010970862 9.8517914e-05 0.0007045519 -0.00012996847 -0.0010877232 0.0012151704 -0.0007834864 0.00026276804 0.00047235834 -0.00072059385 0.001418379 0.0010028112 0.00013139883 0.0015432383 0.0007874634 0.00039621338 -0.0012082778 -0.0012963789 -0.00018717647 0.00096410146 -0.00068047695 0.0007302888 0.0016157005 -0.0005748507 -0.0005594882 0.00066336605 0.0013682173 -0.0010021351 -0.0014677732 0.001277196 0.0008040658 0.00032813547 -0.00046533713 0.0016170312 -0.0005356042 0.0011826471 0.0012465547 -0.0015044317 -0.001461148 -0.0005960763 -0.0015418216 0.0008403052 -0.0006454172 0.0006442598 -0.0012620816 0.00036187065 0.0014546573 0.00043030572 0.0015163409 0.00050106033 -0.0014382828 0.00048344885 0.00010646363 -5.0801667e-05 -0.0002947383 -0.0011506805 0.001621236 -0.0012952011 -0.0016234767 0.0016008363 -0.0013296289 0.0012855268 -0.00040022252 -0.00034048318 -0.00059622474 0.0002612264 -0.00048753832 0.00053931813 0.0012003289 -0.0005988171 2.3118582e-05 0.0012550419 0.000111022884 0.0011085602 0.00054891716 0.0011879316 0.0011786858 0.00059871865 -0.00042864267 -0.00023425026 0.0012392062 0.0012984056 0.001651209 0.0014252531 0.0010926027 -0.0012288179 -0.00059188844 0.00017595393 0.00031259595 -0.0010293567 -0.0008438593 -0.0012232704 0.0007603895 -0.0010603599 7.197988e-05 0.0014841328 0.00039458918 -0.00077957404 -0.0013581844 -0.00068667135 6.0105674e-05 -0.0005618632 -2.4572213e-05 -7.12929e-06 -0.00022792551 -0.00026870973 -0.00021580575 0.0015893818 0.0016555038 -0.0012821292 0.0013482287 -0.00037626055 -0.0013164072 -0.0011323516 -8.709551e-05 -0.0010714701 0.0014257006 -0.00056012056 0.0005405155 -0.00076567655 -0.0014808417 0.00016272446 0.0008678733 0.00019489862 0.0016173881 -0.0016403174 -0.00020258018 -0.0012738018 -0.00046654462 0.0011205836 -0.0012010155 -0.00026102088 0.0012608727 -0.0014671246 0.00159757 0.000729612 0.00043867622 -0.0013876988 -0.00095219375 -0.0004821005 0.00033961123 -0.0006852997 -0.00080730434 -0.00056562416
消灭 -0.0015443038 0.0006616214 -0.0006060562 -0.0016345094 -0.001080673 -0.00012178342 0.000995524 -0.00075612706 -0.001248834 0.0014336134 -0.00086208514 -0.0011443419 0.0016396265 -0.0010647171 0.00027330001 8.235348e-05 4.66899e-05 -0.0006035682 0.0008506507 -0.0015450782 0.0017028945 -0.0013924759 0.00014713657 -0.0011486888 -0.00029762223 -0.00043639986 0.0012542233 -8.686131e-05 -0.0006137046 0.0013970678 0.0015920367 -0.0014974404 0.0016909986 0.00082525215 -0.0015015778 -0.0015623459 0.0010742401 -0.0013624477 -0.0012845733 -0.0014286034 0.0011460041 0.00085593195 0.000546725 -0.0010436905 7.852306e-05 0.00050480536 -0.0015584283 -0.0003834376 0.00044746257 -0.0001040628 0.0003089371 -0.0007788936 -0.00060211367 0.00048343148 -0.0013503772 0.00071780547 0.0009461888 0.0008354367 0.00028229857 0.0006130757 0.0009420072 0.0006282833 0.0010432691 0.0009683336 0.0013645745 -0.0011466698 -0.0011790289 -0.00013076009 7.653545e-05 0.0014228652 0.00024496537 -0.0004809932 -0.00080225617 -0.00096666085 0.0013161071 0.0012168563 0.0013115647 0.0015386806 -0.0014445039 0.001289318 0.0010992921 0.0005101763 0.00021485769 -0.0014061719 0.0008340438 0.0015294199 -0.0010559411 -0.001594991 -0.000299821 0.0013286248 0.0009456675 -0.0005056731 -0.00039592298 0.0013458385 0.0014184407 -0.00021073817 -5.549901e-05 -0.0012894558 -0.0005171065 -0.00033315737 -0.0006041206 0.00032944136 -0.0006194765 0.00081468024 -0.00035088902 -0.00057450705 0.00029777864 -3.0765037e-05 0.001034667 -0.00044423353 0.0012708848 0.0014225937 6.1903665e-05 0.00031264673 6.328199e-05 -0.000603515 -0.00054015155 -0.0004910651 0.00039747404 -0.000821071 -0.001324505 -0.00040838338 0.00031395128 0.001013696 0.0013011355 0.0002901837 -5.7066827e-05 -0.00051432144 -0.0014411925 0.00094004226 0.0012509723 -0.0005307989 -0.00012696451 -0.001552569 -0.0010119483 0.00085010944 0.0014998714 0.0006951015 0.0012649985 -0.0013913916 2.3712351e-05 0.0001311174 0.0008831925 -0.001012592 0.0007692073 -0.0013397771 0.00014708431 -0.00059020513 -0.0005274154 0.000118504686 -0.00028118255 0.0015593417 0.00026140118 -0.0006567941 0.0014872524 -0.0013129102 2.5715979e-05 -0.0003061486 0.0016039831 -0.0013454003 0.00043562189 -0.00081574364 8.124479e-05 -0.00030960242 0.00028787728 -4.2369473e-05 -0.0009239497 -0.0014251631 -0.0012962 0.00022333345 -0.0002621148 0.0009408296 0.001473748 -0.0013167438 -0.0012638214 0.0012232672 -0.0007191474 0.0012636253 -0.00070405676 -0.00050456193 0.0011823117 0.00067839737 0.00035577847 0.0009586938 0.0002660984 0.000777864 0.0006242824 -0.001270838 -0.0010974605 4.8761976e-05 0.001165967 -0.0013522973 0.0016826607 0.0013170283 -0.0010003664 0.000961072 0.0003446721 -0.001613941 -0.00016460371 -0.0005740659 -0.00087715423 -0.00092291285 0.00014304944 -0.00026394962 -8.141371e-05 0.00017795483 -0.00028117726 0.0001014677 -0.0010131561 -0.0013631528 -0.00072224275 0.00017718002 0.0006108891 0.00030957613 -0.00040713092 0.001162615 0.0014552361 -0.00088500784 0.001438274 -0.0006205164 -0.00077277375 -0.0012697098 -0.0013088095 0.00012630939 -0.00014200657 -0.00079539 0.0015367392 -0.0008072746 0.0015491287 -0.0003794153 0.0008648656 0.00095132896 -0.00035508536 -0.0006882376 -0.0013175007 -0.0013365662 -0.0012261437 0.0001880126 4.8127167e-05 0.0011011793 0.0015297228 0.0005423594 -4.494727e-05 -0.00037209183 -9.898082e-05 -0.0014246467 -0.0009335562 -0.00052665855 -0.0012151948 -0.0005493227 0.0013657992 0.0006066415 -0.0003834778 -0.0014632343 -7.66958e-05 -0.001147316 0.000100877245 -0.0010562538 2.4328527e-05 0.00050261145 -0.00033932956 0.0011455569 -0.0011185642 -0.0001716045 0.0013171275 -0.0013513141 -0.0010879756 -0.001471609 0.0013926573 0.0016695908 0.0006751962 7.270179e-05 -1.3185124e-05 0.00045659344 0.0016761654 -0.00033210038 -0.0006658409 0.00080564374 -0.0011119238 0.0012314973 0.0014840885 -0.00019142184 0.0015517841 -0.0003237058 0.0013746292 -0.00025631 0.00039254272 -0.001285992 -0.001643278 -0.0013121805 -0.0014285898 -0.0003520318 0.001662872 0.00010838787 0.0013039177 -0.0012061747 -0.0011424763 0.0010009243 0.00025622835 0.00040383506
资产阶级 0.0014877039 0.001002432 -0.00047084133 0.0013937048 -0.00076163164 -0.0014545475 -0.00024644303 0.0014695658 7.391225e-05 0.00015669005 0.00023421059 0.0013756197 -0.00013436493 -0.00020395254 -0.00078242744 -0.0013819784 0.0016073943 -0.0013721875 0.0012908585 5.8697748e-05 0.00018693258 -0.0016793332 0.0010130346 -0.001412968 0.00031959507 -0.0006387832 -9.8001714e-05 0.00046826855 0.00039881238 -0.00015678907 -0.00032339178 0.00049091916 -0.0007658118 -0.0011503355 -0.001506036 -9.982316e-05 0.00091445906 0.0015699755 -0.0013327448 -0.0009890099 0.0011302495 -0.0015868986 -0.0011218045 -0.0003980683 -0.0003884404 0.00026061205 -0.0010863956 0.00090909767 0.0016583732 -0.0002328908 0.0004960649 0.00051464024 -0.0008643102 0.00024732534 -0.001743322 0.0011118632 -0.00088961015 0.0009961302 -0.0010844897 -3.8458074e-05 0.001520662 0.0015272778 -0.0008594615 -0.0012935507 0.00030734774 0.0003977042 -0.0013542286 0.0006187687 0.0012365496 2.566947e-05 0.0005759396 0.00067056867 0.00023361335 0.0015478908 -0.0010606864 -0.0012050709 0.0005949617 0.0016620673 0.0009304988 -0.0016149116 -0.000106741856 0.00030111067 0.00024964355 -0.0011991347 -0.0006150688 0.0011118011 -0.001286235 -0.00018299275 0.0011918861 -0.00086746155 -0.0008505945 0.00065422175 0.0016873536 0.0012229956 -0.0012348813 0.00019552937 -0.00040657198 0.00019648367 6.879703e-05 -0.0005740502 0.00030053567 -0.0007197027 -0.00022582001 0.0011123379 -4.7108588e-07 -0.0006986878 -0.0014329293 -9.0100126e-05 0.0011604861 -0.000167908 -0.001127371 -0.00087341573 -0.0014968234 -0.001041643 0.00038635562 0.00025500308 -0.001124599 -0.0012606331 -0.0012971777 0.00012644727 -0.0013781115 0.00010395366 0.0015706075 0.00090410106 -1.8904642e-06 -0.0009166598 0.0014589222 -0.0012304062 -0.00089972536 -0.00020621473 0.0001104821 0.00043226735 0.00049155566 0.00015571907 0.00013795862 -0.0011187738 -0.0004218947 -0.00093982235 -0.0015884764 -0.0015583641 0.0005724047 0.0016594166 0.001605351 0.0002590157 0.0014863677 0.00010764239 0.00040175437 1.8438845e-05 -9.778146e-05 -0.0015098839 0.0003352399 0.00053737196 0.0018014805 -0.0015644539 -7.0259994e-05 -0.0001400997 5.266266e-06 -0.0017481117 -0.0014027281 0.00088840834 -0.00050303125 -0.0009318853 -0.00060981855 -0.0013763765 -0.00042191832 8.922833e-05 0.00090875715 0.00032026827 0.0009273347 -0.00035263292 0.0003715145 0.0015036478 0.000856712 -0.00024551502 -0.0010903367 -0.00081158406 0.0014779383 0.00032594914 0.0012551397 0.001384249 0.0009074258 0.0009511845 -0.0009357798 0.0005474464 -0.00053362414 -0.00048392612 0.0013126796 0.00020115466 -0.0001753448 0.0013600364 -0.0014386345 -0.0003275686 0.0013580266 -0.00018361713 -0.0011672713 -0.000138244 -0.00015535422 0.00016726508 -0.0017083313 -0.000873209 5.1398067e-05 0.00052490586 -0.0012426807 0.0005395168 0.00034911383 -0.0016921543 0.001358719 -0.0003054175 0.0012947761 -0.0014614207 0.001129945 0.00066125294 0.0011590548 -0.00074386416 -0.00099274 0.0008691714 -0.0015196425 -3.4610705e-06 0.0005133646 0.00084299105 0.00017553802 7.033044e-05 -0.0010331271 0.0009535107 0.0015803839 -0.00032315846 0.00012541324 0.0016361477 0.0015098094 -0.0013617988 0.0010499555 0.0014675596 0.0011824336 0.00016213534 -0.00083376694 0.000108412925 0.0015937823 0.0012085943 -0.0004399565 0.00024337698 0.00029317974 -0.0011901143 0.0013907825 0.001344289 -0.0005754693 -8.0468235e-05 -0.0008168936 -0.00057697593 0.0015112581 0.00093122834 0.00058831606 0.00096659584 0.0016659598 2.6686701e-05 0.0012366123 -0.0014349101 0.00055400684 0.0006521524 -0.0017316132 -0.0012208249 0.0014901594 -0.0008833702 0.0016526234 -0.00093418563 0.0010134032 0.00041971295 0.0014831487 -0.0009875301 0.00020028175 -0.0014171931 -0.0009398802 -0.0006797405 -0.0012382019 0.00083035545 0.0017663831 -0.0011171883 0.0010624555 0.0009230987 -0.0012385362 0.00072936184 -0.00081399555 -0.0001666285 0.0012723545 0.00040810124 -0.0012380204 0.0014511945 0.0013511011 0.00057595485 -0.00096422766 -0.0004607507 0.00044622135 0.0014456158 -0.000656643 0.00034972257 -0.0008939283 0.00036484338 -0.001446874 0.00015247343 0.0017763849 0.0007078982
方法 0.0012089221 0.0014774884 0.001317665 -0.0016322876 0.00030197887 0.0014958495 -0.0012292417 -0.0013764064 -0.0004964665 0.0005957293 0.0005399903 0.00028270634 0.00016056756 0.00047308567 0.0011973015 0.0009825018 -0.0015695178 -0.0003296977 -0.00021991043 -0.0010037194 0.00093619415 -0.00041219388 0.00022031297 -0.0016408752 0.0014958361 0.0013850702 -0.0005713323 0.00020100767 -0.0016729083 -0.0015385327 0.0005957455 -0.00016072126 0.0004056859 -0.00023260742 -0.00036009125 0.00056167 0.0005294186 0.001214384 -0.0016831951 -0.00096203637 -0.0007318669 0.0012897468 0.0012806574 0.0003614194 0.0012845199 8.9890316e-05 -0.0008829833 -0.00029604873 0.001631178 0.00013815881 0.00018591376 0.001672929 -0.00022350995 0.00066446577 -0.0014621574 -0.0002564425 -0.00059055805 0.0010567324 -0.0004774772 0.0013605829 -0.0001607307 0.00014137251 -0.0012153252 0.001566408 -0.0007825425 -0.0008461234 5.714291e-05 0.0003935685 3.4961122e-05 0.0016954085 -0.0007225089 -0.0011412209 -0.00089352136 -0.0014081374 -0.00012733997 -0.0015392947 -0.0006742246 9.715801e-05 0.00088040513 0.001393877 -0.00073677365 -3.0540556e-05 -0.0016090246 0.00024549797 0.0011657457 0.0011820985 -0.0005903846 0.0006175578 0.00053416175 -0.0003388622 0.0009979765 0.0005579727 -0.0010139471 -0.0011920616 -0.00031231792 -0.0015289586 0.00027059793 -0.00055703503 -0.0016204816 -0.0011486228 -0.0012169973 -0.0013177097 -0.00017723601 -0.0004984641 -0.001236144 -0.0016359971 -0.0014197847 0.0016089216 -0.0015092446 -0.0012579925 0.0012468558 -0.0014250678 -0.00083543954 0.00091660727 0.00035130532 -0.00046035784 0.0003152123 0.00067485886 0.0011484195 0.00016836789 0.001460383 0.0013785482 0.00033774143 0.0011096565 -0.0013451712 -0.00067890884 0.001030855 -0.0014188074 -0.0016353617 -0.0014285053 0.0006762942 -0.00061735575 0.00041209962 -0.0013760251 -0.0012069944 0.00038932465 0.0008390938 -0.0015863104 -0.0002559068 0.0001577361 -0.0013407279 0.0015216216 0.00040511307 -0.0017470294 -0.0016747075 -0.0002089283 0.0004849074 0.001250664 0.0011850612 -0.000847581 0.0017079032 -0.0010653466 -0.00082789815 0.0010369353 0.0005007258 -0.0001886866 -0.0007606578 0.0003121087 -0.0010587692 0.00019594788 -0.0009583107 0.0006490013 0.00060935674 0.0008738919 -0.0003526907 0.00017962877 -0.0014134627 -0.0014672637 -0.0015312382 -0.0007073755 0.00036431942 0.001020516 -0.0008998259 -0.0007988624 0.00093141454 -0.00021977453 -8.345373e-05 0.0013451106 0.0010510877 0.00067174475 -0.0013004415 0.00096563686 -0.00025828774 0.0012185203 -0.0001828865 -0.0016368604 -0.00058304676 -0.00010605296 0.0009046533 -0.0009343569 0.00036338982 0.0016255457 -0.000959068 0.0011306047 -0.0011001148 0.00032313706 0.00030338723 0.00042496255 0.00028269616 0.0013172375 0.0007118958 -0.0008365103 -3.9062925e-05 0.0007200758 0.0016249168 -0.0008410814 -0.00024348707 -0.00052577566 -0.00033237264 0.00096017716 -0.0015937244 -0.00048582416 0.0013201283 0.0012556585 -0.001299607 -0.00010942625 -0.00012340127 0.0012801809 4.0948784e-05 0.0010233915 -1.8572728e-05 0.00018494534 0.0003593114 0.001722542 -0.0015430818 0.0003487464 0.001322924 -0.00041964205 0.001087402 -0.0005214347 -0.0008269701 -0.0007474895 0.00050559995 0.00058788044 0.0011316573 0.0010290305 -0.00042699394 0.0007361377 -0.0012189123 0.00039593954 0.0003172616 -7.7134144e-05 0.00035236892 -0.0011335951 0.0006489771 -0.0012004187 -0.0005327077 -0.0010009519 -0.00016191242 -0.001149791 -0.0013333072 0.00029785253 -5.1608702e-05 -0.0010850814 -0.0005396919 -0.0014832413 -0.0009551804 -0.0009282401 -0.0008251463 -0.0004703038 -0.0008894816 -0.0012953307 0.0012207362 -0.0010123713 0.0009735681 -0.00068360433 0.00027706922 0.001430888 0.0014569344 -0.0006121835 0.0015164737 -0.0009305025 -0.001303636 2.0521407e-05 0.0011701582 1.6191001e-05 -0.0011749954 -0.0009222606 0.00024202386 -0.0006304174 -0.00090413 -0.0008350043 0.00055918953 -0.00089245377 0.0010634626 0.0014343685 -0.00019891816 0.0015647669 0.0001990426 -0.0002526881 -8.61298e-05 -0.0007164985 -0.0010133409 0.00033498637 0.0013769143 -0.00044958133 9.040145e-05 -0.0002495574 0.0016257549 0.001275697
善于 0.001265259 -0.00011802514 -0.0012950943 -2.6620619e-05 0.00033912153 0.0011568906 -0.00094759144 -0.00030553958 0.0011684753 -0.0005808055 -0.0011735819 0.0010899368 0.0016554383 8.030195e-05 -0.0010818944 0.00013056213 -0.00048676683 0.0002995375 0.00010460602 0.00044235695 0.0010216285 0.00049346394 -0.0014466923 -0.0005900792 -8.853821e-05 -0.001328675 0.00087160856 -0.00063664455 -0.00086531346 -0.001088965 0.00058592483 0.0008337478 -0.00088007393 -0.00012282857 -0.0007832578 -0.0014719033 0.001507491 0.00037361594 -0.00053821283 2.5134956e-05 0.0011372844 -1.7342345e-05 -0.00022503275 -0.0005101798 0.0007795396 0.0011022441 0.00091412116 0.0010818393 0.0010634084 0.0002447678 -0.0014556723 -0.0007938094 0.0011837531 0.0012074668 0.0002408956 -0.0016276289 -0.0010383718 0.0008712093 -0.0016220623 -0.00090552575 -0.0012340818 0.00032886176 -0.00019381178 -0.0002569762 0.00085821317 -0.0003347906 0.0006930614 -0.0014770159 -0.0014713751 -0.00070881157 -0.0017429721 -0.00031169676 0.0007907825 -0.0004694538 -0.0005514992 0.0015218125 0.000998336 0.00044478587 -0.0010384223 -0.00055261655 -0.0005892865 -0.0016868153 0.00044823927 0.00047635942 -0.0017028276 0.00051082677 -0.001094494 8.0741396e-05 -0.000100573176 -0.00085681584 -9.875336e-05 -0.0012668887 -0.000118317985 -0.0002584679 0.0008345001 0.00039828208 0.0013003723 -0.0004690534 0.0014543803 -0.00019682202 4.8279268e-05 -0.00049751956 0.0014194517 0.0015261603 -0.00034844672 -0.0016821749 0.00082589797 0.0014758664 0.00075501716 0.0011944938 0.0012780325 0.0015585764 -0.0005597709 -0.0014362647 0.0011342457 6.6646703e-06 -0.00043244023 0.00048844516 -0.0008071245 -0.0015156935 0.001007968 0.0014492373 0.0003890788 0.001629273 -0.0002642223 -0.00063300034 0.0009699345 -0.00076473627 -0.0006034513 0.001412252 0.0011565312 -0.0004782667 -0.0012160095 0.00056101574 -0.0006873511 0.0005735758 0.0009847061 0.00058791524 0.0011391888 -0.0008408691 -0.0004985428 -0.0005070804 0.0008071921 -0.00063926395 -0.0013082575 0.00023371015 -0.0004527673 -8.861518e-05 -0.00059953314 -0.00029268512 0.0008221649 -0.00051250285 0.0003341498 0.00022982687 -0.0006952865 -2.4805577e-05 0.00067809003 -0.0015347317 -1.7566495e-05 0.00028615436 -3.545819e-05 -0.0009403518 -0.0006686559 -0.0010356227 -0.0014796215 0.0009042799 0.0012287402 6.268607e-05 0.0005948651 -0.0008980598 0.00072418025 -0.0003718831 -0.0012035795 -0.00040755846 0.00040416492 -0.0006689627 -0.00095427834 -0.00074342877 -0.0006910462 0.00085706764 0.0012713069 -0.0014546361 3.4705386e-05 -0.0014564616 -0.0009192612 -0.0010672195 0.0009779667 -0.00015434473 -0.0005223705 5.0385315e-05 0.00053471053 -0.0009854328 -0.0014274766 -0.0005582284 -0.0002479157 0.0007250264 -0.0016825794 0.0007448058 0.001351697 -0.001725591 -0.0006226572 0.0013047548 0.0007552265 0.0009140179 -0.00038298147 -0.0014069772 -0.0011675328 -0.0014072225 6.9960945e-05 -0.00015493987 -0.000119538614 -0.0010068675 0.00018812987 -0.0003731247 0.0014070068 -0.00096819137 0.0012809058 -0.00018762147 0.0007751132 0.00034385733 0.0010645373 0.0009246467 -0.0009677541 0.00016546714 -5.0219234e-05 0.00036638975 0.0016487981 0.0015712677 0.00017184488 -0.0013159884 -0.001422711 -0.00037488554 -0.0005357807 0.001320568 -0.0007645954 0.00014315956 -0.0004616586 0.0017289527 0.00056915235 -0.0010595951 -0.00022167996 0.00071371027 0.00087326125 0.0014318773 0.0015812468 -0.00037325866 0.0015118133 -0.0016782773 -0.00057911803 0.00090390915 -0.0002372793 0.0010528616 0.00031244388 0.0012438255 0.0013539186 -0.0014296327 -5.87906e-05 0.0016176875 -0.0013973154 0.001213031 -1.6301372e-05 0.00045691562 -0.001563471 0.0006380326 0.00023970508 -0.0014927606 0.0013068514 0.0013824791 0.0011138361 0.0012003508 0.0013119545 -0.0011760333 0.0012988206 -0.00128466 -7.69483e-05 -0.001471104 -0.0013046269 -0.0003956171 -0.0008552848 -0.0006978489 0.0007789607 -0.00069729844 0.00013513678 0.0012332591 0.00047805655 -0.0012280111 -8.329968e-05 0.0010816142 -0.0014621362 -0.00018097907 0.00010525864 -0.0002729982 -0.0009906652 -0.0015452916 -0.0009209042 -0.0006214077 -0.001665094 -0.00076030276 0.00035636005 0.00089215377
马克思主义 0.00053089956 0.00023748456 -0.0013115132 -0.00034728355 -0.0014187751 0.0013290887 -0.0005976132 0.00020765023 0.0012582031 0.00015011286 -0.0012659631 7.5907014e-06 0.0010778885 -0.0016416749 -0.00038262768 0.00026291373 0.0013772784 3.3073813e-06 0.0013387599 -0.0007453622 -1.0379868e-05 0.0007394281 0.00087704445 -0.0015569455 0.0012275233 0.0012298638 0.0015794038 -6.0053248e-05 0.00096431555 -0.00034037343 0.0009276567 -0.0005396551 -0.0012173506 -0.0015821143 -0.000904174 0.00090633205 0.00080937357 -0.0015783011 0.0005196854 -0.0006053392 0.00024034365 -0.00012625709 -0.00043935256 0.00043711238 -0.0012659321 -8.82896e-05 0.0015499579 0.0009932736 0.00060019 0.0003160816 -0.0014282934 -0.0015478241 0.0008927758 -0.00017092045 0.0008595285 -0.0006108566 0.00017623651 0.00063526654 -0.0014482196 -0.0010596565 0.0015990777 0.001235164 -0.001429333 0.000587838 0.00044839826 0.0011139003 -0.00020298573 0.0015799106 -0.0003270717 -0.001492466 -4.732164e-05 -0.0002527688 -0.00059965416 0.00091353117 -0.0013221137 0.000901193 -0.0013596244 -9.11594e-05 0.0014904521 7.9885984e-05 0.0003294302 0.00027975434 -0.0015472928 0.0010158513 0.0004003328 0.0009501489 -0.0016450961 0.0012705759 0.0010018941 0.00064601 -0.00148325 0.0007166181 0.0011766747 -0.0006040253 -0.00036607689 0.0007779418 0.0007113305 0.0012643113 0.0010580025 -0.00034710302 -0.0012244654 -9.8431265e-05 0.0006226206 -0.0005485062 -0.00020070466 0.0014341001 -0.00094916974 -0.000811354 -0.00013952413 0.0012251768 0.0015579503 0.00084929937 -8.509922e-05 2.4829691e-05 -0.0012690759 0.0007848839 -6.278717e-06 0.0009919277 -8.915713e-05 0.0009092723 -0.00040164762 0.0010629446 0.00067956914 0.0004888009 -0.00036418767 -3.6960817e-05 0.0011092637 0.0010882105 -0.0014064992 -0.00038852164 0.0011142719 -0.0003328271 0.00039622007 -0.00022997361 0.0009919667 -0.0015797408 0.00077528 0.0013863094 0.00044590727 -0.00055827334 0.0005885172 -0.0007781289 0.00090296165 0.0010006314 -0.00034503144 0.0011591074 -0.0016064292 -0.0013168466 0.0014869302 0.001561301 -0.00017577095 -0.0010925779 0.0015172464 0.0005315086 0.0008582492 -0.0011072424 1.3593008e-05 -0.00076780876 -0.0014085309 0.0015128927 -0.0015408626 0.00077432016 0.0011670756 -0.00031948969 0.00057696836 0.0012035945 6.354813e-05 -0.0011679246 0.000918607 -0.001545419 -0.0005574887 0.0011907243 -0.0007894372 0.0015526409 -0.00067604345 -0.00060219713 -0.0015958523 9.6596545e-05 0.001204071 0.0014166336 -0.000119233155 -0.001484984 -0.0016099714 0.000993142 -0.0004363952 -0.0006951744 -0.0005791371 0.0011215417 0.0014184432 0.0011911775 -0.00037009633 -0.0005854835 -5.2819272e-05 7.580418e-05 -0.0013639234 -0.00012591809 -0.00064518786 0.0009847345 0.00067824655 -0.0013947882 0.0006772841 0.0011232411 -0.0008759966 0.0007250056 0.00019519009 -0.00045542663 0.0006798026 0.0012675452 -0.0001892186 0.00032531726 -0.0015336918 -0.0005862658 0.00013410248 0.0004994742 -0.0012501262 -0.0009570298 0.001296396 -0.0007170595 0.00015423515 -0.0007905682 -0.0013391658 -0.0015054463 -0.0004225877 -0.00087899825 0.00033894446 -0.00077782327 -0.00064756616 0.0016874919 -0.00036990695 -0.00076468417 0.0010344662 0.0009060348 0.0010784982 0.00015326269 0.00023274496 -0.0012957581 0.0014501652 0.0009439082 -0.00033467906 0.0002182801 0.0002926484 7.473972e-06 0.00063896173 0.00047468414 -0.0008329891 -0.001423642 -0.0005690518 -0.0007262179 2.7465068e-05 -0.0013144764 0.00032893466 -0.0003267984 0.00086163793 0.0009951573 -0.00028218958 -0.00063865725 0.00022672652 0.00097410457 -0.0013738932 -0.0009990658 0.0007596531 0.0011028174 5.378405e-05 -0.001115397 -0.0014812591 0.000958193 -0.0011407114 0.0006329404 -0.0007128013 -0.0009771128 0.00026863185 0.0011895348 0.0005703033 -0.0007313633 0.0003270008 0.0014456111 -0.00094901386 -0.0006894102 -0.0010585818 -0.0003861254 -0.00025655254 0.00040691652 -0.0009941325 -0.0011522607 0.00095350534 0.00077667367 -0.00049552426 -0.0012320523 -0.00014164516 0.0005358101 0.0015257072 0.000767963 -0.0014471086 -0.0009829645 -0.00038593108 0.0005045834 -0.0009837255 -5.3237152e-05 0.0017102864 0.0015827392
政策 0.0010635173 0.0009025058 -0.0009382763 -9.3891256e-05 -0.0010211078 0.00079504703 0.00040363235 0.0011738817 -0.0017179273 -0.0005452846 0.0017827873 0.0009085081 -0.00012295021 -0.0013396527 0.0006262483 0.0010449059 0.001185393 0.0012556922 -0.00025914056 -0.0001674687 -0.001504959 -0.0016262903 0.00029979396 0.0010151066 0.0011461749 -0.00096584513 -0.0017613542 0.0015387471 0.0011196644 0.0011768952 0.00030335863 0.0010336308 3.205322e-05 0.0007629149 0.00086649426 0.0012671006 0.00082465255 0.0012769005 0.00057563593 -0.00016206455 0.0007376569 -0.00057881663 -0.0011314538 -0.0011960524 0.00023884862 0.0010339179 0.0010858712 -0.00049349654 -0.00022774191 0.0005754771 0.000653906 -3.4039476e-05 0.0013891467 0.00058496883 0.0005267661 0.001055324 0.001285376 -0.0011399853 -0.0013254087 0.0016320916 0.0013575649 0.0006452476 0.0007668966 -0.0006840671 0.0012550385 -0.00033700862 -0.0006783116 -0.00023493716 -0.00012792373 -0.00048551091 1.2611213e-05 -0.0015613104 0.0012368034 0.00013340016 -0.0006251394 0.0015622012 3.8706537e-05 5.598356e-05 0.00043057502 0.00011839027 -0.0005218376 -0.00031931553 0.00046709948 -5.695187e-05 -0.0005149222 -2.6959357e-05 -6.4661515e-05 0.0014679431 -0.00029883906 -0.0012854281 0.00039163276 -0.0017333849 -0.0005673621 -0.00026009683 0.0009999137 -0.0012726102 5.716554e-05 0.0008323149 0.00072249357 0.0014200445 0.00040791437 0.00062195514 -0.00028244022 0.00018108143 0.00011527734 0.00069273805 0.00040009912 -0.00082516245 0.0011481943 -0.0012744988 0.0007467818 -0.00091739494 -0.0015021254 0.0006771547 0.001203238 0.0007301085 -0.000116968666 0.00025328257 0.0006478391 0.00022399369 0.001423981 0.0011805401 0.0008990249 9.094856e-05 0.00051566045 0.00096774433 0.0009944278 0.0015127542 4.6897898e-05 -0.0016120538 0.00013219382 4.077985e-05 -0.0010250038 0.0012129963 -0.00015771827 0.0015139736 -0.0007660521 0.0015351735 0.0014597438 0.0010296444 3.430627e-05 0.0015916441 0.00040876362 -0.0015214772 -0.00044240296 -0.0015678945 -0.00022801943 -0.0014435739 -0.00025057944 0.00012502667 -0.0009309572 -0.00030061783 0.00025791384 0.00058024214 0.0004079972 0.00023977707 -0.0010845481 0.00053420116 -0.001310756 0.0011988396 -0.0010905297 -0.0007944716 -0.0015809843 -0.0015313145 -0.00054620265 0.00042688433 0.0014499143 0.0015473439 -0.00067443587 -0.00041917933 0.0006680692 -0.0005328022 0.00044181294 -0.0008598857 0.0006819161 3.2281969e-06 0.00023216121 0.0012551103 -0.0012914226 0.0016378469 -0.00094534614 0.00060233223 0.001249977 -0.0012550995 -0.0013515393 -0.00030447377 0.0012027582 -0.001695641 -0.00067403994 -0.0013555126 -0.00093516224 -0.0012214303 -0.00050887093 0.0016159888 -0.00021580962 0.00033496195 -0.0010364499 0.00035458157 -0.0016734493 0.001099107 -0.0014790607 0.00060965354 -0.0016504849 -0.00054984767 -0.0002637658 -0.0007713019 0.0005466348 -0.0014071051 0.000686386 0.0011216531 -0.0009920023 -0.0015351216 -0.0012867157 -0.0013226708 0.0012541208 0.0008518764 0.0008505471 -4.2049473e-05 -5.274059e-05 0.00085956085 -0.0015891718 0.0016448817 0.00045394374 0.00076306827 0.0015367555 -0.0010414869 0.0013681982 -0.0001903938 -0.00026447797 -0.0001089166 -0.00011285285 -0.0010414601 -6.543233e-05 -0.0013806814 -0.00010294875 -0.0014827622 -0.00083824794 0.0014835635 0.00070971326 0.0014210582 0.0012341627 0.00056689 0.0011571513 -0.0013994713 -0.00053020264 -0.0002704549 0.0012068108 0.0013618764 -0.00092909206 -0.00082923117 -0.0012638037 -0.00088897976 -0.00074872497 0.0015839357 -0.001440951 -0.0010396076 -0.00037151694 0.0012982291 -0.000834919 0.0013775955 -0.00036499067 0.00058980886 0.0015247499 -0.000737582 -0.0009633441 0.00053725333 -0.0002968046 0.00020199262 -0.0016470223 -0.00079173944 -0.0014750578 0.0009614232 -0.001135075 -0.0003721901 0.0013797682 0.001614076 0.0013506275 -0.0009017245 0.00039522018 0.0011365128 5.773117e-05 0.0009424289 -0.0004904399 -0.0005249318 -3.0154564e-05 -0.0010778867 -0.0010190994 0.0010851719 -0.0012227353 -2.3233402e-05 -0.0006174036 -0.00047957656 -0.0002734969 -6.378077e-05 0.0016489419 -0.0010464905 -0.00045746894 0.00018401275 0.0015789999 0.0012659989
实行 0.0009086225 -0.00076807296 0.0017153304 0.0009492391 0.0014129451 -0.00035210652 5.5150457e-07 -0.0012284206 -0.00040504462 0.0006198505 -5.1926645e-06 0.0012232381 0.0013799864 -0.00018576851 0.0011241194 -4.2151692e-05 -9.405643e-05 -2.4627205e-05 -0.000772889 0.0015190459 0.0006123786 0.0009268032 9.016023e-05 0.0006353391 -0.0016199949 0.0014499264 -0.0013316199 -0.0008028007 -0.001602077 -0.00090259116 0.0015452902 -0.001150494 -0.0012375404 -0.0008228184 0.00026528677 0.0009404616 0.00062635983 0.00044937295 -0.00057019707 -0.000990427 0.0005521609 -0.0013608207 0.0012139612 -0.0009784601 0.0012131522 -0.00077296165 0.0014581818 -0.0011866721 -0.001349374 -0.001401871 -0.00025178955 0.0010085253 -0.00056647765 -0.00033409699 0.001316301 -0.00034281137 -0.0005319078 -0.00085386017 0.00068437256 0.0009122316 -0.0014748735 5.394655e-05 0.00022939792 0.0009957271 0.0012276263 -6.4530795e-05 -0.00025788412 0.00085863704 -0.0015981104 0.0011881492 -0.0011195034 -0.0007233748 0.0002806248 -0.0008225051 0.0014312896 0.0014818232 -0.0010531335 0.001515039 -0.0007861495 7.427772e-05 -0.0014960995 -0.0012283582 -0.0016026604 -0.0003311433 0.00055225065 0.00046910578 0.0002887978 -0.0010467585 -0.0004888324 0.0013468903 0.00038229336 -0.0002829638 0.00083666394 0.00025716954 0.0004994888 -8.217789e-05 -0.0007825728 -0.001508852 0.00010311392 0.0004103987 -0.0010341589 -0.00013372926 -0.0011980219 0.0014446926 0.00080906006 0.00036684633 -0.0005513022 -0.00025585224 0.0012422176 0.0003538879 -0.0012998134 -0.0011045738 -0.0005641416 -0.0009995915 0.0006179919 -0.000544185 -0.0016902016 -0.0012956308 0.0005997042 -0.0014704202 0.0010102045 0.0010850155 3.9371957e-05 0.0002114768 -0.00048345706 -0.00035393334 0.00010200254 -0.0016013947 -0.0011657065 0.0012124977 0.00082349515 -0.00059140683 0.001040818 -0.0007664468 0.0010793641 0.0013340042 -0.00072205346 -0.0010892648 -0.00094928924 -0.0010057845 0.0007939568 -0.00027329917 -0.00085168553 0.00041076343 0.0001255283 -0.001319042 -0.001297056 0.00032628688 -0.001626879 0.0016936095 0.0010249045 -0.00044307596 0.0007705391 0.0011445165 -0.0005093987 -0.0015565587 0.00079159974 0.00073809817 -0.0010731228 -0.00041378965 0.0008970353 0.00147067 -0.0013872564 -0.0007984622 0.00056786946 0.0015032497 0.0015182769 -0.00021976877 -0.00038535835 -0.0012672574 -0.0012996733 8.499211e-06 -0.00046496122 0.0003825796 -0.00075010245 -0.00022162606 -0.0011385753 0.00021097422 0.0014800914 0.0004950077 -0.001075903 -0.00032268654 -0.0009945169 0.0010873566 -5.8906426e-05 0.0014863118 0.00053001195 -0.0009290965 -0.00045668747 0.0005624112 0.00044781854 -0.00020291653 -0.0015283077 0.00030028127 0.0011755509 6.142881e-05 0.00048001524 -0.0014847029 -2.0037776e-05 -0.00040238508 0.0006058632 0.0016624528 0.0013409965 -0.00036907574 5.7425284e-05 0.0014625624 0.0007685071 -0.00043741247 0.0005220501 -5.387643e-06 -0.0011533176 0.0011390534 0.00021366094 0.0010795138 -0.0004582827 0.0010430233 0.00062748115 0.0013161185 -0.00043455162 0.0012265372 -0.0012131032 -0.0013096331 -0.0011548891 0.00016847874 0.0015744099 0.0006602767 -0.0010654519 -0.0014420219 -0.000684704 8.144166e-06 0.0008963525 6.774939e-05 0.0011489452 0.0012767192 -0.00039495138 -0.0013150414 0.0006233543 -0.0013963002 -0.00027255857 -0.00059165654 0.0016088854 0.0004046244 0.00033583364 0.00072224846 -0.00018563612 0.00084513373 -0.0016631531 -0.001531398 -0.0005783039 0.001631957 -0.0006642218 -0.0015055045 0.0013381847 0.0009776896 0.0007217144 0.00058199174 -0.00029376484 0.0015860236 -0.0014585694 -0.00013561439 0.0010296793 0.0007539702 -0.00093946245 -0.0010600751 -0.0013762454 -8.871943e-05 -0.0014996523 0.0014947002 -0.00019640371 -0.00063318823 0.0016466622 0.00040924735 -0.00012189934 -0.0014072158 0.0014687363 -0.0014640053 0.001540311 -0.0007249736 -0.001563976 0.0002786459 0.0007638205 -0.0007838472 0.001563179 0.0003092776 0.00025076137 0.00032689807 0.00091468514 0.0007877664 -1.2319737e-07 -0.00045813454 0.00044120295 -0.0008455801 -0.00093695684 -0.00021763021 0.0012850934 0.00054032734 -0.0014934206 -0.0003701156 0.0009235921 -0.0005949014
历史 -0.0013584609 0.0006816928 0.0013094709 -0.0008184953 -0.00095757225 -0.00041920049 -0.0011636968 0.0012024504 0.001166197 -0.0011092728 0.0015019533 0.0012698609 0.001501132 -0.0012680826 -0.0012469301 0.0006273364 -0.0012212927 -0.00023397955 0.0010866161 -0.00016035126 -0.0004324871 0.0003264517 0.00036280698 -0.0009700713 -0.0006652728 -0.0005240207 -0.0013188339 0.0010614502 -0.00013592068 -0.00076554436 0.0015406191 0.0014809973 0.0007768022 -0.0010232988 8.8243934e-05 0.0005654021 0.0016080647 0.0013763524 0.00093929085 0.0015324809 -0.0012064324 0.0010371825 -0.0007815957 -0.001462606 -0.00013746362 -0.0011506594 0.00038708266 0.00075786107 0.00035672248 0.00066554773 -0.0009680929 0.0012796717 0.0005889104 0.0010754324 0.0015730734 -0.00017863206 0.0015013759 -3.7403343e-06 0.00047263605 0.0016353107 -0.0004193416 0.00027234064 0.00025132694 0.0006263827 -0.001528854 0.00015406805 0.0004563849 0.00014911097 -0.0011909127 0.000179255 0.00094720494 0.0010463973 0.00012697637 0.0016014263 5.1402407e-05 -0.00016428994 0.00035840907 -0.00033348417 0.0014592945 0.0015846161 0.0014677922 0.00045531712 0.00021910077 0.0013490139 -0.00033379724 0.0015701717 -0.00011501572 -0.0007815075 0.0010270153 -0.001009784 -0.00018123382 -0.00082028226 -0.0007536736 0.00089030317 0.00046267748 -0.0016675873 -0.0017142436 0.000932644 0.00022214297 0.0012858512 0.0007448162 0.00019291331 -0.0011512266 0.00017623954 -0.0012020757 -2.8220193e-05 -0.0008144855 -0.00012581026 -0.0014797286 -0.00052416103 -0.0015773282 0.0010321237 -0.0016428665 -0.0012122891 -0.0007310974 0.0013330186 -0.0009072926 -0.0013618559 -4.747878e-05 -0.0016138915 0.0013270922 -0.0008694341 0.00014475016 -0.00081300276 -8.468847e-05 0.0014157715 -0.0013613913 -0.0016344249 0.0009407175 -0.0010896942 -0.0004923041 -0.0005659583 -0.0012935485 -0.00059419236 -0.00023260579 -0.0010844197 0.0009549184 0.001322343 -0.00018928871 0.00014193832 0.0011248755 0.001464437 -0.00028892973 -0.0016156294 -1.2913043e-05 0.00065499754 0.00090633397 0.00086054264 0.0012639358 0.00045317895 -0.0012432127 -0.0014060037 -0.0014923284 -0.0003793253 -0.0014412189 -0.000488322 -0.0008032694 0.0011727354 -0.00017629693 -0.00091357407 -0.0003189302 -0.00067716156 -0.0009958438 -0.0014258442 -0.00020995503 -0.00048382592 0.0010510145 0.0009548983 -0.0002952092 -0.0008470358 0.0015283892 0.0009166487 -0.0012150776 -7.262954e-05 -0.00037438647 -0.00065205235 0.0013534139 0.00076972874 -0.00078357547 -0.00028784957 -0.0009955679 -0.00075573905 0.0008083775 0.0013543637 0.00088102405 0.0015555961 0.0010408277 -0.0015210907 0.0015663218 -1.29422415e-05 -0.0017086793 7.1450445e-06 -0.0011362842 -0.0008982243 -0.0003903582 -0.00030996726 -0.0013328505 -0.00045090445 0.00023046264 -0.00018918388 0.00096385257 -0.00046216292 -0.0015663914 0.0005935126 0.0008847351 0.0003947415 0.0005190053 -0.0011374911 0.00070760015 -0.0016413028 0.00073272054 -0.0010712515 -0.0009113017 0.0013225252 -0.0015147838 -0.0004112511 0.0011326992 0.0007071976 -0.0007547848 0.00084923045 0.001178234 -0.0009782631 -0.0014151074 -0.0014515388 -0.000975227 -0.00038219136 0.0008888029 0.0013151867 0.0013096541 -0.0008911127 -0.0011359581 -0.0016035561 -0.0012792196 -0.001390496 0.0013229051 0.00044005833 -2.3568866e-05 0.0011141108 0.0010683843 0.000514212 0.0012097098 0.000109783956 -0.00037275947 -0.0015348722 -0.00084979896 0.001310429 -0.0013062068 -0.00022355336 2.002381e-06 -0.0010898359 -0.00019897563 -0.0005679933 0.0005873127 0.001078217 0.00089143007 -0.0012560182 -0.0011195386 -0.00039405725 0.00032353456 0.001014649 -0.001585859 -0.00022662444 0.0015635514 -0.0009899474 1.0188215e-05 0.0015694435 0.0008072404 -0.0016115991 0.0001917391 -0.0004968942 -0.000204506 -0.00030754876 -0.0005498964 -0.00067267485 0.0013528278 0.00025427656 -0.0015937395 7.1445764e-05 0.001180898 -0.00012226435 0.0012056569 0.0007913334 0.0005229377 -0.0014153186 -0.0009824298 -0.0007191742 0.00013534506 -0.00047495854 0.0004155153 0.0012358149 -0.0014052005 -0.00020914509 -0.0009730425 -0.00093797466 0.0015906586 -0.0010441495 -0.001129124 0.0012310332 0.0011040099 -7.533277e-06
观点 0.00093518273 0.0014119623 0.00054784084 0.0010663372 0.00087022316 0.0013309042 -0.0017085178 0.00019809784 -0.00054457685 0.0014608206 0.0004898997 0.00054139475 0.0010022168 -0.0012593189 0.0004028072 -0.0010962498 -0.0014618794 0.0010406951 0.0005992647 -0.0016105464 0.00065209315 -0.0005852233 -0.0011794585 0.0006839922 0.0012110022 0.0016396435 0.00011163847 -0.00038671415 0.0012892669 -0.001234369 -0.00034440838 0.0014851337 0.00011527175 0.00013205387 -0.0011045618 -0.000780439 0.001169714 -0.00033935037 -6.84232e-05 0.0014418762 -0.0007173525 0.0009783999 -0.0012220067 0.0007867803 -0.0007392466 0.00036008848 -3.3846885e-05 0.0016854702 -0.00014761425 -0.001177823 -0.00035611703 0.0017491565 -0.00063594885 0.00064818567 -0.00056389766 -0.00019908758 0.0013790567 0.0011940082 -0.0013363351 9.957971e-05 0.00037435256 0.00014384266 0.00019161588 0.001642437 -0.0014100537 -0.00051727425 0.00091401406 0.0006919187 3.784238e-06 0.00094144937 -0.0017479945 -0.00023519265 -0.0013575548 -0.0005148763 0.00062029716 0.00074719446 -0.00064603117 -0.0012597869 -0.0003804041 -0.00042746056 0.00045331198 0.0007639462 0.00065793836 -0.0010308021 -4.2435266e-05 0.0003673632 0.0013365417 -0.00021960538 0.0015703758 -0.0011650441 6.0565348e-05 0.00086373126 0.0008260725 0.0016452793 -0.0013744836 -0.0011761825 -0.00015443104 -0.00014169936 0.00070657715 -0.001430063 2.826933e-05 -0.00016496316 -0.0007513918 0.0003160905 -4.630653e-05 0.00010007181 -0.0013554856 -0.0016067064 -0.0014290836 0.0015470176 0.0013241731 -0.0015562853 -0.0014075395 0.0004613589 0.0013335476 0.000926536 1.9722174e-05 -0.0004103501 -0.001545238 0.0012239538 -2.7781423e-05 -0.0010236724 0.00033898983 0.00047516433 0.001541247 -0.0012221409 -0.0015794204 0.0014003299 -0.0010463804 0.00046175107 -0.00010333714 -0.0005696697 0.00017410159 0.0016026011 -0.00026468607 0.0014239599 0.00021096291 -0.0011623414 0.0005980103 0.000332171 0.000943165 -0.00016731751 -0.00034952475 -0.0006714304 -0.00014527891 0.0010624557 -0.0012803668 -0.0014863989 -0.001104333 -0.00040496708 -0.0013010378 0.00021004076 -0.0013634287 0.00094806193 -1.6971229e-06 0.00031852038 0.0013793194 -0.0017587999 0.00015166962 0.00092078286 -0.00095003535 0.00035016157 0.0005538205 0.00036521163 0.0014933343 0.00069367007 -0.00050263567 0.0014131299 -0.00027126545 0.0013168835 0.00037939334 0.0015386526 0.000121134304 -0.0011011352 0.0013048599 0.0009311603 -3.31759e-05 -0.000759491 0.0003846212 -0.00083416805 -0.00028793106 0.0011153896 0.00083097944 -0.00021418426 -0.0015138926 -0.0016140535 -0.0005866459 -0.0016661736 -0.001430497 -0.0012022431 0.00062864943 0.00087946205 0.0008892061 0.0011031235 -0.001248683 -0.0007940789 0.0016163392 0.0015445565 -0.0001551278 -0.00080328505 0.0009270623 -0.00031293847 0.0012931244 0.00029239024 -0.00074905617 0.0010211804 0.0015365663 0.00087848067 -0.0014362474 3.3955625e-05 0.0013850539 -0.0015777799 0.0006287452 0.00044173864 -0.00060187886 -0.00056587363 0.0016055554 0.0010065129 0.00026320832 0.0008844253 0.0015319973 -0.0011865608 0.00040048212 -0.00021265629 0.00028206393 -0.0014548064 0.0013177106 -0.0005890962 -0.00018754246 0.0005068356 -0.0009931278 0.00042917582 0.0013912446 0.001000829 0.001641561 0.0014915292 0.0017127949 -3.9818184e-05 0.00020600592 0.00164793 0.0015332899 -0.0013667117 -0.0003074792 -0.0010719191 -0.0016340028 0.0010982276 -0.0016553623 -0.00049234024 -0.001645571 -0.00058476365 -0.00041273521 -0.0005106511 0.00014040321 0.00087809947 0.0013222506 4.3038966e-05 0.0007039972 -0.00048199197 -0.0005016351 -0.0005668546 -0.00028290602 0.0012524405 0.00047897294 -0.0015310533 0.0013983322 -0.0014015306 -0.0007450874 -0.0016354455 0.00086360716 0.0009859718 -0.00022816856 -0.00093648344 0.0011753392 -0.0012698612 -0.0015470614 0.0010259654 -0.0005358034 -0.0006762608 0.0015652212 -0.0013390208 0.00086029194 0.0004586576 -2.2259124e-05 -0.0006832938 -0.0014699438 -0.001424757 0.00014471152 -0.0006817433 0.00020820805 -0.0011390618 0.0009307974 8.489133e-05 0.0010861054 0.00095676916 0.0013183099 -0.0006431211 0.0014702103 -0.0013596745 0.0016694837 -0.0009852462
农民 -0.0003396745 -0.0009905237 0.0016409762 -0.0014775917 -0.00087275804 -0.00012124408 -0.0012589812 -0.0015276395 0.0009407273 0.0013497707 0.001312695 0.00050212874 0.000105405954 0.00014056759 0.00086092233 -0.00036328787 0.0015003775 -0.00083116035 0.001153208 -0.0003103972 -0.0002405356 0.00020283386 -0.0004348221 -9.251887e-05 -3.1472704e-05 -0.0010509489 0.0012174513 -0.0005081558 -0.0005665462 4.9884096e-05 0.000893462 -0.0011542741 0.0005934834 0.0008999427 0.0009983138 -2.5884272e-05 -0.000984381 0.0009110847 -0.0010581508 -0.0015974382 0.0014298498 -0.0011897521 -0.00028037332 0.0015167566 -0.0012782889 0.0007301663 0.000567701 0.0014004824 -0.001266397 0.000365986 0.0016259772 -0.00066112983 -0.001440417 -0.0009659147 -0.0009811007 -8.1468446e-05 -0.00092692306 0.0008207143 -0.0007986954 0.0015080929 0.0013671287 0.00042674545 -0.0006617729 -0.0005741536 -0.0014958787 0.0012528142 -0.0016879478 -0.0004097817 -1.1351731e-05 0.0007370757 -0.001505501 -0.00064847217 0.001544651 -0.00052416476 0.00046695702 -0.0012511465 -0.0012607183 0.00078479765 0.0016685022 0.00082802156 -0.0011327052 -0.000737198 0.00047268908 0.0012416816 0.0004226872 0.00074230164 0.0014156322 0.0006992561 0.0001901046 -0.0016038561 0.001024081 0.0012306367 -0.0006213523 -0.00070505484 -0.0015447133 0.0010710444 -0.0011859017 1.9421277e-05 -0.0008705664 0.001065726 -0.0009768785 0.001632232 -0.0011903237 0.0014482278 0.00042894078 -0.00068357313 0.00084498845 -0.0010490617 -0.0015820672 -0.0005628331 -0.00046299817 0.00022757283 0.0015061402 -0.0012843442 0.00081630965 -0.0003391251 -6.438139e-05 0.0005996974 -0.000503971 -0.0012915417 0.001070467 -0.0009848702 0.000918991 0.0008884545 0.00037475763 0.0013524905 0.0016406407 -0.0015824577 0.00014469192 -0.0016614948 9.2853435e-05 0.001300675 0.0016508129 0.0012012881 -0.0010168785 0.00048407714 0.0006971296 -0.00038505954 0.0010161761 -0.0006207143 -0.0015067665 -0.0011014212 -0.00018060005 -0.0011464319 -0.0014376185 -0.0017033606 -0.0005441926 0.0003679267 -0.00053929334 0.0012682028 -0.0006186741 0.0007887099 0.00038143597 0.0010785926 0.00021446853 1.1175046e-05 0.0010315827 0.00032342348 0.0011088201 0.0011977563 0.00141113 -0.00032373265 -0.0008609099 0.00078421965 0.0010408482 3.3493994e-05 -4.9304523e-05 0.0015947425 0.0011605715 0.00091409497 0.00040208932 0.00010388391 -0.0003906662 0.0014204049 -0.0011378364 -8.8300854e-05 0.000149775 2.972591e-05 -0.00025635032 -0.0012931088 -0.00058855774 0.001475186 -0.0006015558 -0.00044341557 -0.0013242244 0.00037772203 0.0016461498 -8.6723536e-05 -0.0008713837 0.00019666806 0.0012155075 -0.0011215666 -0.0014770066 0.00075665454 0.0013634395 -0.0008951462 0.0012064065 0.0012157727 -0.00031279665 1.334397e-05 0.0011624043 0.0011754356 -0.00088292157 0.001066271 -0.00089412194 0.0015752214 -0.00019855725 -0.0014100668 -0.0012373385 0.00091681245 0.0013311725 -0.0012576126 0.0012317401 -0.0014110114 -0.00017301097 -0.0009788204 -0.0010227847 -0.00019603333 -0.00053996587 -0.0016204921 0.00070974574 0.00034148947 -0.00103199 0.0004824939 0.000660684 0.00043510142 -0.0002696615 0.0013252842 -0.0013519875 -0.0004842964 -0.0007359579 0.0005692178 0.00041035307 -0.00024585158 -0.00014086565 -0.00079889206 0.0013611722 -0.0014957943 0.0017200074 -0.0011996811 0.0014636104 -0.0008314696 9.935057e-05 0.0012274397 0.0015491471 -0.0005003766 0.0007638141 -0.00064324145 0.00071535085 8.923434e-05 0.00080962345 -0.0008601915 0.00027339483 0.00035837136 -0.000979003 -0.001418543 -0.00011500553 -0.00034578686 0.0009874428 0.0014206793 -0.001332358 -0.0009889505 0.00013256285 -0.0010645632 0.0008610082 0.0011031036 -0.0011011302 0.00097011146 -0.00030683537 0.0008721121 0.0012102396 0.0016092935 -0.00012935576 0.00065729715 0.00095887715 -0.0007945188 -0.0016157448 0.00057019235 -0.0016222041 7.5242635e-05 0.00069779274 -0.00048183216 0.00053825846 -0.0012137658 -0.0013399854 0.0010501987 0.001610138 -0.0006946905 0.00018730594 -0.0006192648 -0.0005254136 -2.905723e-05 -0.00092487 0.00013980523 -0.0013785877 -0.0010434191 -0.00046832746 0.001646607 0.0011527354 -0.00039763618
情况 -0.0007634038 0.0009388289 0.0014610861 -2.727158e-05 0.0013153241 0.00051685167 -0.0009875186 0.0007253957 -0.0004924751 -0.0010283343 0.00010168655 -0.00030025849 -0.0012792256 0.0013327944 0.001345403 0.0004313873 0.00084554584 -0.00041080528 -0.0011160619 -0.0008710779 0.000600472 6.506881e-05 0.0012174993 -0.000891488 0.00035961077 -0.0011813592 -0.00045332045 -0.00037668468 0.00044898005 -0.00060517585 0.00026922303 0.0002598129 0.0008005023 0.0014075728 0.0010096276 0.0010061655 0.00079324725 0.0009240199 0.0006306944 0.00022031697 -0.0016399313 -6.363654e-05 -0.0012148174 -0.0004150864 -0.0007489021 8.117261e-05 -0.0008945766 -0.0006369057 -0.00036493377 -0.00043953213 0.0010803925 0.0017111808 0.0003260576 0.00066073926 0.00049822 0.0011989134 0.00041257057 0.0004975238 0.0013727146 -0.0008404539 0.0016081438 -0.0009096912 0.0014108309 -0.0007173435 0.0004608981 0.00046364605 -0.00032373806 -0.00087454874 0.0007644897 -0.0015887789 0.00034870996 0.00072806113 0.0015818834 -0.0006885524 0.0008894012 -0.0014158915 -0.00039832457 -0.0012829598 -0.0012073565 0.0008983833 -0.0007373609 -0.00043923137 3.4930843e-05 -0.00041199854 0.0010057372 0.0014177667 0.0012452151 -0.0008272961 -0.0012401019 -0.0013674184 0.0009072134 -0.00020467711 0.00038330714 -7.33595e-05 0.0004898016 0.0016100538 -0.0013284701 -0.00011980049 -0.0007339353 -0.0011404376 -0.0006390682 0.0016408134 -0.00044412233 -3.9234965e-05 0.0013483521 6.664728e-05 0.00083557225 0.0011119826 0.00015073473 0.0009874649 0.00095444714 -0.0012941504 -0.000489011 0.00035106027 -0.0004005323 -0.00065618905 0.00091744476 0.0013721298 0.00091713015 0.0015347129 0.0006657487 0.00022680286 -0.0012141038 -0.00061494653 0.0012090068 -0.00038495107 -0.0011076679 0.00058348756 -8.6976324e-05 -0.00085662305 0.0015425053 -0.00057572906 -0.00031468345 0.0015426436 0.00017820245 -0.0011629311 -0.00025208504 -0.0009843336 -0.0007229348 0.0007013776 -0.000101622725 0.00018529608 0.00016636454 -0.0005444122 0.0009917426 0.0004303642 -0.00015332144 -0.0015689211 0.0010419609 -0.00093427795 -0.0014051584 -0.000753188 0.0006407841 -0.0005150859 -0.0004716285 0.0013269545 0.0010582104 0.0005262452 -0.00033998783 -0.0009089793 0.0010948202 -0.00086709415 0.0005732812 -0.0015175403 -0.0012968774 0.0014374634 -0.0003757084 0.00037052148 0.00029698818 0.00012197852 0.0014055786 0.00081019074 0.0009031612 0.00018183039 0.0013353854 -8.865554e-05 0.0013940652 0.00080983114 -0.00064633123 -0.00039887815 -0.0016422807 -0.00023954599 0.00035982576 -0.00021515865 -0.00012831193 -7.296756e-05 0.000853353 -0.0008556085 -0.0005534301 -0.0002677803 -0.00024019259 0.00056437263 -0.0012007053 0.00014801478 -0.00023127551 0.0005527286 -0.0011128365 0.0006816755 -0.00084576785 -0.0011136087 0.00054583495 0.00050365296 0.00046747472 0.0007984506 -0.00031279644 0.0010520855 0.00053308834 -0.00088253774 -0.0014249816 -0.00052695547 0.0009958745 -0.0008109433 0.0015725493 -0.0006714768 -6.531167e-05 7.7675766e-05 8.027428e-05 0.00054603384 -0.0009374045 0.0008448788 -0.001369746 -0.00088079943 -0.00027771454 -0.0004527662 -0.0009229917 -0.00065203506 0.0016108782 0.0014719348 0.00022754811 -0.00048813425 -8.731057e-06 -0.0014559242 -0.00080143986 0.0010742834 -0.0011086618 0.00090718747 0.00084000925 -0.0013555305 -0.00040800302 0.00073172903 0.0014748886 0.0010016605 -0.0011121215 -0.000694035 -0.00052302267 0.0015469996 -0.0015981183 0.0006518093 -7.5433645e-06 -0.00125538 -8.82904e-05 -0.00044157275 2.0714884e-05 0.0014169326 0.0015681064 0.001213918 0.00060968695 -0.0010783882 -0.00043254727 0.0011786919 0.0011295504 -0.0002962888 0.00085741736 -0.00034921695 -0.0012409597 -0.00021042876 0.00024997574 -0.00045126007 -0.0011704075 0.000921909 0.0011707571 0.0010905614 -0.00083389884 7.802329e-05 0.0005736683 6.456061e-05 -5.2807773e-05 2.3652625e-05 0.0011145596 -0.0014621429 -0.00091017067 0.0014536508 0.00019980586 -0.0011971697 6.715369e-05 0.000565715 -0.00060273276 0.00095752766 -0.0006219835 -0.00010918243 -0.0015768274 -0.00088236184 -0.0013691279 0.0006850323 -0.0008415794 0.00047899285 -0.0015730667 0.0016531069 -0.001346923 -0.00064615667
一种 -0.0009244005 0.0015082116 0.0012409913 -0.00026384628 0.00052930985 0.0014341394 -0.00093840656 0.0011102034 0.00026806878 0.00038581237 0.0011233619 0.0006065237 -0.0008560085 4.2033636e-05 -0.0010013588 -0.0012981542 -0.00011455129 -0.0008212596 -6.003386e-05 0.0009995358 0.0004590288 -0.00088347745 -0.0012042236 -0.00038500753 0.0011582114 0.00033904752 -0.0012647152 -0.0016403238 0.0012504364 -0.00034928456 0.0013600376 0.00015139926 -0.00013072297 -0.0013446144 0.0015384523 0.00086557766 0.0015890285 0.00042279626 0.00035179866 -0.0002837438 0.00014691113 -0.0011310345 -0.0005991356 0.0014392573 0.001068215 -0.00025445683 -0.0004399369 -0.0003027177 -0.0013655677 -0.0006500045 0.00048121475 -0.0005649464 -0.0011306918 -0.0001918965 0.0015003296 -0.0008709615 0.0007776273 -0.0004804745 -0.00011393765 0.00025766712 7.040721e-05 0.00021106558 -3.8272224e-06 3.654935e-05 -0.00027318115 0.00072264846 -0.0014550444 -0.00019360054 -0.0013079722 -0.00019967882 -0.0009252034 0.001075871 0.00010855052 0.0002574351 0.0014431304 -0.001337959 0.0014323988 0.0008511822 -0.0015617247 -0.0013386285 0.001265785 -0.0015895615 0.0009040471 0.0012643286 0.000963886 -0.0011624839 0.001165417 0.0008213783 0.0013829627 -0.00037181124 0.0007836243 0.0014632652 0.0016837672 0.0007790715 -0.0015482209 7.490786e-05 -0.001210075 -0.00078688894 -0.0003587217 -0.001210449 0.0015067438 0.00088514923 0.0012731845 0.0003865576 -0.00031592746 -0.00057226844 0.0004978847 -8.002382e-05 -0.0010098619 0.0003561053 -9.6644304e-05 0.0016720552 -0.0003604178 0.0013217188 -0.0013991208 -0.0006321257 -0.0010471564 0.0014410351 0.00021910873 -0.00082699076 -0.0001466044 -0.0009544846 -0.0011137686 -0.00043670283 0.0015199479 0.0016480259 -0.0006124423 0.00082076545 0.0004891957 -0.0008178755 -0.0012369445 -0.0007949769 -0.0006383865 -0.00073747913 -0.00015047021 -0.00044499506 -0.00073230773 -0.0002979115 0.00025178384 0.0008870316 -0.0014833164 -0.0007222598 -0.0013256634 0.0006988453 -0.0014655977 0.00080192514 0.0016514359 0.00065384223 -0.0010996833 -0.00043007702 -9.395512e-05 0.0003897137 0.00095501676 -0.0005418104 -0.0005208807 -0.0011066134 0.0007793472 0.00037242775 0.00045244984 0.0013034865 -0.0010529612 0.0011060203 -0.0012492626 -0.00071921246 -0.0015120531 -0.00050260645 0.00063523196 0.0004500186 0.00014444193 -0.00091480353 3.5902187e-05 -0.00041393048 0.00011291821 0.0012478563 0.0013211578 0.0016451348 0.0011330256 0.0012671156 0.0002796799 0.0007319788 -0.000683513 -0.0012135715 -0.0014707106 0.0014480702 0.00020991759 0.0015267866 -0.00055829796 -0.00019332638 -0.0008042395 -0.000144266 0.0005650829 -0.0011816722 0.00057479856 0.00017008613 -0.00094100874 7.327985e-05 0.0016328434 0.00013711858 -0.0014001392 0.000876827 -0.00066463585 -0.00071599736 0.0009378442 -0.001016862 -0.00076920114 0.001274646 0.001273301 -0.0005961094 -7.969801e-05 0.00060083653 0.0009366275 -0.00078959373 -7.533877e-05 8.5830994e-05 -0.00061211566 -0.0015650582 -0.00095851894 0.00024110985 -0.0006909679 0.0009984629 -0.0012181575 0.0007834505 -0.0011364382 -0.00055158697 -0.0014583076 -0.00070813025 0.00022256882 -0.000576237 0.0003779909 -0.00010004497 -0.0003681383 -0.0013514501 -0.0013722279 -0.0005087611 0.0010342927 -0.0003920832 -0.00055211055 -0.0010289474 0.001058945 -0.0014820439 5.687559e-05 -0.000110594316 0.0011616794 -0.0016732649 -0.0005620544 -0.0008808405 0.0007025593 -0.0007935405 3.4437614e-06 0.0013378001 -0.0005768862 0.0013049558 -0.00024202916 -0.0012775419 0.000106833024 -0.00045419205 -0.00012542972 0.00046124097 -0.00026909367 -0.0015201416 -0.00057998125 -0.001347463 -0.0013813163 0.0007910916 0.0015104479 0.0015004968 0.0017043162 -0.0011462993 0.0014657851 -0.0012737626 -0.0007804447 -0.0007558334 -0.0013422926 5.594766e-05 -0.0015443125 0.0014494037 -0.0004271992 -0.00040466286 -2.8829427e-05 -0.0014749357 -0.0010225801 -0.00011817232 -0.0005709031 0.0001969159 0.0009928159 -0.001053075 -0.000497883 0.0013832883 -0.00061024434 -0.0013626873 0.0017224583 0.0016168321 -0.00032916726 -0.0007287078 -0.0007073432 -0.00015765852 0.0010604644 -0.0010188179 0.001376067 -0.001579975
团结 0.00022481492 -0.0008006701 0.00060976343 -0.0003910223 -3.0689025e-05 -0.0007073425 -0.00027820395 -0.00016736296 -0.0010377239 0.0013300859 0.0012931697 -0.00036843342 0.0008052664 0.0005179788 0.0003918342 0.0003187258 -0.0014977417 -0.0012182336 -0.0013559025 -0.0010468723 0.00044975913 0.0007399305 -0.001566519 0.0010689164 9.788776e-05 -0.0016429438 0.00053300016 0.0013547086 -0.00092469336 0.00083473197 0.00043075808 0.0008804041 -0.00058014557 0.00046615567 0.00086330273 0.0014985712 -0.0008368689 -0.0008564929 0.00033624662 0.0011635765 0.0013403 -0.00035620865 -0.0009506776 0.0008634834 0.00052769686 -0.00091264193 0.001229613 6.646992e-05 -4.324094e-06 -0.0015739813 0.0014048959 0.0007171019 0.0009713442 0.0007016441 -0.0008070124 -0.00013713456 -0.0015188458 0.0009150927 -0.0011323446 0.00021288969 0.0007044202 -0.0013244458 0.0014237361 0.0016296487 0.00096149556 0.0005957106 -0.0014363248 -0.001401877 0.0013982763 -0.0003044393 0.0009807757 -0.0005679158 9.54384e-05 0.0002468885 0.0012504992 0.00021282304 -0.00046338263 -0.00033755798 0.0003950456 0.0013144666 0.0011504488 0.00022600284 0.0008816457 0.0007921629 -0.0013437001 0.0013508917 0.00046744774 0.0008367327 -0.0011031238 -0.00040876318 -0.0006996916 0.0016049305 -0.00043466626 -0.001030832 0.0001925635 0.0007357811 -0.00087987777 -0.0005405255 -0.00046923876 -0.00083350326 0.0005433224 0.0003699396 0.0011404129 0.00088414736 0.0012058328 0.0012104742 0.00070328306 0.0015448324 -0.00088583684 0.0011387015 -0.0009359383 0.000876485 -0.0008000596 0.0009733096 0.00036588174 1.01458845e-05 -0.00016671067 0.0001181851 0.00089172565 -0.0011608496 -0.0015485687 0.0012575272 0.0015137328 -0.0014707578 -0.0015196952 -0.0015074043 0.0005264413 -9.423314e-05 -0.0011335574 -0.0005955381 0.0006847365 -0.0003203159 -0.00013694681 0.00041931367 -0.0006631617 0.0007164404 0.0009565317 -0.001281728 0.0014653645 -0.00019782253 -0.00013206083 -0.0006204869 0.001646884 0.0012528785 -0.00090910896 0.0012647349 -0.0005363759 0.0015331719 9.676604e-05 -0.00048487325 -0.0006287949 0.0012099949 -0.0010428489 0.00022016531 0.0013397902 -0.0007642982 0.0010662401 -0.00084373174 -0.0002823998 0.0017003545 0.00060527545 0.0014886749 -0.0013197855 0.0015226242 0.0003184301 9.5338866e-05 1.6429649e-05 -0.0011448947 0.0011373583 -0.0014351025 -0.0013608722 -0.00021356509 -0.0004900515 -0.0007765844 -0.00014760769 -3.0588693e-05 -0.001038288 0.0012999852 -0.00067884877 0.00020090574 -0.00080802094 -0.0010739319 0.00047414456 -0.00035513824 -7.85199e-05 -0.0014271981 -0.00021737667 0.00039488034 -0.00071505335 -0.0013667004 -0.00063806114 -0.00028558605 0.00059113785 -0.000736062 0.00094197894 -0.0010682499 -0.0010013746 0.0009606228 -0.00096486515 -0.00110211 -0.0013996065 0.0013527713 -0.00021666176 0.001257614 0.001082759 -0.0009824836 -0.0015021507 0.00075000623 -0.0001696891 -0.0012705522 0.0014105887 0.0009932555 0.0014788191 0.00058657146 -0.00033363028 0.0011163276 -0.0005563555 0.0013524195 0.0011002576 0.00082810933 0.00034937696 -0.00046535104 -0.0013074937 -0.0008252549 -0.001480554 0.0013065739 0.0010390752 0.00011401479 -0.00035541682 -1.8887376e-05 -0.00030729585 -9.323935e-05 -0.00036275428 0.0011915842 0.0010396537 -0.0004452024 0.00064622523 0.0017015596 0.00044818287 0.001302135 0.0006441753 -0.00011336886 -0.00030467325 1.8534654e-05 -0.0010431362 -0.00045433856 -0.0017058324 0.0004526934 0.0007909276 6.832269e-05 -0.0011447107 -0.00038596836 -0.00018811568 0.001531814 0.00017752587 0.0006433115 -0.0016590535 0.0005796822 -0.0014816113 -0.00032610606 0.0008324401 0.0015865919 -0.00048835616 -0.0013866532 0.0011463176 -0.00031181524 -0.00013287041 0.0015436218 -0.00057026034 -0.0015529799 -0.0009691715 -0.0009650309 -0.00031384674 0.00077119935 0.00072287227 -0.00094685296 0.00065366045 0.0014628092 -9.3069124e-05 -0.0007489402 0.0016597951 0.0013439652 0.0012910631 0.0009497682 -0.00087298406 -0.00097575225 0.0008758192 -0.00084931805 -0.0005257432 0.0015561087 0.0013342935 -0.0004470648 0.0014953552 0.0011398891 -0.00034204806 0.0006963669 -0.00061732635 -0.0005978204 -0.0014206221 0.00037250388
一点 -0.0014298821 -0.000860213 0.0010129977 -0.0010449075 -0.000114567934 0.00049554335 -0.0009603458 0.00074843137 0.0005950475 0.0014980786 -0.0009841443 -0.0014957238 0.0004900868 -0.0009725873 -0.00080373866 -4.189503e-05 -0.0014583088 0.00033570704 -0.0009888089 -0.0015999587 -0.00028152793 -0.0005714636 -0.0011299942 -0.0003076576 -0.0013478394 -0.0012370499 -0.00079389784 -0.0006190523 -0.00041901224 -0.0016912211 0.0006775988 -0.00056907855 -0.00018393833 -0.0007910131 0.00035673365 0.00045379595 0.0013190815 -0.00095045136 -0.00017285623 -0.0009331806 -0.0003794897 2.9369503e-05 -0.00030796605 3.9317485e-05 0.00022644471 -0.0013827217 0.0015594255 0.0015485252 -0.001261766 -0.00038589517 0.0002446933 -0.00023264524 0.0015917284 0.0012302019 -0.0003659274 0.00094557676 0.0012332458 -0.0007961537 0.00023221056 0.0012428022 -0.0011397954 0.00018986032 0.0015783571 -2.9818324e-05 0.0005978541 -0.0013092913 0.00094456994 0.001069865 0.0012524498 -0.00034192178 -0.0005145432 -0.000805941 -0.0002721426 0.00046558605 -0.0016151811 -0.00037069735 -0.0013330488 -0.00027622623 0.00048707254 -0.0011396927 -0.0013479531 -0.0009626953 -0.0016766067 0.0016701211 0.001594625 -0.0007458018 0.00021729515 0.0005921398 0.00063402916 -0.0017623816 0.0013914163 -0.0017449288 0.0011221286 -0.0013877451 -0.00021002721 0.0011803379 -0.0010162162 -0.0012563161 0.00042810256 -0.000487209 0.0006664453 -0.00078933995 -0.0014656953 -0.00080834265 0.0013950636 -0.00022709103 0.0013483036 -0.0012124894 -0.00033185858 -0.0012257462 0.0008065416 -0.0013179942 0.0011962666 0.0005073179 -0.0008091496 -0.0013881582 -0.000534631 -0.0006309371 6.954819e-05 -6.880553e-05 0.0005016633 -0.00018965975 0.000100502104 0.00013438267 -0.0014520151 -0.0013801327 -0.0003560715 0.0007428517 -0.00093529077 0.00019993765 0.0006954148 0.0007035732 0.000434688 8.1682185e-05 0.0009059924 -0.0013573163 -0.00035451667 -0.00036199935 -0.0005930214 -0.0009162345 -2.791953e-05 -0.0006305279 -0.0012648667 -0.00088419626 -0.0012909102 0.00017278243 -0.0005928351 0.0005809254 0.00085467997 0.0003654537 0.0013956578 0.0015672528 0.00029598118 0.001262051 -0.001176053 -0.0015410212 2.2426913e-05 0.00042971486 0.0012528059 0.00047618456 4.9010374e-05 -4.3465254e-05 -0.0016619049 0.0014865608 -0.00015583802 0.0008030752 0.0015006192 0.0010721337 0.0016393795 -0.0006161817 -0.001228889 -0.00013598496 0.0006512849 -0.00043156723 -0.0009981185 0.00027489418 0.0013377304 -0.00017023619 0.0015139368 -0.0005398157 -0.00058119115 0.0003646072 0.0007994447 5.7161677e-05 -0.0017125298 -0.0001196441 0.00047829025 -0.0007624499 0.0008708097 -2.077372e-05 0.000630341 0.0013181019 0.0013571308 0.0014614997 4.151365e-05 0.0012739364 -0.00066599395 -0.0005619207 -0.00013043731 0.00039467917 -0.0008615703 -0.00037452357 -0.0009985283 3.9741764e-05 -0.0013986912 0.0007890717 0.0015320109 -0.00019839892 -0.001473352 -0.0004952513 -0.0006259546 -0.0016015214 -0.0008421732 0.0007053613 0.00055233197 0.0016774462 0.00031726045 -0.0015228188 0.0010513949 0.00059783005 -0.00043611514 -0.0015468032 -0.00045635854 -0.0003626185 0.0010039998 0.0013756338 -0.00067150104 -4.978323e-05 -0.00020821334 0.00040688209 0.0008766846 -0.0008971489 -0.00071029074 -0.00069838326 0.0013887448 0.00060042366 0.0008198947 7.093096e-06 0.00078080635 0.0003776305 -0.00010751376 -0.0009974206 0.0008116179 0.0015970414 7.7465154e-07 -0.0011975191 0.0010825573 0.0010606105 -0.00024250489 -0.0011710995 0.0009651501 0.00083202776 -0.00022192692 -1.3833778e-05 0.000748813 0.0010424701 -0.00021467004 -0.001528509 0.0013595643 0.00046088884 -0.0004435221 -0.0014051322 0.00035137933 0.0010590354 -1.3850643e-05 -0.0005928793 -0.00041771098 -0.000574627 -0.00036879006 0.0006716445 -0.00077650655 -0.0005152926 0.0009514586 -0.000117370924 0.0017247201 0.0009840009 0.00034834936 -0.0012717304 0.0011424584 -0.00024702834 -5.6016463e-05 0.0004532784 0.0018089506 0.00028914263 -0.00068243884 -0.0013427238 0.0012793131 -0.0008173475 -0.00018038267 -0.0007650834 0.0003239216 0.00046172398 -0.0012296642 -0.0014269775 0.0011156801 2.6758198e-06 -0.00044318425 -0.0016466626 0.0006732675 0.00046542377
